{"learner":{"attributes":{"scikit_learn":"{\"_estimator_type\": \"regressor\"}"},"feature_names":[],"feature_types":[],"gradient_booster":{"model":{"gbtree_model_param":{"num_parallel_tree":"1","num_trees":"300"},"iteration_indptr":[0,1,2,3,4,5,6,7,8,9,10,11,12,13,14,15,16,17,18,19,20,21,22,23,24,25,26,27,28,29,30,31,32,33,34,35,36,37,38,39,40,41,42,43,44,45,46,47,48,49,50,51,52,53,54,55,56,57,58,59,60,61,62,63,64,65,66,67,68,69,70,71,72,73,74,75,76,77,78,79,80,81,82,83,84,85,86,87,88,89,90,91,92,93,94,95,96,97,98,99,100,101,102,103,104,105,106,107,108,109,110,111,112,113,114,115,116,117,118,119,120,121,122,123,124,125,126,127,128,129,130,131,132,133,134,135,136,137,138,139,140,141,142,143,144,145,146,147,148,149,150,151,152,153,154,155,156,157,158,159,160,161,162,163,164,165,166,167,168,169,170,171,172,173,174,175,176,177,178,179,180,181,182,183,184,185,186,187,188,189,190,191,192,193,194,195,196,197,198,199,200,201,202,203,204,205,206,207,208,209,210,211,212,213,214,215,216,217,218,219,220,221,222,223,224,225,226,227,228,229,230,231,232,233,234,235,236,237,238,239,240,241,242,243,244,245,246,247,248,249,250,251,252,253,254,255,256,257,258,259,260,261,262,263,264,265,266,267,268,269,270,271,272,273,274,275,276,277,278,279,280,281,282,283,284,285,286,287,288,289,290,291,292,293,294,295,296,297,298,299,300],"tree_info":[0,0,0,0,0,0,0,0,0,0,0,0,0,0,0,0,0,0,0,0,0,0,0,0,0,0,0,0,0,0,0,0,0,0,0,0,0,0,0,0,0,0,0,0,0,0,0,0,0,0,0,0,0,0,0,0,0,0,0,0,0,0,0,0,0,0,0,0,0,0,0,0,0,0,0,0,0,0,0,0,0,0,0,0,0,0,0,0,0,0,0,0,0,0,0,0,0,0,0,0,0,0,0,0,0,0,0,0,0,0,0,0,0,0,0,0,0,0,0,0,0,0,0,0,0,0,0,0,0,0,0,0,0,0,0,0,0,0,0,0,0,0,0,0,0,0,0,0,0,0,0,0,0,0,0,0,0,0,0,0,0,0,0,0,0,0,0,0,0,0,0,0,0,0,0,0,0,0,0,0,0,0,0,0,0,0,0,0,0,0,0,0,0,0,0,0,0,0,0,0,0,0,0,0,0,0,0,0,0,0,0,0,0,0,0,0,0,0,0,0,0,0,0,0,0,0,0,0,0,0,0,0,0,0,0,0,0,0,0,0,0,0,0,0,0,0,0,0,0,0,0,0,0,0,0,0,0,0,0,0,0,0,0,0,0,0,0,0,0,0,0,0,0,0,0,0,0,0,0,0,0,0,0,0,0,0,0,0,0,0,0,0,0,0,0,0,0,0,0,0],"trees":[{"base_weights":[-8.162504E-2,-1.4093795E1,3.7771547E0,-1.6653322E1,-7.7297287E0,-4.4030118E-1,6.9529605E0,-1.9516111E1,-1.2231447E1,-1.3066764E1,-4.493326E0,-3.2946336E0,2.967435E0,5.295048E0,9.933661E0,-2.2977667E1,-1.7554415E1,-9.203365E0,-1.5200148E1,-4.410774E-1,-1.4419782E1,8.1936604E-1,-6.348092E0,-7.706936E0,-2.033406E0,5.4194617E0,6.005147E-1,4.4434905E0,8.6909075E0,8.5309105E0,1.1967251E1,-2.3326645E0,-2.0664369E-1,-1.7830924E0,-2.0251389E-1,-1.0267965E0,-2.8432194E-2,1.7843972E-1,-1.556109E0,-3.362383E-1,1.1298447E-1,-1.6085484E0,-7.45032E-1,5.364422E-1,-4.8267433E-1,-2.0149302E-2,-7.80677E-1,-5.839973E-1,-1.2509153E0,7.887153E-2,-3.8766873E-1,6.6106695E-1,3.0874519E-2,3.6031887E-1,-3.1382987E-1,2.1208861E-1,4.9910203E-1,1.0335003E0,6.07294E-1,7.573002E-1,1.0263451E0,8.432131E-1,1.2473881E0],"categories":[],"categories_nodes":[],"categories_segments":[],"categories_sizes":[],"default_left":[0,0,0,0,0,0,0,0,0,0,0,0,0,0,0,0,0,0,0,0,0,0,0,0,0,0,0,0,0,0,0,0,0,0,0,0,0,0,0,0,0,0,0,0,0,0,0,0,0,0,0,0,0,0,0,0,0,0,0,0,0,0,0],"id":0,"left_children":[1,3,5,7,9,11,13,15,17,19,21,23,25,27,29,31,33,35,37,39,41,43,45,47,49,51,53,55,57,59,61,-1,-1,-1,-1,-1,-1,-1,-1,-1,-1,-1,-1,-1,-1,-1,-1,-1,-1,-1,-1,-1,-1,-1,-1,-1,-1,-1,-1,-1,-1,-1,-1],"loss_changes":[9.440517E4,6.0122266E3,1.8339203E4,3.153875E3,1.841294E3,5.738868E3,3.8068984E3,6.8991406E2,8.309717E2,6.940337E2,6.949675E2,1.7706672E3,1.5579551E3,1.418835E3,6.909375E2,3.531621E2,4.2334766E2,5.288115E2,3.526797E2,2.6744686E1,3.0969287E2,5.134685E2,4.646543E2,5.6350195E2,1.3087502E3,8.015647E2,1.5605563E3,5.0445068E2,3.676548E2,2.0109082E2,9.3618164E1,0E0,0E0,0E0,0E0,0E0,0E0,0E0,0E0,0E0,0E0,0E0,0E0,0E0,0E0,0E0,0E0,0E0,0E0,0E0,0E0,0E0,0E0,0E0,0E0,0E0,0E0,0E0,0E0,0E0,0E0,0E0,0E0],"parents":[2147483647,0,0,1,1,2,2,3,3,4,4,5,5,6,6,7,7,8,8,9,9,10,10,11,11,12,12,13,13,14,14,15,15,16,16,17,17,18,18,19,19,20,20,21,21,22,22,23,23,24,24,25,25,26,26,27,27,28,28,29,29,30,30],"right_children":[2,4,6,8,10,12,14,16,18,20,22,24,26,28,30,32,34,36,38,40,42,44,46,48,50,52,54,56,58,60,62,-1,-1,-1,-1,-1,-1,-1,-1,-1,-1,-1,-1,-1,-1,-1,-1,-1,-1,-1,-1,-1,-1,-1,-1,-1,-1,-1,-1,-1,-1,-1,-1],"split_conditions":[-6.8044966E-1,-6.307577E-1,3.1738433E-1,-1.4299155E0,-1.6857446E0,-3.9257556E-1,9.0707976E-1,-2.292603E0,-8.8899684E-1,-1.0852276E0,-1.0042033E0,-9.591983E-1,3.332628E-2,9.801056E-1,1.0989708E0,-7.0910543E-1,-1.1698401E0,1.258751E0,-1.0536625E0,7.408256E-1,-1.6489811E0,1.3766986E0,-4.5076966E-1,7.408256E-1,3.332628E-2,4.426588E-2,7.408256E-1,-6.0819304E-1,3.332628E-2,8.167191E-2,1.0673562E0,-2.3326645E0,-2.0664369E-1,-1.7830924E0,-2.0251389E-1,-1.0267965E0,-2.8432194E-2,1.7843972E-1,-1.556109E0,-3.362383E-1,1.1298447E-1,-1.6085484E0,-7.45032E-1,5.364422E-1,-4.8267433E-1,-2.0149302E-2,-7.80677E-1,-5.839973E-1,-1.2509153E0,7.887153E-2,-3.8766873E-1,6.6106695E-1,3.0874519E-2,3.6031887E-1,-3.1382987E-1,2.1208861E-1,4.9910203E-1,1.0335003E0,6.07294E-1,7.573002E-1,1.0263451E0,8.432131E-1,1.2473881E0],"split_indices":[12,4,12,15,15,4,12,15,7,7,7,4,1,4,6,10,12,1,3,0,12,11,3,1,1,14,0,4,1,5,15,0,0,0,0,0,0,0,0,0,0,0,0,0,0,0,0,0,0,0,0,0,0,0,0,0,0,0,0,0,0,0,0],"split_type":[0,0,0,0,0,0,0,0,0,0,0,0,0,0,0,0,0,0,0,0,0,0,0,0,0,0,0,0,0,0,0,0,0,0,0,0,0,0,0,0,0,0,0,0,0,0,0,0,0,0,0,0,0,0,0,0,0,0,0,0,0,0,0],"sum_hessian":[1.744E3,3.76E2,1.368E3,2.67E2,1.09E2,5.88E2,7.8E2,1.6E2,1.07E2,4E1,6.9E1,3.2E2,2.68E2,5.03E2,2.77E2,5.4E1,1.06E2,5.5E1,5.2E1,4E0,3.6E1,1.8E1,5.1E1,7E1,2.5E2,1.31E2,1.37E2,4.04E2,9.9E1,1.67E2,1.1E2,5.3E1,1E0,1.04E2,2E0,4.9E1,6E0,1E0,5.1E1,1E0,3E0,2.8E1,8E0,1E1,8E0,1E1,4.1E1,5.2E1,1.8E1,9.9E1,1.51E2,1.06E2,2.5E1,7.6E1,6.1E1,7.8E1,3.26E2,5.9E1,4E1,1.11E2,5.6E1,1.6E1,9.4E1],"tree_param":{"num_deleted":"0","num_feature":"16","num_nodes":"63","size_leaf_vector":"1"}},{"base_weights":[-2.146927E-2,-1.2017545E1,3.4302056E0,-1.7445768E1,-8.6930065E0,5.1882917E-1,7.1661677E0,-2.066745E1,-1.38475485E1,-1.124008E1,-3.768273E0,-1.9337776E0,3.2722645E0,5.4469347E0,9.205074E0,-2.107835E1,-3.779728E0,-1.4710753E1,-5.103066E0,-8.329356E0,-1.3940167E1,-6.027762E0,2.891681E-1,-4.1462584E0,1.8068843E-1,5.3658366E0,1.3403227E0,9.17393E0,4.7116923E0,8.346533E0,1.181126E0,-2.1672945E0,-1.353815E0,-4.0987015E-2,-5.259722E-1,-1.6755793E0,-1.0247821E0,-8.2922727E-1,1.592083E-2,-1.0296081E0,2.4475577E-1,-1.4610918E0,-6.9507307E-1,-3.9704546E-1,-1.0271876E0,6.8115824E-1,-6.529328E-2,-1.4179E-1,-5.6846225E-1,4.5937547E-1,-9.437326E-2,6.5124786E-1,7.24244E-2,3.3265218E-1,-1.73761E-1,1.1048133E0,6.1160105E-1,1.2990057E-1,5.3496164E-1,7.8699297E-1,1.0967646E0],"categories":[],"categories_nodes":[],"categories_segments":[],"categories_sizes":[],"default_left":[0,0,0,0,0,0,0,0,0,0,0,0,0,0,0,0,0,0,0,0,0,0,0,0,0,0,0,0,0,0,0,0,0,0,0,0,0,0,0,0,0,0,0,0,0,0,0,0,0,0,0,0,0,0,0,0,0,0,0,0,0],"id":1,"left_children":[1,3,5,7,9,11,13,15,17,19,21,23,25,27,29,31,33,35,37,39,41,43,45,47,49,51,53,55,57,59,-1,-1,-1,-1,-1,-1,-1,-1,-1,-1,-1,-1,-1,-1,-1,-1,-1,-1,-1,-1,-1,-1,-1,-1,-1,-1,-1,-1,-1,-1,-1],"loss_changes":[7.171597E4,6.8322773E3,1.4625568E4,1.4062852E3,2.993211E3,5.11842E3,2.0145156E3,4.4076758E2,4.6840527E2,1.133502E3,7.718335E2,1.8767133E3,1.4367515E3,8.391338E2,5.010703E2,3.3873047E1,1.2806305E1,4.2153613E2,1.3558002E2,1.6996221E3,2.7818457E2,4.3071423E2,1.9493546E2,8.145928E2,1.026537E3,9.053872E2,1.1489838E3,2.304497E2,5.8302637E2,1.6977734E2,0E0,0E0,0E0,0E0,0E0,0E0,0E0,0E0,0E0,0E0,0E0,0E0,0E0,0E0,0E0,0E0,0E0,0E0,0E0,0E0,0E0,0E0,0E0,0E0,0E0,0E0,0E0,0E0,0E0,0E0,0E0],"parents":[2147483647,0,0,1,1,2,2,3,3,4,4,5,5,6,6,7,7,8,8,9,9,10,10,11,11,12,12,13,13,14,14,15,15,16,16,17,17,18,18,19,19,20,20,21,21,22,22,23,23,24,24,25,25,26,26,27,27,28,28,29,29],"right_children":[2,4,6,8,10,12,14,16,18,20,22,24,26,28,30,32,34,36,38,40,42,44,46,48,50,52,54,56,58,60,-1,-1,-1,-1,-1,-1,-1,-1,-1,-1,-1,-1,-1,-1,-1,-1,-1,-1,-1,-1,-1,-1,-1,-1,-1,-1,-1,-1,-1,-1,-1],"split_conditions":[-6.1934376E-1,-1.7203166E0,5.4572827E-1,1.4268041E0,-6.382792E-1,-2.8476682E-1,9.0707976E-1,5.833675E-1,-7.0178187E-1,-9.32041E-1,-6.916849E-1,-1.547005E-2,3.332628E-2,2.4402718E-1,1.2623781E0,-1.7810696E0,3.332628E-2,1.258751E0,1.258751E0,1.258751E0,-2.6921332E-1,-6.1694795E-1,3.332628E-2,3.332628E-2,-1.6715269E-1,2.3477882E-1,7.408256E-1,3.332628E-2,2.2257291E-1,2.139599E0,1.181126E0,-2.1672945E0,-1.353815E0,-4.0987015E-2,-5.259722E-1,-1.6755793E0,-1.0247821E0,-8.2922727E-1,1.592083E-2,-1.0296081E0,2.4475577E-1,-1.4610918E0,-6.9507307E-1,-3.9704546E-1,-1.0271876E0,6.8115824E-1,-6.529328E-2,-1.4179E-1,-5.6846225E-1,4.5937547E-1,-9.437326E-2,6.5124786E-1,7.24244E-2,3.3265218E-1,-1.73761E-1,1.1048133E0,6.1160105E-1,1.2990057E-1,5.3496164E-1,7.8699297E-1,1.0967646E0],"split_indices":[12,12,12,8,4,4,12,7,10,7,13,12,1,9,6,12,0,1,0,1,15,9,0,1,9,11,0,1,6,13,0,0,0,0,0,0,0,0,0,0,0,0,0,0,0,0,0,0,0,0,0,0,0,0,0,0,0,0,0,0,0],"split_type":[0,0,0,0,0,0,0,0,0,0,0,0,0,0,0,0,0,0,0,0,0,0,0,0,0,0,0,0,0,0,0,0,0,0,0,0,0,0,0,0,0,0,0,0,0,0,0,0,0,0,0,0,0,0,0,0,0,0,0,0,0],"sum_hessian":[1.73E3,3.86E2,1.344E3,1.45E2,2.41E2,7.56E2,5.88E2,7.4E1,7.1E1,1.58E2,8.3E1,4E2,3.56E2,3.21E2,2.67E2,7.2E1,2E0,6.4E1,7E0,7.8E1,8E1,5.3E1,3E1,1.95E2,2.05E2,1.7E2,1.86E2,5.1E1,2.7E2,2.04E2,6.3E1,6.5E1,7E0,1E0,1E0,4.2E1,2.2E1,4E0,3E0,6.6E1,1.2E1,7.2E1,8E0,3.7E1,1.6E1,3E0,2.7E1,7.1E1,1.24E2,4.1E1,1.64E2,1.36E2,3.4E1,1.13E2,7.3E1,3E1,2.1E1,4.3E1,2.27E2,1.76E2,2.8E1],"tree_param":{"num_deleted":"0","num_feature":"16","num_nodes":"61","size_leaf_vector":"1"}},{"base_weights":[-8.99048E-2,-1.0776153E1,3.1731403E0,-1.5550598E1,-8.059047E0,5.386345E-1,6.4071107E0,-1.6986176E1,-9.769747E0,-1.014165E1,-3.1497176E0,-3.5916471E0,2.0072017E0,4.878975E0,8.059278E0,-1.7434284E1,-6.014499E0,-2.5051167E0,-1.4226087E1,-7.1428576E0,-1.2314118E1,1.210849E0,-4.6742377E0,-5.039523E0,-1.2485725E-1,4.475065E0,9.654147E-2,7.646998E0,4.2199135E0,7.2093787E0,1.0339273E0,-1.7786207E0,-1.0767974E0,-1.5736364E-1,-7.8415215E-1,-6.832966E-1,3.682869E-1,-1.5782868E0,-8.222583E-1,-8.4640837E-1,1.6740747E-1,-1.4625926E0,-8.3073723E-1,7.1980834E-1,-1.1100419E-1,-2.9382786E-1,-9.4547695E-1,-3.600945E-1,-7.9002297E-1,-6.7942154E-1,7.92993E-2,2.456322E-1,6.45556E-1,2.547141E-1,-3.0365297E-1,5.4353964E-1,9.984934E-1,-8.920406E-2,4.739506E-1,5.05051E-1,7.6318717E-1],"categories":[],"categories_nodes":[],"categories_segments":[],"categories_sizes":[],"default_left":[0,0,0,0,0,0,0,0,0,0,0,0,0,0,0,0,0,0,0,0,0,0,0,0,0,0,0,0,0,0,0,0,0,0,0,0,0,0,0,0,0,0,0,0,0,0,0,0,0,0,0,0,0,0,0,0,0,0,0,0,0],"id":2,"left_children":[1,3,5,7,9,11,13,15,17,19,21,23,25,27,29,31,33,35,37,39,41,43,45,47,49,51,53,55,57,59,-1,-1,-1,-1,-1,-1,-1,-1,-1,-1,-1,-1,-1,-1,-1,-1,-1,-1,-1,-1,-1,-1,-1,-1,-1,-1,-1,-1,-1,-1,-1],"loss_changes":[5.962653E4,5.063746E3,1.1157637E4,1.0290859E3,2.5956719E3,4.3926353E3,1.4452227E3,4.55625E2,9.679458E2,1.0847031E3,5.241861E2,9.53072E2,2.517511E3,5.296138E2,4.699707E2,6.419531E1,3.6341644E1,3.7331366E2,4.780078E1,9.2280444E2,8.3256836E2,2.9980023E2,4.5355005E2,5.230088E2,3.5431165E2,9.1570215E2,2.3264612E3,2.4562183E2,6.709165E2,1.5117383E2,0E0,0E0,0E0,0E0,0E0,0E0,0E0,0E0,0E0,0E0,0E0,0E0,0E0,0E0,0E0,0E0,0E0,0E0,0E0,0E0,0E0,0E0,0E0,0E0,0E0,0E0,0E0,0E0,0E0,0E0,0E0],"parents":[2147483647,0,0,1,1,2,2,3,3,4,4,5,5,6,6,7,7,8,8,9,9,10,10,11,11,12,12,13,13,14,14,15,15,16,16,17,17,18,18,19,19,20,20,21,21,22,22,23,23,24,24,25,25,26,26,27,27,28,28,29,29],"right_children":[2,4,6,8,10,12,14,16,18,20,22,24,26,28,30,32,34,36,38,40,42,44,46,48,50,52,54,56,58,60,-1,-1,-1,-1,-1,-1,-1,-1,-1,-1,-1,-1,-1,-1,-1,-1,-1,-1,-1,-1,-1,-1,-1,-1,-1,-1,-1,-1,-1,-1,-1],"split_conditions":[-5.162297E-1,-1.7203166E0,5.4572827E-1,-4.8534125E-1,-5.216954E-1,-7.511023E-1,9.0707976E-1,-7.0910543E-1,-1.1958249E0,-9.586271E-1,8.451369E-2,7.248155E-2,3.332628E-2,3.3111662E-1,1.3176578E0,-1.2243919E0,-9.328729E-1,-1.005534E0,7.408256E-1,1.258751E0,-9.5917714E-1,-9.852132E-1,-6.4515877E-1,7.408256E-1,-9.842701E-1,7.408256E-1,7.408256E-1,7.408256E-1,1.362037E-1,-4.4397277E-1,1.0339273E0,-1.7786207E0,-1.0767974E0,-1.5736364E-1,-7.8415215E-1,-6.832966E-1,3.682869E-1,-1.5782868E0,-8.222583E-1,-8.4640837E-1,1.6740747E-1,-1.4625926E0,-8.3073723E-1,7.1980834E-1,-1.1100419E-1,-2.9382786E-1,-9.4547695E-1,-3.600945E-1,-7.9002297E-1,-6.7942154E-1,7.92993E-2,2.456322E-1,6.45556E-1,2.547141E-1,-3.0365297E-1,5.4353964E-1,9.984934E-1,-8.920406E-2,4.739506E-1,5.05051E-1,7.6318717E-1],"split_indices":[15,12,12,4,4,4,12,10,6,7,14,12,1,9,12,6,4,10,0,1,6,7,9,1,4,0,0,0,6,4,0,0,0,0,0,0,0,0,0,0,0,0,0,0,0,0,0,0,0,0,0,0,0,0,0,0,0,0,0,0,0],"split_type":[0,0,0,0,0,0,0,0,0,0,0,0,0,0,0,0,0,0,0,0,0,0,0,0,0,0,0,0,0,0,0,0,0,0,0,0,0,0,0,0,0,0,0,0,0,0,0,0,0,0,0,0,0,0,0,0,0,0,0,0,0],"sum_hessian":[1.708E3,3.99E2,1.309E3,1.43E2,2.56E2,7.22E2,5.87E2,1.13E2,3E1,1.79E2,7.7E1,1.89E2,5.33E2,3.07E2,2.8E2,1.08E2,5E0,1.2E1,1.8E1,7.7E1,1.02E2,2E1,5.7E1,1.33E2,5.6E1,2.32E2,3.01E2,5.7E1,2.5E2,2.07E2,7.3E1,1.01E2,7E0,2E0,3E0,7E0,5E0,1.3E1,5E0,6.7E1,1E1,6.3E1,3.9E1,5E0,1.5E1,4.3E1,1.4E1,9E1,4.3E1,6E0,5E1,1.16E2,1.16E2,1.69E2,1.32E2,3.1E1,2.6E1,2.3E1,2.27E2,3.6E1,1.71E2],"tree_param":{"num_deleted":"0","num_feature":"16","num_nodes":"61","size_leaf_vector":"1"}},{"base_weights":[-9.5166065E-2,-9.981188E0,2.6239178E0,-1.3143472E1,-7.174758E0,2.1765877E-1,5.8564467E0,-1.3702267E1,3.7386227E-1,-8.350274E0,-3.0953798E0,-2.5253046E0,2.156181E0,4.3422713E0,7.345637E0,-1.180493E1,-1.6244106E1,3.246287E0,-5.495608E-1,-5.707283E0,-1.0579215E1,-6.528128E0,-3.1082082E-1,-4.955123E0,-1.2933168E0,4.254116E0,3.276261E-1,5.138871E0,2.0305698E0,6.84197E0,1.0138243E1,-4.120682E-1,-1.331102E0,-1.0526166E0,-1.899855E0,5.666771E-2,5.737005E-1,-6.793004E-1,-9.839132E-2,-1.1736531E0,-3.954309E-1,-3.7653062E-1,-1.054705E0,6.5864336E-1,-1.1260585E-1,-3.48991E-1,-8.927272E-1,9.818258E-2,-2.7438316E-1,2.2937465E-1,5.558445E-1,2.0521204E-1,-1.9427983E-1,4.1358295E-1,7.2906417E-1,-2.8952488E-1,2.984494E-1,7.8335774E-1,5.8280724E-1,4.7671708E-1,1.0566887E0],"categories":[],"categories_nodes":[],"categories_segments":[],"categories_sizes":[],"default_left":[0,0,0,0,0,0,0,0,0,0,0,0,0,0,0,0,0,0,0,0,0,0,0,0,0,0,0,0,0,0,0,0,0,0,0,0,0,0,0,0,0,0,0,0,0,0,0,0,0,0,0,0,0,0,0,0,0,0,0,0,0],"id":3,"left_children":[1,3,5,7,9,11,13,15,17,19,21,23,25,27,29,31,33,35,-1,37,39,41,43,45,47,49,51,53,55,57,59,-1,-1,-1,-1,-1,-1,-1,-1,-1,-1,-1,-1,-1,-1,-1,-1,-1,-1,-1,-1,-1,-1,-1,-1,-1,-1,-1,-1,-1,-1],"loss_changes":[4.722909E4,3.2692227E3,1.0717225E4,1.3420781E3,9.4761426E2,4.211426E3,1.2939824E3,6.281035E2,1.5271722E2,8.6451953E2,4.472294E2,9.754617E2,1.7785981E3,5.309663E2,3.4556543E2,1.1140391E3,9.0250195E2,3.679388E1,0E0,3.7280762E2,5.976279E2,1.9346198E2,1.5923505E2,6.090493E2,7.25422E2,5.395552E2,9.789051E2,4.4035986E2,3.7045288E2,2.0870898E2,4.8623535E1,0E0,0E0,0E0,0E0,0E0,0E0,0E0,0E0,0E0,0E0,0E0,0E0,0E0,0E0,0E0,0E0,0E0,0E0,0E0,0E0,0E0,0E0,0E0,0E0,0E0,0E0,0E0,0E0,0E0,0E0],"parents":[2147483647,0,0,1,1,2,2,3,3,4,4,5,5,6,6,7,7,8,8,9,9,10,10,11,11,12,12,13,13,14,14,15,15,16,16,17,17,19,19,20,20,21,21,22,22,23,23,24,24,25,25,26,26,27,27,28,28,29,29,30,30],"right_children":[2,4,6,8,10,12,14,16,18,20,22,24,26,28,30,32,34,36,-1,38,40,42,44,46,48,50,52,54,56,58,60,-1,-1,-1,-1,-1,-1,-1,-1,-1,-1,-1,-1,-1,-1,-1,-1,-1,-1,-1,-1,-1,-1,-1,-1,-1,-1,-1,-1,-1,-1],"split_conditions":[-6.8044966E-1,-1.3992251E0,5.4572827E-1,-4.8534125E-1,-5.792271E-1,-5.066523E-1,8.017383E-1,-9.143169E-1,1.8173668E0,-8.8899684E-1,-3.9884353E-1,-9.0278673E-1,3.332628E-2,9.097665E-1,1.3621302E0,8.4975606E-1,3.332628E-2,-9.732005E-1,-5.495608E-1,-9.029003E-1,5.538849E-1,-3.475332E-2,-1.6142266E0,7.408256E-1,3.332628E-2,-4.2788737E-2,7.408256E-1,8.467718E-1,2.2257291E-1,3.332628E-2,6.541492E-1,-4.120682E-1,-1.331102E0,-1.0526166E0,-1.899855E0,5.666771E-2,5.737005E-1,-6.793004E-1,-9.839132E-2,-1.1736531E0,-3.954309E-1,-3.7653062E-1,-1.054705E0,6.5864336E-1,-1.1260585E-1,-3.48991E-1,-8.927272E-1,9.818258E-2,-2.7438316E-1,2.2937465E-1,5.558445E-1,2.0521204E-1,-1.9427983E-1,4.1358295E-1,7.2906417E-1,-2.8952488E-1,2.984494E-1,7.8335774E-1,5.8280724E-1,4.7671708E-1,1.0566887E0],"split_indices":[12,6,12,4,13,4,6,7,8,7,4,4,1,9,6,11,1,13,0,12,4,13,15,1,1,2,0,12,6,1,15,0,0,0,0,0,0,0,0,0,0,0,0,0,0,0,0,0,0,0,0,0,0,0,0,0,0,0,0,0,0],"split_type":[0,0,0,0,0,0,0,0,0,0,0,0,0,0,0,0,0,0,0,0,0,0,0,0,0,0,0,0,0,0,0,0,0,0,0,0,0,0,0,0,0,0,0,0,0,0,0,0,0,0,0,0,0,0,0,0,0,0,0,0,0],"sum_hessian":[1.755E3,3.78E2,1.377E3,1.76E2,2.02E2,7.9E2,5.87E2,1.69E2,7E0,1.56E2,4.6E1,3.27E2,4.63E2,2.93E2,2.94E2,1E2,6.9E1,5E0,2E0,7.3E1,8.3E1,2E1,2.6E1,1.09E2,2.18E2,2.15E2,2.48E2,2.17E2,7.6E1,2.52E2,4.2E1,1.7E1,8.3E1,2.4E1,4.5E1,3E0,2E0,5.9E1,1.4E1,7E1,1.3E1,1.3E1,7E0,2E0,2.4E1,8.1E1,2.8E1,8.5E1,1.33E2,8.7E1,1.28E2,1.41E2,1.07E2,1.5E2,6.7E1,1.2E1,6.4E1,1.24E2,1.28E2,4E0,3.8E1],"tree_param":{"num_deleted":"0","num_feature":"16","num_nodes":"61","size_leaf_vector":"1"}},{"base_weights":[-1.631316E-1,-9.054208E0,2.6705596E0,-1.2849456E1,-6.483255E0,-1.0555677E-1,4.663436E0,-1.4374902E1,-8.9313965E0,-7.9796915E0,-3.484596E0,-1.7962856E0,2.4812E0,3.5456047E0,7.204009E0,-1.8664522E0,-1.3108074E1,-1.0468457E1,-7.6606965E-1,-8.385573E0,-1.4243299E0,1.039363E0,-5.8044934E0,6.88447E-1,-3.2975523E0,5.8943768E0,1.4886452E0,5.70426E0,2.84036E0,6.6550283E0,9.7001886E-1,-1.3998201E0,-6.894611E-1,-1.1396466E0,1.1967526E-1,-4.1391402E-1,1.6103224E-1,-6.327328E-1,-1.0123464E0,9.537827E-2,-2.919506E-1,-6.17052E-1,4.423147E-1,-8.7577295E-1,-2.433009E-1,-8.871618E-2,4.855395E-1,-6.245611E-2,-5.3536344E-1,3.5128024E-1,7.704815E-1,5.121853E-2,4.211351E-1,2.9122707E-1,6.8137574E-1,1.2050587E-1,3.7345523E-1,5.650964E-1,7.887925E-1],"categories":[],"categories_nodes":[],"categories_segments":[],"categories_sizes":[],"default_left":[0,0,0,0,0,0,0,0,0,0,0,0,0,0,0,0,0,0,0,0,0,0,0,0,0,0,0,0,0,0,0,0,0,0,0,0,0,0,0,0,0,0,0,0,0,0,0,0,0,0,0,0,0,0,0,0,0,0,0],"id":4,"left_children":[1,3,5,7,9,11,13,15,17,19,21,23,25,27,29,-1,31,33,35,37,39,41,43,45,47,49,51,53,55,57,-1,-1,-1,-1,-1,-1,-1,-1,-1,-1,-1,-1,-1,-1,-1,-1,-1,-1,-1,-1,-1,-1,-1,-1,-1,-1,-1,-1,-1],"loss_changes":[4.3887918E4,4.0245625E3,7.308868E3,8.8168945E2,1.1074814E3,2.423005E3,2.1583652E3,4.0744922E2,6.195105E2,4.350537E2,9.086134E2,1.2519031E3,7.33146E2,7.9979346E2,2.5610742E2,0E0,4.344414E2,4.6830664E2,7.880699E1,5.011123E2,4.1897247E1,7.591937E2,5.462294E2,8.381234E2,1.1452969E3,1.842074E2,4.524659E2,3.8595605E2,5.891826E2,1.9681836E2,0E0,0E0,0E0,0E0,0E0,0E0,0E0,0E0,0E0,0E0,0E0,0E0,0E0,0E0,0E0,0E0,0E0,0E0,0E0,0E0,0E0,0E0,0E0,0E0,0E0,0E0,0E0,0E0,0E0],"parents":[2147483647,0,0,1,1,2,2,3,3,4,4,5,5,6,6,7,7,8,8,9,9,10,10,11,11,12,12,13,13,14,14,16,16,17,17,18,18,19,19,20,20,21,21,22,22,23,23,24,24,25,25,26,26,27,27,28,28,29,29],"right_children":[2,4,6,8,10,12,14,16,18,20,22,24,26,28,30,-1,32,34,36,38,40,42,44,46,48,50,52,54,56,58,-1,-1,-1,-1,-1,-1,-1,-1,-1,-1,-1,-1,-1,-1,-1,-1,-1,-1,-1,-1,-1,-1,-1,-1,-1,-1,-1,-1,-1],"split_conditions":[-5.162297E-1,-1.4349567E0,3.3778223E-1,1.6312628E0,-8.4913677E-1,-2.496663E-1,1.0116786E0,-2.5137713E0,1.258751E0,3.557545E-1,-9.1328263E-1,3.332628E-2,-7.240883E-1,2.9470852E-1,1.3621302E0,-1.8664522E0,1.258751E0,-1.2511989E0,-1.3697718E0,-8.244305E-1,1.3231584E0,-6.7417306E-1,-5.468871E-1,1.258751E0,3.332628E-2,-3.7082797E-1,2.7515507E-1,-6.7417306E-1,4.2943698E-1,-1.1237357E-2,9.7001886E-1,-1.3998201E0,-6.894611E-1,-1.1396466E0,1.1967526E-1,-4.1391402E-1,1.6103224E-1,-6.327328E-1,-1.0123464E0,9.537827E-2,-2.919506E-1,-6.17052E-1,4.423147E-1,-8.7577295E-1,-2.433009E-1,-8.871618E-2,4.855395E-1,-6.245611E-2,-5.3536344E-1,3.5128024E-1,7.704815E-1,5.121853E-2,4.211351E-1,2.9122707E-1,6.8137574E-1,1.2050587E-1,3.7345523E-1,5.650964E-1,7.887925E-1],"split_indices":[15,6,12,8,15,4,12,12,1,6,9,1,9,9,6,0,1,12,13,7,11,0,6,0,0,10,13,0,6,5,0,0,0,0,0,0,0,0,0,0,0,0,0,0,0,0,0,0,0,0,0,0,0,0,0,0,0,0,0],"split_type":[0,0,0,0,0,0,0,0,0,0,0,0,0,0,0,0,0,0,0,0,0,0,0,0,0,0,0,0,0,0,0,0,0,0,0,0,0,0,0,0,0,0,0,0,0,0,0,0,0,0,0,0,0,0,0,0,0,0,0],"sum_hessian":[1.74E3,4.2E2,1.32E3,1.68E2,2.52E2,5.52E2,7.68E2,1.19E2,4.9E1,1.67E2,8.5E1,3.34E2,2.18E2,5.35E2,2.33E2,2.4E1,9.5E1,4.1E1,8E0,1.57E2,1E1,2.9E1,5.6E1,1.26E2,2.08E2,4.8E1,1.7E2,1.3E2,4.05E2,1.94E2,3.9E1,8.2E1,1.3E1,3.8E1,3E0,3E0,5E0,7.4E1,8.3E1,4E0,6E0,9E0,2E1,2.9E1,2.7E1,9.2E1,3.4E1,9.1E1,1.17E2,2.2E1,2.6E1,1.26E2,4.4E1,3.8E1,9.2E1,1.44E2,2.61E2,1.1E2,8.4E1],"tree_param":{"num_deleted":"0","num_feature":"16","num_nodes":"59","size_leaf_vector":"1"}},{"base_weights":[-5.4343626E-2,-7.7341895E0,2.31926E0,-1.0372437E1,-4.447927E0,3.3405352E-1,4.548176E0,-1.1571193E1,-6.046479E0,9.378988E-1,-5.48304E0,-1.8763936E0,2.0005724E0,3.379311E0,6.0520687E0,-1.2606529E1,-8.303664E0,1.8432336E-1,-9.350561E0,2.3506813E0,-6.8787065E0,-6.317403E0,1.3110646E0,-3.8548007E0,-5.14769E-1,1.3156507E0,5.116301E0,5.578067E0,2.769122E0,5.375646E0,7.586828E0,-1.4439566E0,-1.0244945E0,2.7859194E-2,-9.127656E-1,-5.499155E-1,1.5936728E-1,-1.1530478E0,-4.9421975E-1,3.5780168E-1,-3.7651986E-1,2.1312714E-2,-8.7049466E-1,-4.2663184E-1,-7.3080987E-1,3.5162714E-1,-8.456135E-3,-4.8904848E-1,7.07474E-2,5.0926584E-1,-9.7352915E-2,2.4623136E-1,-6.4447164E-3,5.332881E-1,-1.714859E-1,3.3184347E-1,6.6649693E-1,1.4077447E-1,3.4604827E-1,2.2461689E-1,5.8017355E-1,6.6310555E-1,8.680836E-1],"categories":[],"categories_nodes":[],"categories_segments":[],"categories_sizes":[],"default_left":[0,0,0,0,0,0,0,0,0,0,0,0,0,0,0,0,0,0,0,0,0,0,0,0,0,0,0,0,0,0,0,0,0,0,0,0,0,0,0,0,0,0,0,0,0,0,0,0,0,0,0,0,0,0,0,0,0,0,0,0,0,0,0],"id":5,"left_children":[1,3,5,7,9,11,13,15,17,19,21,23,25,27,29,31,33,35,37,39,41,43,45,47,49,51,53,55,57,59,61,-1,-1,-1,-1,-1,-1,-1,-1,-1,-1,-1,-1,-1,-1,-1,-1,-1,-1,-1,-1,-1,-1,-1,-1,-1,-1,-1,-1,-1,-1,-1,-1],"loss_changes":[3.2119045E4,3.5605742E3,5.9543394E3,1.1227617E3,1.0476553E3,2.6302688E3,1.0940234E3,5.00875E2,1.0722517E3,3.585077E2,8.9827637E2,8.25027E2,8.618187E2,4.6620898E2,2.4574414E2,4.321328E2,3.278413E2,1.6095398E2,2.697495E2,2.1614035E2,6.661221E1,2.5330127E2,5.569493E1,5.9409424E2,4.7571866E2,5.3029865E2,1.17148315E2,1.6699463E2,2.6148853E2,2.4698828E2,2.8177734E1,0E0,0E0,0E0,0E0,0E0,0E0,0E0,0E0,0E0,0E0,0E0,0E0,0E0,0E0,0E0,0E0,0E0,0E0,0E0,0E0,0E0,0E0,0E0,0E0,0E0,0E0,0E0,0E0,0E0,0E0,0E0,0E0],"parents":[2147483647,0,0,1,1,2,2,3,3,4,4,5,5,6,6,7,7,8,8,9,9,10,10,11,11,12,12,13,13,14,14,15,15,16,16,17,17,18,18,19,19,20,20,21,21,22,22,23,23,24,24,25,25,26,26,27,27,28,28,29,29,30,30],"right_children":[2,4,6,8,10,12,14,16,18,20,22,24,26,28,30,32,34,36,38,40,42,44,46,48,50,52,54,56,58,60,62,-1,-1,-1,-1,-1,-1,-1,-1,-1,-1,-1,-1,-1,-1,-1,-1,-1,-1,-1,-1,-1,-1,-1,-1,-1,-1,-1,-1,-1,-1,-1,-1],"split_conditions":[-5.162297E-1,-1.3550736E0,4.9490583E-1,-5.1166666E-1,-1.354008E0,-4.928628E-1,9.0707976E-1,1.8438466E0,-1.1958249E0,2.1740396E0,4.4792214E-1,-1.9187556E-1,1.1104789E0,3.3111662E-1,1.2561132E0,-1.9492676E0,1.6014588E0,-3.3789468E-1,-1.6489811E0,-8.8899684E-1,3.332628E-2,-9.42169E-1,-5.2685983E-2,1.258751E0,-9.243432E-1,1.7980972E-1,8.674449E-1,-6.7417306E-1,-5.9032726E-1,-4.4397277E-1,1.9070919E0,-1.4439566E0,-1.0244945E0,2.7859194E-2,-9.127656E-1,-5.499155E-1,1.5936728E-1,-1.1530478E0,-4.9421975E-1,3.5780168E-1,-3.7651986E-1,2.1312714E-2,-8.7049466E-1,-4.2663184E-1,-7.3080987E-1,3.5162714E-1,-8.456135E-3,-4.8904848E-1,7.07474E-2,5.0926584E-1,-9.7352915E-2,2.4623136E-1,-6.4447164E-3,5.332881E-1,-1.714859E-1,3.3184347E-1,6.6649693E-1,1.4077447E-1,3.4604827E-1,2.2461689E-1,5.8017355E-1,6.6310555E-1,8.680836E-1],"split_indices":[15,12,12,4,9,4,12,5,6,8,6,12,4,9,12,6,11,3,12,7,1,7,14,1,6,9,9,0,14,4,13,0,0,0,0,0,0,0,0,0,0,0,0,0,0,0,0,0,0,0,0,0,0,0,0,0,0,0,0,0,0,0,0],"split_type":[0,0,0,0,0,0,0,0,0,0,0,0,0,0,0,0,0,0,0,0,0,0,0,0,0,0,0,0,0,0,0,0,0,0,0,0,0,0,0,0,0,0,0,0,0,0,0,0,0,0,0,0,0,0,0,0,0,0,0,0,0,0,0],"sum_hessian":[1.76E3,4.15E2,1.345E3,2.29E2,1.86E2,7.12E2,6.33E2,1.78E2,5.1E1,3E1,1.56E2,3.06E2,4.06E2,3.58E2,2.75E2,1.33E2,4.5E1,1.8E1,3.3E1,2.6E1,4E0,1.39E2,1.7E1,1.24E2,1.82E2,3.34E2,7.2E1,7.6E1,2.82E2,1.94E2,8.1E1,7.2E1,6.1E1,4E0,4.1E1,3E0,1.5E1,2.1E1,1.2E1,2.2E1,4E0,1E0,3E0,4.7E1,9.2E1,6E0,1.1E1,1.01E2,2.3E1,1.3E1,1.69E2,1.82E2,1.52E2,7E1,2E0,2.6E1,5E1,9.6E1,1.86E2,2.4E1,1.7E2,4.7E1,3.4E1],"tree_param":{"num_deleted":"0","num_feature":"16","num_nodes":"63","size_leaf_vector":"1"}},{"base_weights":[2.8290229E-2,-8.155483E0,2.0157578E0,-1.3492165E1,-7.1450677E0,-3.7302113E-1,4.07467E0,-1.381461E1,1.6375028E-1,-8.36437E0,-4.2788763E0,-4.9608364E0,2.992217E-1,3.4663348E0,6.303844E0,-1.4373448E1,-3.5151854E0,-9.825866E0,-6.2957897E0,2.3956034E0,-5.263485E0,-3.3368418E0,-8.392792E0,2.0333395E0,-1.1145141E0,2.696377E0,4.8785334E0,5.896167E0,8.862777E0,-6.0683453E-1,-1.4783165E0,7.727051E-2,-5.202051E-1,-1.1080536E0,-5.859797E-1,-4.1999897E-1,-8.39139E-1,-4.397129E-1,3.412864E-1,-8.8447154E-1,-3.4749147E-1,-4.8425737E-1,2.7826056E-2,-1.5523867E-1,-1.0367293E0,3.210932E-2,4.1821703E-1,1.1955408E-1,-3.6007687E-1,1.9647448E-1,4.468721E-1,5.0140786E-1,-1.6274141E-1,1.5777604E-1,6.0107356E-1,2.3995514E-1,9.0766543E-1],"categories":[],"categories_nodes":[],"categories_segments":[],"categories_sizes":[],"default_left":[0,0,0,0,0,0,0,0,0,0,0,0,0,0,0,0,0,0,0,0,0,0,0,0,0,0,0,0,0,0,0,0,0,0,0,0,0,0,0,0,0,0,0,0,0,0,0,0,0,0,0,0,0,0,0,0,0],"id":6,"left_children":[1,3,5,7,9,11,13,15,-1,17,19,21,23,25,27,29,31,33,35,37,39,41,43,45,47,49,51,53,55,-1,-1,-1,-1,-1,-1,-1,-1,-1,-1,-1,-1,-1,-1,-1,-1,-1,-1,-1,-1,-1,-1,-1,-1,-1,-1,-1,-1],"loss_changes":[2.8301246E4,1.7369668E3,6.8871187E3,2.8118164E2,9.706992E2,2.003082E3,9.979248E2,2.4877246E2,0E0,5.4580664E2,5.909232E2,4.3459314E2,1.3923145E3,6.316343E2,1.146582E2,7.7024414E1,3.2952023E1,5.122969E2,3.424646E2,9.792652E1,4.6247192E2,3.1706317E2,3.350724E2,9.3688586E2,1.8019841E3,4.9174805E2,1.9158447E2,6.0276855E1,5.8669434E0,0E0,0E0,0E0,0E0,0E0,0E0,0E0,0E0,0E0,0E0,0E0,0E0,0E0,0E0,0E0,0E0,0E0,0E0,0E0,0E0,0E0,0E0,0E0,0E0,0E0,0E0,0E0,0E0],"parents":[2147483647,0,0,1,1,2,2,3,3,4,4,5,5,6,6,7,7,9,9,10,10,11,11,12,12,13,13,14,14,15,15,16,16,17,17,18,18,19,19,20,20,21,21,22,22,23,23,24,24,25,25,26,26,27,27,28,28],"right_children":[2,4,6,8,10,12,14,16,-1,18,20,22,24,26,28,30,32,34,36,38,40,42,44,46,48,50,52,54,56,-1,-1,-1,-1,-1,-1,-1,-1,-1,-1,-1,-1,-1,-1,-1,-1,-1,-1,-1,-1,-1,-1,-1,-1,-1,-1,-1,-1],"split_conditions":[-7.98531E-1,-2.3587115E0,3.4157595E-1,5.301953E-1,-5.981643E-1,-9.429016E-1,1.1078799E0,1.4483249E0,1.6375028E-1,-1.4299155E0,-1.0637056E0,7.408256E-1,3.332628E-2,-9.4379574E-2,1.5747371E0,-1.0908252E0,1.1459183E0,1.7304341E0,-9.32041E-1,-6.7417306E-1,-1.7203166E0,3.332628E-2,-9.700211E-1,7.408256E-1,7.408256E-1,1.1005044E0,3.033088E0,-4.8765576E-1,-9.218504E-2,-6.0683453E-1,-1.4783165E0,7.727051E-2,-5.202051E-1,-1.1080536E0,-5.859797E-1,-4.1999897E-1,-8.39139E-1,-4.397129E-1,3.412864E-1,-8.8447154E-1,-3.4749147E-1,-4.8425737E-1,2.7826056E-2,-1.5523867E-1,-1.0367293E0,3.210932E-2,4.1821703E-1,1.1955408E-1,-3.6007687E-1,1.9647448E-1,4.468721E-1,5.0140786E-1,-1.6274141E-1,1.5777604E-1,6.0107356E-1,2.3995514E-1,9.0766543E-1],"split_indices":[12,12,12,7,4,4,6,1,0,15,7,1,1,5,12,4,2,8,7,1,12,0,7,0,0,10,7,10,10,0,0,0,0,0,0,0,0,0,0,0,0,0,0,0,0,0,0,0,0,0,0,0,0,0,0,0,0],"split_type":[0,0,0,0,0,0,0,0,0,0,0,0,0,0,0,0,0,0,0,0,0,0,0,0,0,0,0,0,0,0,0,0,0,0,0,0,0,0,0,0,0,0,0,0,0,0,0,0,0,0,0,0,0,0,0,0,0],"sum_hessian":[1.738E3,3.39E2,1.399E3,5.2E1,2.87E2,6.48E2,7.51E2,5.1E1,1E0,2E2,8.7E1,8.2E1,5.66E2,5.92E2,1.59E2,4.8E1,3E0,1.15E2,8.5E1,1.1E1,7.6E1,5.7E1,2.5E1,2.54E2,3.12E2,3.85E2,2.07E2,1.4E2,1.9E1,3E0,4.5E1,1E0,2E0,8.6E1,2.9E1,4.4E1,4.1E1,1E0,1E1,2.4E1,5.2E1,4E1,1.7E1,6E0,1.9E1,1.42E2,1.12E2,1.62E2,1.5E2,2.74E2,1.11E2,2.03E2,4E0,4E0,1.36E2,1E0,1.8E1],"tree_param":{"num_deleted":"0","num_feature":"16","num_nodes":"57","size_leaf_vector":"1"}},{"base_weights":[-1.9356398E-2,-6.6389565E0,1.8657416E0,-1.1988688E1,-5.5683374E0,2.5198942E-1,3.8891733E0,-9.059582E0,-1.4634683E1,-6.9231553E0,-2.5678759E0,-7.3469543E-1,2.5331388E0,2.7667441E0,5.0098743E0,-1.09340315E1,-2.8461566E0,-1.5207131E1,1.5556279E-1,-8.841005E0,-5.305204E0,6.9843745E-1,-4.259338E0,-4.219986E0,-2.4055442E-1,3.8602629E0,8.5930353E-1,4.2868423E0,1.5976652E0,4.6056094E0,6.9091864E0,-1.2195094E0,-5.949146E-1,7.857806E-2,-7.582523E-1,-2.1488515E-1,-1.557078E0,-2.9404926E-1,-9.5295066E-1,-2.751083E-1,-7.5080514E-1,-2.4909611E-1,3.683213E-1,-6.1012936E-1,-8.471217E-2,-2.7718857E-1,-7.9275924E-1,1.3266516E-1,-1.2919621E-1,6.318943E-2,4.799564E-1,2.4492748E-1,-8.0986865E-2,2.8975445E-1,6.50734E-1,2.4677813E-1,-1.9284467E-1,2.8744742E-1,4.9381486E-1,3.666153E-1,7.260121E-1],"categories":[],"categories_nodes":[],"categories_segments":[],"categories_sizes":[],"default_left":[0,0,0,0,0,0,0,0,0,0,0,0,0,0,0,0,0,0,0,0,0,0,0,0,0,0,0,0,0,0,0,0,0,0,0,0,0,0,0,0,0,0,0,0,0,0,0,0,0,0,0,0,0,0,0,0,0,0,0,0,0],"id":7,"left_children":[1,3,5,7,9,11,13,15,17,19,21,23,25,27,29,31,33,35,-1,37,39,41,43,45,47,49,51,53,55,57,59,-1,-1,-1,-1,-1,-1,-1,-1,-1,-1,-1,-1,-1,-1,-1,-1,-1,-1,-1,-1,-1,-1,-1,-1,-1,-1,-1,-1,-1,-1],"loss_changes":[2.1899844E4,2.16125E3,4.4594434E3,3.634414E2,1.3074375E3,1.7147012E3,7.4843066E2,3.532229E2,3.202373E2,6.48166E2,5.720339E2,9.1520856E2,5.076018E2,5.3517114E2,2.0006299E2,8.460571E1,1.6077788E2,1.1374756E2,0E0,3.8229248E2,6.7701074E2,3.5188174E2,4.2222168E2,3.3237866E2,7.712238E2,3.8511584E2,2.75339E2,3.883557E2,5.3861304E2,1.3087402E2,3.1425781E1,0E0,0E0,0E0,0E0,0E0,0E0,0E0,0E0,0E0,0E0,0E0,0E0,0E0,0E0,0E0,0E0,0E0,0E0,0E0,0E0,0E0,0E0,0E0,0E0,0E0,0E0,0E0,0E0,0E0,0E0],"parents":[2147483647,0,0,1,1,2,2,3,3,4,4,5,5,6,6,7,7,8,8,9,9,10,10,11,11,12,12,13,13,14,14,15,15,16,16,17,17,19,19,20,20,21,21,22,22,23,23,24,24,25,25,26,26,27,27,28,28,29,29,30,30],"right_children":[2,4,6,8,10,12,14,16,18,20,22,24,26,28,30,32,34,36,-1,38,40,42,44,46,48,50,52,54,56,58,60,-1,-1,-1,-1,-1,-1,-1,-1,-1,-1,-1,-1,-1,-1,-1,-1,-1,-1,-1,-1,-1,-1,-1,-1,-1,-1,-1,-1,-1,-1],"split_conditions":[-6.1934376E-1,-2.2534673E0,5.4572827E-1,-9.776172E-1,-6.307577E-1,1.4521457E-1,8.8530344E-1,1.258751E0,5.301953E-1,-1.4299155E0,-9.23179E-1,-9.591983E-1,1.1565292E-1,3.332628E-2,1.3177161E0,1.5844694E0,-1.0637056E0,-1.0908252E0,1.5556279E-1,-2.2159235E0,-9.42169E-1,-9.452021E-1,-6.8611765E-1,7.408256E-1,3.332628E-2,-6.324868E-1,7.408256E-1,7.408256E-1,9.097665E-1,-4.163938E-1,1.050178E0,-1.2195094E0,-5.949146E-1,7.857806E-2,-7.582523E-1,-2.1488515E-1,-1.557078E0,-2.9404926E-1,-9.5295066E-1,-2.751083E-1,-7.5080514E-1,-2.4909611E-1,3.683213E-1,-6.1012936E-1,-8.471217E-2,-2.7718857E-1,-7.9275924E-1,1.3266516E-1,-1.2919621E-1,6.318943E-2,4.799564E-1,2.4492748E-1,-8.0986865E-2,2.8975445E-1,6.50734E-1,2.4677813E-1,-1.9284467E-1,2.8744742E-1,4.9381486E-1,3.666153E-1,7.260121E-1],"split_indices":[12,12,12,7,4,4,12,1,7,15,7,4,9,1,6,5,7,4,0,9,7,10,13,1,1,13,1,0,9,4,12,0,0,0,0,0,0,0,0,0,0,0,0,0,0,0,0,0,0,0,0,0,0,0,0,0,0,0,0,0,0],"split_type":[0,0,0,0,0,0,0,0,0,0,0,0,0,0,0,0,0,0,0,0,0,0,0,0,0,0,0,0,0,0,0,0,0,0,0,0,0,0,0,0,0,0,0,0,0,0,0,0,0,0,0,0,0,0,0,0,0,0,0,0,0],"sum_hessian":[1.753E3,3.88E2,1.365E3,6.3E1,3.25E2,7.6E2,6.05E2,3.2E1,3.1E1,2.23E2,1.02E2,5.31E2,2.29E2,3.04E2,3.01E2,2.4E1,8E0,3E1,1E0,1E2,1.23E2,3.5E1,6.7E1,6.5E1,4.66E2,1.27E2,1.02E2,1.31E2,1.73E2,2.51E2,5E1,1.8E1,6E0,5E0,3E0,1E0,2.9E1,1.1E1,8.9E1,5.8E1,6.5E1,1.7E1,1.8E1,4.3E1,2.4E1,4.8E1,1.7E1,1.87E2,2.79E2,2.9E1,9.8E1,5.2E1,5E1,8.2E1,4.9E1,1.39E2,3.4E1,4.2E1,2.09E2,6E0,4.4E1],"tree_param":{"num_deleted":"0","num_feature":"16","num_nodes":"61","size_leaf_vector":"1"}},{"base_weights":[4.4558037E-2,-4.4002843E0,2.3188932E0,-7.49715E0,-2.5168118E0,1.2864954E0,4.3723326E0,-8.794229E0,-4.4747686E0,-4.391794E0,1.2937647E-1,-1.430446E-3,2.3541617E0,5.068E0,3.0108898E0,-1.2213329E1,-7.9775953E0,-6.338439E0,-1.6856222E0,1.5432762E0,-4.972046E0,4.8546085E0,-5.716163E-1,3.5944226E0,-5.0344425E-1,1.5495117E0,3.7826786E0,4.3687005E0,6.1012335E0,1.8810449E0,4.909378E0,-6.929187E-1,-1.4764009E0,-3.8748276E-1,-8.792558E-1,-5.216123E-1,-1.1044531E0,5.7141304E-2,-6.031131E-1,2.5025478E-1,-2.919447E-1,-3.6452326E-1,-6.9924664E-1,-2.8222638E-1,5.4071945E-1,-2.2791211E-1,1.1442947E-1,1.0953522E-2,4.939878E-1,-8.493396E-2,2.730164E-1,3.1431768E-2,2.4858974E-1,4.2652616E-1,4.084984E-2,2.7046642E-1,4.9434447E-1,7.156419E-1,5.422958E-1,4.5290208E-1,9.966058E-2,2.464751E-1,5.7236946E-1],"categories":[],"categories_nodes":[],"categories_segments":[],"categories_sizes":[],"default_left":[0,0,0,0,0,0,0,0,0,0,0,0,0,0,0,0,0,0,0,0,0,0,0,0,0,0,0,0,0,0,0,0,0,0,0,0,0,0,0,0,0,0,0,0,0,0,0,0,0,0,0,0,0,0,0,0,0,0,0,0,0,0,0],"id":8,"left_children":[1,3,5,7,9,11,13,15,17,19,21,23,25,27,29,31,33,35,37,39,41,43,45,47,49,51,53,55,57,59,61,-1,-1,-1,-1,-1,-1,-1,-1,-1,-1,-1,-1,-1,-1,-1,-1,-1,-1,-1,-1,-1,-1,-1,-1,-1,-1,-1,-1,-1,-1,-1,-1],"loss_changes":[1.7650516E4,3.4283525E3,2.4429355E3,8.348662E2,1.8313823E3,1.0588113E3,3.5032568E2,3.353506E2,3.479812E2,7.515415E2,5.1287744E2,6.336184E2,4.780598E2,1.568706E2,2.760498E2,2.7508545E2,3.9391162E2,1.5894092E2,2.8787726E2,9.292532E1,5.0261328E2,1.0010321E2,3.98148E2,2.0107556E2,3.4681375E2,3.1266205E2,2.4413403E2,1.3487085E2,3.276172E1,1.9455411E2,8.343677E1,0E0,0E0,0E0,0E0,0E0,0E0,0E0,0E0,0E0,0E0,0E0,0E0,0E0,0E0,0E0,0E0,0E0,0E0,0E0,0E0,0E0,0E0,0E0,0E0,0E0,0E0,0E0,0E0,0E0,0E0,0E0,0E0],"parents":[2147483647,0,0,1,1,2,2,3,3,4,4,5,5,6,6,7,7,8,8,9,9,10,10,11,11,12,12,13,13,14,14,15,15,16,16,17,17,18,18,19,19,20,20,21,21,22,22,23,23,24,24,25,25,26,26,27,27,28,28,29,29,30,30],"right_children":[2,4,6,8,10,12,14,16,18,20,22,24,26,28,30,32,34,36,38,40,42,44,46,48,50,52,54,56,58,60,62,-1,-1,-1,-1,-1,-1,-1,-1,-1,-1,-1,-1,-1,-1,-1,-1,-1,-1,-1,-1,-1,-1,-1,-1,-1,-1,-1,-1,-1,-1,-1,-1],"split_conditions":[-1.9999112E-1,-1.3550736E0,7.8690225E-1,-6.6961896E-1,-6.508151E-1,3.5434628E-1,7.408256E-1,-2.6165485E0,-1.7376487E0,-1.354008E0,-1.0042033E0,-5.7913643E-1,-9.4379574E-2,1.1702752E0,-2.7648708E-2,3.332628E-2,-2.2159235E0,-8.590725E-1,-1.7267805E0,8.1083965E-1,7.408256E-1,-8.3256924E-1,-5.79723E-1,-5.5659336E-1,5.467059E-1,6.363295E-1,9.1487575E-1,-1.1920985E0,3.8713667E-1,8.936418E-1,-3.0805486E-1,-6.929187E-1,-1.4764009E0,-3.8748276E-1,-8.792558E-1,-5.216123E-1,-1.1044531E0,5.7141304E-2,-6.031131E-1,2.5025478E-1,-2.919447E-1,-3.6452326E-1,-6.9924664E-1,-2.8222638E-1,5.4071945E-1,-2.2791211E-1,1.1442947E-1,1.0953522E-2,4.939878E-1,-8.493396E-2,2.730164E-1,3.1431768E-2,2.4858974E-1,4.2652616E-1,4.084984E-2,2.7046642E-1,4.9434447E-1,7.156419E-1,5.422958E-1,4.5290208E-1,9.966058E-2,2.464751E-1,5.7236946E-1],"split_indices":[12,12,6,4,4,12,1,15,15,9,7,9,5,6,8,0,9,13,9,3,0,5,10,5,10,12,9,1,7,6,10,0,0,0,0,0,0,0,0,0,0,0,0,0,0,0,0,0,0,0,0,0,0,0,0,0,0,0,0,0,0,0,0],"split_type":[0,0,0,0,0,0,0,0,0,0,0,0,0,0,0,0,0,0,0,0,0,0,0,0,0,0,0,0,0,0,0,0,0,0,0,0,0,0,0,0,0,0,0,0,0,0,0,0,0,0,0,0,0,0,0,0,0,0,0,0,0,0,0],"sum_hessian":[1.744E3,5.9E2,1.154E3,2.22E2,3.68E2,7.69E2,3.85E2,1.54E2,6.8E1,2.15E2,1.53E2,3.49E2,4.2E2,2.53E2,1.32E2,2.7E1,1.27E2,4E1,2.8E1,1.9E1,1.96E2,1.9E1,1.34E2,4.2E1,3.07E2,2.7E2,1.5E2,1.54E2,9.9E1,8.4E1,4.8E1,1E1,1.7E1,2.2E1,1.05E2,3.4E1,6E0,1.9E1,9E0,1.6E1,3E0,1.2E2,7.6E1,1E0,1.8E1,6.7E1,6.7E1,1.2E1,3E1,2.78E2,2.9E1,1.17E2,1.53E2,1.31E2,1.9E1,4.1E1,1.13E2,3.5E1,6.4E1,2E1,6.4E1,1.3E1,3.5E1],"tree_param":{"num_deleted":"0","num_feature":"16","num_nodes":"63","size_leaf_vector":"1"}},{"base_weights":[-6.353099E-2,-5.754748E0,1.4692496E0,-6.9851003E0,-2.6710048E0,-5.984205E-2,3.127421E0,-1.0286209E1,-5.904925E0,1.7534891E0,-3.535835E0,-2.058098E0,8.874807E-1,2.5381913E0,4.6011076E0,-8.059785E0,-1.2956264E1,-4.7564983E0,-7.5537524E0,-4.6993456E0,3.3573458E0,-6.290126E0,-2.0287359E0,-1.5202675E0,-4.793379E0,-1.6721393E-1,2.3701625E0,1.6605453E0,3.5456965E0,5.227281E0,3.2425363E0,-8.390194E-1,1.9174747E-1,-5.718758E-1,-1.4341208E0,-5.6246233E-1,2.8214988E-1,-8.497545E-1,-2.0359348E-1,-6.148152E-1,-2.1670265E-1,4.4705173E-1,9.42503E-2,2.4794255E-1,-6.6650915E-1,-3.7752643E-1,1.3114233E-1,-2.258919E-1,4.290173E-1,-6.088599E-1,4.71375E-1,3.051762E-1,-1.1262333E-1,3.0610767E-1,-1.0931553E-1,2.5500226E-1,5.259306E-2,2.6916552E-1,4.6768218E-1,2.1913023E-1,5.530294E-1,3.6659035E-1,7.16774E-2],"categories":[],"categories_nodes":[],"categories_segments":[],"categories_sizes":[],"default_left":[0,0,0,0,0,0,0,0,0,0,0,0,0,0,0,0,0,0,0,0,0,0,0,0,0,0,0,0,0,0,0,0,0,0,0,0,0,0,0,0,0,0,0,0,0,0,0,0,0,0,0,0,0,0,0,0,0,0,0,0,0,0,0],"id":9,"left_children":[1,3,5,7,9,11,13,15,17,19,21,23,25,27,29,31,33,35,37,39,41,43,45,47,49,51,53,55,57,59,61,-1,-1,-1,-1,-1,-1,-1,-1,-1,-1,-1,-1,-1,-1,-1,-1,-1,-1,-1,-1,-1,-1,-1,-1,-1,-1,-1,-1,-1,-1,-1,-1],"loss_changes":[1.5047574E4,1.3699814E3,3.4459255E3,8.6992773E2,4.118023E2,1.3420658E3,5.544795E2,2.7008984E2,3.4088867E2,2.0206693E2,3.56677E2,3.2812762E2,7.5257294E2,4.0793286E2,1.4043042E2,1.3806152E2,1.8862158E2,8.053074E2,3.99313E2,1.35215E0,3.610852E1,1.1846228E2,3.4913828E2,8.3373425E2,4.8431152E2,8.739879E2,4.8191724E2,2.5298083E2,1.970398E2,1.0287378E2,6.2601135E1,0E0,0E0,0E0,0E0,0E0,0E0,0E0,0E0,0E0,0E0,0E0,0E0,0E0,0E0,0E0,0E0,0E0,0E0,0E0,0E0,0E0,0E0,0E0,0E0,0E0,0E0,0E0,0E0,0E0,0E0,0E0,0E0],"parents":[2147483647,0,0,1,1,2,2,3,3,4,4,5,5,6,6,7,7,8,8,9,9,10,10,11,11,12,12,13,13,14,14,15,15,16,16,17,17,18,18,19,19,20,20,21,21,22,22,23,23,24,24,25,25,26,26,27,27,28,28,29,29,30,30],"right_children":[2,4,6,8,10,12,14,16,18,20,22,24,26,28,30,32,34,36,38,40,42,44,46,48,50,52,54,56,58,60,62,-1,-1,-1,-1,-1,-1,-1,-1,-1,-1,-1,-1,-1,-1,-1,-1,-1,-1,-1,-1,-1,-1,-1,-1,-1,-1,-1,-1,-1,-1,-1,-1],"split_conditions":[-6.8044966E-1,-6.382792E-1,5.0709033E-1,-2.0827413E0,-1.0637056E0,-7.297913E-1,1.3336179E0,7.408256E-1,-8.7000674E-1,-2.4232357E0,-1.7376487E0,4.25025E-1,3.1738433E-1,8.5770416E-1,3.332628E-2,8.859428E-1,3.332628E-2,1.258751E0,-7.769115E-1,-6.7417306E-1,1.7084795E0,-1.5619149E0,-5.710045E-1,1.258751E0,1.4483249E0,-7.027601E-1,8.0654633E-1,3.332628E-2,8.167191E-2,1.944887E-1,7.394572E-1,-8.390194E-1,1.9174747E-1,-5.718758E-1,-1.4341208E0,-5.6246233E-1,2.8214988E-1,-8.497545E-1,-2.0359348E-1,-6.148152E-1,-2.1670265E-1,4.4705173E-1,9.42503E-2,2.4794255E-1,-6.6650915E-1,-3.7752643E-1,1.3114233E-1,-2.258919E-1,4.290173E-1,-6.088599E-1,4.71375E-1,3.051762E-1,-1.1262333E-1,3.0610767E-1,-1.0931553E-1,2.5500226E-1,5.259306E-2,2.6916552E-1,4.6768218E-1,2.1913023E-1,5.530294E-1,3.6659035E-1,7.16774E-2],"split_indices":[12,4,6,12,7,4,4,0,7,12,15,2,12,12,1,7,1,1,6,0,5,6,10,1,0,9,9,1,5,15,2,0,0,0,0,0,0,0,0,0,0,0,0,0,0,0,0,0,0,0,0,0,0,0,0,0,0,0,0,0,0,0,0],"split_type":[0,0,0,0,0,0,0,0,0,0,0,0,0,0,0,0,0,0,0,0,0,0,0,0,0,0,0,0,0,0,0,0,0,0,0,0,0,0,0,0,0,0,0,0,0,0,0,0,0,0,0,0,0,0,0,0,0,0,0,0,0,0,0],"sum_hessian":[1.723E3,3.65E2,1.358E3,2.6E2,1.05E2,7.07E2,6.51E2,6.2E1,1.98E2,1.7E1,8.8E1,2.27E2,4.8E2,4.67E2,1.84E2,3.6E1,2.6E1,1.19E2,7.9E1,3E0,1.4E1,3E1,5.8E1,1.91E2,3.6E1,2.81E2,1.99E2,2.51E2,2.16E2,1.24E2,6E1,3.5E1,1E0,5E0,2.1E1,1.07E2,1.2E1,6.7E1,1.2E1,1E0,2E0,9E0,5E0,1E0,2.9E1,3.8E1,2E1,1.7E2,2.1E1,3.2E1,4E0,6.4E1,2.17E2,1.66E2,3.3E1,1.4E2,1.11E2,1.25E2,9.1E1,1.2E1,1.12E2,5.1E1,9E0],"tree_param":{"num_deleted":"0","num_feature":"16","num_nodes":"63","size_leaf_vector":"1"}},{"base_weights":[4.7544334E-3,-5.601317E0,1.3670866E0,-8.48698E0,-4.6325784E0,-3.1665266E-1,2.6569333E0,-7.0777755E0,-1.0667951E1,-2.0962887E0,-5.3649445E0,1.9173038E0,-1.1849729E0,1.9869193E0,3.76842E0,-8.354489E0,-2.8332732E0,-1.1144989E1,1.8216018E-1,-6.1696744E0,-4.3712962E-1,2.6300964E0,-5.585697E0,-2.1217134E0,2.7979627E0,-5.986458E0,-7.6503015E-1,3.53367E0,1.3041764E0,3.2946806E0,4.8686137E0,-9.248301E-1,-3.511478E-1,1.4100352E-1,-7.278015E-1,-2.2124653E-1,-1.1376716E0,3.3369726E-1,-7.659692E-1,5.5851054E-1,-1.7632616E-1,2.92493E-1,5.779648E-2,-7.211074E-1,-4.6231005E-1,-1.1208589E-2,-3.566884E-1,-1.0291164E-1,3.407414E-1,-2.0469756E-1,-9.593359E-1,4.4524368E-2,-1.7148696E-1,1.3418041E-1,4.3114433E-1,-3.5345343E-1,1.5042903E-1,4.9108085E-1,2.7037722E-1,1.3751412E-2,5.1554185E-1],"categories":[],"categories_nodes":[],"categories_segments":[],"categories_sizes":[],"default_left":[0,0,0,0,0,0,0,0,0,0,0,0,0,0,0,0,0,0,0,0,0,0,0,0,0,0,0,0,0,0,0,0,0,0,0,0,0,0,0,0,0,0,0,0,0,0,0,0,0,0,0,0,0,0,0,0,0,0,0,0,0],"id":10,"left_children":[1,3,5,7,9,11,13,15,17,19,21,23,25,27,29,31,33,35,-1,37,39,41,43,45,47,49,51,53,55,57,59,-1,-1,-1,-1,-1,-1,-1,-1,-1,-1,-1,-1,-1,-1,-1,-1,-1,-1,-1,-1,-1,-1,-1,-1,-1,-1,-1,-1,-1,-1],"loss_changes":[1.3243153E4,9.083418E2,3.0304548E3,1.826626E2,4.6427197E2,1.1777845E3,5.808345E2,2.6895605E2,2.0499976E2,3.960484E2,3.6414648E2,6.1062585E2,8.765646E2,5.181279E2,1.3823633E2,1.4500342E2,2.7430798E2,3.6926514E1,0E0,2.6636646E2,3.5325797E2,1.9397125E0,2.6862646E2,8.9632095E1,3.300453E2,4.7768884E2,4.640385E2,2.5163586E2,3.3937793E2,1.8726904E2,1.1734155E2,0E0,0E0,0E0,0E0,0E0,0E0,0E0,0E0,0E0,0E0,0E0,0E0,0E0,0E0,0E0,0E0,0E0,0E0,0E0,0E0,0E0,0E0,0E0,0E0,0E0,0E0,0E0,0E0,0E0,0E0],"parents":[2147483647,0,0,1,1,2,2,3,3,4,4,5,5,6,6,7,7,8,8,9,9,10,10,11,11,12,12,13,13,14,14,15,15,16,16,17,17,19,19,20,20,21,21,22,22,23,23,24,24,25,25,26,26,27,27,28,28,29,29,30,30],"right_children":[2,4,6,8,10,12,14,16,18,20,22,24,26,28,30,32,34,36,-1,38,40,42,44,46,48,50,52,54,56,58,60,-1,-1,-1,-1,-1,-1,-1,-1,-1,-1,-1,-1,-1,-1,-1,-1,-1,-1,-1,-1,-1,-1,-1,-1,-1,-1,-1,-1,-1,-1],"split_conditions":[-7.98531E-1,-2.1729498E0,3.1080925E-1,-9.092529E-1,-1.7267805E0,-5.7913643E-1,8.8530344E-1,1.258751E0,5.301953E-1,-6.7417306E-1,-9.371762E-1,-6.7417306E-1,-8.888423E-1,3.3111662E-1,1.2561132E0,1.8213072E0,-1.0573756E0,4.726635E-1,1.8216018E-1,-3.3789468E-1,3.332628E-2,-2.998099E-1,-1.3992251E0,3.4539707E-2,-6.7955744E-1,-2.7646595E-1,3.332628E-2,-6.7417306E-1,-1.8049346E-1,6.4977723E-1,-1.7833995E0,-9.248301E-1,-3.511478E-1,1.4100352E-1,-7.278015E-1,-2.2124653E-1,-1.1376716E0,3.3369726E-1,-7.659692E-1,5.5851054E-1,-1.7632616E-1,2.92493E-1,5.779648E-2,-7.211074E-1,-4.6231005E-1,-1.1208589E-2,-3.566884E-1,-1.0291164E-1,3.407414E-1,-2.0469756E-1,-9.593359E-1,4.4524368E-2,-1.7148696E-1,1.3418041E-1,4.3114433E-1,-3.5345343E-1,1.5042903E-1,4.9108085E-1,2.7037722E-1,1.3751412E-2,5.1554185E-1],"split_indices":[12,12,12,7,9,9,12,1,7,0,5,0,6,9,12,5,7,8,0,3,0,4,6,14,8,9,1,0,6,9,11,0,0,0,0,0,0,0,0,0,0,0,0,0,0,0,0,0,0,0,0,0,0,0,0,0,0,0,0,0,0],"split_type":[0,0,0,0,0,0,0,0,0,0,0,0,0,0,0,0,0,0,0,0,0,0,0,0,0,0,0,0,0,0,0,0,0,0,0,0,0,0,0,0,0,0,0,0,0,0,0,0,0,0,0,0,0,0,0,0,0,0,0,0,0],"sum_hessian":[1.732E3,3.38E2,1.394E3,8.3E1,2.55E2,6.05E2,7.89E2,5.3E1,3E1,5.8E1,1.97E2,1.69E2,4.36E2,4.94E2,2.95E2,4E1,1.3E1,2.9E1,1E0,1.6E1,4.2E1,5E0,1.92E2,3E1,1.39E2,3.4E1,4.02E2,1.5E2,3.44E2,2.09E2,8.6E1,3.3E1,7E0,7E0,6E0,1E0,2.8E1,2E0,1.4E1,7E0,3.5E1,4E0,1E0,6.9E1,1.23E2,1.3E1,1.7E1,1.9E1,1.2E2,1.7E1,1.7E1,1.77E2,2.25E2,4E1,1.1E2,1.3E1,3.31E2,5.4E1,1.55E2,5E0,8.1E1],"tree_param":{"num_deleted":"0","num_feature":"16","num_nodes":"61","size_leaf_vector":"1"}},{"base_weights":[-6.3201333E-3,-3.720838E0,1.4651365E0,-5.6303144E0,-2.1684365E0,-1.4564458E0,1.8985096E0,-7.4001207E0,-3.9500556E0,-3.1184533E0,1.6245961E-1,-2.0542874E0,1.4566689E0,1.2683971E0,3.318136E0,-1.0544865E1,-6.2462683E0,-4.7758102E0,-1.0818254E0,-1.2917706E0,-4.234143E0,4.210981E0,-1.4457896E0,-3.288575E-1,-4.1768365E0,-9.544856E-1,2.468855E0,1.6018386E0,-3.2446303E0,-1.808295E0,3.466576E0,-8.21639E-1,-1.277076E0,-3.588791E-2,-6.7187744E-1,-3.6145014E-1,-7.604181E-1,2.6750693E-1,-4.2656794E-1,-2.31635E-1,2.6311383E-1,-1.470171E-1,-6.4733E-1,5.173111E-3,6.0274196E-1,-3.3230546E-1,1.1651224E-1,4.3543908E-1,-1.381061E-1,-6.6063297E-1,-1.164333E-1,6.247203E-3,-2.2413006E-1,5.3105928E-2,2.9201126E-1,2.6007602E-1,1.0816132E-1,-4.8321897E-1,1.4096154E-1,5.6759138E-2,-4.2977E-1,2.8885868E-1,4.6225676E-1],"categories":[],"categories_nodes":[],"categories_segments":[],"categories_sizes":[],"default_left":[0,0,0,0,0,0,0,0,0,0,0,0,0,0,0,0,0,0,0,0,0,0,0,0,0,0,0,0,0,0,0,0,0,0,0,0,0,0,0,0,0,0,0,0,0,0,0,0,0,0,0,0,0,0,0,0,0,0,0,0,0,0,0],"id":11,"left_children":[1,3,5,7,9,11,13,15,17,19,21,23,25,27,29,31,33,35,37,39,41,43,45,47,49,51,53,55,57,59,61,-1,-1,-1,-1,-1,-1,-1,-1,-1,-1,-1,-1,-1,-1,-1,-1,-1,-1,-1,-1,-1,-1,-1,-1,-1,-1,-1,-1,-1,-1,-1,-1],"loss_changes":[9.477601E3,1.4462144E3,1.5753047E3,6.2499023E2,6.050353E2,2.8338693E2,9.6366626E2,3.187622E2,2.6720557E2,3.8990454E2,5.269707E2,4.8937598E2,7.069153E1,1.135325E3,2.5891016E2,3.5009766E1,2.2013501E2,2.6484534E2,3.343689E2,3.0754456E2,7.331592E2,1.7345374E2,2.881514E2,3.755934E2,4.3143933E2,1.1917747E1,1.5938156E1,3.6095203E2,3.9103387E2,6.158477E1,2.0245996E2,0E0,0E0,0E0,0E0,0E0,0E0,0E0,0E0,0E0,0E0,0E0,0E0,0E0,0E0,0E0,0E0,0E0,0E0,0E0,0E0,0E0,0E0,0E0,0E0,0E0,0E0,0E0,0E0,0E0,0E0,0E0,0E0],"parents":[2147483647,0,0,1,1,2,2,3,3,4,4,5,5,6,6,7,7,8,8,9,9,10,10,11,11,12,12,13,13,14,14,15,15,16,16,17,17,18,18,19,19,20,20,21,21,22,22,23,23,24,24,25,25,26,26,27,27,28,28,29,29,30,30],"right_children":[2,4,6,8,10,12,14,16,18,20,22,24,26,28,30,32,34,36,38,40,42,44,46,48,50,52,54,56,58,60,62,-1,-1,-1,-1,-1,-1,-1,-1,-1,-1,-1,-1,-1,-1,-1,-1,-1,-1,-1,-1,-1,-1,-1,-1,-1,-1,-1,-1,-1,-1,-1,-1],"split_conditions":[-3.1846723E-1,-1.4299155E0,-7.5987744E-1,1.4268041E0,-3.8129327E-1,2.041915E-1,8.3825225E-1,-2.2182298E0,-6.2122303E-1,3.332628E-2,-8.244305E-1,-5.5280212E-2,-6.7417306E-1,1.4483249E0,-5.743461E-1,3.332628E-2,-2.264428E0,-8.7633675E-1,-1.7267805E0,7.408256E-1,-9.26977E-1,-1.4185756E-1,4.6352628E-1,-6.908104E-1,-2.9772383E-1,-6.716531E-1,5.2583176E-1,1.739249E-1,9.476439E-2,6.431037E-1,1.6780171E0,-8.21639E-1,-1.277076E0,-3.588791E-2,-6.7187744E-1,-3.6145014E-1,-7.604181E-1,2.6750693E-1,-4.2656794E-1,-2.31635E-1,2.6311383E-1,-1.470171E-1,-6.4733E-1,5.173111E-3,6.0274196E-1,-3.3230546E-1,1.1651224E-1,4.3543908E-1,-1.381061E-1,-6.6063297E-1,-1.164333E-1,6.247203E-3,-2.2413006E-1,5.3105928E-2,2.9201126E-1,2.6007602E-1,1.0816132E-1,-4.8321897E-1,1.4096154E-1,5.6759138E-2,-4.2977E-1,2.8885868E-1,4.6225676E-1],"split_indices":[15,15,4,8,4,6,10,6,10,1,7,9,0,0,4,0,9,7,9,0,7,4,6,3,6,2,9,9,8,9,10,0,0,0,0,0,0,0,0,0,0,0,0,0,0,0,0,0,0,0,0,0,0,0,0,0,0,0,0,0,0,0,0],"split_type":[0,0,0,0,0,0,0,0,0,0,0,0,0,0,0,0,0,0,0,0,0,0,0,0,0,0,0,0,0,0,0,0,0,0,0,0,0,0,0,0,0,0,0,0,0,0,0,0,0,0,0,0,0,0,0,0,0,0,0,0,0,0,0],"sum_hessian":[1.732E3,4.91E2,1.241E3,2.19E2,2.72E2,1.6E2,1.081E3,1.05E2,1.14E2,1.93E2,7.9E1,1.33E2,2.7E1,7.5E2,3.31E2,2.6E1,7.9E1,8.8E1,2.6E1,7.4E1,1.19E2,2.2E1,5.7E1,7.4E1,5.9E1,8E0,1.9E1,6.99E2,5.1E1,9E0,3.22E2,1.5E1,1.1E1,6E0,7.3E1,6.4E1,2.4E1,1.2E1,1.4E1,5.9E1,1.5E1,5.4E1,6.5E1,7E0,1.5E1,3.3E1,2.4E1,1.3E1,6.1E1,3.2E1,2.7E1,5E0,3E0,4E0,1.5E1,2.38E2,4.61E2,3.8E1,1.3E1,5E0,4E0,2.17E2,1.05E2],"tree_param":{"num_deleted":"0","num_feature":"16","num_nodes":"63","size_leaf_vector":"1"}},{"base_weights":[-1.2765743E-2,-3.5089848E0,1.2859187E0,-1.8793355E0,-4.991878E0,1.5156272E-1,2.4236195E0,-2.821993E0,1.3292114E0,-6.08695E0,-2.9565575E0,-3.119302E0,4.7274846E-1,2.0151541E0,3.7369218E0,-1.0627525E0,-4.6722155E0,4.152017E0,-5.281603E0,-5.4062967E0,-8.343941E0,7.962759E-1,-4.001487E0,1.1516737E0,-4.1656585E0,-1.034477E0,1.0395164E0,1.469667E0,2.7984126E0,-1.4383946E-1,3.853116E0,-1.986724E-1,2.7948388E-1,-3.564746E-1,-6.9191974E-1,6.202058E-1,1.0737097E-1,-7.335524E-1,-2.8690508E-1,-7.25676E-1,-4.117751E-1,-8.76114E-1,2.9204103E-1,3.433455E-1,-4.591836E-1,-3.1208786E-1,-7.5548065E-1,4.738383E-1,-3.950653E-3,-4.7417292E-1,3.068514E-1,-1.7693433E-1,7.543392E-2,3.6882696E-1,9.383983E-3,2.272738E-1,3.892122E-2,4.5594236E-1,2.3923095E-1,3.5879195E-1,5.783592E-1],"categories":[],"categories_nodes":[],"categories_segments":[],"categories_sizes":[],"default_left":[0,0,0,0,0,0,0,0,0,0,0,0,0,0,0,0,0,0,0,0,0,0,0,0,0,0,0,0,0,0,0,0,0,0,0,0,0,0,0,0,0,0,0,0,0,0,0,0,0,0,0,0,0,0,0,0,0,0,0,0,0],"id":12,"left_children":[1,3,5,7,9,11,13,15,17,19,21,23,25,27,29,31,33,35,37,39,41,43,45,47,49,51,53,55,57,-1,59,-1,-1,-1,-1,-1,-1,-1,-1,-1,-1,-1,-1,-1,-1,-1,-1,-1,-1,-1,-1,-1,-1,-1,-1,-1,-1,-1,-1,-1,-1],"loss_changes":[7.895876E3,1.1288359E3,1.6360598E3,6.873019E2,5.3029395E2,6.696276E2,3.320349E2,5.6465735E2,9.923038E2,1.9915039E2,3.482735E2,2.5952844E2,4.965387E2,2.0310718E2,9.514209E1,3.2990424E2,1.8685437E2,2.2683502E2,5.823709E1,2.6816895E2,1.9006787E2,2.9995422E2,1.9232886E2,5.1456203E1,2.0625006E2,2.1034662E2,1.0567064E3,2.4900781E2,1.3069263E2,0E0,5.3994385E1,0E0,0E0,0E0,0E0,0E0,0E0,0E0,0E0,0E0,0E0,0E0,0E0,0E0,0E0,0E0,0E0,0E0,0E0,0E0,0E0,0E0,0E0,0E0,0E0,0E0,0E0,0E0,0E0,0E0,0E0],"parents":[2147483647,0,0,1,1,2,2,3,3,4,4,5,5,6,6,7,7,8,8,9,9,10,10,11,11,12,12,13,13,14,14,15,15,16,16,17,17,18,18,19,19,20,20,21,21,22,22,23,23,24,24,25,25,26,26,27,27,28,28,30,30],"right_children":[2,4,6,8,10,12,14,16,18,20,22,24,26,28,30,32,34,36,38,40,42,44,46,48,50,52,54,56,58,-1,60,-1,-1,-1,-1,-1,-1,-1,-1,-1,-1,-1,-1,-1,-1,-1,-1,-1,-1,-1,-1,-1,-1,-1,-1,-1,-1,-1,-1,-1,-1],"split_conditions":[-3.265712E-1,7.317881E-1,5.0709033E-1,1.258751E0,-7.059731E-1,-9.591983E-1,1.1566292E0,3.332628E-2,7.408256E-1,-7.759354E-1,1.7450204E-1,-6.8611765E-1,-6.7417306E-1,8.467718E-1,-4.7307885E-1,1.258751E0,-8.3329254E-1,-2.1531437E-1,6.2261367E-1,-1.3602022E0,-3.936775E-1,7.408256E-1,-5.7913643E-1,-1.044493E0,1.4483249E0,6.296215E-1,3.332628E-2,3.332628E-2,6.4977723E-1,-1.4383946E-1,1.5386553E0,-1.986724E-1,2.7948388E-1,-3.564746E-1,-6.9191974E-1,6.202058E-1,1.0737097E-1,-7.335524E-1,-2.8690508E-1,-7.25676E-1,-4.117751E-1,-8.76114E-1,2.9204103E-1,3.433455E-1,-4.591836E-1,-3.1208786E-1,-7.5548065E-1,4.738383E-1,-3.950653E-3,-4.7417292E-1,3.068514E-1,-1.7693433E-1,7.543392E-2,3.6882696E-1,9.383983E-3,2.272738E-1,3.892122E-2,4.5594236E-1,2.3923095E-1,3.5879195E-1,5.783592E-1],"split_indices":[15,2,6,1,4,4,6,1,0,13,11,13,0,12,13,0,7,6,7,10,15,1,9,14,0,12,0,1,9,0,6,0,0,0,0,0,0,0,0,0,0,0,0,0,0,0,0,0,0,0,0,0,0,0,0,0,0,0,0,0,0],"split_type":[0,0,0,0,0,0,0,0,0,0,0,0,0,0,0,0,0,0,0,0,0,0,0,0,0,0,0,0,0,0,0,0,0,0,0,0,0,0,0,0,0,0,0,0,0,0,0,0,0,0,0,0,0,0,0,0,0,0,0,0,0],"sum_hessian":[1.737E3,4.7E2,1.267E3,2.25E2,2.45E2,6.35E2,6.32E2,1.74E2,5.1E1,1.58E2,8.7E1,5.6E1,5.79E2,4.84E2,1.48E2,9E1,8.4E1,3.6E1,1.5E1,1.24E2,3.4E1,1.9E1,6.8E1,1.1E1,4.5E1,1.58E2,4.21E2,2.87E2,1.97E2,3E0,1.45E2,7.3E1,1.7E1,5.8E1,2.6E1,2.1E1,1.5E1,7E0,8E0,4.9E1,7.5E1,3.3E1,1E0,1.3E1,6E0,5.6E1,1.2E1,2E0,9E0,4.2E1,3E0,1.12E2,4.6E1,1.1E2,3.11E2,1.64E2,1.23E2,3.5E1,1.62E2,1.3E2,1.5E1],"tree_param":{"num_deleted":"0","num_feature":"16","num_nodes":"61","size_leaf_vector":"1"}},{"base_weights":[1.8084744E-2,-3.5034056E0,1.1546367E0,-4.972881E0,-2.2111394E0,-1.1453543E0,1.5970182E0,-6.5205345E0,-4.004505E0,1.4754531E0,-2.7530725E0,-1.6916918E0,1.9024875E0,2.5593128E0,8.461827E-1,-9.084077E0,-4.80004E0,-2.369265E0,-5.063075E0,2.651655E0,-2.0905585E0,-4.361703E0,-1.5506014E0,6.3473684E-1,-2.4159448E0,-1.4169865E0,2.281668E0,1.8783256E0,5.1365576E0,1.6475425E0,-7.567511E-1,-1.1730062E0,-6.2010854E-1,-1.3184665E-1,-6.915552E-1,-8.188459E-2,-4.9374005E-1,-8.895387E-1,-4.4727188E-1,-5.8867456E-3,5.1412064E-1,-3.91421E-2,-4.7919807E-1,-3.9085525E-1,-1.0830401E0,-1.071216E-1,-4.966751E-1,-2.605346E-1,2.5792608E-1,-6.04521E-1,-1.7909344E-1,6.218338E-3,-1.9307709E-1,7.980484E-2,2.8795025E-1,1.5747426E-2,3.0574355E-1,2.991751E-1,5.6621724E-1,2.3550434E-1,-1.4397303E-2,-1.7505814E-1,2.5241348E-1],"categories":[],"categories_nodes":[],"categories_segments":[],"categories_sizes":[],"default_left":[0,0,0,0,0,0,0,0,0,0,0,0,0,0,0,0,0,0,0,0,0,0,0,0,0,0,0,0,0,0,0,0,0,0,0,0,0,0,0,0,0,0,0,0,0,0,0,0,0,0,0,0,0,0,0,0,0,0,0,0,0,0,0],"id":13,"left_children":[1,3,5,7,9,11,13,15,17,19,21,23,25,27,29,31,33,35,37,39,41,43,45,47,49,51,53,55,57,59,61,-1,-1,-1,-1,-1,-1,-1,-1,-1,-1,-1,-1,-1,-1,-1,-1,-1,-1,-1,-1,-1,-1,-1,-1,-1,-1,-1,-1,-1,-1,-1,-1],"loss_changes":[7.004167E3,7.9985693E2,1.3479465E3,2.7213184E2,4.6157812E2,3.5956058E2,7.998369E2,2.8718823E2,2.0438098E2,1.313739E2,3.8010315E2,3.081894E2,4.4769493E1,8.433159E2,8.040759E2,1.4848315E2,3.3705164E2,1.9902304E2,1.2989575E2,1.5550629E2,3.4845024E1,2.0682874E2,1.8464719E2,2.839383E2,3.0447113E2,3.1599588E0,2.4310791E1,7.8274084E2,9.692163E1,5.288861E2,6.8589325E2,0E0,0E0,0E0,0E0,0E0,0E0,0E0,0E0,0E0,0E0,0E0,0E0,0E0,0E0,0E0,0E0,0E0,0E0,0E0,0E0,0E0,0E0,0E0,0E0,0E0,0E0,0E0,0E0,0E0,0E0,0E0,0E0],"parents":[2147483647,0,0,1,1,2,2,3,3,4,4,5,5,6,6,7,7,8,8,9,9,10,10,11,11,12,12,13,13,14,14,15,15,16,16,17,17,18,18,19,19,20,20,21,21,22,22,23,23,24,24,25,25,26,26,27,27,28,28,29,29,30,30],"right_children":[2,4,6,8,10,12,14,16,18,20,22,24,26,28,30,32,34,36,38,40,42,44,46,48,50,52,54,56,58,60,62,-1,-1,-1,-1,-1,-1,-1,-1,-1,-1,-1,-1,-1,-1,-1,-1,-1,-1,-1,-1,-1,-1,-1,-1,-1,-1,-1,-1,-1,-1,-1,-1],"split_conditions":[-5.449156E-1,-1.4592499E0,-7.297913E-1,-2.0256977E0,-1.6200085E0,2.041915E-1,3.332628E-2,1.3141764E0,-1.7267805E0,-3.3445832E-1,-1.0251205E0,-5.1983106E-1,-1.1117167E0,1.258751E0,7.408256E-1,7.624644E-1,-2.2159235E0,-1.1239517E0,-2.472003E0,-1.0713016E0,-9.0292287E-1,6.100281E-2,-5.949041E-1,-2.2284216E-1,-8.888423E-1,-1.1920985E0,5.994225E-1,-4.2788737E-2,-2.1560611E-2,5.937447E-1,8.7659764E-1,-1.1730062E0,-6.2010854E-1,-1.3184665E-1,-6.915552E-1,-8.188459E-2,-4.9374005E-1,-8.895387E-1,-4.4727188E-1,-5.8867456E-3,5.1412064E-1,-3.91421E-2,-4.7919807E-1,-3.9085525E-1,-1.0830401E0,-1.071216E-1,-4.966751E-1,-2.605346E-1,2.5792608E-1,-6.04521E-1,-1.7909344E-1,6.218338E-3,-1.9307709E-1,7.980484E-2,2.8795025E-1,1.5747426E-2,3.0574355E-1,2.991751E-1,5.6621724E-1,2.3550434E-1,-1.4397303E-2,-1.7505814E-1,2.5241348E-1],"split_indices":[12,12,4,6,9,6,1,14,9,6,6,9,8,0,0,2,9,6,15,7,7,13,12,15,6,0,9,2,12,2,12,0,0,0,0,0,0,0,0,0,0,0,0,0,0,0,0,0,0,0,0,0,0,0,0,0,0,0,0,0,0,0,0],"split_type":[0,0,0,0,0,0,0,0,0,0,0,0,0,0,0,0,0,0,0,0,0,0,0,0,0,0,0,0,0,0,0,0,0,0,0,0,0,0,0,0,0,0,0,0,0,0,0,0,0,0,0,0,0,0,0,0,0,0,0,0,0,0,0],"sum_hessian":[1.748E3,4.26E2,1.322E3,1.98E2,2.28E2,2.13E2,1.109E3,7.4E1,1.24E2,2.9E1,1.99E2,1.81E2,3.2E1,4.85E2,6.24E2,2.8E1,4.6E1,5E1,7.4E1,2.2E1,7E0,8.4E1,1.15E2,4.3E1,1.38E2,3E0,2.9E1,3.85E2,1E2,4.16E2,2.08E2,1.3E1,1.5E1,1.8E1,2.8E1,3.2E1,1.8E1,8E0,6.6E1,1.1E1,1.1E1,5E0,2E0,8E1,4E0,1.02E2,1.3E1,1.6E1,2.7E1,1.9E1,1.19E2,1E0,2E0,9E0,2E1,1.57E2,2.28E2,2.1E1,7.9E1,2.98E2,1.18E2,1.6E2,4.8E1],"tree_param":{"num_deleted":"0","num_feature":"16","num_nodes":"63","size_leaf_vector":"1"}},{"base_weights":[-2.6554227E-2,-3.256846E0,1.0901103E0,-4.531778E0,-1.9616829E0,4.192142E-1,2.523481E0,-7.6927485E0,-4.006025E0,1.513441E0,-2.425656E0,2.1425001E-2,2.3972642E0,2.19249E0,3.8328164E0,-1.0083351E0,-5.130878E0,7.517912E-1,-4.1041784E0,2.4111981E0,-4.251462E0,-5.7886834E0,-2.057194E0,1.2328984E0,-4.7991538E-1,2.829881E0,-5.129768E-1,3.253788E0,1.6733228E0,2.530721E-1,3.9191465E0,-1.09873585E-1,-6.2870187E-1,-4.810732E-1,-2.2771242E-1,4.0559292E-1,-1.3852549E-1,-2.7355195E-3,-5.650379E-1,-1.133934E-1,-6.9543546E-1,-2.5915417E-1,-5.8870562E-3,-1.5294719E-1,2.3803416E-1,-3.30678E-1,-1.2949029E-3,2.9806697E-1,-2.6274386E-1,-2.4584158E-1,1.6783035E-1,1.1084341E-1,3.821255E-1,8.1202E-2,2.2851582E-1,7.56382E-2,-3.7677385E-2,4.0592036E-1,1.5152398E-1],"categories":[],"categories_nodes":[],"categories_segments":[],"categories_sizes":[],"default_left":[0,0,0,0,0,0,0,0,0,0,0,0,0,0,0,0,0,0,0,0,0,0,0,0,0,0,0,0,0,0,0,0,0,0,0,0,0,0,0,0,0,0,0,0,0,0,0,0,0,0,0,0,0,0,0,0,0,0,0],"id":14,"left_children":[1,3,5,7,9,11,13,15,17,19,21,23,25,27,29,-1,31,-1,33,35,37,39,41,43,45,47,49,51,53,55,57,-1,-1,-1,-1,-1,-1,-1,-1,-1,-1,-1,-1,-1,-1,-1,-1,-1,-1,-1,-1,-1,-1,-1,-1,-1,-1,-1,-1],"loss_changes":[6.290817E3,7.308677E2,1.2452314E3,3.431079E2,3.6484064E2,6.9552136E2,1.7058179E2,1.3812024E2,2.5142285E2,1.4998915E2,2.33443E2,4.4821637E2,1.8778644E2,1.7748438E2,2.4349365E1,0E0,7.234152E1,0E0,2.3948218E2,1.5547792E2,2.348214E1,9.520636E1,1.9205139E2,6.882877E2,6.890236E2,1.1398596E2,8.938601E1,1.2724548E2,1.1671387E2,1.2360079E0,2.078418E1,0E0,0E0,0E0,0E0,0E0,0E0,0E0,0E0,0E0,0E0,0E0,0E0,0E0,0E0,0E0,0E0,0E0,0E0,0E0,0E0,0E0,0E0,0E0,0E0,0E0,0E0,0E0,0E0],"parents":[2147483647,0,0,1,1,2,2,3,3,4,4,5,5,6,6,7,7,8,8,9,9,10,10,11,11,12,12,13,13,14,14,16,16,18,18,19,19,20,20,21,21,22,22,23,23,24,24,25,25,26,26,27,27,28,28,29,29,30,30],"right_children":[2,4,6,8,10,12,14,16,18,20,22,24,26,28,30,-1,32,-1,34,36,38,40,42,44,46,48,50,52,54,56,58,-1,-1,-1,-1,-1,-1,-1,-1,-1,-1,-1,-1,-1,-1,-1,-1,-1,-1,-1,-1,-1,-1,-1,-1,-1,-1,-1,-1],"split_conditions":[-4.9219877E-1,-1.3550736E0,7.4729717E-1,-2.5137713E0,-1.4702486E0,8.0084217E-1,1.2561132E0,-2.3011806E0,-2.8096042E0,2.0871491E0,-1.4299155E0,-1.10555165E-1,1.7450204E-1,6.4977723E-1,-6.809013E-1,-1.0083351E0,-2.3002298E0,7.517912E-1,1.8173668E0,-3.3445832E-1,1.4483249E0,-1.4829586E0,1.258751E0,-6.7417306E-1,-3.460066E-1,1.4483249E0,7.797792E-1,-9.960315E-1,8.017383E-1,1.4483249E0,3.6914108E0,-1.09873585E-1,-6.2870187E-1,-4.810732E-1,-2.2771242E-1,4.0559292E-1,-1.3852549E-1,-2.7355195E-3,-5.650379E-1,-1.133934E-1,-6.9543546E-1,-2.5915417E-1,-5.8870562E-3,-1.5294719E-1,2.3803416E-1,-3.30678E-1,-1.2949029E-3,2.9806697E-1,-2.6274386E-1,-2.4584158E-1,1.6783035E-1,1.1084341E-1,3.821255E-1,8.1202E-2,2.2851582E-1,7.56382E-2,-3.7677385E-2,4.0592036E-1,1.5152398E-1],"split_indices":[12,12,12,12,9,4,12,6,15,5,15,9,11,9,4,0,9,0,8,6,0,10,1,0,6,0,6,8,6,0,7,0,0,0,0,0,0,0,0,0,0,0,0,0,0,0,0,0,0,0,0,0,0,0,0,0,0,0,0],"split_type":[0,0,0,0,0,0,0,0,0,0,0,0,0,0,0,0,0,0,0,0,0,0,0,0,0,0,0,0,0,0,0,0,0,0,0,0,0,0,0,0,0,0,0,0,0,0,0,0,0,0,0,0,0,0,0,0,0,0,0],"sum_hessian":[1.742E3,4.47E2,1.295E3,2.24E2,2.23E2,8.83E2,4.12E2,3E1,1.94E2,2.6E1,1.97E2,7.36E2,1.47E2,3.31E2,8.1E1,1.4E1,1.6E1,1E0,1.93E2,2.3E1,3E0,1.8E1,1.79E2,2.15E2,5.21E2,1.28E2,1.9E1,1.07E2,2.24E2,2E0,7.9E1,4E0,1.2E1,1.38E2,5.5E1,1.6E1,7E0,1E0,2E0,4E0,1.4E1,1.41E2,3.8E1,6.3E1,1.52E2,7.3E1,4.48E2,1.25E2,3E0,1E1,9E0,2.3E1,8.4E1,9.4E1,1.3E2,1E0,1E0,7.4E1,5E0],"tree_param":{"num_deleted":"0","num_feature":"16","num_nodes":"59","size_leaf_vector":"1"}},{"base_weights":[-4.8701204E-2,-2.9313526E0,9.6482056E-1,-4.0715065E0,-1.8129647E0,1.9752197E0,1.7485902E-1,-5.199651E0,-2.4143593E0,-9.8757666E-1,-3.561934E0,1.3178675E0,4.476474E0,-4.7558373E-1,2.0491416E0,-6.243089E0,-3.742737E0,-1.1031101E0,-4.050502E0,-3.1284475E0,-3.3610474E-2,-2.0753243E0,-5.4482555E0,-3.7833773E-2,2.3191464E0,3.1702857E0,4.8857393E0,-1.5885239E0,1.0994854E0,1.0488104E0,2.7645302E0,-6.417169E-1,3.4064388E-1,-1.3095783E-1,-4.9888846E-1,-2.7362096E-1,2.224373E-1,3.37059E-2,-4.5339426E-1,-3.8037884E-1,8.081484E-2,3.3259165E-1,-9.494632E-2,2.875861E-1,-2.955945E-1,2.3137411E-2,-5.83461E-1,1.998884E-1,-8.0314025E-2,4.259006E-1,1.7657582E-1,3.5449025E-1,-2.446022E-2,-3.667806E-2,5.012156E-1,-2.8134593E-1,-2.9844088E-2,4.0887687E-1,-6.1038047E-2,5.9051096E-2,4.598671E-1,2.131507E-1,3.7624344E-1],"categories":[],"categories_nodes":[],"categories_segments":[],"categories_sizes":[],"default_left":[0,0,0,0,0,0,0,0,0,0,0,0,0,0,0,0,0,0,0,0,0,0,0,0,0,0,0,0,0,0,0,0,0,0,0,0,0,0,0,0,0,0,0,0,0,0,0,0,0,0,0,0,0,0,0,0,0,0,0,0,0,0,0],"id":15,"left_children":[1,3,5,7,9,11,13,15,17,19,21,23,25,27,29,31,33,35,37,39,41,43,45,47,49,51,53,55,57,59,61,-1,-1,-1,-1,-1,-1,-1,-1,-1,-1,-1,-1,-1,-1,-1,-1,-1,-1,-1,-1,-1,-1,-1,-1,-1,-1,-1,-1,-1,-1,-1,-1],"loss_changes":[5.121524E3,5.740796E2,1.0348894E3,4.080835E2,3.3139252E2,9.296533E2,8.897082E2,1.7882056E2,1.9505322E2,3.2462347E2,1.9620569E2,6.136483E2,4.759082E1,9.518496E2,1.3163818E2,1.4952368E2,1.6932703E2,2.9409424E2,8.849432E1,1.3334271E2,3.4468616E2,1.9598593E2,7.1569214E1,3.0243704E2,2.7158838E2,4.0524567E1,6.0270752E1,5.016856E2,1.1525321E3,1.2743635E2,6.0835266E1,0E0,0E0,0E0,0E0,0E0,0E0,0E0,0E0,0E0,0E0,0E0,0E0,0E0,0E0,0E0,0E0,0E0,0E0,0E0,0E0,0E0,0E0,0E0,0E0,0E0,0E0,0E0,0E0,0E0,0E0,0E0,0E0],"parents":[2147483647,0,0,1,1,2,2,3,3,4,4,5,5,6,6,7,7,8,8,9,9,10,10,11,11,12,12,13,13,14,14,15,15,16,16,17,17,18,18,19,19,20,20,21,21,22,22,23,23,24,24,25,25,26,26,27,27,28,28,29,29,30,30],"right_children":[2,4,6,8,10,12,14,16,18,20,22,24,26,28,30,32,34,36,38,40,42,44,46,48,50,52,54,56,58,60,62,-1,-1,-1,-1,-1,-1,-1,-1,-1,-1,-1,-1,-1,-1,-1,-1,-1,-1,-1,-1,-1,-1,-1,-1,-1,-1,-1,-1,-1,-1,-1,-1],"split_conditions":[-3.936775E-1,-1.4299155E0,3.332628E-2,1.5793675E0,-2.0121798E-1,1.258751E0,8.3265775E-1,-1.623026E0,-1.7267805E0,-6.7417306E-1,7.408256E-1,-4.2788737E-2,-2.1560611E-2,1.258751E0,-4.9299395E-1,3.4282646E-1,-8.624107E-1,-9.724038E-1,1.4606758E0,-6.372112E-1,3.332628E-2,-9.643486E-1,-1.1922083E0,-1.2314957E0,-8.935313E-1,4.0038645E-1,-2.2284216E-1,-7.928167E-2,3.332628E-2,1.7303684E0,1.258751E0,-6.417169E-1,3.4064388E-1,-1.3095783E-1,-4.9888846E-1,-2.7362096E-1,2.224373E-1,3.37059E-2,-4.5339426E-1,-3.8037884E-1,8.081484E-2,3.3259165E-1,-9.494632E-2,2.875861E-1,-2.955945E-1,2.3137411E-2,-5.83461E-1,1.998884E-1,-8.0314025E-2,4.259006E-1,1.7657582E-1,3.5449025E-1,-2.446022E-2,-3.667806E-2,5.012156E-1,-2.8134593E-1,-2.9844088E-2,4.0887687E-1,-6.1038047E-2,5.9051096E-2,4.598671E-1,2.131507E-1,3.7624344E-1],"split_indices":[15,15,1,8,9,0,12,6,9,0,1,2,12,1,5,7,7,10,11,9,0,14,15,2,8,8,15,10,0,7,1,0,0,0,0,0,0,0,0,0,0,0,0,0,0,0,0,0,0,0,0,0,0,0,0,0,0,0,0,0,0,0,0],"split_type":[0,0,0,0,0,0,0,0,0,0,0,0,0,0,0,0,0,0,0,0,0,0,0,0,0,0,0,0,0,0,0,0,0,0,0,0,0,0,0,0,0,0,0,0,0,0,0,0,0,0,0,0,0,0,0,0,0,0,0,0,0,0,0],"sum_hessian":[1.751E3,4.55E2,1.296E3,2.24E2,2.31E2,5.68E2,7.28E2,1.32E2,9.2E1,1.58E2,7.3E1,4.51E2,1.17E2,5.41E2,1.87E2,7.5E1,5.7E1,5.2E1,4E1,4.8E1,1.1E2,4.2E1,3.1E1,1.92E2,2.59E2,3E1,8.7E1,3.17E2,2.24E2,7.9E1,1.08E2,7.4E1,1E0,2E1,3.7E1,3.5E1,1.7E1,4E0,3.6E1,4.1E1,7E0,2.3E1,8.7E1,6E0,3.6E1,2E0,2.9E1,5.2E1,1.4E2,5.6E1,2.03E2,2.7E1,3E0,2E0,8.5E1,1.62E2,1.55E2,8.1E1,1.43E2,7.1E1,8E0,6.8E1,4E1],"tree_param":{"num_deleted":"0","num_feature":"16","num_nodes":"63","size_leaf_vector":"1"}},{"base_weights":[1.5023988E-2,-2.1715925E0,1.2034316E0,-3.1517694E0,-8.100476E-1,7.057183E-1,2.224197E0,-3.7166412E0,-6.9348484E-1,-1.785877E-1,-2.653106E0,2.2529938E0,2.5940317E-1,1.9072456E0,3.6054537E0,-2.1170268E0,-4.8275785E0,3.591022E0,-5.4918838E0,-4.3941128E-1,6.7401195E0,-3.7123988E0,3.1906953E-1,4.1569276E0,1.3393813E0,-2.503719E0,5.1151806E-1,1.7423431E0,3.7241566E0,4.4126124E0,-4.617405E-1,-3.7822267E-1,2.1572156E-1,-4.08389E-1,-7.5369126E-1,4.571235E-2,5.807753E-1,-7.678532E-1,-1.2075924E-1,9.789944E-2,-1.736305E-1,7.3060584E-1,1.6722432E-1,-5.947377E-1,-3.1167188E-1,2.533557E-1,-2.1769245E-1,-2.3841153E-1,4.8730364E-1,-2.5206608E-1,2.1296048E-1,-7.035937E-2,-5.850803E-1,4.0093705E-2,4.0803432E-1,1.18013956E-1,2.1865974E-1,4.775156E-1,2.2752278E-1,4.7136948E-1,1.6316529E-1,6.068907E-2,-2.0792022E-1],"categories":[],"categories_nodes":[],"categories_segments":[],"categories_sizes":[],"default_left":[0,0,0,0,0,0,0,0,0,0,0,0,0,0,0,0,0,0,0,0,0,0,0,0,0,0,0,0,0,0,0,0,0,0,0,0,0,0,0,0,0,0,0,0,0,0,0,0,0,0,0,0,0,0,0,0,0,0,0,0,0,0,0],"id":16,"left_children":[1,3,5,7,9,11,13,15,17,19,21,23,25,27,29,31,33,35,37,39,41,43,45,47,49,51,53,55,57,59,61,-1,-1,-1,-1,-1,-1,-1,-1,-1,-1,-1,-1,-1,-1,-1,-1,-1,-1,-1,-1,-1,-1,-1,-1,-1,-1,-1,-1,-1,-1,-1,-1],"loss_changes":[4.472191E3,8.061875E2,5.649043E2,4.8621484E2,2.9629962E2,5.180354E2,1.5291724E2,4.980227E2,1.3971594E3,3.47633E2,2.0583084E2,2.8666125E2,4.081093E2,8.309558E1,2.219898E2,8.551378E2,3.0772314E2,2.474375E2,2.9051105E2,3.420113E2,7.859253E0,4.5367615E1,1.0500762E2,2.6455914E2,3.5615207E2,2.911167E2,2.0989345E2,6.635364E1,2.5683167E1,3.919751E1,2.2003489E1,0E0,0E0,0E0,0E0,0E0,0E0,0E0,0E0,0E0,0E0,0E0,0E0,0E0,0E0,0E0,0E0,0E0,0E0,0E0,0E0,0E0,0E0,0E0,0E0,0E0,0E0,0E0,0E0,0E0,0E0,0E0,0E0],"parents":[2147483647,0,0,1,1,2,2,3,3,4,4,5,5,6,6,7,7,8,8,9,9,10,10,11,11,12,12,13,13,14,14,15,15,16,16,17,17,18,18,19,19,20,20,21,21,22,22,23,23,24,24,25,25,26,26,27,27,28,28,29,29,30,30],"right_children":[2,4,6,8,10,12,14,16,18,20,22,24,26,28,30,32,34,36,38,40,42,44,46,48,50,52,54,56,58,60,62,-1,-1,-1,-1,-1,-1,-1,-1,-1,-1,-1,-1,-1,-1,-1,-1,-1,-1,-1,-1,-1,-1,-1,-1,-1,-1,-1,-1,-1,-1,-1,-1],"split_conditions":[-1.478797E-1,-7.769115E-1,8.229266E-1,1.258751E0,7.880171E-1,-1.10555165E-1,1.258751E0,3.332628E-2,3.332628E-2,7.5058365E-1,1.1104789E0,-3.9036E-1,-3.6100358E-1,1.4403098E0,7.408256E-1,1.258751E0,-4.9330583E-1,-1.250698E0,-6.395328E-1,3.332628E-2,7.408256E-1,5.261402E-1,1.5035253E0,-8.81055E-1,-1.0839264E-1,4.1735592E-1,1.4471515E0,-5.3970045E-1,1.7594866E0,1.867609E0,1.4126912E-1,-3.7822267E-1,2.1572156E-1,-4.08389E-1,-7.5369126E-1,4.571235E-2,5.807753E-1,-7.678532E-1,-1.2075924E-1,9.789944E-2,-1.736305E-1,7.3060584E-1,1.6722432E-1,-5.947377E-1,-3.1167188E-1,2.533557E-1,-2.1769245E-1,-2.3841153E-1,4.8730364E-1,-2.5206608E-1,2.1296048E-1,-7.035937E-2,-5.850803E-1,4.0093705E-2,4.0803432E-1,1.18013956E-1,2.1865974E-1,4.775156E-1,2.2752278E-1,4.7136948E-1,1.6316529E-1,6.068907E-2,-2.0792022E-1],"split_indices":[12,6,12,1,11,9,0,1,0,5,4,6,6,6,1,0,9,10,4,1,0,3,14,5,6,2,10,5,7,5,2,0,0,0,0,0,0,0,0,0,0,0,0,0,0,0,0,0,0,0,0,0,0,0,0,0,0,0,0,0,0,0,0],"split_type":[0,0,0,0,0,0,0,0,0,0,0,0,0,0,0,0,0,0,0,0,0,0,0,0,0,0,0,0,0,0,0,0,0,0,0,0,0,0,0,0,0,0,0,0,0,0,0,0,0,0,0,0,0,0,0,0,0,0,0,0,0,0,0],"sum_hessian":[1.719E3,6.05E2,1.114E3,3.51E2,2.54E2,7.5E2,3.64E2,2.85E2,6.6E1,1.9E2,6.4E1,1.67E2,5.83E2,2.98E2,6.6E1,1.18E2,1.67E2,3.5E1,3.1E1,1.84E2,6E0,4.7E1,1.7E1,5.3E1,1.14E2,4.8E1,5.35E2,2.75E2,2.3E1,5.5E1,1.1E1,8.5E1,3.3E1,1.33E2,3.4E1,1.5E1,2E1,2E1,1.1E1,8.8E1,9.6E1,5E0,1E0,8E0,3.9E1,9E0,8E0,5E0,4.8E1,1.9E1,9.5E1,3.2E1,1.6E1,5.2E2,1.5E1,1.23E2,1.52E2,1.2E1,1.1E1,4.9E1,6E0,7E0,4E0],"tree_param":{"num_deleted":"0","num_feature":"16","num_nodes":"63","size_leaf_vector":"1"}},{"base_weights":[-4.454186E-2,-2.7896924E0,6.033771E-1,-7.5294294E0,-2.4585462E0,-5.8927715E-1,1.107814E0,-7.729901E0,-1.7599984E-1,-3.0857553E0,-6.245879E-1,1.3828561E0,-1.1710945E0,8.5999376E-1,2.2919693E0,-7.918405E-1,-2.0741616E-1,-1.9181335E0,-4.506822E0,2.9018276E0,-2.6867032E0,2.7216005E0,-2.9938364E-1,-1.5096381E0,1.2449152E0,2.446489E0,5.920628E-1,-2.81334E0,2.4647734E0,-2.9018506E-1,1.652356E-2,-5.516556E-1,-3.1863615E-1,7.01349E-2,6.1441E-1,-1.5252484E-1,-7.937353E-1,-6.739784E-2,3.731867E-1,-5.8082527E-1,5.7831634E-2,-4.5753583E-2,-2.4591258E-1,-2.8901864E-2,2.3912585E-1,-7.3283724E-3,3.1672296E-1,3.0021295E-2,2.0639281E-1,4.204769E-2,-6.1873156E-1,5.109207E-1,2.2598803E-1],"categories":[],"categories_nodes":[],"categories_segments":[],"categories_sizes":[],"default_left":[0,0,0,0,0,0,0,0,0,0,0,0,0,0,0,0,0,0,0,0,0,0,0,0,0,0,0,0,0,0,0,0,0,0,0,0,0,0,0,0,0,0,0,0,0,0,0,0,0,0,0,0,0],"id":17,"left_children":[1,3,5,7,9,11,13,15,-1,17,19,21,23,25,27,-1,-1,29,31,33,35,37,39,41,43,45,47,49,51,-1,-1,-1,-1,-1,-1,-1,-1,-1,-1,-1,-1,-1,-1,-1,-1,-1,-1,-1,-1,-1,-1,-1,-1],"loss_changes":[3.064493E3,4.9786914E2,8.393096E2,1.0684082E1,3.535077E2,4.7779938E2,2.856173E2,4.8984375E0,0E0,3.7298706E2,5.895463E2,2.147633E2,2.6443317E2,3.437094E2,1.5602917E2,0E0,0E0,2.6280847E2,1.1975366E2,2.0972734E2,2.9891153E2,1.8432849E2,2.1126979E2,2.80581E2,7.102771E1,2.1271606E2,2.983567E2,6.806654E1,7.7313354E1,0E0,0E0,0E0,0E0,0E0,0E0,0E0,0E0,0E0,0E0,0E0,0E0,0E0,0E0,0E0,0E0,0E0,0E0,0E0,0E0,0E0,0E0,0E0,0E0],"parents":[2147483647,0,0,1,1,2,2,3,3,4,4,5,5,6,6,7,7,9,9,10,10,11,11,12,12,13,13,14,14,17,17,18,18,19,19,20,20,21,21,22,22,23,23,24,24,25,25,26,26,27,27,28,28],"right_children":[2,4,6,8,10,12,14,16,-1,18,20,22,24,26,28,-1,-1,30,32,34,36,38,40,42,44,46,48,50,52,-1,-1,-1,-1,-1,-1,-1,-1,-1,-1,-1,-1,-1,-1,-1,-1,-1,-1,-1,-1,-1,-1,-1,-1],"split_conditions":[-7.98531E-1,-2.7000265E0,4.4540025E-2,2.0914766E-1,1.258751E0,-7.6519114E-1,1.3428785E0,1.8213072E0,-1.7599984E-1,3.332628E-2,3.332628E-2,-8.8393277E-1,6.4024156E-1,-1.10555165E-1,-5.5178154E-1,-7.918405E-1,-2.0741616E-1,7.408256E-1,-1.3757129E0,-1.1453787E0,-7.354803E-1,-6.7417306E-1,-7.5671E-1,3.332628E-2,-6.1180705E-1,-6.7417306E-1,7.6872873E-1,3.611279E-1,2.9617646E-1,-2.9018506E-1,1.652356E-2,-5.516556E-1,-3.1863615E-1,7.01349E-2,6.1441E-1,-1.5252484E-1,-7.937353E-1,-6.739784E-2,3.731867E-1,-5.8082527E-1,5.7831634E-2,-4.5753583E-2,-2.4591258E-1,-2.8901864E-2,2.3912585E-1,-7.3283724E-3,3.1672296E-1,3.0021295E-2,2.0639281E-1,4.204769E-2,-6.1873156E-1,5.109207E-1,2.2598803E-1],"split_indices":[12,15,12,4,1,9,10,5,0,1,0,7,6,9,4,0,0,0,15,10,13,0,8,0,10,0,11,6,6,0,0,0,0,0,0,0,0,0,0,0,0,0,0,0,0,0,0,0,0,0,0,0,0],"split_type":[0,0,0,0,0,0,0,0,0,0,0,0,0,0,0,0,0,0,0,0,0,0,0,0,0,0,0,0,0,0,0,0,0,0,0,0,0,0,0,0,0,0,0,0,0,0,0,0,0,0,0,0,0],"sum_hessian":[1.721E3,3.28E2,1.393E3,2E1,3.08E2,4.14E2,9.79E2,1.9E1,1E0,2.29E2,7.9E1,9.4E1,3.2E2,8.11E2,1.68E2,1.8E1,1E0,1.27E2,1.02E2,2.9E1,5E1,5.2E1,4.2E1,2.81E2,3.9E1,1.16E2,6.95E2,5E0,1.63E2,8.6E1,4.1E1,5.6E1,4.6E1,1.8E1,1.1E1,4.2E1,8E0,1.2E1,4E1,5E0,3.7E1,1.34E2,1.47E2,1.7E1,2.2E1,2.6E1,9E1,5.81E2,1.14E2,3E0,2E0,1E1,1.53E2],"tree_param":{"num_deleted":"0","num_feature":"16","num_nodes":"53","size_leaf_vector":"1"}},{"base_weights":[-3.0068785E-2,-2.8959854E0,5.150988E-1,-3.5757456E0,-9.553587E-1,-3.824928E-1,1.2041067E0,-2.2897677E0,-5.067743E0,2.3081825E0,-2.568022E0,1.7816442E0,-6.386513E-1,6.042802E-1,1.9280233E0,-2.3831789E-1,-3.2853642E0,-8.323819E0,-4.402201E0,-1.9072781E0,3.4574113E0,-5.075581E0,-8.674026E-1,2.4510014E0,1.1887045E0,1.7791732E-1,-1.2534947E0,1.520584E0,-2.9093072E-1,1.7977E0,3.9492545E0,-4.375064E-1,1.1963642E-1,-5.06798E-1,-1.8737347E-1,2.4647923E-1,-9.270491E-1,1.5470696E-2,-4.7040334E-1,1.2803288E-1,-2.8008652E-1,4.0115294E-1,2.3805713E-2,-6.1267346E-1,-2.7330098E-1,2.0120504E-1,-2.7919018E-1,1.02345444E-1,3.425149E-1,1.740842E-1,8.3195925E-2,-9.292268E-2,3.970663E-1,5.971684E-2,-2.7312055E-1,2.1748252E-1,2.0070227E-2,-1.0226952E-1,1.5650633E-1,2.0330845E-1,3.1648513E-2,1.2700272E-2,4.125219E-1],"categories":[],"categories_nodes":[],"categories_segments":[],"categories_sizes":[],"default_left":[0,0,0,0,0,0,0,0,0,0,0,0,0,0,0,0,0,0,0,0,0,0,0,0,0,0,0,0,0,0,0,0,0,0,0,0,0,0,0,0,0,0,0,0,0,0,0,0,0,0,0,0,0,0,0,0,0,0,0,0,0,0,0],"id":18,"left_children":[1,3,5,7,9,11,13,15,17,19,21,23,25,27,29,31,33,35,37,39,41,43,45,47,49,51,53,55,57,59,61,-1,-1,-1,-1,-1,-1,-1,-1,-1,-1,-1,-1,-1,-1,-1,-1,-1,-1,-1,-1,-1,-1,-1,-1,-1,-1,-1,-1,-1,-1,-1,-1],"loss_changes":[2.7372625E3,3.6594873E2,9.108154E2,3.85562E2,3.9538895E2,3.559296E2,3.6054395E2,2.3001001E2,1.6922705E2,1.27707504E2,2.0881763E2,2.407489E1,2.8790448E2,3.7531274E2,9.22074E1,2.3076096E2,1.8174994E2,1.7604907E2,1.1213684E2,2.0676455E1,3.4723053E1,3.25036E1,1.774041E2,3.9604416E1,6.036648E0,1.0408712E3,8.9589246E2,1.9471924E2,3.166915E2,1.2347778E2,1.4272827E1,0E0,0E0,0E0,0E0,0E0,0E0,0E0,0E0,0E0,0E0,0E0,0E0,0E0,0E0,0E0,0E0,0E0,0E0,0E0,0E0,0E0,0E0,0E0,0E0,0E0,0E0,0E0,0E0,0E0,0E0,0E0,0E0],"parents":[2147483647,0,0,1,1,2,2,3,3,4,4,5,5,6,6,7,7,8,8,9,9,10,10,11,11,12,12,13,13,14,14,15,15,16,16,17,17,18,18,19,19,20,20,21,21,22,22,23,23,24,24,25,25,26,26,27,27,28,28,29,29,30,30],"right_children":[2,4,6,8,10,12,14,16,18,20,22,24,26,28,30,32,34,36,38,40,42,44,46,48,50,52,54,56,58,60,62,-1,-1,-1,-1,-1,-1,-1,-1,-1,-1,-1,-1,-1,-1,-1,-1,-1,-1,-1,-1,-1,-1,-1,-1,-1,-1,-1,-1,-1,-1,-1,-1],"split_conditions":[-1.0734197E0,1.258751E0,-2.9354197E-1,3.332628E-2,3.332628E-2,-1.2314957E0,5.774549E-1,1.2620739E0,-3.3789468E-1,-1.543988E0,-6.395328E-1,-2.4048645E0,3.332628E-2,3.332628E-2,1.5747371E0,-6.7417306E-1,1.6784394E0,-1.0908252E0,-2.264428E0,-1.0940897E0,2.053897E0,3.9969128E-2,-4.7979537E-1,9.578008E-1,1.5035253E0,1.258751E0,3.332628E-2,-1.8332224E-2,3.2807872E-1,1.9678204E-1,-2.8476682E-1,-4.375064E-1,1.1963642E-1,-5.06798E-1,-1.8737347E-1,2.4647923E-1,-9.270491E-1,1.5470696E-2,-4.7040334E-1,1.2803288E-1,-2.8008652E-1,4.0115294E-1,2.3805713E-2,-6.1267346E-1,-2.7330098E-1,2.0120504E-1,-2.7919018E-1,1.02345444E-1,3.425149E-1,1.740842E-1,8.3195925E-2,-9.292268E-2,3.970663E-1,5.971684E-2,-2.7312055E-1,2.1748252E-1,2.0070227E-2,-1.0226952E-1,1.5650633E-1,2.0330845E-1,3.1648513E-2,1.2700272E-2,4.125219E-1],"split_indices":[12,1,4,1,0,2,13,11,3,10,4,2,1,1,12,0,8,4,9,7,14,9,6,11,14,0,0,14,3,3,4,0,0,0,0,0,0,0,0,0,0,0,0,0,0,0,0,0,0,0,0,0,0,0,0,0,0,0,0,0,0,0,0],"split_type":[0,0,0,0,0,0,0,0,0,0,0,0,0,0,0,0,0,0,0,0,0,0,0,0,0,0,0,0,0,0,0,0,0,0,0,0,0,0,0,0,0,0,0,0,0,0,0,0,0,0,0,0,0,0,0,0,0,0,0,0,0,0,0],"sum_hessian":[1.75E3,2.79E2,1.471E3,2.06E2,7.3E1,6.39E2,8.32E2,1.12E2,9.4E1,2.4E1,4.9E1,6.7E1,5.72E2,4.56E2,3.76E2,3.7E1,7.5E1,1.4E1,8E1,5E0,1.9E1,1.9E1,3E1,3E1,3.7E1,2.46E2,3.26E2,2.25E2,2.31E2,3.55E2,2.1E1,9E0,2.8E1,3.2E1,4.3E1,1E0,1.3E1,5E0,7.5E1,1E0,4E0,1.6E1,3E0,1.2E1,7E0,1.2E1,1.8E1,1.3E1,1.7E1,1.3E1,2.4E1,1.91E2,5.5E1,1.45E2,1.81E2,1.5E2,7.5E1,1.66E2,6.5E1,3.06E2,4.9E1,1E0,2E1],"tree_param":{"num_deleted":"0","num_feature":"16","num_nodes":"63","size_leaf_vector":"1"}},{"base_weights":[2.529001E-2,-1.5443007E0,7.78672E-1,-2.0833664E0,4.0538558E-1,3.234447E-1,1.6802179E0,-1.3323082E0,-3.0817022E0,1.818077E0,-9.253468E-1,-6.4940435E-1,7.580214E-1,2.5013487E0,1.3114694E0,-2.175944E0,1.9081974E0,-1.139639E0,-5.444466E0,4.580227E0,9.566265E-1,3.9484465E0,-1.6921109E0,-1.5266898E0,8.1052855E-2,2.299432E0,8.7255955E-2,2.0511312E0,4.672391E0,1.947413E0,1.3096005E-1,-4.394708E-2,-2.9065704E-1,2.7098164E-1,-8.5890895E-1,-5.695495E-1,-6.531995E-2,-6.646829E-1,-2.7594122E-1,5.654453E-1,-1.2434184E-1,-3.3601813E-2,3.2575297E-1,-4.6104813E-1,7.052495E-1,3.0799636E-1,-2.3263593E-1,-2.6184115E-1,-4.2720094E-2,3.0018274E-2,-2.9714236E-1,5.6724006E-1,1.306469E-1,1.7274062E-1,-8.958182E-2,3.8240973E-2,2.532121E-1,5.2780694E-1,2.379462E-1,1.5333207E-1,3.0689615E-1,1.8324444E-1,-1.3767175E-1],"categories":[],"categories_nodes":[],"categories_segments":[],"categories_sizes":[],"default_left":[0,0,0,0,0,0,0,0,0,0,0,0,0,0,0,0,0,0,0,0,0,0,0,0,0,0,0,0,0,0,0,0,0,0,0,0,0,0,0,0,0,0,0,0,0,0,0,0,0,0,0,0,0,0,0,0,0,0,0,0,0,0,0],"id":19,"left_children":[1,3,5,7,9,11,13,15,17,19,21,23,25,27,29,31,33,35,37,39,41,43,45,47,49,51,53,55,57,59,61,-1,-1,-1,-1,-1,-1,-1,-1,-1,-1,-1,-1,-1,-1,-1,-1,-1,-1,-1,-1,-1,-1,-1,-1,-1,-1,-1,-1,-1,-1,-1,-1],"loss_changes":[2.05639E3,5.9361365E2,4.8168634E2,3.273097E2,2.329118E2,3.311043E2,1.1601904E2,6.985392E2,8.610477E2,1.3838577E2,2.4585243E2,1.5520206E2,5.5915283E2,1.0868671E2,2.0544696E2,2.5500275E2,4.6926056E2,2.2897531E2,2.5607324E2,9.461362E1,1.4088435E2,2.716213E2,1.7665916E2,1.309183E2,8.985419E1,5.418635E2,6.110306E2,8.090073E1,1.5216614E1,7.796185E1,2.5135587E2,0E0,0E0,0E0,0E0,0E0,0E0,0E0,0E0,0E0,0E0,0E0,0E0,0E0,0E0,0E0,0E0,0E0,0E0,0E0,0E0,0E0,0E0,0E0,0E0,0E0,0E0,0E0,0E0,0E0,0E0,0E0,0E0],"parents":[2147483647,0,0,1,1,2,2,3,3,4,4,5,5,6,6,7,7,8,8,9,9,10,10,11,11,12,12,13,13,14,14,15,15,16,16,17,17,18,18,19,19,20,20,21,21,22,22,23,23,24,24,25,25,26,26,27,27,28,28,29,29,30,30],"right_children":[2,4,6,8,10,12,14,16,18,20,22,24,26,28,30,32,34,36,38,40,42,44,46,48,50,52,54,56,58,60,62,-1,-1,-1,-1,-1,-1,-1,-1,-1,-1,-1,-1,-1,-1,-1,-1,-1,-1,-1,-1,-1,-1,-1,-1,-1,-1,-1,-1,-1,-1,-1,-1],"split_conditions":[-2.5378996E-1,-8.168524E-2,8.017383E-1,7.408256E-1,6.014138E-1,-6.7417306E-1,3.332628E-2,1.258751E0,7.408256E-1,-2.1531437E-1,3.332628E-2,2.3316793E-1,3.332628E-2,1.258751E0,7.408256E-1,5.7909083E-1,-4.4842693E-1,-1.3748493E0,-7.769115E-1,1.4341646E-1,-4.051588E-1,-1.1920985E0,-1.0776316E0,-5.8126893E-2,8.644207E-1,1.739249E-1,3.332628E-2,-1.0659437E0,1.1702752E0,5.937447E-1,-5.0457813E-2,-4.394708E-2,-2.9065704E-1,2.7098164E-1,-8.5890895E-1,-5.695495E-1,-6.531995E-2,-6.646829E-1,-2.7594122E-1,5.654453E-1,-1.2434184E-1,-3.3601813E-2,3.2575297E-1,-4.6104813E-1,7.052495E-1,3.0799636E-1,-2.3263593E-1,-2.6184115E-1,-4.2720094E-2,3.0018274E-2,-2.9714236E-1,5.6724006E-1,1.306469E-1,1.7274062E-1,-8.958182E-2,3.8240973E-2,2.532121E-1,5.2780694E-1,2.379462E-1,1.5333207E-1,3.0689615E-1,1.8324444E-1,-1.3767175E-1],"split_indices":[12,4,6,0,2,0,0,1,1,6,0,6,0,1,1,14,7,10,6,2,13,0,7,2,7,9,1,3,6,2,2,0,0,0,0,0,0,0,0,0,0,0,0,0,0,0,0,0,0,0,0,0,0,0,0,0,0,0,0,0,0,0,0],"split_type":[0,0,0,0,0,0,0,0,0,0,0,0,0,0,0,0,0,0,0,0,0,0,0,0,0,0,0,0,0,0,0,0,0,0,0,0,0,0,0,0,0,0,0,0,0,0,0,0,0,0,0,0,0,0,0,0,0,0,0,0,0,0,0],"sum_hessian":[1.737E3,5.63E2,1.174E3,4.41E2,1.22E2,7.81E2,3.93E2,2.53E2,1.88E2,5.9E1,6.3E1,2.41E2,5.4E2,1.2E2,2.73E2,2.01E2,5.2E1,1.04E2,8.4E1,1.3E1,4.6E1,8E0,5.5E1,1.09E2,1.32E2,1.63E2,3.77E2,1.01E2,1.9E1,1.77E2,9.6E1,6E1,1.41E2,4.9E1,3E0,9E0,9.5E1,5.7E1,2.7E1,1.1E1,2E0,3E1,1.6E1,2E0,6E0,6E0,4.9E1,5.4E1,5.5E1,1.24E2,8E0,3.6E1,1.27E2,1.41E2,2.36E2,2.3E1,7.8E1,1.4E1,5E0,1.31E2,4.6E1,4.5E1,5.1E1],"tree_param":{"num_deleted":"0","num_feature":"16","num_nodes":"63","size_leaf_vector":"1"}},{"base_weights":[7.096985E-3,-1.7671846E0,6.101858E-1,-3.4178693E0,-1.2891455E0,2.7693558E-1,1.5717641E0,-4.901032E0,-2.6142068E0,-2.726476E0,-8.44555E-1,1.2884121E0,-9.781054E-2,-2.6541674E0,1.7893153E0,-1.6249187E0,-6.0154357E0,3.247468E0,-2.9397144E0,-1.4776872E0,-3.8247337E0,1.9884408E0,-1.1966275E0,-9.6542174E-1,2.071286E0,-2.2453618E0,1.9117627E-1,-1.1497071E0,-4.6391525E0,4.58784E0,1.6091144E0,-2.6743093E-1,3.9097977E-1,-2.9694602E-1,-7.543206E-1,7.232338E-1,-4.9160134E-2,-1.6923515E-1,-3.990554E-1,-2.1736161E-1,3.272816E-2,-4.0902153E-1,1.0784264E-1,-8.9491226E-2,2.9048923E-1,-4.1150644E-2,-2.6948288E-1,-1.8965511E-1,5.5324443E-2,6.370399E-1,1.291258E-1,-1.2894827E-1,-4.7660145E-1,1.5385145E-1,-1.0831228E-2,-3.1582743E-1,4.492275E-2,-6.2422884E-1,-4.2087555E-2,5.1015955E-1,1.4728039E-2,-1.654719E-1,1.736859E-1],"categories":[],"categories_nodes":[],"categories_segments":[],"categories_sizes":[],"default_left":[0,0,0,0,0,0,0,0,0,0,0,0,0,0,0,0,0,0,0,0,0,0,0,0,0,0,0,0,0,0,0,0,0,0,0,0,0,0,0,0,0,0,0,0,0,0,0,0,0,0,0,0,0,0,0,0,0,0,0,0,0,0,0],"id":20,"left_children":[1,3,5,7,9,11,13,15,17,19,21,23,25,27,29,31,33,35,37,39,41,43,45,47,49,51,53,55,57,59,61,-1,-1,-1,-1,-1,-1,-1,-1,-1,-1,-1,-1,-1,-1,-1,-1,-1,-1,-1,-1,-1,-1,-1,-1,-1,-1,-1,-1,-1,-1,-1,-1],"loss_changes":[1.8897156E3,3.4910693E2,4.2191278E2,1.0638391E2,2.2071655E2,3.71592E2,3.1641113E2,1.14356445E2,1.37384E2,1.0681055E2,2.6968793E2,4.6958344E2,4.4478888E2,4.5433952E1,1.555055E2,6.85368E1,9.3939575E1,6.3154247E1,7.713635E1,5.0956573E1,6.0384094E1,8.18732E1,2.8001938E2,9.862042E1,6.5239966E2,1.9865656E2,2.5518643E2,3.6746025E1,4.4710068E1,4.2594482E1,1.3003967E2,0E0,0E0,0E0,0E0,0E0,0E0,0E0,0E0,0E0,0E0,0E0,0E0,0E0,0E0,0E0,0E0,0E0,0E0,0E0,0E0,0E0,0E0,0E0,0E0,0E0,0E0,0E0,0E0,0E0,0E0,0E0,0E0],"parents":[2147483647,0,0,1,1,2,2,3,3,4,4,5,5,6,6,7,7,8,8,9,9,10,10,11,11,12,12,13,13,14,14,15,15,16,16,17,17,18,18,19,19,20,20,21,21,22,22,23,23,24,24,25,25,26,26,27,27,28,28,29,29,30,30],"right_children":[2,4,6,8,10,12,14,16,18,20,22,24,26,28,30,32,34,36,38,40,42,44,46,48,50,52,54,56,58,60,62,-1,-1,-1,-1,-1,-1,-1,-1,-1,-1,-1,-1,-1,-1,-1,-1,-1,-1,-1,-1,-1,-1,-1,-1,-1,-1,-1,-1,-1,-1,-1,-1],"split_conditions":[-5.100071E-1,-2.0106957E0,8.3825225E-1,1.285067E0,-6.7417306E-1,-1.2477583E-1,-5.743461E-1,8.11667E-1,1.3230948E0,-1.1544459E0,-1.0434495E0,-6.7417306E-1,-2.746951E-1,9.5539415E-1,5.630845E-4,7.933211E-1,-1.4230316E0,3.332628E-2,-2.184831E0,-9.9680597E-1,8.2535066E-2,-1.1453787E0,1.258751E0,-5.8126893E-2,3.332628E-2,4.4878292E-1,-1.2314957E0,-1.19479515E-1,1.1929855E0,1.3142508E-1,9.4500385E-2,-2.6743093E-1,3.9097977E-1,-2.9694602E-1,-7.543206E-1,7.232338E-1,-4.9160134E-2,-1.6923515E-1,-3.990554E-1,-2.1736161E-1,3.272816E-2,-4.0902153E-1,1.0784264E-1,-8.9491226E-2,2.9048923E-1,-4.1150644E-2,-2.6948288E-1,-1.8965511E-1,5.5324443E-2,6.370399E-1,1.291258E-1,-1.2894827E-1,-4.7660145E-1,1.5385145E-1,-1.0831228E-2,-3.1582743E-1,4.492275E-2,-6.2422884E-1,-4.2087555E-2,5.1015955E-1,1.4728039E-2,-1.654719E-1,1.736859E-1],"split_indices":[12,12,10,14,0,9,4,5,14,10,7,0,6,9,6,5,13,0,9,4,4,10,0,2,0,9,2,2,15,4,15,0,0,0,0,0,0,0,0,0,0,0,0,0,0,0,0,0,0,0,0,0,0,0,0,0,0,0,0,0,0,0,0],"split_type":[0,0,0,0,0,0,0,0,0,0,0,0,0,0,0,0,0,0,0,0,0,0,0,0,0,0,0,0,0,0,0,0,0,0,0,0,0,0,0,0,0,0,0,0,0,0,0,0,0,0,0,0,0,0,0,0,0,0,0,0,0,0,0],"sum_hessian":[1.764E3,4.47E2,1.317E3,9.9E1,3.48E2,9.79E2,3.38E2,3.3E1,6.6E1,8.1E1,2.67E2,2.64E2,7.15E2,1.6E1,3.22E2,9E0,2.4E1,3E0,6.3E1,3.9E1,4.2E1,2.9E1,2.38E2,6.8E1,1.96E2,8.4E1,6.31E2,1E1,6E0,1.8E1,3.04E2,8E0,1E0,9E0,1.5E1,1E0,2E0,3E1,3.3E1,2.8E1,1.1E1,4E1,2E0,7E0,2.2E1,1.57E2,8.1E1,4.2E1,2.6E1,2.9E1,1.67E2,6.2E1,2.2E1,1.14E2,5.17E2,4E0,6E0,4E0,2E0,1.6E1,2E0,1.1E1,2.93E2],"tree_param":{"num_deleted":"0","num_feature":"16","num_nodes":"63","size_leaf_vector":"1"}},{"base_weights":[-5.344131E-3,-1.1591563E0,8.3681804E-1,-3.0095124E0,-8.0753946E-1,-1.1023213E0,9.371522E-1,-7.119198E0,-2.6425705E0,9.682887E-2,-1.5120816E0,4.938779E-1,-3.9674463E0,2.78294E-1,1.188695E0,-7.943319E-2,-8.812826E0,-1.0812383E0,-3.8996377E0,-6.774744E-1,2.5238583E0,-2.554024E-1,-2.5802374E0,-1.3118604E0,1.456377E0,-4.1912365E0,-8.150863E-3,-3.5969028E-1,1.2755357E0,2.1387923E0,8.511583E-1,-9.951912E-1,-9.8915674E-2,-2.197979E-1,8.5649535E-2,-4.071115E-1,7.154706E-2,9.829534E-2,-1.8423867E-1,3.4041283E-1,1.0386691E-1,-1.9638675E-1,2.051013E-1,3.8703363E-2,-3.1913894E-1,-2.3326102E-1,5.8371127E-2,3.922844E-1,6.903375E-2,-5.9973907E-2,-4.3782216E-1,-1.2170248E-2,-2.8838676E-1,4.743456E-1,1.1255633E-1,3.0885103E-1,1.2262093E-2,1.6940702E-1,3.716996E-3],"categories":[],"categories_nodes":[],"categories_segments":[],"categories_sizes":[],"default_left":[0,0,0,0,0,0,0,0,0,0,0,0,0,0,0,0,0,0,0,0,0,0,0,0,0,0,0,0,0,0,0,0,0,0,0,0,0,0,0,0,0,0,0,0,0,0,0,0,0,0,0,0,0,0,0,0,0,0,0],"id":21,"left_children":[1,3,5,7,9,11,13,15,17,19,21,23,25,27,29,-1,31,33,35,37,39,41,43,45,47,49,-1,51,53,55,57,-1,-1,-1,-1,-1,-1,-1,-1,-1,-1,-1,-1,-1,-1,-1,-1,-1,-1,-1,-1,-1,-1,-1,-1,-1,-1,-1,-1],"loss_changes":[1.6926945E3,4.7577283E2,1.9695697E2,1.5762488E2,3.945519E2,2.3062494E2,1.5843951E2,8.940744E1,2.0971777E2,5.128677E2,4.664715E2,5.926527E1,1.5311768E1,1.6969453E2,2.2041968E2,0E0,5.253882E1,1.10079834E2,5.0395935E1,4.022013E2,8.275049E1,6.3843726E2,3.4216443E2,2.4580423E1,3.8858967E1,8.790649E0,0E0,9.7566956E1,4.875055E1,3.4619897E2,3.519168E2,0E0,0E0,0E0,0E0,0E0,0E0,0E0,0E0,0E0,0E0,0E0,0E0,0E0,0E0,0E0,0E0,0E0,0E0,0E0,0E0,0E0,0E0,0E0,0E0,0E0,0E0,0E0,0E0],"parents":[2147483647,0,0,1,1,2,2,3,3,4,4,5,5,6,6,7,7,8,8,9,9,10,10,11,11,12,12,13,13,14,14,16,16,17,17,18,18,19,19,20,20,21,21,22,22,23,23,24,24,25,25,27,27,28,28,29,29,30,30],"right_children":[2,4,6,8,10,12,14,16,18,20,22,24,26,28,30,-1,32,34,36,38,40,42,44,46,48,50,-1,52,54,56,58,-1,-1,-1,-1,-1,-1,-1,-1,-1,-1,-1,-1,-1,-1,-1,-1,-1,-1,-1,-1,-1,-1,-1,-1,-1,-1,-1,-1],"split_conditions":[4.4540025E-2,-1.9256848E0,-8.4512156E-1,-2.8912575E0,3.332628E-2,7.046708E-2,-6.7417306E-1,1.3422147E0,-2.113837E0,1.258751E0,-5.0457813E-2,9.071754E-2,-8.501359E-1,6.4783114E-1,3.332628E-2,-7.943319E-2,1.4724666E0,1.258751E0,-5.619373E-1,4.3258017E-1,5.4187053E-1,1.258751E0,-9.991393E-1,5.4912712E-2,1.4590727E-1,-1.0155973E0,-8.150863E-3,7.954723E-1,5.0996715E-1,8.859428E-1,3.332628E-2,-9.951912E-1,-9.8915674E-2,-2.197979E-1,8.5649535E-2,-4.071115E-1,7.154706E-2,9.829534E-2,-1.8423867E-1,3.4041283E-1,1.0386691E-1,-1.9638675E-1,2.051013E-1,3.8703363E-2,-3.1913894E-1,-2.3326102E-1,5.8371127E-2,3.922844E-1,6.903375E-2,-5.9973907E-2,-4.3782216E-1,-1.2170248E-2,-2.8838676E-1,4.743456E-1,1.1255633E-1,3.0885103E-1,1.2262093E-2,1.6940702E-1,3.716996E-3],"split_indices":[12,12,4,12,1,13,0,11,9,0,2,3,4,6,0,0,8,1,10,3,5,1,7,6,15,7,0,9,12,7,1,0,0,0,0,0,0,0,0,0,0,0,0,0,0,0,0,0,0,0,0,0,0,0,0,0,0,0,0],"split_type":[0,0,0,0,0,0,0,0,0,0,0,0,0,0,0,0,0,0,0,0,0,0,0,0,0,0,0,0,0,0,0,0,0,0,0,0,0,0,0,0,0,0,0,0,0,0,0,0,0,0,0,0,0,0,0,0,0,0,0],"sum_hessian":[1.74E3,7.34E2,1.006E3,1.16E2,6.18E2,4.9E1,9.57E2,8E0,1.08E2,2.71E2,3.47E2,3.2E1,1.7E1,2.65E2,6.92E2,2E0,6E0,4.9E1,5.9E1,2.06E2,6.5E1,1.6E2,1.87E2,1.1E1,2.1E1,1.6E1,1E0,1.62E2,1.03E2,1.8E2,5.12E2,5E0,1E0,3.1E1,1.8E1,5.7E1,2E0,8.5E1,1.21E2,4E1,2.5E1,9.2E1,6.8E1,3.2E1,1.55E2,7E0,4E0,4E0,1.7E1,1E0,1.5E1,1.49E2,1.3E1,3E0,1E2,1.22E2,5.8E1,2.51E2,2.61E2],"tree_param":{"num_deleted":"0","num_feature":"16","num_nodes":"59","size_leaf_vector":"1"}},{"base_weights":[5.8175176E-2,-9.02074E-1,8.121034E-1,-1.3794587E0,5.0766194E-1,5.308942E-1,1.6547034E0,-6.886526E-1,-2.232816E0,3.2880154E0,-9.850286E-1,1.1450621E0,9.342252E-2,-4.8390564E-1,1.9131722E0,6.052842E-2,-2.984996E0,-2.8120184E0,-1.0619175E0,3.9560194E0,-5.9200373E0,2.4656596E0,-2.3245912E0,3.5678235E-1,2.5520139E0,6.6633016E-1,-1.7680342E0,4.2052642E-1,-1.482251E0,-1.9900268E0,1.9958146E0,2.7913302E-1,-2.2786133E-2,-6.754288E-1,-2.395461E-1,-8.0723333E-1,-2.5703463E-1,-2.2574034E-1,-4.4586584E-2,-8.485878E-2,4.7576568E-1,-8.120677E-1,1.4412613E-1,9.9600844E-2,7.484938E-1,-3.0367574E-1,1.8601023E-1,3.710401E-1,-3.1925802E-4,3.4934703E-1,1.753926E-1,-2.5748938E-2,1.9401215E-1,-4.378422E-1,-1.9049108E-2,-2.886585E-1,3.121664E-2,-3.3821183E-1,6.54068E-3,1.3886206E-1,2.5412667E-1],"categories":[],"categories_nodes":[],"categories_segments":[],"categories_sizes":[],"default_left":[0,0,0,0,0,0,0,0,0,0,0,0,0,0,0,0,0,0,0,0,0,0,0,0,0,0,0,0,0,0,0,0,0,0,0,0,0,0,0,0,0,0,0,0,0,0,0,0,0,0,0,0,0,0,0,0,0,0,0,0,0],"id":22,"left_children":[1,3,5,7,9,11,13,15,17,19,21,23,25,27,29,31,33,35,37,39,41,43,45,47,49,51,53,-1,55,57,59,-1,-1,-1,-1,-1,-1,-1,-1,-1,-1,-1,-1,-1,-1,-1,-1,-1,-1,-1,-1,-1,-1,-1,-1,-1,-1,-1,-1,-1,-1],"loss_changes":[1.2575251E3,5.14862E2,2.296709E2,3.3506934E2,8.08379E2,1.9629886E2,1.3524744E2,5.455401E2,1.6995166E2,4.4168878E2,5.927781E2,3.3624725E2,4.5761566E2,1.3263136E2,7.39693E1,1.8964447E2,1.5714642E2,1.9536731E2,6.2330887E1,2.5053668E2,9.270187E1,2.581021E2,2.7982672E2,2.3662671E2,7.577142E1,3.864746E2,4.1508386E2,0E0,5.886021E1,1.4527971E1,6.7015686E1,0E0,0E0,0E0,0E0,0E0,0E0,0E0,0E0,0E0,0E0,0E0,0E0,0E0,0E0,0E0,0E0,0E0,0E0,0E0,0E0,0E0,0E0,0E0,0E0,0E0,0E0,0E0,0E0,0E0,0E0],"parents":[2147483647,0,0,1,1,2,2,3,3,4,4,5,5,6,6,7,7,8,8,9,9,10,10,11,11,12,12,13,13,14,14,15,15,16,16,17,17,18,18,19,19,20,20,21,21,22,22,23,23,24,24,25,25,26,26,28,28,29,29,30,30],"right_children":[2,4,6,8,10,12,14,16,18,20,22,24,26,28,30,32,34,36,38,40,42,44,46,48,50,52,54,-1,56,58,60,-1,-1,-1,-1,-1,-1,-1,-1,-1,-1,-1,-1,-1,-1,-1,-1,-1,-1,-1,-1,-1,-1,-1,-1,-1,-1,-1,-1,-1,-1],"split_conditions":[7.578296E-2,1.258751E0,1.032849E0,6.1794066E-1,3.332628E-2,3.332628E-2,-2.2835527E-1,7.408256E-1,1.5604974E0,3.8713667E-1,-1.4248675E-1,7.408256E-1,5.937447E-1,5.002085E-1,9.4500385E-2,-1.304052E0,-1.3992251E0,-2.8912575E0,-1.1955972E0,-1.4976057E0,5.7268876E-1,9.1487575E-1,1.0014166E0,-1.169458E0,5.479222E-1,1.258751E0,4.8306143E-1,4.2052642E-1,1.1523329E0,7.781093E-1,8.0365247E-1,2.7913302E-1,-2.2786133E-2,-6.754288E-1,-2.395461E-1,-8.0723333E-1,-2.5703463E-1,-2.2574034E-1,-4.4586584E-2,-8.485878E-2,4.7576568E-1,-8.120677E-1,1.4412613E-1,9.9600844E-2,7.484938E-1,-3.0367574E-1,1.8601023E-1,3.710401E-1,-3.1925802E-4,3.4934703E-1,1.753926E-1,-2.5748938E-2,1.9401215E-1,-4.378422E-1,-1.9049108E-2,-2.886585E-1,3.121664E-2,-3.3821183E-1,6.54068E-3,1.3886206E-1,2.5412667E-1],"split_indices":[15,1,10,14,0,1,4,1,8,7,2,0,2,9,15,6,6,12,10,10,4,9,4,14,6,1,12,0,15,2,7,0,0,0,0,0,0,0,0,0,0,0,0,0,0,0,0,0,0,0,0,0,0,0,0,0,0,0,0,0,0],"split_type":[0,0,0,0,0,0,0,0,0,0,0,0,0,0,0,0,0,0,0,0,0,0,0,0,0,0,0,0,0,0,0,0,0,0,0,0,0,0,0,0,0,0,0,0,0,0,0,0,0,0,0,0,0,0,0,0,0,0,0,0,0],"sum_hessian":[1.735E3,7.63E2,9.72E2,5.7E2,1.93E2,7.3E2,2.42E2,3.16E2,2.54E2,6.7E1,1.26E2,3.03E2,4.27E2,2.6E1,2.16E2,2.39E2,7.7E1,1.69E2,8.5E1,6.3E1,4E0,3.5E1,9.1E1,1.95E2,1.08E2,3.27E2,1E2,4E0,2.2E1,4E0,2.12E2,2.2E1,2.17E2,9E0,6.8E1,6E0,1.63E2,2.8E1,5.7E1,9E0,5.4E1,3E0,1E0,2.8E1,7E0,7.8E1,1.3E1,1.8E1,1.77E2,4.8E1,6E1,1.9E2,1.37E2,3.7E1,6.3E1,1.2E1,1E1,2E0,2E0,1.02E2,1.1E2],"tree_param":{"num_deleted":"0","num_feature":"16","num_nodes":"61","size_leaf_vector":"1"}},{"base_weights":[-5.012469E-2,-1.0789008E0,5.1049376E-1,-6.7763596E0,-1.0026613E0,2.0411302E-1,1.0983145E0,-8.449894E-1,-1.17050424E-1,-1.4021548E0,-2.945324E-1,1.257865E0,-2.7907548E-2,2.5883403E0,9.6659E-1,-5.3729453E0,-1.2184066E0,2.456828E-2,-2.9281366E0,2.636361E0,1.85279E-1,-7.360375E-1,5.917913E-1,7.6158726E-1,4.4861045E0,1.5915353E0,6.578704E-1,1.7292137E-1,-5.924906E-1,-9.584465E-2,-3.05685E-1,1.2551197E-1,-5.1563468E-2,-3.6771423E-1,-5.8381706E-2,-1.7535131E-2,3.6866572E-1,-2.7122286E-1,9.897437E-2,2.947913E-1,-9.357563E-2,1.0510313E-1,-8.9360654E-2,1.932736E-1,-5.2924417E-3,6.336555E-1,2.5484094E-1,1.23891704E-1,3.3636558E-1,1.2466215E-1,-4.6438303E-2],"categories":[],"categories_nodes":[],"categories_segments":[],"categories_sizes":[],"default_left":[0,0,0,0,0,0,0,0,0,0,0,0,0,0,0,0,0,0,0,0,0,0,0,0,0,0,0,0,0,0,0,0,0,0,0,0,0,0,0,0,0,0,0,0,0,0,0,0,0,0,0],"id":23,"left_children":[1,3,5,7,9,11,13,-1,-1,15,17,19,21,23,25,27,29,31,33,35,37,39,41,43,45,47,49,-1,-1,-1,-1,-1,-1,-1,-1,-1,-1,-1,-1,-1,-1,-1,-1,-1,-1,-1,-1,-1,-1,-1,-1],"loss_changes":[1.0121717E3,2.6208142E2,2.0436597E2,6.516208E1,1.7271753E2,1.829152E2,7.38483E1,0E0,0E0,2.7873724E2,1.8663739E2,1.9911649E2,2.6987552E2,1.0405258E2,6.821588E1,7.688736E1,1.7629083E2,1.3293193E2,3.999504E1,1.7488123E2,1.8216699E2,2.1391994E2,2.2468575E2,1.6318832E1,3.7635956E1,6.956879E1,1.6047507E2,0E0,0E0,0E0,0E0,0E0,0E0,0E0,0E0,0E0,0E0,0E0,0E0,0E0,0E0,0E0,0E0,0E0,0E0,0E0,0E0,0E0,0E0,0E0,0E0],"parents":[2147483647,0,0,1,1,2,2,3,3,4,4,5,5,6,6,9,9,10,10,11,11,12,12,13,13,14,14,15,15,16,16,17,17,18,18,19,19,20,20,21,21,22,22,23,23,24,24,25,25,26,26],"right_children":[2,4,6,8,10,12,14,-1,-1,16,18,20,22,24,26,28,30,32,34,36,38,40,42,44,46,48,50,-1,-1,-1,-1,-1,-1,-1,-1,-1,-1,-1,-1,-1,-1,-1,-1,-1,-1,-1,-1,-1,-1,-1,-1],"split_conditions":[-1.478797E-1,-2.8912575E0,8.017383E-1,1.4724666E0,-6.408155E-1,-1.10555165E-1,2.145969E-1,-8.449894E-1,-1.17050424E-1,-7.536495E-1,1.5216961E0,-3.9036E-1,4.9490583E-1,-1.1547796E-1,3.332628E-2,-1.0757822E0,-1.3805906E-1,-2.3474364E-1,1.947877E0,-6.7417306E-1,-1.0839264E-1,-1.2475457E0,9.2502964E-1,-6.7417306E-1,-5.8323866E-1,1.258751E0,7.408256E-1,1.7292137E-1,-5.924906E-1,-9.584465E-2,-3.05685E-1,1.2551197E-1,-5.1563468E-2,-3.6771423E-1,-5.8381706E-2,-1.7535131E-2,3.6866572E-1,-2.7122286E-1,9.897437E-2,2.947913E-1,-9.357563E-2,1.0510313E-1,-8.9360654E-2,1.932736E-1,-5.2924417E-3,6.336555E-1,2.5484094E-1,1.23891704E-1,3.3636558E-1,1.2466215E-1,-4.6438303E-2],"split_indices":[12,12,6,8,6,9,12,0,0,5,14,6,12,13,0,4,9,6,4,0,6,14,9,1,5,1,1,0,0,0,0,0,0,0,0,0,0,0,0,0,0,0,0,0,0,0,0,0,0,0,0],"split_type":[0,0,0,0,0,0,0,0,0,0,0,0,0,0,0,0,0,0,0,0,0,0,0,0,0,0,0,0,0,0,0,0,0,0,0,0,0,0,0,0,0,0,0,0,0,0,0,0,0,0,0],"sum_hessian":[1.753E3,6.18E2,1.135E3,7E0,6.11E2,7.47E2,3.88E2,5E0,2E0,3.9E2,2.21E2,1.34E2,6.13E2,3E1,3.58E2,1.6E1,3.74E2,1.98E2,2.3E1,5.8E1,7.6E1,2.86E2,3.27E2,1.6E1,1.4E1,1.17E2,2.41E2,1E0,1.5E1,3.29E2,4.5E1,6E1,1.38E2,1.7E1,6E0,1.6E1,4.2E1,1.6E1,6E1,1.4E1,2.72E2,2.5E2,7.7E1,6E0,1E1,6E0,8E0,9.9E1,1.8E1,1.58E2,8.3E1],"tree_param":{"num_deleted":"0","num_feature":"16","num_nodes":"51","size_leaf_vector":"1"}},{"base_weights":[-5.9853353E-2,-8.974273E-1,4.8183915E-1,-2.1109114E0,-5.902322E-1,1.4214118E0,2.5809148E-1,-3.1197383E0,-1.128812E0,9.232543E-2,-1.3086565E0,2.9283555E0,9.7928166E-1,-3.9626217E0,3.6292765E-1,-3.5389977E0,4.6708107E-1,1.3510368E0,-1.75069E0,-1.4006245E0,6.644163E-1,-1.365246E-1,-2.2805176E0,-1.2198421E0,3.5810812E0,-1.5599403E0,1.2920558E0,7.283936E-2,-4.9164267E0,-4.1165414E-1,7.187682E-1,-1.358345E-1,-4.159653E-1,5.3524196E-1,-2.0534351E-1,-2.2836414E-1,4.0278935E-1,-2.133019E-1,1.339568E-1,-1.9970076E-1,-2.4303382E-2,1.2186106E-1,-1.4647065E-1,4.2695228E-2,-2.7428028E-1,-4.473157E-1,-1.7945409E-1,-2.6887757E-1,1.6349946E-1,3.910943E-1,-3.6541175E-2,-3.2481903E-1,9.5639564E-2,-7.993765E-2,1.5433908E-1,-2.667511E-1,1.4248048E-1,-5.9340423E-1,-2.0617913E-1,7.184892E-2,-8.929366E-2,1.5111617E-2,1.16019845E-1],"categories":[],"categories_nodes":[],"categories_segments":[],"categories_sizes":[],"default_left":[0,0,0,0,0,0,0,0,0,0,0,0,0,0,0,0,0,0,0,0,0,0,0,0,0,0,0,0,0,0,0,0,0,0,0,0,0,0,0,0,0,0,0,0,0,0,0,0,0,0,0,0,0,0,0,0,0,0,0,0,0,0,0],"id":24,"left_children":[1,3,5,7,9,11,13,15,17,19,21,23,25,27,29,31,33,35,37,39,41,43,45,47,49,51,53,55,57,59,61,-1,-1,-1,-1,-1,-1,-1,-1,-1,-1,-1,-1,-1,-1,-1,-1,-1,-1,-1,-1,-1,-1,-1,-1,-1,-1,-1,-1,-1,-1,-1,-1],"loss_changes":[7.971429E2,2.5596979E2,2.2394551E2,1.3419519E2,2.7080286E2,1.3371674E2,3.833013E2,1.03911865E2,1.13401E2,2.4349586E2,3.061198E2,1.2891953E2,1.2908801E2,8.118802E1,2.3264996E2,7.690918E1,1.09499435E2,1.5514096E2,7.138406E1,5.405368E1,2.4485417E2,1.8180608E2,1.486117E2,3.3751087E1,5.3501038E1,7.957422E1,7.640166E1,2.2324976E1,3.7148895E1,1.4532378E2,1.4465921E2,0E0,0E0,0E0,0E0,0E0,0E0,0E0,0E0,0E0,0E0,0E0,0E0,0E0,0E0,0E0,0E0,0E0,0E0,0E0,0E0,0E0,0E0,0E0,0E0,0E0,0E0,0E0,0E0,0E0,0E0,0E0,0E0],"parents":[2147483647,0,0,1,1,2,2,3,3,4,4,5,5,6,6,7,7,8,8,9,9,10,10,11,11,12,12,13,13,14,14,15,15,16,16,17,17,18,18,19,19,20,20,21,21,22,22,23,23,24,24,25,25,26,26,27,27,28,28,29,29,30,30],"right_children":[2,4,6,8,10,12,14,16,18,20,22,24,26,28,30,32,34,36,38,40,42,44,46,48,50,52,54,56,58,60,62,-1,-1,-1,-1,-1,-1,-1,-1,-1,-1,-1,-1,-1,-1,-1,-1,-1,-1,-1,-1,-1,-1,-1,-1,-1,-1,-1,-1,-1,-1,-1,-1],"split_conditions":[-2.1560611E-2,-1.7810696E0,1.1565292E-1,1.4049602E0,-5.7913643E-1,-4.0930352E-1,-4.0930352E-1,-7.174752E-1,1.4606758E0,-6.7417306E-1,3.332628E-2,-1.0820949E0,-2.5584263E-1,-1.4248675E-1,5.4572827E-1,-1.4976057E0,8.3072835E-1,-2.6906838E0,2.401302E0,7.408256E-1,1.4814427E0,7.7611864E-1,-1.0858066E0,-8.3256924E-1,5.038109E-1,9.071754E-2,-7.8845316E-1,-1.0397688E0,1.9850186E-1,-5.2545613E-1,-4.7464797E-1,-1.358345E-1,-4.159653E-1,5.3524196E-1,-2.0534351E-1,-2.2836414E-1,4.0278935E-1,-2.133019E-1,1.339568E-1,-1.9970076E-1,-2.4303382E-2,1.2186106E-1,-1.4647065E-1,4.2695228E-2,-2.7428028E-1,-4.473157E-1,-1.7945409E-1,-2.6887757E-1,1.6349946E-1,3.910943E-1,-3.6541175E-2,-3.2481903E-1,9.5639564E-2,-7.993765E-2,1.5433908E-1,-2.667511E-1,1.4248048E-1,-5.9340423E-1,-2.0617913E-1,7.184892E-2,-8.929366E-2,1.5111617E-2,1.16019845E-1],"split_indices":[12,12,9,8,9,6,6,10,11,0,1,11,6,2,12,10,8,9,5,1,11,8,6,5,3,3,2,2,7,4,5,0,0,0,0,0,0,0,0,0,0,0,0,0,0,0,0,0,0,0,0,0,0,0,0,0,0,0,0,0,0,0,0],"split_type":[0,0,0,0,0,0,0,0,0,0,0,0,0,0,0,0,0,0,0,0,0,0,0,0,0,0,0,0,0,0,0,0,0,0,0,0,0,0,0,0,0,0,0,0,0,0,0,0,0,0,0,0,0,0,0,0,0,0,0,0,0,0,0],"sum_hessian":[1.755E3,6.89E2,1.066E3,1.38E2,5.51E2,2.04E2,8.62E2,6.7E1,7.1E1,2.83E2,2.68E2,4.5E1,1.59E2,2E1,8.42E2,6E1,7E0,1.4E1,5.7E1,7.8E1,2.05E2,1.22E2,1.46E2,6E0,3.9E1,1.7E1,1.42E2,4E0,1.6E1,2.65E2,5.77E2,1.4E1,4.6E1,2E0,5E0,6E0,8E0,5.1E1,6E0,5.1E1,2.7E1,1.63E2,4.2E1,1.01E2,2.1E1,2.5E1,1.21E2,4E0,2E0,3.6E1,3E0,1E1,7E0,1.5E1,1.27E2,1E0,3E0,1.1E1,5E0,7.9E1,1.86E2,2.53E2,3.24E2],"tree_param":{"num_deleted":"0","num_feature":"16","num_nodes":"63","size_leaf_vector":"1"}},{"base_weights":[-1.5490175E-2,-8.107025E-1,5.383469E-1,-2.103118E0,-6.00551E-1,-7.9650916E-2,7.839939E-1,-3.1385572E0,-1.1061435E0,-1.729046E-1,-1.398162E0,-9.862893E-1,4.7456416E-1,1.7250351E0,4.587275E-1,-3.4984736E0,1.7851219E0,4.0293038E-1,-2.574249E0,-1.4573433E0,3.180227E-1,2.0266518E-2,-2.0141919E0,-6.300337E-1,-3.1067123E0,7.8905267E-1,-4.6561593E-1,2.4897146E0,-2.1107642E-1,1.191023E0,-1.9542266E-1,-2.584611E-1,-5.402688E-1,-1.2997475E-1,3.246661E-1,-1.6274215E-1,2.4045014E-1,-3.582116E-1,-1.3825074E-1,-1.1098572E-1,-3.2296392E-1,2.2300544E-1,-2.0853547E-2,2.7190626E-1,-7.439261E-2,-4.627676E-1,-1.6942655E-1,-1.2647429E-1,1.379684E-1,2.4240303E-1,-3.6370307E-1,3.0653555E-2,1.8591715E-1,3.628502E-2,-1.6021878E-1,1.070466E-1,3.6486873E-1,-5.2793944E-1,8.953204E-2,5.1603716E-2,2.640498E-1,3.3249613E-2,-2.1762235E-1],"categories":[],"categories_nodes":[],"categories_segments":[],"categories_sizes":[],"default_left":[0,0,0,0,0,0,0,0,0,0,0,0,0,0,0,0,0,0,0,0,0,0,0,0,0,0,0,0,0,0,0,0,0,0,0,0,0,0,0,0,0,0,0,0,0,0,0,0,0,0,0,0,0,0,0,0,0,0,0,0,0,0,0],"id":25,"left_children":[1,3,5,7,9,11,13,15,17,19,21,23,25,27,29,31,33,35,37,39,41,43,45,47,49,51,53,55,57,59,61,-1,-1,-1,-1,-1,-1,-1,-1,-1,-1,-1,-1,-1,-1,-1,-1,-1,-1,-1,-1,-1,-1,-1,-1,-1,-1,-1,-1,-1,-1,-1,-1],"loss_changes":[7.7777435E2,1.9564911E2,1.5809595E2,1.0079129E2,2.1294295E2,1.4970245E2,2.2724506E2,9.3078735E1,1.1845768E2,2.577344E2,1.9052805E2,8.340431E1,5.5067417E1,2.83302E2,2.660951E2,6.60849E1,2.2254465E1,1.1363827E2,2.747786E1,6.600639E1,2.9847662E2,1.4020358E2,1.1925018E2,1.2675241E2,5.5745132E1,7.120286E1,4.4837082E1,2.2144135E2,3.1314313E2,2.5497162E2,3.0815994E2,0E0,0E0,0E0,0E0,0E0,0E0,0E0,0E0,0E0,0E0,0E0,0E0,0E0,0E0,0E0,0E0,0E0,0E0,0E0,0E0,0E0,0E0,0E0,0E0,0E0,0E0,0E0,0E0,0E0,0E0,0E0,0E0],"parents":[2147483647,0,0,1,1,2,2,3,3,4,4,5,5,6,6,7,7,8,8,9,9,10,10,11,11,12,12,13,13,14,14,15,15,16,16,17,17,18,18,19,19,20,20,21,21,22,22,23,23,24,24,25,25,26,26,27,27,28,28,29,29,30,30],"right_children":[2,4,6,8,10,12,14,16,18,20,22,24,26,28,30,32,34,36,38,40,42,44,46,48,50,52,54,56,58,60,62,-1,-1,-1,-1,-1,-1,-1,-1,-1,-1,-1,-1,-1,-1,-1,-1,-1,-1,-1,-1,-1,-1,-1,-1,-1,-1,-1,-1,-1,-1,-1,-1],"split_conditions":[2.4631146E-2,-2.0693133E0,-6.7417306E-1,1.3614348E0,-2.7646595E-1,3.8793424E-1,3.332628E-2,5.301953E-1,-2.184831E0,-6.7417306E-1,3.332628E-2,5.6590325E-1,4.453729E-1,8.859428E-1,3.332628E-2,-1.208137E0,-1.1920985E0,-1.4959621E0,-2.1159105E0,-4.9330583E-1,3.332628E-2,-3.4135684E-1,-1.2243919E0,4.0968683E-1,-1.3379284E0,5.937447E-1,7.408256E-1,-6.7417306E-1,3.047223E-1,1.258751E0,5.937447E-1,-2.584611E-1,-5.402688E-1,-1.2997475E-1,3.246661E-1,-1.6274215E-1,2.4045014E-1,-3.582116E-1,-1.3825074E-1,-1.1098572E-1,-3.2296392E-1,2.2300544E-1,-2.0853547E-2,2.7190626E-1,-7.439261E-2,-4.627676E-1,-1.6942655E-1,-1.2647429E-1,1.379684E-1,2.4240303E-1,-3.6370307E-1,3.0653555E-2,1.8591715E-1,3.628502E-2,-1.6021878E-1,1.070466E-1,3.6486873E-1,-5.2793944E-1,8.953204E-2,5.1603716E-2,2.640498E-1,3.3249613E-2,-2.1762235E-1],"split_indices":[12,15,0,5,9,6,0,7,9,0,0,9,7,7,1,13,1,13,6,9,0,12,6,2,11,2,1,1,6,0,2,0,0,0,0,0,0,0,0,0,0,0,0,0,0,0,0,0,0,0,0,0,0,0,0,0,0,0,0,0,0,0,0],"split_type":[0,0,0,0,0,0,0,0,0,0,0,0,0,0,0,0,0,0,0,0,0,0,0,0,0,0,0,0,0,0,0,0,0,0,0,0,0,0,0,0,0,0,0,0,0,0,0,0,0,0,0,0,0,0,0,0,0,0,0,0,0,0,0],"sum_hessian":[1.764E3,7.24E2,1.04E3,1E2,6.24E2,2.96E2,7.44E2,4.8E1,5.2E1,4.07E2,2.17E2,1.12E2,1.84E2,1.9E2,5.54E2,4.5E1,3E0,2.6E1,2.6E1,1.12E2,2.95E2,6.6E1,1.51E2,9.7E1,1.5E1,1.38E2,4.6E1,1.36E2,5.4E1,2.61E2,2.93E2,3.2E1,1.3E1,1E0,2E0,1.3E1,1.3E1,1.3E1,1.3E1,9.5E1,1.7E1,6.3E1,2.32E2,1.4E1,5.2E1,1.5E1,1.36E2,7.4E1,2.3E1,1E0,1.4E1,9.6E1,4.2E1,2.7E1,1.9E1,6.2E1,7.4E1,9E0,4.5E1,1.79E2,8.2E1,2.32E2,6.1E1],"tree_param":{"num_deleted":"0","num_feature":"16","num_nodes":"63","size_leaf_vector":"1"}},{"base_weights":[-1.5002692E-2,-6.5632033E-1,4.600146E-1,-9.2382497E-1,2.790545E-1,-9.3178153E-1,5.949903E-1,-3.1038575E0,-8.099192E-1,-5.110637E-1,5.160721E-1,2.298144E0,-1.5739045E0,1.6600107E0,4.649197E-1,-3.3902812E0,2.3147888E-1,-2.486084E-1,-1.217194E0,-1.2180245E0,1.0194169E0,3.2459424E0,-2.57503E0,-2.2125921E0,6.977301E-1,3.9879706E0,1.1221924E0,-5.357839E-1,6.830752E-1,-3.959764E-2,-4.052806E-1,-6.619916E-2,2.3298874E-1,-2.925761E-2,-1.7695408E-1,-1.2555885E-3,-2.5645742E-1,2.82257E-1,7.619241E-2,3.9916107E-1,-5.7015486E-2,-3.1846315E-1,-6.7791365E-2,-2.8022513E-2,-3.0069828E-1,-8.756504E-2,1.09742954E-1,6.458767E-1,2.540836E-1,1.5643264E-1,-2.5886938E-1,1.9997782E-1,-1.0301913E-1,2.5895152E-2,9.963139E-2],"categories":[],"categories_nodes":[],"categories_segments":[],"categories_sizes":[],"default_left":[0,0,0,0,0,0,0,0,0,0,0,0,0,0,0,0,0,0,0,0,0,0,0,0,0,0,0,0,0,0,0,0,0,0,0,0,0,0,0,0,0,0,0,0,0,0,0,0,0,0,0,0,0,0,0],"id":26,"left_children":[1,3,5,7,9,11,13,15,17,-1,19,21,23,25,27,29,-1,31,33,35,37,39,41,43,45,47,49,51,53,-1,-1,-1,-1,-1,-1,-1,-1,-1,-1,-1,-1,-1,-1,-1,-1,-1,-1,-1,-1,-1,-1,-1,-1,-1,-1],"loss_changes":[5.25496E2,1.8391718E2,1.8672234E2,1.3927588E2,2.1213951E2,1.8612991E2,1.2445743E2,5.1304565E1,1.2406003E2,0E0,1.3915173E2,7.7640175E1,1.0890779E2,1.1822266E2,1.7654134E2,5.1957825E1,0E0,2.4670091E2,1.6035583E2,5.840384E1,5.4958176E1,3.92679E1,1.3105488E0,8.819055E1,1.1651912E1,4.7949646E1,1.3694699E2,1.8383226E2,8.7822815E1,0E0,0E0,0E0,0E0,0E0,0E0,0E0,0E0,0E0,0E0,0E0,0E0,0E0,0E0,0E0,0E0,0E0,0E0,0E0,0E0,0E0,0E0,0E0,0E0,0E0,0E0],"parents":[2147483647,0,0,1,1,2,2,3,3,4,4,5,5,6,6,7,7,8,8,10,10,11,11,12,12,13,13,14,14,15,15,17,17,18,18,19,19,20,20,21,21,22,22,23,23,24,24,25,25,26,26,27,27,28,28],"right_children":[2,4,6,8,10,12,14,16,18,-1,20,22,24,26,28,30,-1,32,34,36,38,40,42,44,46,48,50,52,54,-1,-1,-1,-1,-1,-1,-1,-1,-1,-1,-1,-1,-1,-1,-1,-1,-1,-1,-1,-1,-1,-1,-1,-1,-1,-1],"split_conditions":[-4.5901585E-1,2.816701E-1,-7.432819E-1,-1.238251E0,-1.1920985E0,3.332628E-2,-1.6124634E-1,9.008017E-1,1.4126912E-1,-5.110637E-1,-9.960315E-1,-5.1599074E-2,6.7675954E-1,-7.2156227E-1,6.403609E-2,-9.32041E-1,2.3147888E-1,1.258751E0,3.332628E-2,1.9795634E-1,3.3778223E-1,-1.840286E-1,-1.4248675E-1,-1.3530703E0,-9.364836E-1,7.408256E-1,1.4483249E0,-1.1064484E0,-9.866745E-1,-3.959764E-2,-4.052806E-1,-6.619916E-2,2.3298874E-1,-2.925761E-2,-1.7695408E-1,-1.2555885E-3,-2.5645742E-1,2.82257E-1,7.619241E-2,3.9916107E-1,-5.7015486E-2,-3.1846315E-1,-6.7791365E-2,-2.8022513E-2,-3.0069828E-1,-8.756504E-2,1.09742954E-1,6.458767E-1,2.540836E-1,1.5643264E-1,-2.5886938E-1,1.9997782E-1,-1.0301913E-1,2.5895152E-2,9.963139E-2],"split_indices":[4,12,10,8,1,0,6,9,2,0,8,4,6,13,15,7,0,1,1,13,12,9,2,13,10,0,1,5,3,0,0,0,0,0,0,0,0,0,0,0,0,0,0,0,0,0,0,0,0,0,0,0,0,0,0],"split_type":[0,0,0,0,0,0,0,0,0,0,0,0,0,0,0,0,0,0,0,0,0,0,0,0,0,0,0,0,0,0,0,0,0,0,0,0,0,0,0,0,0,0,0,0,0,0,0,0,0,0,0,0,0,0,0],"sum_hessian":[1.723E3,7.33E2,9.9E2,5.7E2,1.63E2,8.7E1,9.03E2,2.7E1,5.43E2,6E0,1.57E2,1.4E1,7.3E1,9.7E1,8.06E2,