{"learner":{"attributes":{"scikit_learn":"{\"_estimator_type\": \"regressor\"}"},"feature_names":[],"feature_types":[],"gradient_booster":{"model":{"gbtree_model_param":{"num_parallel_tree":"1","num_trees":"300"},"iteration_indptr":[0,1,2,3,4,5,6,7,8,9,10,11,12,13,14,15,16,17,18,19,20,21,22,23,24,25,26,27,28,29,30,31,32,33,34,35,36,37,38,39,40,41,42,43,44,45,46,47,48,49,50,51,52,53,54,55,56,57,58,59,60,61,62,63,64,65,66,67,68,69,70,71,72,73,74,75,76,77,78,79,80,81,82,83,84,85,86,87,88,89,90,91,92,93,94,95,96,97,98,99,100,101,102,103,104,105,106,107,108,109,110,111,112,113,114,115,116,117,118,119,120,121,122,123,124,125,126,127,128,129,130,131,132,133,134,135,136,137,138,139,140,141,142,143,144,145,146,147,148,149,150,151,152,153,154,155,156,157,158,159,160,161,162,163,164,165,166,167,168,169,170,171,172,173,174,175,176,177,178,179,180,181,182,183,184,185,186,187,188,189,190,191,192,193,194,195,196,197,198,199,200,201,202,203,204,205,206,207,208,209,210,211,212,213,214,215,216,217,218,219,220,221,222,223,224,225,226,227,228,229,230,231,232,233,234,235,236,237,238,239,240,241,242,243,244,245,246,247,248,249,250,251,252,253,254,255,256,257,258,259,260,261,262,263,264,265,266,267,268,269,270,271,272,273,274,275,276,277,278,279,280,281,282,283,284,285,286,287,288,289,290,291,292,293,294,295,296,297,298,299,300],"tree_info":[0,0,0,0,0,0,0,0,0,0,0,0,0,0,0,0,0,0,0,0,0,0,0,0,0,0,0,0,0,0,0,0,0,0,0,0,0,0,0,0,0,0,0,0,0,0,0,0,0,0,0,0,0,0,0,0,0,0,0,0,0,0,0,0,0,0,0,0,0,0,0,0,0,0,0,0,0,0,0,0,0,0,0,0,0,0,0,0,0,0,0,0,0,0,0,0,0,0,0,0,0,0,0,0,0,0,0,0,0,0,0,0,0,0,0,0,0,0,0,0,0,0,0,0,0,0,0,0,0,0,0,0,0,0,0,0,0,0,0,0,0,0,0,0,0,0,0,0,0,0,0,0,0,0,0,0,0,0,0,0,0,0,0,0,0,0,0,0,0,0,0,0,0,0,0,0,0,0,0,0,0,0,0,0,0,0,0,0,0,0,0,0,0,0,0,0,0,0,0,0,0,0,0,0,0,0,0,0,0,0,0,0,0,0,0,0,0,0,0,0,0,0,0,0,0,0,0,0,0,0,0,0,0,0,0,0,0,0,0,0,0,0,0,0,0,0,0,0,0,0,0,0,0,0,0,0,0,0,0,0,0,0,0,0,0,0,0,0,0,0,0,0,0,0,0,0,0,0,0,0,0,0,0,0,0,0,0,0,0,0,0,0,0,0,0,0,0,0,0,0],"trees":[{"base_weights":[-1.3663071E0,-3.373989E1,3.9196423E1,-5.614308E1,-2.0966242E1,2.7040176E1,9.714504E1,-6.4651726E1,-3.1394184E1,-3.049683E1,7.334141E0,5.6270596E1,1.0137752E1,5.635588E1,1.8515092E2,-3.1519823E1,-6.772111E1,9.897136E0,-5.935193E1,-4.3601486E1,-1.5509003E1,5.7899433E1,-2.1275324E1,3.3852436E1,8.4672005E1,2.264616E1,-8.610406E0,-1.0411491E1,7.844247E1,1.895409E2,2.580963E-1,-5.130643E0,1.4466685E0,-7.119545E0,-4.4781075E0,-1.7272915E0,3.5213826E0,-3.800427E0,-6.2702465E0,-5.017828E0,-8.312125E-1,1.5234846E0,-4.217878E0,1.3845751E1,3.0951426E0,-1.987371E-1,-4.2531033E0,6.147159E0,6.547777E-1,9.160721E0,-4.271507E0,-4.7776006E-2,4.4489207E0,-1.7779086E0,1.6799153E0,-3.136374E0,4.4953074E0,3.4766686E0,1.0673188E1,4.6741285E0,1.9566547E1],"categories":[],"categories_nodes":[],"categories_segments":[],"categories_sizes":[],"default_left":[0,0,0,0,0,0,0,0,0,0,0,0,0,0,0,0,0,0,0,0,0,0,0,0,0,0,0,0,0,0,0,0,0,0,0,0,0,0,0,0,0,0,0,0,0,0,0,0,0,0,0,0,0,0,0,0,0,0,0,0,0],"id":0,"left_children":[1,3,5,7,9,11,13,15,17,19,21,23,25,27,29,31,33,35,37,39,41,43,45,47,49,51,53,55,57,59,-1,-1,-1,-1,-1,-1,-1,-1,-1,-1,-1,-1,-1,-1,-1,-1,-1,-1,-1,-1,-1,-1,-1,-1,-1,-1,-1,-1,-1,-1,-1],"loss_changes":[2.2927885E6,2.766945E5,5.433125E5,7.2094375E4,1.6744966E5,3.1661922E5,4.705835E5,2.4407625E4,1.06793336E5,9.045816E4,2.2835523E5,1.4675994E5,9.587491E4,1.379604E5,3.3173E4,2.2580236E4,1.578075E4,2.6746766E4,1.5509688E3,5.6909406E4,1.7938764E5,1.1945469E5,4.1323367E4,9.9897016E4,9.4908875E4,1.23770016E5,3.8506086E4,2.925019E4,8.2778625E4,2.6712375E4,0E0,0E0,0E0,0E0,0E0,0E0,0E0,0E0,0E0,0E0,0E0,0E0,0E0,0E0,0E0,0E0,0E0,0E0,0E0,0E0,0E0,0E0,0E0,0E0,0E0,0E0,0E0,0E0,0E0,0E0,0E0],"parents":[2147483647,0,0,1,1,2,2,3,3,4,4,5,5,6,6,7,7,8,8,9,9,10,10,11,11,12,12,13,13,14,14,15,15,16,16,17,17,18,18,19,19,20,20,21,21,22,22,23,23,24,24,25,25,26,26,27,27,28,28,29,29],"right_children":[2,4,6,8,10,12,14,16,18,20,22,24,26,28,30,32,34,36,38,40,42,44,46,48,50,52,54,56,58,60,-1,-1,-1,-1,-1,-1,-1,-1,-1,-1,-1,-1,-1,-1,-1,-1,-1,-1,-1,-1,-1,-1,-1,-1,-1,-1,-1,-1,-1,-1,-1],"split_conditions":[4.8008278E-2,-9.127693E-1,1.4977188E0,1.258751E0,1.258751E0,3.9775142E-1,1.258751E0,-2.264428E0,3.332628E-2,7.408256E-1,3.332628E-2,5.331051E-1,8.644207E-1,-4.3391168E-1,7.408256E-1,-1.1453787E0,-7.354803E-1,-1.209198E0,-6.394623E-1,7.408256E-1,3.332628E-2,-8.396226E-1,-1.4248675E-1,-2.0121798E-1,1.5087881E0,9.82684E-3,1.032849E0,3.3769698E0,9.550338E-1,2.7515507E-1,2.580963E-1,-5.130643E0,1.4466685E0,-7.119545E0,-4.4781075E0,-1.7272915E0,3.5213826E0,-3.800427E0,-6.2702465E0,-5.017828E0,-8.312125E-1,1.5234846E0,-4.217878E0,1.3845751E1,3.0951426E0,-1.987371E-1,-4.2531033E0,6.147159E0,6.547777E-1,9.160721E0,-4.271507E0,-4.7776006E-2,4.4489207E0,-1.7779086E0,1.6799153E0,-3.136374E0,4.4953074E0,3.4766686E0,1.0673188E1,4.6741285E0,1.9566547E1],"split_indices":[10,10,10,1,1,9,0,9,0,0,0,10,7,2,1,10,13,10,11,1,1,7,2,9,11,4,10,4,4,13,0,0,0,0,0,0,0,0,0,0,0,0,0,0,0,0,0,0,0,0,0,0,0,0,0,0,0,0,0,0,0],"split_type":[0,0,0,0,0,0,0,0,0,0,0,0,0,0,0,0,0,0,0,0,0,0,0,0,0,0,0,0,0,0,0,0,0,0,0,0,0,0,0,0,0,0,0,0,0,0,0,0,0,0,0,0,0,0,0,0,0,0,0,0,0],"sum_hessian":[1.744E3,9.7E2,7.74E2,3.51E2,6.19E2,6.41E2,1.33E2,2.6E2,9.1E1,4.63E2,1.56E2,2.34E2,4.07E2,9.2E1,4.1E1,2.3E1,2.37E2,3.7E1,5.4E1,2.46E2,2.17E2,5.6E1,1E2,1.32E2,1.02E2,2.44E2,1.63E2,2.3E1,6.9E1,4E1,1E0,1.6E1,7E0,2.04E2,3.3E1,1.8E1,1.9E1,9E0,4.5E1,2.07E2,3.9E1,1.01E2,1.16E2,1.3E1,4.3E1,5.3E1,4.7E1,6.5E1,6.7E1,9.7E1,5E0,1.19E2,1.25E2,1.2E2,4.3E1,1.7E1,6E0,2.8E1,4.1E1,2E0,3.8E1],"tree_param":{"num_deleted":"0","num_feature":"16","num_nodes":"61","size_leaf_vector":"1"}},{"base_weights":[-5.13118E-1,-3.271676E1,3.538729E1,-4.6228165E1,-1.8403122E1,2.3330246E1,9.576694E1,-4.8621216E1,4.1452713E1,-2.7674168E1,6.369187E0,7.477253E1,1.3448538E1,5.729345E1,1.6290776E2,-5.4293617E1,-3.205343E1,-3.412551E1,6.7538734E1,-4.0834015E1,-1.3416024E1,5.501607E1,-2.5929008E1,4.090586E1,9.847505E1,8.4168404E-1,3.980996E1,-3.9583637E1,6.747595E1,1.7035474E2,-8.064114E0,-1.7216495E0,-5.706389E0,1.1441134E0,-4.9585857E0,-4.274683E0,-4.1307792E-1,3.833886E0,1.0175384E1,-4.2466793E0,6.3124313E0,1.5313119E0,-2.8626575E0,1.1829929E1,2.3617609E0,1.6925364E0,-3.5339375E0,5.9940405E0,-3.6971858E-1,1.208348E1,5.029576E0,-5.9937778E0,4.2890546E-1,7.2432456E0,1.0410066E0,-1.1232797E0,-5.1886926E0,1.0111858E1,5.1252E0,1.7360386E1,1.0447689E0,-1.4548086E0,2.4519157E-1],"categories":[],"categories_nodes":[],"categories_segments":[],"categories_sizes":[],"default_left":[0,0,0,0,0,0,0,0,0,0,0,0,0,0,0,0,0,0,0,0,0,0,0,0,0,0,0,0,0,0,0,0,0,0,0,0,0,0,0,0,0,0,0,0,0,0,0,0,0,0,0,0,0,0,0,0,0,0,0,0,0,0,0],"id":1,"left_children":[1,3,5,7,9,11,13,15,17,19,21,23,25,27,29,31,33,35,37,39,41,43,45,47,49,51,53,55,57,59,61,-1,-1,-1,-1,-1,-1,-1,-1,-1,-1,-1,-1,-1,-1,-1,-1,-1,-1,-1,-1,-1,-1,-1,-1,-1,-1,-1,-1,-1,-1,-1,-1],"loss_changes":[2.0024081E6,1.75721E5,5.9399775E5,1.0042319E5,1.0237728E5,3.4669738E5,3.4197375E5,4.120825E4,2.793475E4,6.0245906E4,1.931137E5,8.427156E4,1.9105889E5,8.947869E4,6.376175E4,3.3837438E4,9.131259E4,8.577988E2,6.0896367E3,3.1197125E4,6.904518E4,9.456886E4,3.0440504E4,4.012454E4,6.286825E4,8.197351E4,1.7763816E5,2.5564414E3,3.848278E4,2.2605375E4,2.402276E2,0E0,0E0,0E0,0E0,0E0,0E0,0E0,0E0,0E0,0E0,0E0,0E0,0E0,0E0,0E0,0E0,0E0,0E0,0E0,0E0,0E0,0E0,0E0,0E0,0E0,0E0,0E0,0E0,0E0,0E0,0E0,0E0],"parents":[2147483647,0,0,1,1,2,2,3,3,4,4,5,5,6,6,7,7,8,8,9,9,10,10,11,11,12,12,13,13,14,14,15,15,16,16,17,17,18,18,19,19,20,20,21,21,22,22,23,23,24,24,25,25,26,26,27,27,28,28,29,29,30,30],"right_children":[2,4,6,8,10,12,14,16,18,20,22,24,26,28,30,32,34,36,38,40,42,44,46,48,50,52,54,56,58,60,62,-1,-1,-1,-1,-1,-1,-1,-1,-1,-1,-1,-1,-1,-1,-1,-1,-1,-1,-1,-1,-1,-1,-1,-1,-1,-1,-1,-1,-1,-1,-1,-1],"split_conditions":[-2.6621995E-2,-7.354803E-1,1.4977188E0,-2.6202124E-1,1.258751E0,-2.5568402E-1,1.258751E0,1.258751E0,1.258751E0,-6.232361E-1,3.332628E-2,2.8549996E-1,8.3825225E-1,-1.4185756E-1,7.408256E-1,-2.3002298E0,3.332628E-2,7.408256E-1,5.690927E-2,2.0871491E0,-5.2185524E-1,-8.396226E-1,-6.9276595E-1,7.408256E-1,8.627068E-1,-8.175426E-1,7.459115E-1,3.332628E-2,9.760821E-1,1.867609E0,1.4126912E-1,-1.7216495E0,-5.706389E0,1.1441134E0,-4.9585857E0,-4.274683E0,-4.1307792E-1,3.833886E0,1.0175384E1,-4.2466793E0,6.3124313E0,1.5313119E0,-2.8626575E0,1.1829929E1,2.3617609E0,1.6925364E0,-3.5339375E0,5.9940405E0,-3.6971858E-1,1.208348E1,5.029576E0,-5.9937778E0,4.2890546E-1,7.2432456E0,1.0410066E0,-1.1232797E0,-5.1886926E0,1.0111858E1,5.1252E0,1.7360386E1,1.0447689E0,-1.4548086E0,2.4519157E-1],"split_indices":[10,13,10,10,1,9,0,1,0,4,0,10,10,4,1,9,0,0,2,5,7,7,7,1,6,4,9,0,9,5,2,0,0,0,0,0,0,0,0,0,0,0,0,0,0,0,0,0,0,0,0,0,0,0,0,0,0,0,0,0,0,0,0],"split_type":[0,0,0,0,0,0,0,0,0,0,0,0,0,0,0,0,0,0,0,0,0,0,0,0,0,0,0,0,0,0,0,0,0,0,0,0,0,0,0,0,0,0,0,0,0,0,0,0,0,0,0,0,0,0,0,0,0,0,0,0,0,0,0],"sum_hessian":[1.73E3,9.12E2,8.18E2,4.68E2,4.44E2,6.83E2,1.35E2,4.56E2,1.2E1,3.23E2,1.21E2,1.09E2,5.74E2,8.7E1,4.8E1,3.38E2,1.18E2,3E0,9E0,1.67E2,1.56E2,4.8E1,7.3E1,4.6E1,6.3E1,3.89E2,1.85E2,8E0,7.9E1,4.6E1,2E0,2.4E1,3.14E2,3.4E1,8.4E1,2E0,1E0,6E0,3E0,1.65E2,2E0,5.4E1,1.02E2,1.5E1,3.3E1,1.3E1,6E1,3.2E1,1.4E1,4.2E1,2.1E1,2E1,3.69E2,8.7E1,9.8E1,3E0,5E0,2.4E1,5.5E1,4.5E1,1E0,1E0,1E0],"tree_param":{"num_deleted":"0","num_feature":"16","num_nodes":"63","size_leaf_vector":"1"}},{"base_weights":[-2.1620543E0,-2.0520168E1,4.5296474E1,-3.842467E1,-4.6101832E0,3.7184998E1,1.1871667E2,-4.6250854E1,-1.4843746E1,1.6936644E1,-1.233423E1,8.667034E1,2.7838327E1,6.467987E1,1.6368185E2,-5.170354E1,-3.0810242E1,2.6701435E1,-4.175135E1,-1.3837058E1,3.298476E1,-5.2327423E1,-7.480448E0,7.105376E1,1.6113321E2,-1.7126118E1,3.748783E1,4.9560623E0,8.099448E1,1.7439402E1,6.3844513E1,-5.018867E-1,-5.366407E0,-1.03594E0,-3.7823799E0,-2.1126308E0,5.0543833E0,-4.813568E0,-9.61436E-1,-6.2750536E-1,-5.101958E0,1.2251134E0,6.2280545E0,1.9063244E0,-5.410103E0,-1.0360589E0,5.222448E0,1.0115277E1,2.4198775E0,3.2051606E0,1.8625673E1,1.39216795E1,-2.174424E0,5.465835E0,2.0409567E0,-2.9639456E0,2.9663684E0,9.443484E0,1.0344514E0,1.348655E0,7.613498E0],"categories":[],"categories_nodes":[],"categories_segments":[],"categories_sizes":[],"default_left":[0,0,0,0,0,0,0,0,0,0,0,0,0,0,0,0,0,0,0,0,0,0,0,0,0,0,0,0,0,0,0,0,0,0,0,0,0,0,0,0,0,0,0,0,0,0,0,0,0,0,0,0,0,0,0,0,0,0,0,0,0],"id":2,"left_children":[1,3,5,7,9,11,13,15,17,19,21,23,25,27,29,31,33,35,37,39,41,43,45,47,49,51,53,55,57,-1,59,-1,-1,-1,-1,-1,-1,-1,-1,-1,-1,-1,-1,-1,-1,-1,-1,-1,-1,-1,-1,-1,-1,-1,-1,-1,-1,-1,-1,-1,-1],"loss_changes":[1.4898942E6,3.5105572E5,2.79661E5,1.0635175E5,1.0905327E5,1.9693469E5,1.0361256E5,3.5030812E4,1.6432548E5,8.589419E4,9.317357E4,6.762506E4,1.5857597E5,2.2009117E4,1.56026875E4,2.9019125E4,1.6246422E4,6.720681E4,1.7797625E4,1.6550312E4,6.848149E4,7.6155156E3,7.465523E4,7.9349E4,2.9703E4,4.995784E4,8.685725E4,6.007853E3,1.6115203E4,0E0,1.4488945E3,0E0,0E0,0E0,0E0,0E0,0E0,0E0,0E0,0E0,0E0,0E0,0E0,0E0,0E0,0E0,0E0,0E0,0E0,0E0,0E0,0E0,0E0,0E0,0E0,0E0,0E0,0E0,0E0,0E0,0E0],"parents":[2147483647,0,0,1,1,2,2,3,3,4,4,5,5,6,6,7,7,8,8,9,9,10,10,11,11,12,12,13,13,14,14,15,15,16,16,17,17,18,18,19,19,20,20,21,21,22,22,23,23,24,24,25,25,26,26,27,27,28,28,30,30],"right_children":[2,4,6,8,10,12,14,16,18,20,22,24,26,28,30,32,34,36,38,40,42,44,46,48,50,52,54,56,58,-1,60,-1,-1,-1,-1,-1,-1,-1,-1,-1,-1,-1,-1,-1,-1,-1,-1,-1,-1,-1,-1,-1,-1,-1,-1,-1,-1,-1,-1,-1,-1],"split_conditions":[5.467059E-1,-5.549625E-1,2.3807275E0,1.258751E0,-2.5568402E-1,2.0717223E-1,7.408256E-1,-7.30841E-1,3.332628E-2,-2.8887418E-1,-8.175426E-1,1.3128868E0,-2.7724528E-1,7.5696653E-1,2.845719E0,-2.5327E0,-9.1328263E-1,-1.188971E0,-5.645668E-1,1.5035253E0,1.258751E0,-1.2314957E0,1.4676288E0,3.332628E-2,2.7515507E-1,5.5995804E-1,3.332628E-2,2.570442E0,1.3928992E0,1.7439402E1,-5.1827157E-1,-5.018867E-1,-5.366407E0,-1.03594E0,-3.7823799E0,-2.1126308E0,5.0543833E0,-4.813568E0,-9.61436E-1,-6.2750536E-1,-5.101958E0,1.2251134E0,6.2280545E0,1.9063244E0,-5.410103E0,-1.0360589E0,5.222448E0,1.0115277E1,2.4198775E0,3.2051606E0,1.8625673E1,1.39216795E1,-2.174424E0,5.465835E0,2.0409567E0,-2.9639456E0,2.9663684E0,9.443484E0,1.0344514E0,1.348655E0,7.613498E0],"split_indices":[10,10,10,1,9,9,0,13,0,10,4,10,4,4,7,9,9,10,13,14,0,2,5,1,13,10,0,10,15,0,2,0,0,0,0,0,0,0,0,0,0,0,0,0,0,0,0,0,0,0,0,0,0,0,0,0,0,0,0,0,0],"split_type":[0,0,0,0,0,0,0,0,0,0,0,0,0,0,0,0,0,0,0,0,0,0,0,0,0,0,0,0,0,0,0,0,0,0,0,0,0,0,0,0,0,0,0,0,0,0,0,0,0,0,0,0,0,0,0,0,0,0,0,0,0],"sum_hessian":[1.708E3,1.232E3,4.76E2,5.79E2,6.53E2,4.3E2,4.6E1,4.34E2,1.45E2,1.72E2,4.81E2,6.7E1,3.63E2,2.2E1,2.4E1,3.19E2,1.15E2,5.7E1,8.8E1,5.9E1,1.13E2,5.1E1,4.3E2,5.7E1,1E1,6.4E1,2.99E2,5E0,1.7E1,2.1E1,3E0,1.3E1,3.06E2,3E1,8.5E1,1.9E1,3.8E1,7.3E1,1.5E1,5E1,9E0,6.7E1,4.6E1,1E0,5E1,4.11E2,1.9E1,3.4E1,2.3E1,2E0,8E0,1E0,6.3E1,1.48E2,1.51E2,2E0,3E0,1.4E1,3E0,1E0,2E0],"tree_param":{"num_deleted":"0","num_feature":"16","num_nodes":"61","size_leaf_vector":"1"}},{"base_weights":[-6.2484473E-1,-2.56278E1,2.8540903E1,-4.0539314E1,-1.5893269E1,1.2280235E1,6.181077E1,-4.4129513E1,-7.7275558E0,-4.6549043E-1,-2.762831E1,4.4233604E1,2.687824E0,4.1880672E1,1.1200766E2,-4.8804424E1,-1.8812296E1,1.7625858E1,-4.7777847E1,-2.8711748E1,1.542594E1,-6.4538913E0,-3.543039E1,2.1819061E1,7.371561E1,1.2945648E1,-1.6520267E1,-3.060126E1,5.444223E1,1.3092738E2,-2.4063244E1,-5.1406894E0,-2.4237752E0,-2.3273237E-1,-4.9056864E0,-1.5813733E0,7.5115595E0,2.56641E-1,-5.1557183E0,-7.1533394E-1,-4.1673045E0,-2.5527773E0,3.021902E0,-1.989914E0,1.9343643E0,-4.0556445E0,-9.811131E-1,-1.8311116E0,4.1848354E0,9.073368E0,-3.5479991E0,1.031627E0,1.2911002E1,1.6975116E0,-2.2237556E0,-4.4009957E-1,-5.476144E0,2.3801214E1,5.185584E0,-1.5984834E0,1.3576815E1,-3.3925564E0,-7.883682E-2],"categories":[],"categories_nodes":[],"categories_segments":[],"categories_sizes":[],"default_left":[0,0,0,0,0,0,0,0,0,0,0,0,0,0,0,0,0,0,0,0,0,0,0,0,0,0,0,0,0,0,0,0,0,0,0,0,0,0,0,0,0,0,0,0,0,0,0,0,0,0,0,0,0,0,0,0,0,0,0,0,0,0,0],"id":3,"left_children":[1,3,5,7,9,11,13,15,17,19,21,23,25,27,29,31,33,35,37,39,41,43,45,47,49,51,53,55,57,59,61,-1,-1,-1,-1,-1,-1,-1,-1,-1,-1,-1,-1,-1,-1,-1,-1,-1,-1,-1,-1,-1,-1,-1,-1,-1,-1,-1,-1,-1,-1,-1,-1],"loss_changes":[1.2812591E6,1.3667381E5,4.3798406E5,4.359875E4,1.0390731E5,1.6723548E5,2.6142312E5,3.8849375E4,3.9427766E4,1.1221239E5,5.3628016E4,8.165566E4,8.316485E4,1.7647931E5,1.9623212E5,1.6847375E4,2.6809195E4,4.7326258E4,2.986336E3,2.4850148E4,9.770448E4,3.1254951E4,3.0857625E4,5.9442156E4,1.0356731E5,8.2664055E4,2.8528383E4,1.8116084E4,6.552225E4,4.9107375E4,2.2686973E3,0E0,0E0,0E0,0E0,0E0,0E0,0E0,0E0,0E0,0E0,0E0,0E0,0E0,0E0,0E0,0E0,0E0,0E0,0E0,0E0,0E0,0E0,0E0,0E0,0E0,0E0,0E0,0E0,0E0,0E0,0E0,0E0],"parents":[2147483647,0,0,1,1,2,2,3,3,4,4,5,5,6,6,7,7,8,8,9,9,10,10,11,11,12,12,13,13,14,14,15,15,16,16,17,17,18,18,19,19,20,20,21,21,22,22,23,23,24,24,25,25,26,26,27,27,28,28,29,29,30,30],"right_children":[2,4,6,8,10,12,14,16,18,20,22,24,26,28,30,32,34,36,38,40,42,44,46,48,50,52,54,56,58,60,62,-1,-1,-1,-1,-1,-1,-1,-1,-1,-1,-1,-1,-1,-1,-1,-1,-1,-1,-1,-1,-1,-1,-1,-1,-1,-1,-1,-1,-1,-1,-1,-1],"split_conditions":[-2.6621995E-2,-8.22557E-1,1.032849E0,1.258751E0,-5.838895E-1,-6.808124E-2,1.258751E0,1.4483249E0,3.332628E-2,-8.949836E-1,3.332628E-2,1.258751E0,7.6060826E-1,-9.92355E-2,7.408256E-1,1.8438466E0,-9.842701E-1,-1.209198E0,-1.36187E0,3.332628E-2,-6.7417306E-1,1.258751E0,-1.7030272E-1,2.5894004E-1,7.408256E-1,1.4292625E0,1.5080288E-1,-6.7417306E-1,-7.769115E-1,-6.508151E-1,1.4213449E0,-5.1406894E0,-2.4237752E0,-2.3273237E-1,-4.9056864E0,-1.5813733E0,7.5115595E0,2.56641E-1,-5.1557183E0,-7.1533394E-1,-4.1673045E0,-2.5527773E0,3.021902E0,-1.989914E0,1.9343643E0,-4.0556445E0,-9.811131E-1,-1.8311116E0,4.1848354E0,9.073368E0,-3.5479991E0,1.031627E0,1.2911002E1,1.6975116E0,-2.2237556E0,-4.4009957E-1,-5.476144E0,2.3801214E1,5.185584E0,-1.5984834E0,1.3576815E1,-3.3925564E0,-7.883682E-2],"split_indices":[10,4,10,1,7,9,0,0,0,10,0,0,7,4,1,5,4,10,2,0,0,1,10,6,1,5,12,0,6,4,10,0,0,0,0,0,0,0,0,0,0,0,0,0,0,0,0,0,0,0,0,0,0,0,0,0,0,0,0,0,0,0,0],"split_type":[0,0,0,0,0,0,0,0,0,0,0,0,0,0,0,0,0,0,0,0,0,0,0,0,0,0,0,0,0,0,0,0,0,0,0,0,0,0,0,0,0,0,0,0,0,0,0,0,0,0,0,0,0,0,0,0,0,0,0,0,0,0,0],"sum_hessian":[1.755E3,9.45E2,8.1E2,3.72E2,5.73E2,5.45E2,2.65E2,3.35E2,3.7E1,2.48E2,3.25E2,1.25E2,4.2E2,1.91E2,7.4E1,2.82E2,5.3E1,2.3E1,1.4E1,8.9E1,1.59E2,8.8E1,2.37E2,7.2E1,5.3E1,2.74E2,1.46E2,2.8E1,1.63E2,6.5E1,9E0,2.54E2,2.8E1,3.5E1,1.8E1,1.5E1,8E0,1E0,1.3E1,3.4E1,5.5E1,4.2E1,1.17E2,5.8E1,3E1,1.97E2,4E1,2.4E1,4.8E1,4.6E1,7E0,2.69E2,5E0,2.1E1,1.25E2,1.4E1,1.4E1,1E0,1.62E2,2E0,6.3E1,6E0,3E0],"tree_param":{"num_deleted":"0","num_feature":"16","num_nodes":"63","size_leaf_vector":"1"}},{"base_weights":[-2.6261604E-1,-1.9410652E1,3.4651165E1,-3.241374E1,-4.75169E0,2.6197695E1,9.026675E1,-3.886125E1,-1.5047878E1,1.093085E1,-1.8169418E1,4.735111E1,9.073475E0,3.5364265E1,1.3563101E2,-4.4700165E1,-2.8975847E1,1.8183699E1,-3.458262E1,-1.3421697E1,2.9910156E1,-2.7776918E0,-2.6949429E1,2.2515474E1,6.210239E1,-7.4899225E0,2.246997E1,6.767637E1,1.1348707E1,7.349791E1,1.5663411E2,-6.5128297E-1,-4.554021E0,4.6523304E0,-3.1154096E0,-2.2252693E0,3.3055584E0,-2.3815866E0,-4.690437E0,-3.3672311E0,1.920242E0,2.1079674E0,6.898075E0,-8.8054115E-1,2.6845474E0,-5.081567E0,-2.3689306E0,6.872501E0,7.67083E-1,-2.0558794E0,6.815361E0,-3.1678073E0,2.4145341E-1,4.761258E0,2.4927631E-1,8.844132E0,1.8327881E0,3.7876236E0,-2.4196377E-2,9.375373E0,4.4838628E-1,1.3752118E1,2.1653662E1],"categories":[],"categories_nodes":[],"categories_segments":[],"categories_sizes":[],"default_left":[0,0,0,0,0,0,0,0,0,0,0,0,0,0,0,0,0,0,0,0,0,0,0,0,0,0,0,0,0,0,0,0,0,0,0,0,0,0,0,0,0,0,0,0,0,0,0,0,0,0,0,0,0,0,0,0,0,0,0,0,0,0,0],"id":4,"left_children":[1,3,5,7,9,11,13,15,17,19,21,23,25,27,29,31,33,35,37,39,41,43,45,47,49,51,53,55,57,59,61,-1,-1,-1,-1,-1,-1,-1,-1,-1,-1,-1,-1,-1,-1,-1,-1,-1,-1,-1,-1,-1,-1,-1,-1,-1,-1,-1,-1,-1,-1,-1,-1],"loss_changes":[1.1645839E6,2.1428419E5,2.877145E5,6.6147375E4,1.1172337E5,1.9409097E5,1.9694288E5,2.375525E4,1.0644358E5,1.1363908E5,3.8575062E4,8.65275E4,6.629197E4,2.87197E4,4.590725E4,8.3968125E3,2.8420172E4,3.7418867E4,1.2547453E4,7.19977E4,4.6157594E4,1.89852E4,1.29570625E4,6.189555E4,7.643131E4,3.2178934E4,8.2757375E4,1.477457E4,7.0810176E3,1.7752797E4,6.8588125E3,0E0,0E0,0E0,0E0,0E0,0E0,0E0,0E0,0E0,0E0,0E0,0E0,0E0,0E0,0E0,0E0,0E0,0E0,0E0,0E0,0E0,0E0,0E0,0E0,0E0,0E0,0E0,0E0,0E0,0E0,0E0,0E0],"parents":[2147483647,0,0,1,1,2,2,3,3,4,4,5,5,6,6,7,7,8,8,9,9,10,10,11,11,12,12,13,13,14,14,15,15,16,16,17,17,18,18,19,19,20,20,21,21,22,22,23,23,24,24,25,25,26,26,27,27,28,28,29,29,30,30],"right_children":[2,4,6,8,10,12,14,16,18,20,22,24,26,28,30,32,34,36,38,40,42,44,46,48,50,52,54,56,58,60,62,-1,-1,-1,-1,-1,-1,-1,-1,-1,-1,-1,-1,-1,-1,-1,-1,-1,-1,-1,-1,-1,-1,-1,-1,-1,-1,-1,-1,-1,-1,-1,-1],"split_conditions":[2.92126E-1,-5.549625E-1,1.9978114E0,1.258751E0,-2.559941E-1,6.381279E-1,7.408256E-1,-8.848702E-1,3.332628E-2,-4.3645123E-1,3.332628E-2,5.749538E-1,1.4521457E-1,-1.2092358E0,-6.211275E-1,-1.2112572E0,-2.1869617E0,-1.209198E0,7.408256E-1,1.258751E0,1.258751E0,3.4437415E-1,-6.391682E-1,-3.0829763E-1,-1.677421E-1,-5.0457813E-2,3.332628E-2,7.408256E-1,8.7002796E-1,1.4403098E0,9.867466E-1,-6.5128297E-1,-4.554021E0,4.6523304E0,-3.1154096E0,-2.2252693E0,3.3055584E0,-2.3815866E0,-4.690437E0,-3.3672311E0,1.920242E0,2.1079674E0,6.898075E0,-8.8054115E-1,2.6845474E0,-5.081567E0,-2.3689306E0,6.872501E0,7.67083E-1,-2.0558794E0,6.815361E0,-3.1678073E0,2.4145341E-1,4.761258E0,2.4927631E-1,8.844132E0,1.8327881E0,3.7876236E0,-2.4196377E-2,9.375373E0,4.4838628E-1,1.3752118E1,2.1653662E1],"split_indices":[10,10,10,1,7,9,0,10,0,4,0,10,4,5,5,11,6,10,0,0,1,13,15,9,15,2,0,1,15,6,14,0,0,0,0,0,0,0,0,0,0,0,0,0,0,0,0,0,0,0,0,0,0,0,0,0,0,0,0,0,0,0,0],"split_type":[0,0,0,0,0,0,0,0,0,0,0,0,0,0,0,0,0,0,0,0,0,0,0,0,0,0,0,0,0,0,0,0,0,0,0,0,0,0,0,0,0,0,0,0,0,0,0,0,0,0,0,0,0,0,0,0,0,0,0,0,0,0,0],"sum_hessian":[1.74E3,1.124E3,6.16E2,5.95E2,5.29E2,5.36E2,8E1,4.33E2,1.62E2,2.44E2,2.85E2,2.39E2,2.97E2,3.7E1,4.3E1,2.7E2,1.63E2,6E1,1.02E2,1.07E2,1.37E2,1.04E2,1.81E2,9E1,1.49E2,1.33E2,1.64E2,1.5E1,2.2E1,1.2E1,3.1E1,6E0,2.64E2,4E0,1.59E2,1.6E1,4.4E1,5.6E1,4.6E1,6.6E1,4.1E1,1.13E2,2.4E1,8.7E1,1.7E1,2E1,1.61E2,2.1E1,6.9E1,1E1,1.39E2,3.8E1,9.5E1,7.2E1,9.2E1,1E1,5E0,6E0,1.6E1,9E0,3E0,2.6E1,5E0],"tree_param":{"num_deleted":"0","num_feature":"16","num_nodes":"63","size_leaf_vector":"1"}},{"base_weights":[-1.6877519E-1,-2.1782747E1,2.4717848E1,-3.1437204E1,-1.1314756E1,1.8537212E1,7.718143E1,-3.4933517E1,-1.0312008E1,5.216601E0,-1.7892485E1,5.7391796E1,1.1814992E1,2.736144E1,1.1990834E2,-4.2165077E1,-2.267508E1,1.0707148E1,-3.7778893E1,-1.3324121E1,3.716792E1,6.054271E1,-2.031799E1,1.044339E2,4.196425E1,3.643008E-1,3.11764E1,6.5283676E1,1.3022535E1,1.5673749E2,8.270236E1,-4.7061324E0,-2.1876893E0,-2.6627186E-1,-5.202663E0,-3.2065027E0,2.9511669E0,-7.5108045E-1,-4.4742804E0,-2.3417237E0,-1.4302723E-2,4.777489E0,-2.1838796E0,4.2789655E0,8.7703285E0,-4.0520663E0,-1.3972872E0,8.640356E0,2.1386536E1,2.864399E0,6.577976E0,8.010869E-1,-2.1391125E0,5.4814744E0,1.066753E0,1.0028895E0,7.6448197E0,3.5049088E0,8.646979E-2,1.6003266E-1,1.6404877E1,1.0060226E1,3.2089787E0],"categories":[],"categories_nodes":[],"categories_segments":[],"categories_sizes":[],"default_left":[0,0,0,0,0,0,0,0,0,0,0,0,0,0,0,0,0,0,0,0,0,0,0,0,0,0,0,0,0,0,0,0,0,0,0,0,0,0,0,0,0,0,0,0,0,0,0,0,0,0,0,0,0,0,0,0,0,0,0,0,0,0,0],"id":5,"left_children":[1,3,5,7,9,11,13,15,17,19,21,23,25,27,29,31,33,35,37,39,41,43,45,47,49,51,53,55,57,59,61,-1,-1,-1,-1,-1,-1,-1,-1,-1,-1,-1,-1,-1,-1,-1,-1,-1,-1,-1,-1,-1,-1,-1,-1,-1,-1,-1,-1,-1,-1,-1,-1],"loss_changes":[9.4777806E5,9.494647E4,2.6413678E5,3.5831344E4,4.9460746E4,1.9103472E5,1.7978338E5,3.6275875E4,4.1394984E4,7.75073E4,6.3059695E4,7.399791E4,1.3899547E5,2.144414E4,5.0069562E4,2.5095812E4,9.26697E4,3.392301E4,6.198254E3,1.1038829E4,3.1085703E4,1.0690391E3,3.9941312E4,3.282153E4,2.4445797E4,6.588133E4,1.1237264E5,6.019129E3,8.271346E3,2.4690938E4,1.9420703E4,0E0,0E0,0E0,0E0,0E0,0E0,0E0,0E0,0E0,0E0,0E0,0E0,0E0,0E0,0E0,0E0,0E0,0E0,0E0,0E0,0E0,0E0,0E0,0E0,0E0,0E0,0E0,0E0,0E0,0E0,0E0,0E0],"parents":[2147483647,0,0,1,1,2,2,3,3,4,4,5,5,6,6,7,7,8,8,9,9,10,10,11,11,12,12,13,13,14,14,15,15,16,16,17,17,18,18,19,19,20,20,21,21,22,22,23,23,24,24,25,25,26,26,27,27,28,28,29,29,30,30],"right_children":[2,4,6,8,10,12,14,16,18,20,22,24,26,28,30,32,34,36,38,40,42,44,46,48,50,52,54,56,58,60,62,-1,-1,-1,-1,-1,-1,-1,-1,-1,-1,-1,-1,-1,-1,-1,-1,-1,-1,-1,-1,-1,-1,-1,-1,-1,-1,-1,-1,-1,-1,-1,-1],"split_conditions":[-2.6621995E-2,-6.746333E-1,1.8322299E0,1.258751E0,3.332628E-2,-2.5568402E-1,7.408256E-1,1.258751E0,3.332628E-2,1.258751E0,-1.0902916E0,-8.8393277E-1,8.3825225E-1,1.0718168E0,1.0403955E0,7.408256E-1,7.408256E-1,-1.4010048E0,-1.0167615E0,-3.63743E-1,4.8979476E-1,7.4385154E-1,-7.50623E-1,1.6771016E0,5.331051E-1,8.9607084E-1,7.6489544E-1,-4.2788737E-2,-9.566426E-1,-2.622022E-1,1.3177161E0,-4.7061324E0,-2.1876893E0,-2.6627186E-1,-5.202663E0,-3.2065027E0,2.9511669E0,-7.5108045E-1,-4.4742804E0,-2.3417237E0,-1.4302723E-2,4.777489E0,-2.1838796E0,4.2789655E0,8.7703285E0,-4.0520663E0,-1.3972872E0,8.640356E0,2.1386536E1,2.864399E0,6.577976E0,8.010869E-1,-2.1391125E0,5.4814744E0,1.066753E0,1.0028895E0,7.6448197E0,3.5049088E0,8.646979E-2,1.6003266E-1,1.6404877E1,1.0060226E1,3.2089787E0],"split_indices":[10,4,10,1,0,9,0,0,0,1,7,7,10,9,7,1,1,10,2,4,9,3,15,4,10,7,9,2,8,4,6,0,0,0,0,0,0,0,0,0,0,0,0,0,0,0,0,0,0,0,0,0,0,0,0,0,0,0,0,0,0,0,0],"split_type":[0,0,0,0,0,0,0,0,0,0,0,0,0,0,0,0,0,0,0,0,0,0,0,0,0,0,0,0,0,0,0,0,0,0,0,0,0,0,0,0,0,0,0,0,0,0,0,0,0,0,0,0,0,0,0,0,0,0,0,0,0,0,0],"sum_hessian":[1.76E3,9.42E2,8.18E2,4.89E2,4.53E2,7.33E2,8.5E1,4.19E2,7E1,1.29E2,3.24E2,1.07E2,6.26E2,4E1,4.5E1,2.62E2,1.57E2,4E1,3E1,8.2E1,4.7E1,9E0,3.15E2,2.5E1,8.2E1,3.94E2,2.32E2,1E1,3E1,2.1E1,2.4E1,2.1E2,5.2E1,9.4E1,6.3E1,1.2E1,2.8E1,6E0,2.4E1,4.6E1,3.6E1,4E1,7E0,7E0,2E0,7.4E1,2.41E2,2.3E1,2E0,5.4E1,2.8E1,2.92E2,1.02E2,1.07E2,1.25E2,2E0,8E0,1E1,2E1,1E0,2E1,1.7E1,7E0],"tree_param":{"num_deleted":"0","num_feature":"16","num_nodes":"63","size_leaf_vector":"1"}},{"base_weights":[1.646274E0,-1.7713234E1,2.5360804E1,-3.2926617E1,-1.0827755E1,1.5635292E1,5.516506E1,-4.3197235E1,-2.6328531E1,-1.6773058E1,6.0397654E0,-4.7959423E0,2.9135674E1,1.1178663E2,8.17221E0,-5.0443635E0,-3.763524E1,-6.978922E0,-3.0826902E1,2.315783E1,-1.971358E1,4.0835102E1,-1.232655E1,-2.4128277E1,5.0854764E0,4.9884727E1,1.2135754E1,7.6124504E1,1.2268574E2,-1.0509319E1,8.428837E1,-2.3926265E0,-4.068977E0,-2.802271E0,1.5621682E0,-2.1969078E0,-3.63896E0,-2.3214014E0,6.098897E0,-2.630348E0,-7.1180487E-1,9.907461E0,2.095624E0,4.133728E-1,-2.8290503E0,-1.0600399E0,-3.7391148E0,-3.523599E-1,4.0190864E0,2.9218206E0,1.00466585E1,-1.3576905E-1,3.8938768E0,2.1335208E0,8.032658E0,1.0712413E1,1.636479E1,-3.348606E0,8.3782285E-1,8.149201E-2,1.0388124E1],"categories":[],"categories_nodes":[],"categories_segments":[],"categories_sizes":[],"default_left":[0,0,0,0,0,0,0,0,0,0,0,0,0,0,0,0,0,0,0,0,0,0,0,0,0,0,0,0,0,0,0,0,0,0,0,0,0,0,0,0,0,0,0,0,0,0,0,0,0,0,0,0,0,0,0,0,0,0,0,0,0],"id":6,"left_children":[1,3,5,7,9,11,13,15,17,19,21,23,25,27,29,-1,31,33,35,37,39,41,43,45,47,49,51,53,55,57,59,-1,-1,-1,-1,-1,-1,-1,-1,-1,-1,-1,-1,-1,-1,-1,-1,-1,-1,-1,-1,-1,-1,-1,-1,-1,-1,-1,-1,-1,-1],"loss_changes":[7.9882694E5,9.999534E4,2.2580922E5,1.9057094E4,6.638806E4,1.6315497E5,5.099618E5,2.7365469E3,1.5800539E4,5.7873688E4,1.110611E5,4.5205996E4,1.2496728E5,2.447625E4,1.5161425E5,0E0,1.9157969E3,1.7559445E4,6.5422812E3,6.1061977E4,3.766228E4,6.738788E4,3.0072854E4,1.3957117E4,4.7590934E4,1.6432072E5,7.130086E4,3.5814844E3,2.3902812E4,3.7602344E4,3.426053E4,0E0,0E0,0E0,0E0,0E0,0E0,0E0,0E0,0E0,0E0,0E0,0E0,0E0,0E0,0E0,0E0,0E0,0E0,0E0,0E0,0E0,0E0,0E0,0E0,0E0,0E0,0E0,0E0,0E0,0E0],"parents":[2147483647,0,0,1,1,2,2,3,3,4,4,5,5,6,6,7,7,8,8,9,9,10,10,11,11,12,12,13,13,14,14,16,16,17,17,18,18,19,19,20,20,21,21,22,22,23,23,24,24,25,25,26,26,27,27,28,28,29,29,30,30],"right_children":[2,4,6,8,10,12,14,16,18,20,22,24,26,28,30,-1,32,34,36,38,40,42,44,46,48,50,52,54,56,58,60,-1,-1,-1,-1,-1,-1,-1,-1,-1,-1,-1,-1,-1,-1,-1,-1,-1,-1,-1,-1,-1,-1,-1,-1,-1,-1,-1,-1,-1,-1],"split_conditions":[3.789483E-2,-9.724038E-1,1.258751E0,-1.3602022E0,1.258751E0,1.4521457E-1,3.332628E-2,7.408256E-1,-1.0219274E0,-1.6895951E0,3.332628E-2,-4.640302E-1,3.332628E-2,8.4026955E-2,1.4977188E0,-5.0443635E0,-1.0494567E0,7.408256E-1,1.57504E-2,1.258751E0,-3.216557E-1,-8.396226E-1,-1.4248675E-1,-4.5076966E-1,1.258751E0,1.258751E0,1.2134961E0,-8.2919514E-1,4.3258017E-1,1.4483249E0,2.9978228E-1,-2.3926265E0,-4.068977E0,-2.802271E0,1.5621682E0,-2.1969078E0,-3.63896E0,-2.3214014E0,6.098897E0,-2.630348E0,-7.1180487E-1,9.907461E0,2.095624E0,4.133728E-1,-2.8290503E0,-1.0600399E0,-3.7391148E0,-3.523599E-1,4.0190864E0,2.9218206E0,1.00466585E1,-1.3576905E-1,3.8938768E0,2.1335208E0,8.032658E0,1.0712413E1,1.636479E1,-3.348606E0,8.3782285E-1,8.149201E-2,1.0388124E1],"split_indices":[10,10,0,10,1,4,1,1,7,9,0,4,0,15,10,0,4,1,14,0,10,7,2,3,1,1,10,13,3,0,7,0,0,0,0,0,0,0,0,0,0,0,0,0,0,0,0,0,0,0,0,0,0,0,0,0,0,0,0,0,0],"split_type":[0,0,0,0,0,0,0,0,0,0,0,0,0,0,0,0,0,0,0,0,0,0,0,0,0,0,0,0,0,0,0,0,0,0,0,0,0,0,0,0,0,0,0,0,0,0,0,0,0,0,0,0,0,0,0,0,0,0,0,0,0],"sum_hessian":[1.738E3,9.57E2,7.81E2,2.97E2,6.6E2,5.9E2,1.91E2,1.14E2,1.83E2,4.88E2,1.72E2,2.35E2,3.55E2,8.6E1,1.05E2,4.6E1,6.8E1,3.5E1,1.48E2,3.3E1,4.55E2,5.9E1,1.13E2,7.9E1,1.56E2,1.59E2,1.96E2,2.2E1,6.4E1,8.5E1,2E1,1.4E1,5.4E1,1.8E1,1.7E1,5.9E1,8.9E1,1.5E1,1.8E1,2.98E2,1.57E2,1.4E1,4.5E1,5.6E1,5.7E1,4E1,3.9E1,1.26E2,3E1,1.14E2,4.5E1,1.31E2,6.5E1,2E0,2E1,4.9E1,1.5E1,3.8E1,4.7E1,4E0,1.6E1],"tree_param":{"num_deleted":"0","num_feature":"16","num_nodes":"61","size_leaf_vector":"1"}},{"base_weights":[6.718665E-1,-1.1814737E1,3.1321716E1,-2.324732E1,-1.6114455E0,2.645506E1,8.080632E1,-2.856026E1,-8.08903E0,1.4292378E1,-9.650255E0,3.722833E1,1.7633563E0,5.477991E1,1.2455544E2,2.513412E-1,-3.0926018E1,2.1551062E1,-2.7237505E1,-1.0614516E0,2.364588E1,-1.8886333E1,2.4410205E0,3.3428722E1,1.0365489E2,8.949148E0,-2.5361906E1,1.3475297E1,7.798389E1,1.282574E1,3.451306E0,-2.4745414E0,3.3563595E0,-3.4883554E0,-1.8786395E0,-1.3509023E0,3.6541538E0,-3.2244587E0,-5.775633E-1,-2.8538327E0,5.723597E-1,6.312069E0,1.5202042E0,-1.0761036E0,-3.2635365E0,-1.9540738E-1,5.41404E0,6.355356E0,2.689262E0,-5.28013E0,1.5585689E1,-4.504594E-1,2.3218634E0,2.263376E0,-4.3843684E0,4.554361E0,-1.5936866E0,1.2558202E0,8.494231E0],"categories":[],"categories_nodes":[],"categories_segments":[],"categories_sizes":[],"default_left":[0,0,0,0,0,0,0,0,0,0,0,0,0,0,0,0,0,0,0,0,0,0,0,0,0,0,0,0,0,0,0,0,0,0,0,0,0,0,0,0,0,0,0,0,0,0,0,0,0,0,0,0,0,0,0,0,0,0,0],"id":7,"left_children":[1,3,5,7,9,11,13,15,17,19,21,23,25,27,29,31,33,35,37,39,41,43,45,47,49,51,53,55,57,-1,-1,-1,-1,-1,-1,-1,-1,-1,-1,-1,-1,-1,-1,-1,-1,-1,-1,-1,-1,-1,-1,-1,-1,-1,-1,-1,-1,-1,-1],"loss_changes":[6.716479E5,1.4542505E5,1.2020116E5,4.7123625E4,8.4517484E4,1.2336316E5,4.4415312E4,2.9657906E4,8.799163E4,3.1906973E4,4.9071844E4,7.80585E4,2.790511E4,2.7702078E4,9.0678125E2,2.9142285E4,1.8657969E4,3.2553258E4,9.915133E3,1.6010055E4,4.5038438E4,2.7465836E4,4.350551E4,5.8738875E4,1.4707397E5,2.1798102E4,2.76037E4,1.2044201E4,7.583203E3,0E0,0E0,0E0,0E0,0E0,0E0,0E0,0E0,0E0,0E0,0E0,0E0,0E0,0E0,0E0,0E0,0E0,0E0,0E0,0E0,0E0,0E0,0E0,0E0,0E0,0E0,0E0,0E0,0E0,0E0],"parents":[2147483647,0,0,1,1,2,2,3,3,4,4,5,5,6,6,7,7,8,8,9,9,10,10,11,11,12,12,13,13,14,14,15,15,16,16,17,17,18,18,19,19,20,20,21,21,22,22,23,23,24,24,25,25,26,26,27,27,28,28],"right_children":[2,4,6,8,10,12,14,16,18,20,22,24,26,28,30,32,34,36,38,40,42,44,46,48,50,52,54,56,58,-1,-1,-1,-1,-1,-1,-1,-1,-1,-1,-1,-1,-1,-1,-1,-1,-1,-1,-1,-1,-1,-1,-1,-1,-1,-1,-1,-1,-1,-1],"split_conditions":[5.467059E-1,-5.549625E-1,2.3807275E0,1.258751E0,3.234431E-3,1.1214198E0,1.258751E0,-2.264428E0,3.332628E-2,-2.6202124E-1,4.8306143E-1,1.4509805E0,7.800264E-2,1.4025654E0,1.223134E0,-1.1359627E0,-6.7349863E-1,-1.188971E0,-5.645668E-1,-7.758501E-1,-9.143169E-1,7.800264E-2,1.5880178E0,6.366215E-2,-6.896764E-1,1.1430507E0,1.7936686E0,-6.7417306E-1,-5.1827157E-1,1.282574E1,3.451306E0,-2.4745414E0,3.3563595E0,-3.4883554E0,-1.8786395E0,-1.3509023E0,3.6541538E0,-3.2244587E0,-5.775633E-1,-2.8538327E0,5.723597E-1,6.312069E0,1.5202042E0,-1.0761036E0,-3.2635365E0,-1.9540738E-1,5.41404E0,6.355356E0,2.689262E0,-5.28013E0,1.5585689E1,-4.504594E-1,2.3218634E0,2.263376E0,-4.3843684E0,4.554361E0,-1.5936866E0,1.2558202E0,8.494231E0],"split_indices":[10,10,10,1,9,7,0,9,0,10,12,5,3,4,6,10,13,10,13,12,7,3,11,9,4,10,7,0,2,0,0,0,0,0,0,0,0,0,0,0,0,0,0,0,0,0,0,0,0,0,0,0,0,0,0,0,0,0,0],"split_type":[0,0,0,0,0,0,0,0,0,0,0,0,0,0,0,0,0,0,0,0,0,0,0,0,0,0,0,0,0,0,0,0,0,0,0,0,0,0,0,0,0,0,0,0,0,0,0,0,0,0,0,0,0,0,0,0,0,0,0],"sum_hessian":[1.753E3,1.246E3,5.07E2,5.87E2,6.59E2,4.63E2,4.4E1,4.34E2,1.53E2,2.21E2,4.38E2,3.22E2,1.41E2,2.9E1,1.5E1,3.3E1,4.01E2,6E1,9.3E1,8.4E1,1.37E2,2.48E2,1.9E2,3.06E2,1.6E1,1.12E2,2.9E1,1.1E1,1.8E1,1.4E1,1E0,1.9E1,1.4E1,3.01E2,1E2,1.8E1,4.2E1,7.5E1,1.8E1,1.6E1,6.8E1,2.3E1,1.14E2,1.57E2,9.1E1,1.76E2,1.4E1,5.3E1,2.53E2,4E0,1.2E1,5.8E1,5.4E1,8E0,2.1E1,5E0,6E0,2E0,1.6E1],"tree_param":{"num_deleted":"0","num_feature":"16","num_nodes":"59","size_leaf_vector":"1"}},{"base_weights":[7.567659E-1,-1.2563573E1,2.5068394E1,-2.5698809E1,-5.9091487E0,2.0444817E1,7.500106E1,-2.8840233E1,-7.8154078E0,-8.1520927E-1,-2.627947E1,9.764364E1,1.7735851E1,3.2032753E1,1.054434E2,-3.196107E1,-8.395843E0,8.162861E0,-3.4332703E1,-1.4250915E1,7.971915E0,-4.1146214E1,-2.0309904E1,7.641802E1,1.8537428E1,-5.354543E1,1.970124E1,5.4411194E1,-8.823841E0,1.3791711E2,7.613219E1,-3.2518842E0,6.154972E0,2.2718482E0,-2.698683E0,-1.6095012E0,3.199111E0,-3.7714653E0,1.8344094E0,-1.9890236E0,2.0782895E-1,1.9332148E0,-6.412032E-2,3.9510575E-1,-4.234252E0,4.7773084E-1,-2.4364007E0,-1.3083729E0,8.282962E0,-1.1485747E0,-5.572928E0,2.8010387E0,3.1581423E-1,3.7971475E0,1.0751292E1,-2.076658E0,1.1296227E0,1.5388782E1,3.3385541E0,-4.683365E-1,8.652684E0],"categories":[],"categories_nodes":[],"categories_segments":[],"categories_sizes":[],"default_left":[0,0,0,0,0,0,0,0,0,0,0,0,0,0,0,0,0,0,0,0,0,0,0,0,0,0,0,0,0,0,0,0,0,0,0,0,0,0,0,0,0,0,0,0,0,0,0,0,0,0,0,0,0,0,0,0,0,0,0,0,0],"id":8,"left_children":[1,3,5,7,9,11,13,15,17,19,21,23,25,27,29,31,33,35,37,39,41,43,45,47,-1,49,51,53,55,57,59,-1,-1,-1,-1,-1,-1,-1,-1,-1,-1,-1,-1,-1,-1,-1,-1,-1,-1,-1,-1,-1,-1,-1,-1,-1,-1,-1,-1,-1,-1],"loss_changes":[5.654142E5,9.844372E4,1.4114269E5,2.1066578E4,7.780247E4,1.1684436E5,6.464128E4,2.0276406E4,2.4854883E4,7.106839E4,1.2476523E4,2.1214672E4,7.796731E4,2.1509176E4,1.8055375E4,1.6553531E4,2.606472E4,2.1901736E4,4.6111445E3,2.195771E4,3.562871E4,2.4331875E3,1.1202359E4,1.0839148E4,0E0,7.376875E2,7.345211E4,9.012234E3,2.3971824E3,1.6565125E4,1.5526141E4,0E0,0E0,0E0,0E0,0E0,0E0,0E0,0E0,0E0,0E0,0E0,0E0,0E0,0E0,0E0,0E0,0E0,0E0,0E0,0E0,0E0,0E0,0E0,0E0,0E0,0E0,0E0,0E0,0E0,0E0],"parents":[2147483647,0,0,1,1,2,2,3,3,4,4,5,5,6,6,7,7,8,8,9,9,10,10,11,11,12,12,13,13,14,14,15,15,16,16,17,17,18,18,19,19,20,20,21,21,22,22,23,23,25,25,26,26,27,27,28,28,29,29,30,30],"right_children":[2,4,6,8,10,12,14,16,18,20,22,24,26,28,30,32,34,36,38,40,42,44,46,48,-1,50,52,54,56,58,60,-1,-1,-1,-1,-1,-1,-1,-1,-1,-1,-1,-1,-1,-1,-1,-1,-1,-1,-1,-1,-1,-1,-1,-1,-1,-1,-1,-1,-1,-1],"split_conditions":[2.92126E-1,-8.22557E-1,2.2011266E0,1.7084795E0,3.4282646E-1,-8.930194E-1,7.408256E-1,1.4483249E0,-8.3329254E-1,-5.79723E-1,-2.9471746E-1,1.1712985E0,-8.4512156E-1,-1.2398499E0,1.0403955E0,1.2264982E0,-1.0256386E0,-1.1795552E0,6.2934405E-1,-5.792271E-1,3.332628E-2,-1.05051E0,-1.1518035E-1,-6.7417306E-1,1.8537428E1,-1.3327796E0,8.859428E-1,2.3289685E0,5.937447E-1,4.1735592E-1,2.376297E0,-3.2518842E0,6.154972E0,2.2718482E0,-2.698683E0,-1.6095012E0,3.199111E0,-3.7714653E0,1.8344094E0,-1.9890236E0,2.0782895E-1,1.9332148E0,-6.412032E-2,3.9510575E-1,-4.234252E0,4.7773084E-1,-2.4364007E0,-1.3083729E0,8.282962E0,-1.1485747E0,-5.572928E0,2.8010387E0,3.1581423E-1,3.7971475E0,1.0751292E1,-2.076658E0,1.1296227E0,1.5388782E1,3.3385541E0,-4.683365E-1,8.652684E0],"split_indices":[10,4,10,5,7,9,0,0,7,10,15,10,4,5,7,7,4,10,6,13,1,14,15,0,0,3,7,4,2,2,13,0,0,0,0,0,0,0,0,0,0,0,0,0,0,0,0,0,0,0,0,0,0,0,0,0,0,0,0,0,0],"split_type":[0,0,0,0,0,0,0,0,0,0,0,0,0,0,0,0,0,0,0,0,0,0,0,0,0,0,0,0,0,0,0,0,0,0,0,0,0,0,0,0,0,0,0,0,0,0,0,0,0,0,0,0,0,0,0,0,0,0,0,0,0],"sum_hessian":[1.744E3,1.127E3,6.17E2,3.78E2,7.49E2,5.66E2,5.1E1,3.21E2,5.7E1,6E2,1.49E2,1.8E1,5.48E2,2.2E1,2.9E1,2.78E2,4.3E1,3.6E1,2.1E1,2.37E2,3.63E2,4.1E1,1.08E2,1.6E1,2E0,1.4E1,5.34E2,1.4E1,8E0,1.2E1,1.7E1,2.77E2,1E0,1.6E1,2.7E1,1.8E1,1.8E1,2E1,1E0,1.76E2,6.1E1,1.56E2,2.07E2,1E0,4E1,1.5E1,9.3E1,1E0,1.5E1,1E0,1.3E1,3.55E2,1.79E2,1.2E1,2E0,5E0,3E0,1E1,2E0,2E0,1.5E1],"tree_param":{"num_deleted":"0","num_feature":"16","num_nodes":"61","size_leaf_vector":"1"}},{"base_weights":[-2.1864304E-1,-8.197524E0,3.1697514E1,-1.7385494E1,2.6094418E0,-4.30125E1,3.594153E1,-2.1900774E1,-4.2429614E0,2.2715582E1,-5.5186663E0,1.7849287E0,-5.1222668E1,3.307541E1,2.1390455E1,-2.8565983E1,-1.5393698E1,2.0090946E1,-1.836972E1,9.459046E0,4.4480595E1,4.5315456E0,-1.5813443E1,-6.116579E1,-3.239093E1,2.230479E1,6.3950634E1,-1.5385172E0,-3.0567276E0,1.7610464E0,-1.8660033E0,2.6939123E0,-2.4376824E0,-8.4805155E-1,-2.913573E0,-4.3200736E0,2.100006E0,6.5095687E0,5.594202E-1,-3.9736056E-1,4.0575447E0,2.5416884E0,-2.1120856E0,-6.502435E0,-1.3219388E0,-4.167909E0,-3.0176315E-1,-2.0712112E-1,3.1702857E0,8.347325E0,-3.0116785E0],"categories":[],"categories_nodes":[],"categories_segments":[],"categories_sizes":[],"default_left":[0,0,0,0,0,0,0,0,0,0,0,0,0,0,0,0,0,0,0,0,0,0,0,0,0,0,0,0,0,0,0,0,0,0,0,0,0,0,0,0,0,0,0,0,0,0,0,0,0,0,0],"id":9,"left_children":[1,3,5,7,9,11,13,15,17,19,21,-1,23,25,-1,27,29,31,33,35,37,39,41,43,45,47,49,-1,-1,-1,-1,-1,-1,-1,-1,-1,-1,-1,-1,-1,-1,-1,-1,-1,-1,-1,-1,-1,-1,-1,-1],"loss_changes":[4.3928547E5,1.3707119E5,1.1093525E5,4.4176375E4,1.0390015E5,1.0408316E4,1.5971562E5,2.3631188E4,6.637084E4,5.2379984E4,4.6941164E4,0E0,1.2019688E3,1.0598572E5,0E0,6.7310938E3,3.0836766E4,2.2277822E4,1.2741918E4,7.079815E4,5.4949453E4,7.066976E4,4.9553934E4,9.9045703E2,2.0568193E3,5.5275703E4,1.5493862E5,0E0,0E0,0E0,0E0,0E0,0E0,0E0,0E0,0E0,0E0,0E0,0E0,0E0,0E0,0E0,0E0,0E0,0E0,0E0,0E0,0E0,0E0,0E0,0E0],"parents":[2147483647,0,0,1,1,2,2,3,3,4,4,5,5,6,6,7,7,8,8,9,9,10,10,12,12,13,13,15,15,16,16,17,17,18,18,19,19,20,20,21,21,22,22,23,23,24,24,25,25,26,26],"right_children":[2,4,6,8,10,12,14,16,18,20,22,-1,24,26,-1,28,30,32,34,36,38,40,42,44,46,48,50,-1,-1,-1,-1,-1,-1,-1,-1,-1,-1,-1,-1,-1,-1,-1,-1,-1,-1,-1,-1,-1,-1,-1,-1],"split_conditions":[8.3825225E-1,-3.0805486E-1,-5.743461E-1,1.258751E0,5.2440524E-2,1.4117073E-1,1.7636381E0,-8.7440795E-1,3.332628E-2,1.258751E0,3.332628E-2,1.7849287E0,-6.809013E-1,1.258751E0,2.1390455E1,-2.113837E0,-1.6200085E0,1.6695155E0,7.408256E-1,-7.50623E-1,3.332628E-2,1.258751E0,-3.6740258E-1,2.747663E-1,-8.5807884E-1,-4.2788737E-2,7.408256E-1,-1.5385172E0,-3.0567276E0,1.7610464E0,-1.8660033E0,2.6939123E0,-2.4376824E0,-8.4805155E-1,-2.913573E0,-4.3200736E0,2.100006E0,6.5095687E0,5.594202E-1,-3.9736056E-1,4.0575447E0,2.5416884E0,-2.1120856E0,-6.502435E0,-1.3219388E0,-4.167909E0,-3.0176315E-1,-2.0712112E-1,3.1702857E0,8.347325E0,-3.0116785E0],"split_indices":[10,10,4,1,9,13,14,10,0,0,0,0,4,0,0,9,9,3,0,15,1,1,7,6,5,2,1,0,0,0,0,0,0,0,0,0,0,0,0,0,0,0,0,0,0,0,0,0,0,0,0],"split_type":[0,0,0,0,0,0,0,0,0,0,0,0,0,0,0,0,0,0,0,0,0,0,0,0,0,0,0,0,0,0,0,0,0,0,0,0,0,0,0,0,0,0,0,0,0,0,0,0,0,0,0],"sum_hessian":[1.723E3,1.379E3,3.44E2,7.45E2,6.34E2,1.8E1,3.26E2,5.54E2,1.91E2,1.82E2,4.52E2,2E0,1.6E1,3.22E2,4E0,2.72E2,2.82E2,7E1,1.21E2,1.14E2,6.8E1,2.29E2,2.23E2,9E0,7E0,2.4E2,8.2E1,3.7E1,2.35E2,2.5E1,2.57E2,6.1E1,9E0,6.4E1,5.7E1,2E1,9.4E1,4.4E1,2.4E1,1.86E2,4.3E1,2.5E1,1.98E2,8E0,1E0,5E0,2E0,6.7E1,1.73E2,6.8E1,1.4E1],"tree_param":{"num_deleted":"0","num_feature":"16","num_nodes":"51","size_leaf_vector":"1"}},{"base_weights":[9.612663E-1,-1.1208197E1,1.8979053E1,-2.2940622E1,-5.8295093E0,1.1668547E1,4.1138927E1,-1.4463409E1,-2.9605017E1,2.1973064E1,-8.851862E0,-2.5176306E1,1.6635336E1,8.607565E1,2.457256E0,-2.6724316E1,1.03808E0,6.0632277E0,-3.0443182E1,1.34170885E1,7.196721E1,-3.0664557E1,-5.4681215E0,-3.3969685E1,-1.3056579E0,1.4468594E1,1.0474736E2,6.815688E1,1.0716673E2,-2.9239777E1,2.4488096E1,-3.2231102E0,-2.3385596E-1,-2.3521557E0,1.5988148E0,-3.2314641E0,-1.0598325E0,-1.2861176E0,2.7534707E0,1.0112521E1,2.2584155E0,-3.167567E0,7.868117E-1,1.0843542E0,-9.6439356E-1,-4.7467847E0,-1.7086785E0,1.2886948E1,-1.6543576E0,-1.1366563E0,1.8271631E0,1.6782413E1,-4.5095778E-1,7.3162684E0,2.2591114E0,4.7285542E0,1.1557075E1,-3.3533955E0,-8.4080976E-1,-9.0134495E-1,4.989593E0],"categories":[],"categories_nodes":[],"categories_segments":[],"categories_sizes":[],"default_left":[0,0,0,0,0,0,0,0,0,0,0,0,0,0,0,0,0,0,0,0,0,0,0,0,0,0,0,0,0,0,0,0,0,0,0,0,0,0,0,0,0,0,0,0,0,0,0,0,0,0,0,0,0,0,0,0,0,0,0,0,0],"id":10,"left_children":[1,3,5,7,9,11,13,15,17,19,21,23,25,27,29,31,33,-1,35,37,39,41,43,45,47,49,51,53,55,57,59,-1,-1,-1,-1,-1,-1,-1,-1,-1,-1,-1,-1,-1,-1,-1,-1,-1,-1,-1,-1,-1,-1,-1,-1,-1,-1,-1,-1,-1,-1],"loss_changes":[3.8020206E5,6.5180016E4,1.1275791E5,1.7932828E4,5.9939254E4,9.686014E4,3.0050184E5,2.758678E4,1.5535547E4,2.8976816E4,4.7217395E4,1.3179574E4,8.726041E4,2.2929938E4,6.6357375E4,1.0801871E4,2.4242002E4,0E0,6.3425E3,2.2984305E4,1.2115285E4,3.5998516E3,3.804433E4,9.671781E3,3.783673E4,4.491236E4,7.656413E4,8.8394375E3,1.2148625E4,3.206789E3,4.8117016E4,0E0,0E0,0E0,0E0,0E0,0E0,0E0,0E0,0E0,0E0,0E0,0E0,0E0,0E0,0E0,0E0,0E0,0E0,0E0,0E0,0E0,0E0,0E0,0E0,0E0,0E0,0E0,0E0,0E0,0E0],"parents":[2147483647,0,0,1,1,2,2,3,3,4,4,5,5,6,6,7,7,8,8,9,9,10,10,11,11,12,12,13,13,14,14,15,15,16,16,18,18,19,19,20,20,21,21,22,22,23,23,24,24,25,25,26,26,27,27,28,28,29,29,30,30],"right_children":[2,4,6,8,10,12,14,16,18,20,22,24,26,28,30,32,34,-1,36,38,40,42,44,46,48,50,52,54,56,58,60,-1,-1,-1,-1,-1,-1,-1,-1,-1,-1,-1,-1,-1,-1,-1,-1,-1,-1,-1,-1,-1,-1,-1,-1,-1,-1,-1,-1,-1,-1],"split_conditions":[1.4600411E-1,-7.7921295E-1,1.258751E0,-1.5170199E0,-9.1328263E-1,-4.5901585E-1,3.332628E-2,1.5604974E0,-2.692729E0,8.11667E-1,-9.429016E-1,8.504946E-1,1.386857E0,1.2779468E-1,1.4483249E0,-1.5200286E0,-1.3037064E0,6.0632277E0,1.4483249E0,-8.5139114E-1,7.6872873E-1,1.7084795E0,-3.9036E-1,-6.307577E-1,8.859428E-1,-1.1920985E0,1.8440492E0,-1.7876777E-1,-8.776858E-1,1.0128781E0,6.032497E-1,-3.2231102E0,-2.3385596E-1,-2.3521557E0,1.5988148E0,-3.2314641E0,-1.0598325E0,-1.2861176E0,2.7534707E0,1.0112521E1,2.2584155E0,-3.167567E0,7.868117E-1,1.0843542E0,-9.6439356E-1,-4.7467847E0,-1.7086785E0,1.2886948E1,-1.6543576E0,-1.1366563E0,1.8271631E0,1.6782413E1,-4.5095778E-1,7.3162684E0,2.2591114E0,4.7285542E0,1.1557075E1,-3.3533955E0,-8.4080976E-1,-9.0134495E-1,4.989593E0],"split_indices":[10,15,0,9,9,4,1,8,6,5,4,7,5,9,0,12,10,0,0,10,11,5,6,4,7,1,11,7,5,15,13,0,0,0,0,0,0,0,0,0,0,0,0,0,0,0,0,0,0,0,0,0,0,0,0,0,0,0,0,0,0],"split_type":[0,0,0,0,0,0,0,0,0,0,0,0,0,0,0,0,0,0,0,0,0,0,0,0,0,0,0,0,0,0,0,0,0,0,0,0,0,0,0,0,0,0,0,0,0,0,0,0,0,0,0,0,0,0,0,0,0,0,0,0,0],"sum_hessian":[1.732E3,1.034E3,6.98E2,3.24E2,7.1E2,5.26E2,1.72E2,1.44E2,1.8E2,6.9E1,6.41E2,6.2E1,4.64E2,7.9E1,9.3E1,8E1,6.4E1,1E0,1.79E2,6E1,9E0,8.5E1,5.56E2,4.5E1,1.7E1,4.54E2,1E1,4.5E1,3.4E1,3.8E1,5.5E1,6.5E1,1.5E1,2.4E1,4E1,1.63E2,1.6E1,2.1E1,3.9E1,5E0,4E0,8.3E1,2E0,1.13E2,4.43E2,2.4E1,2.1E1,1E0,1.6E1,5.8E1,3.96E2,6E0,4E0,4E1,5E0,5E0,2.9E1,3.1E1,7E0,2.4E1,3.1E1],"tree_param":{"num_deleted":"0","num_feature":"16","num_nodes":"61","size_leaf_vector":"1"}},{"base_weights":[-2.1548222E-1,-7.0072284E0,2.4566776E1,-1.694736E1,-8.409797E-1,2.1125738E1,9.538345E1,4.6283774E0,-1.9400654E1,3.5201516E0,-1.6989523E1,3.6831284E1,8.036839E0,1.1301328E1,9.833204E0,4.062848E1,-3.2876484E1,-2.1209723E1,6.7855587E0,-9.389727E0,8.16896E0,-3.1752823E1,-1.3308798E1,4.413996E1,-1.72673E1,-2.7853483E1,1.3689791E1,4.2813315E0,-1.5431272E0,-1.2993382E-1,6.0557413E0,-4.181011E0,5.359566E-1,-1.6761744E0,-2.6566074E0,-1.8439344E0,3.8732896E0,2.0087745E0,-1.3952273E0,2.176874E0,2.524632E-1,-3.366193E0,1.6578435E0,4.41041E0,-1.5250329E0,3.2384052E0,1.1915831E1,1.2348828E0,-4.8118315E0,9.4536975E-2,-3.6126745E0,-1.1039919E0,2.16352E0],"categories":[],"categories_nodes":[],"categories_segments":[],"categories_sizes":[],"default_left":[0,0,0,0,0,0,0,0,0,0,0,0,0,0,0,0,0,0,0,0,0,0,0,0,0,0,0,0,0,0,0,0,0,0,0,0,0,0,0,0,0,0,0,0,0,0,0,0,0,0,0,0,0],"id":11,"left_children":[1,3,5,7,9,11,13,15,17,19,21,23,25,-1,27,29,31,33,35,37,39,41,43,45,47,49,51,-1,-1,-1,-1,-1,-1,-1,-1,-1,-1,-1,-1,-1,-1,-1,-1,-1,-1,-1,-1,-1,-1,-1,-1,-1,-1],"loss_changes":[2.9186172E5,8.3405945E4,8.887866E4,2.7667203E4,5.9288E4,7.3091875E4,2.4528719E4,7.424538E4,2.2314312E4,3.986701E4,9.304207E3,6.4815203E4,4.0147016E4,0E0,3.993565E3,2.3474832E4,9.446922E3,9.990047E3,2.569613E4,2.395092E4,3.740471E4,3.7875E3,1.6835582E4,1.22254125E5,1.8867955E4,6.4671855E3,3.3641758E4,0E0,0E0,0E0,0E0,0E0,0E0,0E0,0E0,0E0,0E0,0E0,0E0,0E0,0E0,0E0,0E0,0E0,0E0,0E0,0E0,0E0,0E0,0E0,0E0,0E0,0E0],"parents":[2147483647,0,0,1,1,2,2,3,3,4,4,5,5,6,6,7,7,8,8,9,9,10,10,11,11,12,12,14,14,15,15,16,16,17,17,18,18,19,19,20,20,21,21,22,22,23,23,24,24,25,25,26,26],"right_children":[2,4,6,8,10,12,14,16,18,20,22,24,26,-1,28,30,32,34,36,38,40,42,44,46,48,50,52,-1,-1,-1,-1,-1,-1,-1,-1,-1,-1,-1,-1,-1,-1,-1,-1,-1,-1,-1,-1,-1,-1,-1,-1,-1,-1],"split_conditions":[7.869875E-1,-6.746333E-1,2.88082E0,-6.908104E-1,6.048896E-1,7.459115E-1,3.033088E0,7.408256E-1,2.0434856E0,-6.653334E-1,-2.364246E-1,1.4483249E0,-2.496663E-1,1.1301328E1,-1.8129228E0,3.332628E-2,4.2639074E-1,-8.067065E-1,-1.1795552E0,-1.0434495E0,9.101236E-2,1.9795634E-1,-1.6128309E-1,1.258751E0,-1.0536625E0,8.6510515E-1,1.032849E0,4.2813315E0,-1.5431272E0,-1.2993382E-1,6.0557413E0,-4.181011E0,5.359566E-1,-1.6761744E0,-2.6566074E0,-1.8439344E0,3.8732896E0,2.0087745E0,-1.3952273E0,2.176874E0,2.524632E-1,-3.366193E0,1.6578435E0,4.41041E0,-1.5250329E0,3.2384052E0,1.1915831E1,1.2348828E0,-4.8118315E0,9.4536975E-2,-3.6126745E0,-1.1039919E0,2.16352E0],"split_indices":[10,4,10,3,7,9,7,1,5,13,15,1,4,0,5,0,10,7,10,7,12,13,15,1,3,10,10,0,0,0,0,0,0,0,0,0,0,0,0,0,0,0,0,0,0,0,0,0,0,0,0,0,0],"split_type":[0,0,0,0,0,0,0,0,0,0,0,0,0,0,0,0,0,0,0,0,0,0,0,0,0,0,0,0,0,0,0,0,0,0,0,0,0,0,0,0,0,0,0,0,0,0,0,0,0,0,0,0,0],"sum_hessian":[1.732E3,1.36E3,3.72E2,5.2E2,8.4E2,3.56E2,1.6E1,5.3E1,4.67E2,6.62E2,1.78E2,1.61E2,1.95E2,1.3E1,3E0,2.7E1,2.6E1,4.37E2,3E1,1.75E2,4.87E2,3.4E1,1.44E2,1.42E2,1.9E1,2.6E1,1.69E2,1E0,2E0,9E0,1.8E1,2.1E1,5E0,2.41E2,1.96E2,1.7E1,1.3E1,2.3E1,1.52E2,1.42E2,3.45E2,3.3E1,1E0,4E0,1.4E2,1.24E2,1.8E1,1E1,9E0,6E0,2E1,4.1E1,1.28E2],"tree_param":{"num_deleted":"0","num_feature":"16","num_nodes":"53","size_leaf_vector":"1"}},{"base_weights":[5.200985E-2,-7.5408797E0,1.9572021E1,-1.7492493E1,-3.7210667E0,1.2026035E1,4.333261E1,-2.0441448E1,2.3825215E-2,-1.1254399E0,-1.7448442E1,1.0219994E1,9.269766E1,7.6122314E1,1.091369E1,-2.3526476E1,-1.6711357E0,-3.4095554E1,1.0259044E1,-6.042342E0,8.465916E0,-2.4625555E1,-7.558948E0,1.6013933E1,-1.7189318E1,1.1398376E1,1.1789769E1,6.7229515E1,1.2329863E1,-9.463319E0,5.2140873E1,-2.7218606E0,-1.6210517E0,1.9452819E0,-2.0885565E0,2.1953583E-2,-3.7235067E0,3.7653573E0,-1.27585605E-2,1.7849611E-1,-1.1353155E0,2.3491526E0,1.3721782E-1,-2.6799371E0,2.804359E-1,9.098358E-1,-1.5707626E0,8.986274E0,1.3430022E0,-2.8183634E0,2.4089217E0,1.6214688E0,8.828773E-2,2.972904E0,7.4557495E0,5.7917215E-2,-4.0652957E0,-2.2898395E0,6.6730065E0],"categories":[],"categories_nodes":[],"categories_segments":[],"categories_sizes":[],"default_left":[0,0,0,0,0,0,0,0,0,0,0,0,0,0,0,0,0,0,0,0,0,0,0,0,0,0,0,0,0,0,0,0,0,0,0,0,0,0,0,0,0,0,0,0,0,0,0,0,0,0,0,0,0,0,0,0,0,0,0],"id":12,"left_children":[1,3,5,7,9,11,13,15,17,19,21,23,25,27,29,31,33,35,37,39,41,43,45,47,49,51,-1,53,-1,55,57,-1,-1,-1,-1,-1,-1,-1,-1,-1,-1,-1,-1,-1,-1,-1,-1,-1,-1,-1,-1,-1,-1,-1,-1,-1,-1,-1,-1],"loss_changes":[2.577423E5,4.752757E4,8.679656E4,1.7924719E4,3.2262184E4,5.310595E4,1.2354103E5,1.7159023E4,1.815997E4,3.6034047E4,1.00346875E4,5.8081344E4,1.5046117E4,1.6043406E4,5.0898625E4,6.446703E3,1.7859326E4,1.3009648E3,1.1386276E4,2.1012785E4,2.7573988E4,5.024242E3,8.558485E3,5.622958E4,2.9723998E4,1.3762216E2,0E0,1.1798406E4,0E0,1.2865633E4,2.3423242E4,0E0,0E0,0E0,0E0,0E0,0E0,0E0,0E0,0E0,0E0,0E0,0E0,0E0,0E0,0E0,0E0,0E0,0E0,0E0,0E0,0E0,0E0,0E0,0E0,0E0,0E0,0E0,0E0],"parents":[2147483647,0,0,1,1,2,2,3,3,4,4,5,5,6,6,7,7,8,8,9,9,10,10,11,11,12,12,13,13,14,14,15,15,16,16,17,17,18,18,19,19,20,20,21,21,22,22,23,23,24,24,25,25,27,27,29,29,30,30],"right_children":[2,4,6,8,10,12,14,16,18,20,22,24,26,28,30,32,34,36,38,40,42,44,46,48,50,52,-1,54,-1,56,58,-1,-1,-1,-1,-1,-1,-1,-1,-1,-1,-1,-1,-1,-1,-1,-1,-1,-1,-1,-1,-1,-1,-1,-1,-1,-1,-1,-1],"split_conditions":[5.467059E-1,-8.5389674E-1,1.258751E0,1.4483249E0,6.833819E-1,1.6261781E0,3.332628E-2,1.7084795E0,-1.1453787E0,-5.7950053E-2,9.097665E-1,5.7223484E-2,2.0594466E0,1.0523759E0,1.4977188E0,-9.591983E-1,-1.8055222E0,-1.0908252E0,-9.991393E-1,-7.0416003E-1,3.332628E-2,1.258751E0,-4.3391168E-1,2.1917726E-1,1.2779162E0,3.332628E-2,1.1789769E1,8.4026955E-2,1.2329863E1,6.014138E-1,2.9978228E-1,-2.7218606E0,-1.6210517E0,1.9452819E0,-2.0885565E0,2.1953583E-2,-3.7235067E0,3.7653573E0,-1.27585605E-2,1.7849611E-1,-1.1353155E0,2.3491526E0,1.3721782E-1,-2.6799371E0,2.804359E-1,9.098358E-1,-1.5707626E0,8.986274E0,1.3430022E0,-2.8183634E0,2.4089217E0,1.6214688E0,8.828773E-2,2.972904E0,7.4557495E0,5.7917215E-2,-4.0652957E0,-2.2898395E0,6.6730065E0],"split_indices":[10,4,0,0,7,6,1,5,10,13,9,3,4,11,10,4,9,4,7,7,1,0,2,12,8,0,0,15,0,2,7,0,0,0,0,0,0,0,0,0,0,0,0,0,0,0,0,0,0,0,0,0,0,0,0,0,0,0,0],"split_type":[0,0,0,0,0,0,0,0,0,0,0,0,0,0,0,0,0,0,0,0,0,0,0,0,0,0,0,0,0,0,0,0,0,0,0,0,0,0,0,0,0,0,0,0,0,0,0,0,0,0,0,0,0,0,0,0,0,0,0],"sum_hessian":[1.737E3,1.251E3,4.86E2,3.46E2,9.05E2,3.7E2,1.16E2,2.96E2,5E1,7.62E2,1.43E2,3.63E2,7E0,5.7E1,5.9E1,2.54E2,4.2E1,1.1E1,3.9E1,5.04E2,2.58E2,8.2E1,6.1E1,3E2,6.3E1,2E0,5E0,5E1,7E0,4E1,1.9E1,1.67E2,8.7E1,2E1,2.2E1,1E0,1E1,1E1,2.9E1,2.04E2,3E2,8.2E1,1.76E2,7.6E1,6E0,2E1,4.1E1,9E0,2.91E2,5E1,1.3E1,1E0,1E0,9E0,4.1E1,3.1E1,9E0,3E0,1.6E1],"tree_param":{"num_deleted":"0","num_feature":"16","num_nodes":"59","size_leaf_vector":"1"}},{"base_weights":[7.971862E-1,-1.0970718E1,1.1809189E1,-1.44879465E1,-1.2575794E0,5.9115443E0,2.6796087E1,-1.9740717E1,-9.322586E0,2.0530651E1,-1.4290974E1,1.1004555E1,-1.3239687E1,2.3110693E1,1.1477718E2,-1.613995E1,-2.4924593E1,3.2492287E1,-1.10858555E1,2.946795E1,-2.3141283E1,1.9078088E0,-2.3671467E1,4.650123E1,8.472555E0,2.5515156E0,-2.0010424E1,3.7784306E1,8.604361E0,1.3519913E2,-3.4510193E0,-6.9220823E-1,-2.0222597E0,-2.0875957E0,-2.903113E0,9.1854775E-1,6.7946086E0,5.438811E0,-1.170159E0,4.6173725E0,3.6811838E-1,-3.5819478E0,2.0678625E0,2.7976196E0,-6.4043087E-1,-1.8783845E0,-3.0481129E0,-3.3020904E0,6.1350594E0,-2.242949E0,1.1557527E0,4.623128E0,-6.0126466E-1,-1.3954636E0,-3.5777757E0,3.1737578E-1,4.712494E0,-1.6168469E0,2.2260816E0,2.6397808E0,1.6251411E1],"categories":[],"categories_nodes":[],"categories_segments":[],"categories_sizes":[],"default_left":[0,0,0,0,0,0,0,0,0,0,0,0,0,0,0,0,0,0,0,0,0,0,0,0,0,0,0,0,0,0,0,0,0,0,0,0,0,0,0,0,0,0,0,0,0,0,0,0,0,0,0,0,0,0,0,0,0,0,0,0,0],"id":13,"left_children":[1,3,5,7,9,11,13,15,17,19,21,23,25,27,29,31,33,35,37,39,41,43,45,47,49,51,53,55,57,59,-1,-1,-1,-1,-1,-1,-1,-1,-1,-1,-1,-1,-1,-1,-1,-1,-1,-1,-1,-1,-1,-1,-1,-1,-1,-1,-1,-1,-1,-1,-1],"loss_changes":[2.2677931E5,2.8883953E4,7.9743805E4,1.6665219E4,6.447166E4,6.3545016E4,8.002989E4,5.328164E3,2.358544E4,3.3858203E4,2.162243E4,4.5803082E4,1.4698838E4,5.2038516E4,3.515314E4,6.784543E3,1.4555547E3,1.0117977E4,1.2851742E4,3.0415969E4,9.07406E3,1.1663393E4,2.422918E3,4.217486E4,4.6113887E4,1.5989357E4,8.66716E3,3.929114E4,4.2648555E4,2.245714E4,0E0,0E0,0E0,0E0,0E0,0E0,0E0,0E0,0E0,0E0,0E0,0E0,0E0,0E0,0E0,0E0,0E0,0E0,0E0,0E0,0E0,0E0,0E0,0E0,0E0,0E0,0E0,0E0,0E0,0E0,0E0],"parents":[2147483647,0,0,1,1,2,2,3,3,4,4,5,5,6,6,7,7,8,8,9,9,10,10,11,11,12,12,13,13,14,14,15,15,16,16,17,17,18,18,19,19,20,20,21,21,22,22,23,23,24,24,25,25,26,26,27,27,28,28,29,29],"right_children":[2,4,6,8,10,12,14,16,18,20,22,24,26,28,30,32,34,36,38,40,42,44,46,48,50,52,54,56,58,60,-1,-1,-1,-1,-1,-1,-1,-1,-1,-1,-1,-1,-1,-1,-1,-1,-1,-1,-1,-1,-1,-1,-1,-1,-1,-1,-1,-1,-1,-1,-1],"split_conditions":[-1.7030272E-1,1.258751E0,1.032849E0,-7.88618E-1,3.332628E-2,8.859428E-1,1.6323287E0,-8.4848464E-1,-1.8745122E0,1.668372E-1,-1.4248675E-1,-9.143169E-1,-1.631686E-1,9.0007776E-1,1.4483249E0,5.6848627E-2,6.617674E-1,1.2586973E0,-1.0983213E0,3.086851E-1,1.3116459E0,4.392882E-2,-8.17504E-1,-6.7417306E-1,-7.297913E-1,-1.22028515E-1,1.258751E0,-1.631686E-1,9.550338E-1,-1.1920985E0,-3.4510193E0,-6.9220823E-1,-2.0222597E0,-2.0875957E0,-2.903113E0,9.1854775E-1,6.7946086E0,5.438811E0,-1.170159E0,4.6173725E0,3.6811838E-1,-3.5819478E0,2.0678625E0,2.7976196E0,-6.4043087E-1,-1.8783845E0,-3.0481129E0,-3.3020904E0,6.1350594E0,-2.242949E0,1.1557527E0,4.623128E0,-6.0126466E-1,-1.3954636E0,-3.5777757E0,3.1737578E-1,4.712494E0,-1.6168469E0,2.2260816E0,2.6397808E0,1.6251411E1],"split_indices":[10,1,10,10,0,7,14,7,9,6,2,7,4,6,0,14,11,5,3,2,11,6,13,0,4,15,1,4,4,1,0,0,0,0,0,0,0,0,0,0,0,0,0,0,0,0,0,0,0,0,0,0,0,0,0,0,0,0,0,0,0],"split_type":[0,0,0,0,0,0,0,0,0,0,0,0,0,0,0,0,0,0,0,0,0,0,0,0,0,0,0,0,0,0,0,0,0,0,0,0,0,0,0,0,0,0,0,0,0,0,0,0,0,0,0,0,0,0,0,0,0,0,0,0,0],"sum_hessian":[1.748E3,8.45E2,9.03E2,6.2E2,2.25E2,6.49E2,2.54E2,3.06E2,3.14E2,8.4E1,1.41E2,5.13E2,1.36E2,2.45E2,9E0,1.83E2,1.23E2,1.2E1,3.02E2,7E1,1.4E1,5.2E1,8.9E1,3.3E1,4.8E2,4.1E1,9.5E1,1.21E2,1.24E2,8E0,1E0,5.7E1,1.26E2,6.5E1,5.8E1,8E0,4E0,2E0,3E2,4.2E1,2.8E1,1.1E1,3E0,1.2E1,4E1,5.4E1,3.5E1,5E0,2.8E1,4.3E1,4.37E2,6E0,3.5E1,7E1,2.5E1,2.6E1,9.5E1,4.4E1,8E1,2E0,6E0],"tree_param":{"num_deleted":"0","num_feature":"16","num_nodes":"61","size_leaf_vector":"1"}},{"base_weights":[5.0758255E-1,-7.324894E0,1.4670809E1,-1.5783347E1,-3.0632582E0,8.325175E0,3.0667862E1,-1.776235E1,6.046006E0,4.320232E0,-9.428949E0,2.0048073E1,-3.7006161E0,2.7195854E1,1.7316523E1,-1.5041416E1,-2.6444883E1,-1.7082268E1,3.339687E1,-1.0847094E1,1.0164496E1,-1.2015308E1,2.5546543E1,2.4124876E1,-1.8851603E1,6.362703E0,-1.3031699E1,4.3629288E1,1.3243888E1,-1.7808293E0,1.1077493E0,3.2213104E0,-2.7580774E0,2.007705E0,-2.2982E0,-3.0928824E0,4.567227E0,-1.3566662E0,3.2660797E0,-7.835877E-1,1.4028518E0,-1.5986296E0,-1.0842516E-1,-1.3159374E0,5.136563E0,1.5773181E0,7.426713E0,9.253398E-1,-5.350294E0,-1.5741899E0,2.5308692E0,-1.6597079E0,2.606449E0,-1.4917909E0,4.778677E0,3.9788768E-1,5.009452E0],"categories":[],"categories_nodes":[],"categories_segments":[],"categories_sizes":[],"default_left":[0,0,0,0,0,0,0,0,0,0,0,0,0,0,0,0,0,0,0,0,0,0,0,0,0,0,0,0,0,0,0,0,0,0,0,0,0,0,0,0,0,0,0,0,0,0,0,0,0,0,0,0,0,0,0,0,0],"id":14,"left_children":[1,3,5,7,9,11,13,15,17,19,21,23,25,27,-1,29,31,33,35,37,39,41,43,45,47,49,51,53,55,-1,-1,-1,-1,-1,-1,-1,-1,-1,-1,-1,-1,-1,-1,-1,-1,-1,-1,-1,-1,-1,-1,-1,-1,-1,-1,-1,-1],"loss_changes":[1.9346392E5,4.043226E4,6.278328E4,1.6350727E4,3.5197496E4,6.2949984E4,8.236697E4,7.7527188E3,2.0812998E4,3.0868982E4,3.6671547E4,3.6295312E4,2.0835186E4,3.9087383E4,0E0,1.9348238E4,6.2854023E3,4.4075493E3,1.3256945E4,1.1920398E4,1.7567932E4,1.626032E4,2.8657781E4,8.4677016E4,2.1920352E4,4.5209316E4,1.6462756E4,1.9942188E4,3.223572E4,0E0,0E0,0E0,0E0,0E0,0E0,0E0,0E0,0E0,0E0,0E0,0E0,0E0,0E0,0E0,0E0,0E0,0E0,0E0,0E0,0E0,0E0,0E0,0E0,0E0,0E0,0E0,0E0],"parents":[2147483647,0,0,1,1,2,2,3,3,4,4,5,5,6,6,7,7,8,8,9,9,10,10,11,11,12,12,13,13,15,15,16,16,17,17,18,18,19,19,20,20,21,21,22,22,23,23,24,24,25,25,26,26,27,27,28,28],"right_children":[2,4,6,8,10,12,14,16,18,20,22,24,26,28,-1,30,32,34,36,38,40,42,44,46,48,50,52,54,56,-1,-1,-1,-1,-1,-1,-1,-1,-1,-1,-1,-1,-1,-1,-1,-1,-1,-1,-1,-1,-1,-1,-1,-1,-1,-1,-1,-1],"split_conditions":[2.92126E-1,-5.62242E-1,1.3128868E0,2.0871491E0,1.2779468E-1,6.0690796E-1,1.7636381E0,1.5483031E0,-1.1795552E0,-8.848702E-1,1.5381658E0,1.4483249E0,6.985294E-1,9.760821E-1,1.7316523E1,1.5942156E0,-2.8964925E0,3.332628E-2,1.768355E0,7.2954696E-1,-8.5807884E-1,1.258751E0,-7.749205E-1,1.258751E0,5.937447E-1,-2.9354197E-1,1.2804049E0,5.158444E-1,2.570442E0,-1.7808293E0,1.1077493E0,3.2213104E0,-2.7580774E0,2.007705E0,-2.2982E0,-3.0928824E0,4.567227E0,-1.3566662E0,3.2660797E0,-7.835877E-1,1.4028518E0,-1.5986296E0,-1.0842516E-1,-1.3159374E0,5.136563E0,1.5773181E0,7.426713E0,9.253398E-1,-5.350294E0,-1.5741899E0,2.5308692E0,-1.6597079E0,2.606449E0,-1.4917909E0,4.778677E0,3.9788768E-1,5.009452E0],"split_indices":[10,15,10,5,9,9,14,14,10,10,11,1,6,9,0,8,6,0,8,5,5,1,4,1,2,4,12,13,10,0,0,0,0,0,0,0,0,0,0,0,0,0,0,0,0,0,0,0,0,0,0,0,0,0,0,0,0],"split_type":[0,0,0,0,0,0,0,0,0,0,0,0,0,0,0,0,0,0,0,0,0,0,0,0,0,0,0,0,0,0,0,0,0,0,0,0,0,0,0,0,0,0,0,0,0,0,0,0,0,0,0,0,0,0,0,0,0],"sum_hessian":[1.742E3,1.122E3,6.2E2,3.75E2,7.47E2,4.45E2,1.75E2,3.44E2,3.1E1,3.46E2,4.01E2,2.25E2,2.2E2,1.72E2,3E0,2.64E2,8E1,1.7E1,1.4E1,9.6E1,2.5E2,3.74E2,2.7E1,2.04E2,2.1E1,1.06E2,1.14E2,7.8E1,9.4E1,2.39E2,2.5E1,1E0,7.9E1,2E0,1.5E1,2E0,1.2E1,9.1E1,5E0,4.4E1,2.06E2,2.74E2,1E2,1.1E1,1.6E1,1.76E2,2.8E1,1.2E1,9E0,4.9E1,5.7E1,1.05E2,9E0,5E0,7.3E1,7.6E1,1.8E1],"tree_param":{"num_deleted":"0","num_feature":"16","num_nodes":"57","size_leaf_vector":"1"}},{"base_weights":[3.2456428E-1,-4.2592707E0,1.7754807E1,-1.1754462E1,9.6236414E-1,-3.7394245E1,2.1401083E1,-8.576777E0,-1.9636309E1,8.538966E0,-5.583252E0,-5.824014E0,-1.6878933E1,1.2783743E1,4.343962E1,-2.1255983E1,-4.2252555E0,6.6020346E0,-2.2340208E1,-1.1727296E1,1.1504352E1,-6.906931E0,2.7759281E1,-2.9239424E1,2.4148777E0,1.0632064E1,1.41378145E1,5.5781116E1,-2.175419E1,-1.8184137E0,-2.6327052E0,-9.8006135E-1,3.9920053E-1,1.1995347E0,-1.2576736E0,-2.2709363E0,1.5962714E0,-2.5322716E0,2.0777168E0,3.7164167E-2,1.6724243E0,-2.3025866E-1,-1.5658336E0,3.7972717E0,-3.2560997E0,-1.751743E0,-3.6582062E0,-5.204453E-1,4.9796343E-1,1.7305651E0,-7.729719E-1,6.054141E0,2.6224103E0,-3.247086E0,8.316652E-1],"categories":[],"categories_nodes":[],"categories_segments":[],"categories_sizes":[],"default_left":[0,0,0,0,0,0,0,0,0,0,0,0,0,0,0,0,0,0,0,0,0,0,0,0,0,0,0,0,0,0,0,0,0,0,0,0,0,0,0,0,0,0,0,0,0,0,0,0,0,0,0,0,0,0,0],"id":15,"left_children":[1,3,5,7,9,11,13,15,17,19,21,-1,23,25,27,29,31,33,35,37,39,41,43,45,47,49,-1,51,53,-1,-1,-1,-1,-1,-1,-1,-1,-1,-1,-1,-1,-1,-1,-1,-1,-1,-1,-1,-1,-1,-1,-1,-1,-1,-1],"loss_changes":[1.4005577E5,5.4333688E4,7.419768E4,1.41078125E4,4.0664777E4,8.853148E3,6.4585047E4,2.2421121E4,1.1711668E4,2.2971879E4,1.9611045E4,0E0,3.1708623E3,6.7116945E4,7.845403E4,1.1413281E3,1.4012445E4,1.8058556E3,2.4551797E3,2.2179814E4,1.9286816E4,1.7048805E4,1.1709745E4,4.7739258E1,1.4316663E2,3.0155809E4,0E0,9.8090625E3,5.426198E3,0E0,0E0,0E0,0E0,0E0,0E0,0E0,0E0,0E0,0E0,0E0,0E0,0E0,0E0,0E0,0E0,0E0,0E0,0E0,0E0,0E0,0E0,0E0,0E0,0E0,0E0],"parents":[2147483647,0,0,1,1,2,2,3,3,4,4,5,5,6,6,7,7,8,8,9,9,10,10,12,12,13,13,14,14,15,15,16,16,17,17,18,18,19,19,20,20,21,21,22,22,23,23,24,24,25,25,27,27,28,28],"right_children":[2,4,6,8,10,12,14,16,18,20,22,-1,24,26,28,30,32,34,36,38,40,42,44,46,48,50,-1,52,54,-1,-1,-1,-1,-1,-1,-1,-1,-1,-1,-1,-1,-1,-1,-1,-1,-1,-1,-1,-1,-1,-1,-1,-1,-1,-1],"split_conditions":[7.925673E-1,-5.710045E-1,-5.743461E-1,-5.2818525E-1,3.0372486E-1,-7.423272E-1,1.258751E0,-1.3602022E0,-9.8852646E-1,-8.4512156E-1,1.4909377E0,-5.824014E0,-5.891793E-1,1.9687798E0,7.408256E-1,-1.4738914E0,7.408256E-1,6.1731964E-1,2.558859E0,1.4483249E0,-5.0417626E-1,6.985294E-1,7.408256E-1,3.8793424E-1,-3.074375E-1,-4.5076966E-1,1.41378145E1,2.0594466E0,1.1607137E0,-1.8184137E0,-2.6327052E0,-9.8006135E-1,3.9920053E-1,1.1995347E0,-1.2576736E0,-2.2709363E0,1.5962714E0,-2.5322716E0,2.0777168E0,3.7164167E-2,1.6724243E0,-2.3025866E-1,-1.5658336E0,3.7972717E0,-3.2560997E0,-1.751743E0,-3.6582062E0,-5.204453E-1,4.9796343E-1,1.7305651E0,-7.729719E-1,6.054141E0,2.6224103E0,-3.247086E0,8.316652E-1],"split_indices":[10,10,4,7,9,4,0,10,14,4,8,0,5,8,1,10,1,9,5,0,5,6,1,6,5,3,0,4,13,0,0,0,0,0,0,0,0,0,0,0,0,0,0,0,0,0,0,0,0,0,0,0,0,0,0],"split_type":[0,0,0,0,0,0,0,0,0,0,0,0,0,0,0,0,0,0,0,0,0,0,0,0,0,0,0,0,0,0,0,0,0,0,0,0,0,0,0,0,0,0,0,0,0,0,0,0,0,0,0,0,0,0,0],"sum_hessian":[1.751E3,1.387E3,3.64E2,5.69E2,8.18E2,2.2E1,3.42E2,4.07E2,1.62E2,3.79E2,4.39E2,1E1,1.2E1,2.47E2,9.5E1,1.03E2,3.04E2,1.5E1,1.47E2,4.8E1,3.31E2,4.23E2,1.6E1,7E0,5E0,2.44E2,3E0,8E1,1.5E1,6.7E1,3.6E1,1.81E2,1.23E2,1.2E1,3E0,1.46E2,1E0,3.4E1,1.4E1,1.06E2,2.25E2,2.78E2,1.45E2,1.4E1,2E0,4E0,3E0,1E0,4E0,1.79E2,6.5E1,6.8E1,1.2E1,1.1E1,4E0],"tree_param":{"num_deleted":"0","num_feature":"16","num_nodes":"55","size_leaf_vector":"1"}},{"base_weights":[-5.6288466E-2,-5.29202E0,1.3363778E1,-1.4442213E1,-1.5969341E0,-2.9566362E0,2.1998163E1,-5.6364865E0,-2.0680729E1,5.333145E0,-7.426424E0,-2.3241467E1,5.114673E0,3.554878E1,1.2083869E1,-1.6615147E1,7.3331943E0,-1.7761353E1,-5.460316E1,-9.724406E-1,1.6974243E1,-1.0968619E1,1.576923E1,-2.708369E1,8.168057E0,-3.0194707E0,4.185557E1,2.567224E1,6.0480553E1,8.733715E0,8.469553E1,4.096938E-1,-2.063506E0,-7.7610576E-1,2.309966E0,6.0134883E0,-1.8480265E0,-2.9498985E0,-6.671577E0,-7.7315533E-1,1.5455176E0,2.0591543E0,-3.2833252E0,-4.47396E-1,-1.5035676E0,5.8506446E0,-2.2259068E-1,-2.929623E0,3.292144E0,2.742322E0,-8.3153296E-1,3.5818346E0,-9.234528E-1,5.3762145E0,-9.379198E-1,3.4352424E0,6.4740576E-2,7.516475E0,3.8783576E0,3.3322377E0,1.997267E-1,2.0376925E0,1.0273891E1],"categories":[],"categories_nodes":[],"categories_segments":[],"categories_sizes":[],"default_left":[0,0,0,0,0,0,0,0,0,0,0,0,0,0,0,0,0,0,0,0,0,0,0,0,0,0,0,0,0,0,0,0,0,0,0,0,0,0,0,0,0,0,0,0,0,0,0,0,0,0,0,0,0,0,0,0,0,0,0,0,0,0,0],"id":16,"left_children":[1,3,5,7,9,11,13,15,17,19,21,23,25,27,29,31,33,35,37,39,41,43,45,47,49,51,53,55,57,59,61,-1,-1,-1,-1,-1,-1,-1,-1,-1,-1,-1,-1,-1,-1,-1,-1,-1,-1,-1,-1,-1,-1,-1,-1,-1,-1,-1,-1,-1,-1,-1,-1],"loss_changes":[1.2092456E5,4.1834652E4,6.812783E4,1.9440164E4,3.5711773E4,2.7624695E4,4.202339E4,2.133791E4,1.9628914E4,2.96717E4,3.961146E4,6.0139785E3,3.628792E4,3.1197203E4,4.4020176E4,6.828662E3,1.6600104E4,1.1919406E4,2.8971836E3,2.9321988E4,2.6260031E4,1.094743E4,4.93502E4,6.6733066E3,2.1323748E3,2.4468684E4,1.3924918E4,2.1048121E4,8.873141E3,2.9251766E4,7.1906953E3,0E0,0E0,0E0,0E0,0E0,0E0,0E0,0E0,0E0,0E0,0E0,0E0,0E0,0E0,0E0,0E0,0E0,0E0,0E0,0E0,0E0,0E0,0E0,0E0,0E0,0E0,0E0,0E0,0E0,0E0,0E0,0E0],"parents":[2147483647,0,0,1,1,2,2,3,3,4,4,5,5,6,6,7,7,8,8,9,9,10,10,11,11,12,12,13,13,14,14,15,15,16,16,17,17,18,18,19,19,20,20,21,21,22,22,23,23,24,24,25,25,26,26,27,27,28,28,29,29,30,30],"right_children":[2,4,6,8,10,12,14,16,18,20,22,24,26,28,30,32,34,36,38,40,42,44,46,48,50,52,54,56,58,60,62,-1,-1,-1,-1,-1,-1,-1,-1,-1,-1,-1,-1,-1,-1,-1,-1,-1,-1,-1,-1,-1,-1,-1,-1,-1,-1,-1,-1,-1,-1,-1,-1],"split_conditions":[5.774549E-1,-6.391682E-1,5.2448902E-2,-1.4702486E0,1.739249E-1,-1.4248675E-1,8.7335646E-1,1.5604974E0,-1.3681896E-1,-1.7030272E-1,9.5563626E-1,1.5627335E0,5.8995698E-2,1.3976306E0,1.6146847E0,7.880171E-1,-1.0505215E0,-2.692729E0,-9.6306103E-1,1.258751E0,3.4282646E-1,-6.908104E-1,7.504836E-1,2.0871491E0,1.1792158E0,6.8768585E-1,1.2988934E-1,1.1436409E0,1.050178E0,1.9850186E-1,1.2480212E0,4.096938E-1,-2.063506E0,-7.7610576E-1,2.309966E0,6.0134883E0,-1.8480265E0,-2.9498985E0,-6.671577E0,-7.7315533E-1,1.5455176E0,2.0591543E0,-3.2833252E0,-4.47396E-1,-1.5035676E0,5.8506446E0,-2.2259068E-1,-2.929623E0,3.292144E0,2.742322E0,-8.3153296E-1,3.5818346E0,-9.234528E-1,5.3762145E0,-9.379198E-1,3.4352424E0,6.4740576E-2,7.516475E0,3.8783576E0,3.3322377E0,1.997267E-1,2.0376925E0,1.0273891E1],"split_indices":[13,15,4,9,9,2,6,8,13,10,12,15,5,10,14,11,10,6,9,1,7,3,9,5,6,13,8,13,12,7,10,0,0,0,0,0,0,0,0,0,0,0,0,0,0,0,0,0,0,0,0,0,0,0,0,0,0,0,0,0,0,0,0],"split_type":[0,0,0,0,0,0,0,0,0,0,0,0,0,0,0,0,0,0,0,0,0,0,0,0,0,0,0,0,0,0,0,0,0,0,0,0,0,0,0,0,0,0,0,0,0,0,0,0,0,0,0,0,0,0,0,0,0,0,0,0,0,0,0],"sum_hessian":[1.719E3,1.237E3,4.82E2,3.55E2,8.82E2,1.67E2,3.15E2,1.48E2,2.07E2,4.03E2,4.79E2,4.7E1,1.2E2,1.32E2,1.83E2,8E1,6.8E1,1.92E2,1.5E1,2.62E2,1.41E2,4.16E2,6.3E1,4.2E1,5E0,9.9E1,2.1E1,9.6E1,3.6E1,1.76E2,7E0,1.3E1,6.7E1,3.5E1,3.3E1,1E0,1.91E2,6E0,9E0,1.86E2,7.6E1,1.32E2,9E0,1.61E2,2.55E2,1.8E1,4.5E1,4.1E1,1E0,2E0,3E0,1.3E1,8.6E1,1.7E1,4E0,7.1E1,2.5E1,2E1,1.6E1,3.7E1,1.39E2,2E0,5E0],"tree_param":{"num_deleted":"0","num_feature":"16","num_nodes":"63","size_leaf_vector":"1"}},{"base_weights":[-3.7470853E-1,-2.893117E0,2.1763659E1,-1.2535353E1,2.0639034E-2,1.7759882E1,1.1588913E2,-8.391822E0,-2.183851E1,3.4253411E0,-7.6446486E0,3.0214148E1,6.3537107E0,1.5074576E1,5.206022E0,-1.0060501E1,2.8778631E1,-1.8307978E1,-5.942472E1,1.4714831E0,2.6604414E1,2.3453136E1,-8.674307E0,4.4566366E-1,3.8712353E1,4.6202805E1,2.20257E-1,-1.0580655E0,5.712814E0,-1.3715832E0,5.5020585E0,2.3034308E0,-1.9365168E0,-7.200827E0,-2.5693214E0,-1.7660052E-1,1.1210283E0,5.0246563E0,1.1162962E0,1.4574497E-2,4.0080457E0,-1.6285245E-1,-1.3704004E0,-1.8784151E0,5.8045974E0,4.0567627E0,-3.8157334E0,-4.953205E0,5.940889E0,-1.0765369E0,2.5844207E0],"categories":[],"categories_nodes":[],"categories_segments":[],"categories_sizes":[],"default_left":[0,0,0,0,0,0,0,0,0,0,0,0,0,0,0,0,0,0,0,0,0,0,0,0,0,0,0,0,0,0,0,0,0,0,0,0,0,0,0,0,0,0,0,0,0,0,0,0,0,0,0],"id":17,"left_children":[1,3,5,7,9,11,13,15,17,19,21,23,25,-1,-1,27,29,31,33,35,37,39,41,43,45,47,49,-1,-1,-1,-1,-1,-1,-1,-1,-1,-1,-1,-1,-1,-1,-1,-1,-1,-1,-1,-1,-1,-1,-1,-1],"loss_changes":[9.60704E4,4.3463414E4,6.4268703E4,1.3655441E4,3.1056732E4,2.3957457E4,7.726172E3,1.5795922E4,1.3508988E4,3.7278676E4,1.1922797E4,2.0474023E4,2.1986953E4,0E0,0E0,8.992078E3,1.3021169E4,4.9041367E3,1.9700332E3,2.4013555E4,2.280352E4,4.644632E3,1.2558225E4,2.2135566E4,1.0532656E4,1.8114033E4,2.2516336E4,0E0,0E0,0E0,0E0,0E0,0E0,0E0,0E0,0E0,0E0,0E0,0E0,0E0,0E0,0E0,0E0,0E0,0E0,0E0,0E0,0E0,0E0,0E0,0E0],"parents":[2147483647,0,0,1,1,2,2,3,3,4,4,5,5,6,6,7,7,8,8,9,9,10,10,11,11,12,12,15,15,16,16,17,17,18,18,19,19,20,20,21,21,22,22,23,23,24,24,25,25,26,26],"right_children":[2,4,6,8,10,12,14,16,18,20,22,24,26,-1,-1,28,30,32,34,36,38,40,42,44,46,48,50,-1,-1,-1,-1,-1,-1,-1,-1,-1,-1,-1,-1,-1,-1,-1,-1,-1,-1,-1,-1,-1,-1,-1,-1],"split_conditions":[1.3128868E0,-6.391682E-1,1.6146847E0,-8.017509E-1,6.7661995E-1,9.760821E-1,2.3571484E0,9.229821E-2,1.145458E-2,8.846346E-1,-6.041456E-1,1.4471515E0,6.46176E-1,1.5074576E1,5.206022E0,1.0720456E0,-3.63743E-1,-1.3840842E0,-2.2718403E-1,1.258751E0,6.8768585E-1,7.7469945E-1,3.332628E-2,7.7959836E-1,2.0904212E0,9.4500385E-2,2.3807275E0,-1.0580655E0,5.712814E0,-1.3715832E0,5.5020585E0,2.3034308E0,-1.9365168E0,-7.200827E0,-2.5693214E0,-1.7660052E-1,1.1210283E0,5.0246563E0,1.1162962E0,1.4574497E-2,4.0080457E0,-1.6285245E-1,-1.3704004E0,-1.8784151E0,5.8045974E0,4.0567627E0,-3.8157334E0,-4.953205E0,5.940889E0,-1.0765369E0,2.5844207E0],"split_indices":[10,15,14,9,9,9,3,10,13,10,7,10,15,0,0,7,4,5,9,1,13,9,0,7,8,15,10,0,0,0,0,0,0,0,0,0,0,0,0,0,0,0,0,0,0,0,0,0,0,0,0],"split_type":[0,0,0,0,0,0,0,0,0,0,0,0,0,0,0,0,0,0,0,0,0,0,0,0,0,0,0,0,0,0,0,0,0,0,0,0,0,0,0,0,0,0,0,0,0,0,0,0,0,0,0],"sum_hessian":[1.721E3,1.546E3,1.75E2,3.58E2,1.188E3,1.69E2,6E0,2.49E2,1.09E2,8.23E2,3.65E2,8E1,8.9E1,3E0,3E0,2.39E2,1E1,1.01E2,8E0,7.6E2,6.3E1,1.1E1,3.54E2,1.8E1,6.2E1,1.1E1,7.8E1,2.38E2,1E0,4E0,6E0,2E0,9.9E1,5E0,3E0,5.71E2,1.89E2,2.4E1,3.9E1,5E0,6E0,1.48E2,2.06E2,1.4E1,4E0,6.1E1,1E0,1E0,1E1,5.5E1,2.3E1],"tree_param":{"num_deleted":"0","num_feature":"16","num_nodes":"51","size_leaf_vector":"1"}},{"base_weights":[-1.8076465E-2,-8.397201E0,4.71016E0,-1.2592953E1,1.2117546E0,4.172633E-1,1.3959873E1,-1.8329159E1,-3.634016E0,4.039598E1,-1.2402294E1,9.366494E0,-4.994337E0,7.934732E1,1.2223716E1,-6.433563E0,-2.3178753E1,1.3070352E1,-1.4059797E1,1.434333E1,6.2057743E1,-2.3934626E1,-2.0568295E0,-1.2837847E1,1.4877207E1,6.432238E0,-1.1979665E1,2.3689285E1,1.1913589E2,1.0741189E1,6.670734E1,1.4129092E0,-1.1880096E0,-1.8132952E0,-2.7930548E0,-8.5166675E-1,3.69473E0,-4.132305E-1,-2.87395E0,2.3626636E-1,2.4299076E0,6.466661E0,-2.8863794E-1,-2.042612E0,-3.4060636E0,2.0373693E0,-9.756029E-1,5.2924764E-1,-1.872687E0,2.9496348E0,5.7384515E-1,-5.50219E-1,1.9527329E0,-1.0689925E0,-4.172019E0,3.692627E-2,2.9426975E0,5.0962443E0,1.4759737E1,1.9636357E0,-2.1988796E-1,8.9651394E-1,9.408425E0],"categories":[],"categories_nodes":[],"categories_segments":[],"categories_sizes":[],"default_left":[0,0,0,0,0,0,0,0,0,0,0,0,0,0,0,0,0,0,0,0,0,0,0,0,0,0,0,0,0,0,0,0,0,0,0,0,0,0,0,0,0,0,0,0,0,0,0,0,0,0,0,0,0,0,0,0,0,0,0,0,0,0,0],"id":18,"left_children":[1,3,5,7,9,11,13,15,17,19,21,23,25,27,29,31,33,35,37,39,41,43,45,47,49,51,53,55,57,59,61,-1,-1,-1,-1,-1,-1,-1,-1,-1,-1,-1,-1,-1,-1,-1,-1,-1,-1,-1,-1,-1,-1,-1,-1,-1,-1,-1,-1,-1,-1,-1,-1],"loss_changes":[6.941151E4,2.5495477E4,4.446721E4,2.2545117E4,1.03458E5,3.7143902E4,3.933072E4,1.5311477E4,3.0312768E4,2.7327203E4,1.7131025E4,3.555354E4,3.8230242E4,1.7108738E4,2.731186E4,9.015474E3,4.0490938E3,3.484862E4,1.5474633E4,2.8052246E3,4.7612812E3,1.7201211E3,1.3496439E4,6.2917646E3,3.082611E4,2.855084E4,1.0946215E4,6.581492E2,2.1796719E3,3.906346E4,1.3383746E4,0E0,0E0,0E0,0E0,0E0,0E0,0E0,0E0,0E0,0E0,0E0,0E0,0E0,0E0,0E0,0E0,0E0,0E0,0E0,0E0,0E0,0E0,0E0,0E0,0E0,0E0,0E0,0E0,0E0,0E0,0E0,0E0],"parents":[2147483647,0,0,1,1,2,2,3,3,4,4,5,5,6,6,7,7,8,8,9,9,10,10,11,11,12,12,13,13,14,14,15,15,16,16,17,17,18,18,19,19,20,20,21,21,22,22,23,23,24,24,25,25,26,26,27,27,28,28,29,29,30,30],"right_children":[2,4,6,8,10,12,14,16,18,20,22,24,26,28,30,32,34,36,38,40,42,44,46,48,50,52,54,56,58,60,62,-1,-1,-1,-1,-1,-1,-1,-1,-1,-1,-1,-1,-1,-1,-1,-1,-1,-1,-1,-1,-1,-1,-1,-1,-1,-1,-1,-1,-1,-1,-1,-1],"split_conditions":[-5.743461E-1,1.258751E0,7.737354E-1,7.408256E-1,3.332628E-2,-4.1804278E-1,-3.6100358E-1,3.2807872E-1,-8.9659286E-1,-2.6921332E-1,1.4483249E0,-9.601979E-1,3.332628E-2,-4.2788737E-2,1.6261781E0,-2.8339326E-1,-8.5139114E-1,-1.3602022E0,7.317881E-1,-9.452021E-1,1.3176578E0,-4.3813473E-1,-9.991393E-1,-1.1629772E0,-1.00907475E-1,7.408256E-1,9.814493E-1,-1.0536625E0,-7.85766E-1,9.968922E-1,2.0594466E0,1.4129092E0,-1.1880096E0,-1.8132952E0,-2.7930548E0,-8.5166675E-1,3.69473E0,-4.132305E-1,-2.87395E0,2.3626636E-1,2.4299076E0,6.466661E0,-2.8863794E-1,-2.042612E0,-3.4060636E0,2.0373693E0,-9.756029E-1,5.2924764E-1,-1.872687E0,2.9496348E0,5.7384515E-1,-5.50219E-1,1.9527329E0,-1.0689925E0,-4.172019E0,3.692627E-2,2.9426975E0,5.0962443E0,1.4759737E1,1.9636357E0,-2.1988796E-1,8.9651394E-1,9.408425E0],"split_indices":[4,0,10,1,1,7,6,3,7,15,0,10,0,2,6,9,10,10,2,10,12,10,7,6,12,1,13,3,3,6,4,0,0,0,0,0,0,0,0,0,0,0,0,0,0,0,0,0,0,0,0,0,0,0,0,0,0,0,0,0,0,0,0],"split_type":[0,0,0,0,0,0,0,0,0,0,0,0,0,0,0,0,0,0,0,0,0,0,0,0,0,0,0,0,0,0,0,0,0,0,0,0,0,0,0,0,0,0,0,0,0,0,0,0,0,0,0,0,0,0,0,0,0,0,0,0,0,0,0],"sum_hessian":[1.75E3,6.31E2,1.119E3,4.39E2,1.92E2,7.65E2,3.54E2,2.67E2,1.72E2,4.9E1,1.43E2,2.88E2,4.77E2,8E0,3.46E2,7.8E1,1.89E2,6.6E1,1.06E2,2.3E1,2.6E1,6.7E1,7.6E1,5.7E1,2.31E2,1.81E2,2.96E2,4E0,4E0,3.38E2,8E0,1.6E1,6.2E1,9.4E1,9.5E1,3.5E1,3.1E1,6.4E1,4.2E1,1.1E1,1.2E1,2.5E1,1E0,5.2E1,1.5E1,1.9E1,5.7E1,1.4E1,4.3E1,8.8E1,1.43E2,9.5E1,8.6E1,2.85E2,1.1E1,1E0,3E0,2E0,2E0,2E2,1.38E2,3E0,5E0],"tree_param":{"num_deleted":"0","num_feature":"16","num_nodes":"63","size_leaf_vector":"1"}},{"base_weights":[9.383249E-1,-4.3632336E0,8.5477915E0,-1.057858E0,-1.0625519E1,6.572071E0,3.8483257E1,-5.8012395E0,1.1005884E1,-8.910601E-1,-1.4454474E1,2.0663078E1,1.5587859E0,6.490345E0,2.3990385E1,-6.2696357E0,5.18566E1,-2.354148E0,2.5566296E1,-2.9500113E0,3.9230804E1,-1.6294004E1,2.3034837E0,3.0674604E1,6.4488864E0,-2.8446543E0,1.5081173E1,-1.9253544E1,3.3409313E1,-8.415111E-1,3.6574826E-1,6.1835256E0,1.096032E0,3.2984776E0,-6.211676E-1,1.3987695E0,5.5574293E0,1.2328002E0,-9.328451E-1,4.7921724E0,1.7462953E0,-1.5018405E0,-3.2336786E0,3.359523E0,-3.2387105E-1,1.2984093E0,4.7118783E0,3.9481163E0,-1.6970419E0,-4.0477982E-1,8.699754E0,5.2122107E0,-7.243034E-1,1.84672E0,-4.2730713E0,9.355317E-3,3.9750717E0],"categories":[],"categories_nodes":[],"categories_segments":[],"categories_sizes":[],"default_left":[0,0,0,0,0,0,0,0,0,0,0,0,0,0,0,0,0,0,0,0,0,0,0,0,0,0,0,0,0,0,0,0,0,0,0,0,0,0,0,0,0,0,0,0,0,0,0,0,0,0,0,0,0,0,0,0,0],"id":19,"left_children":[1,3,5,7,9,11,13,15,17,19,21,23,25,-1,27,29,31,33,35,37,39,41,43,45,47,49,51,53,55,-1,-1,-1,-1,-1,-1,-1,-1,-1,-1,-1,-1,-1,-1,-1,-1,-1,-1,-1,-1,-1,-1,-1,-1,-1,-1,-1,-1],"loss_changes":[7.015174E4,2.1205445E4,4.1975984E4,3.851766E4,1.3181691E4,4.736873E4,1.5290742E4,1.336936E4,3.702042E4,8.459237E3,7.867535E3,2.4848E4,2.9577232E4,0E0,1.286259E4,1.0254002E4,9.54625E2,1.383698E4,3.0840645E4,9.567641E3,1.0905859E2,4.2006523E3,4.617853E3,2.9351523E4,5.7915887E4,4.0887047E4,1.0126048E5,6.102574E3,5.277996E3,0E0,0E0,0E0,0E0,0E0,0E0,0E0,0E0,0E0,0E0,0E0,0E0,0E0,0E0,0E0,0E0,0E0,0E0,0E0,0E0,0E0,0E0,0E0,0E0,0E0,0E0,0E0,0E0],"parents":[2147483647,0,0,1,1,2,2,3,3,4,4,5,5,6,6,7,7,8,8,9,9,10,10,11,11,12,12,14,14,15,15,16,16,17,17,18,18,19,19,20,20,21,21,22,22,23,23,24,24,25,25,26,26,27,27,28,28],"right_children":[2,4,6,8,10,12,14,16,18,20,22,24,26,-1,28,30,32,34,36,38,40,42,44,46,48,50,52,54,56,-1,-1,-1,-1,-1,-1,-1,-1,-1,-1,-1,-1,-1,-1,-1,-1,-1,-1,-1,-1,-1,-1,-1,-1,-1,-1,-1,-1],"split_conditions":[1.4600411E-1,-3.3828446E-1,2.3807275E0,-4.2140815E-1,3.332628E-2,3.1058037E-1,1.0662831E0,9.229821E-2,-5.1311374E-1,4.6237284E-1,1.0849818E0,3.332628E-2,1.258751E0,6.490345E0,-1.7833995E0,1.258751E0,1.4126912E-1,-1.0301311E0,1.258751E0,5.0391078E-2,6.4163625E-1,8.183602E-2,-1.0423242E-1,1.258751E0,3.332628E-2,1.7636381E0,3.332628E-2,-6.7417306E-1,4.2891484E-1,-8.415111E-1,3.6574826E-1,6.1835256E0,1.096032E0,3.2984776E0,-6.211676E-1,1.3987695E0,5.5574293E0,1.2328002E0,-9.328451E-1,4.7921724E0,1.7462953E0,-1.5018405E0,-3.2336786E0,3.359523E0,-3.2387105E-1,1.2984093E0,4.7118783E0,3.9481163E0,-1.6970419E0,-4.0477982E-1,8.699754E0,5.2122107E0,-7.243034E-1,1.84672E0,-4.2730713E0,9.355317E-3,3.9750717E0],"split_indices":[10,7,10,4,0,9,6,10,10,4,9,1,1,0,11,1,2,14,1,6,4,10,15,0,0,14,0,1,7,0,0,0,0,0,0,0,0,0,0,0,0,0,0,0,0,0,0,0,0,0,0,0,0,0,0,0,0],"split_type":[0,0,0,0,0,0,0,0,0,0,0,0,0,0,0,0,0,0,0,0,0,0,0,0,0,0,0,0,0,0,0,0,0,0,0,0,0,0,0,0,0,0,0,0,0,0,0,0,0,0,0,0,0,0,0,0,0],"sum_hessian":[1.737E3,1.024E3,7.13E2,6.71E2,3.53E2,6.7E2,4.3E1,4.82E2,1.89E2,1E2,2.53E2,1.75E2,4.95E2,1.4E1,2.9E1,4.79E2,3E0,9.9E1,9E1,9.6E1,4E0,2.28E2,2.5E1,1.02E2,7.3E1,3.74E2,1.21E2,5E0,2.4E1,3.94E2,8.5E1,2E0,1E0,9E0,9E1,6.6E1,2.4E1,2.8E1,6.8E1,2E0,2E0,2.13E2,1.5E1,3E0,2.2E1,5E1,5.2E1,3E1,4.3E1,3.7E2,4E0,4.5E1,7.6E1,2E0,3E0,4E0,2E1],"tree_param":{"num_deleted":"0","num_feature":"16","num_nodes":"57","size_leaf_vector":"1"}},{"base_weights":[2.6306584E-1,-3.5446112E0,1.0348146E1,-1.0038922E1,-1.2736797E0,-9.543891E-1,1.784761E1,-2.7978604E0,-1.4398028E1,3.8581228E0,-5.9495125E0,2.4932417E1,-6.8095503E0,4.5876663E1,1.2122213E1,-1.1124838E1,1.1925685E1,-1.5149486E1,4.1750884E0,-5.264437E0,6.9683256E0,-8.23426E0,1.3389108E1,4.8077393E1,-1.971465E1,-2.116145E1,5.0102944E0,6.61754E1,1.7956612E1,9.582071E0,5.2987244E1,-6.664986E-1,-2.8826427E0,-7.411725E-1,3.5299351E0,-1.3992347E0,-4.5881095E0,5.228313E-1,-1.417466E0,1.600921E0,1.2844137E-2,-4.2105213E-1,-1.8197842E0,7.3429904E0,2.6561627E-1,8.5434675E0,2.4059086E0,4.578171E0,-2.8987823E0,-3.212526E0,-1.0506324E0,-1.9934158E0,1.1263673E0,7.9359207E0,1.5286947E0,-1.7100168E0,3.2171667E0,8.142342E-1,8.889121E0,8.168981E0,2.12491E0],"categories":[],"categories_nodes":[],"categories_segments":[],"categories_sizes":[],"default_left":[0,0,0,0,0,0,0,0,0,0,0,0,0,0,0,0,0,0,0,0,0,0,0,0,0,0,0,0,0,0,0,0,0,0,0,0,0,0,0,0,0,0,0,0,0,0,0,0,0,0,0,0,0,0,0,0,0,0,0,0,0],"id":20,"left_children":[1,3,5,7,9,11,13,15,17,19,21,23,25,27,29,31,33,35,-1,37,39,41,43,45,47,49,51,53,55,57,59,-1,-1,-1,-1,-1,-1,-1,-1,-1,-1,-1,-1,-1,-1,-1,-1,-1,-1,-1,-1,-1,-1,-1,-1,-1,-1,-1,-1,-1,-1],"loss_changes":[6.781398E4,1.8894324E4,4.1042293E4,1.0439152E4,2.2842627E4,2.9574633E4,4.614283E4,1.5580603E4,9.366555E3,1.2918035E4,2.211381E4,3.8148617E4,2.7078346E4,2.6582047E4,2.4716395E4,6.202536E3,2.1052992E4,6.6479688E3,0E0,1.0919268E4,2.096123E4,1.7803896E4,3.395893E4,1.947873E4,9.222779E3,8.073582E3,1.3951395E4,1.757214E4,1.1513488E4,2.5538473E4,1.1017691E4,0E0,0E0,0E0,0E0,0E0,0E0,0E0,0E0,0E0,0E0,0E0,0E0,0E0,0E0,0E0,0E0,0E0,0E0,0E0,0E0,0E0,0E0,0E0,0E0,0E0,0E0,0E0,0E0,0E0,0E0],"parents":[2147483647,0,0,1,1,2,2,3,3,4,4,5,5,6,6,7,7,8,8,9,9,10,10,11,11,12,12,13,13,14,14,15,15,16,16,17,17,19,19,20,20,21,21,22,22,23,23,24,24,25,25,26,26,27,27,28,28,29,29,30,30],"right_children":[2,4,6,8,10,12,14,16,18,20,22,24,26,28,30,32,34,36,-1,38,40,42,44,46,48,50,52,54,56,58,60,-1,-1,-1,-1,-1,-1,-1,-1,-1,-1,-1,-1,-1,-1,-1,-1,-1,-1,-1,-1,-1,-1,-1,-1,-1,-1,-1,-1,-1,-1],"split_conditions":[5.774549E-1,-8.4913677E-1,1.4521457E-1,-1.7267805E0,1.739249E-1,-2.1531437E-1,6.4024156E-1,1.6784394E0,-3.616378E-1,-8.338393E-1,1.2196368E0,7.408256E-1,-4.2788737E-2,6.970322E-1,1.5386553E0,-8.2919514E-1,-1.0881853E0,3.25605E-1,4.1750884E0,-5.5573356E-1,-1.2603079E-1,4.3258017E-1,-9.143169E-1,7.5022423E-1,3.332628E-2,3.332628E-2,5.0996715E-1,8.504946E-1,4.197531E-1,1.7636381E0,1.2834685E0,-6.664986E-1,-2.8826427E0,-7.411725E-1,3.5299351E0,-1.3992347E0,-4.5881095E0,5.228313E-1,-1.417466E0,1.600921E0,1.2844137E-2,-4.2105213E-1,-1.8197842E0,7.3429904E0,2.6561627E-1,8.5434675E0,2.4059086E0,4.578171E0,-2.8987823E0,-3.212526E0,-1.0506324E0,-1.9934158E0,1.1263673E0,7.9359207E0,1.5286947E0,-1.7100168E0,3.2171667E0,8.142342E-1,8.889121E0,8.168981E0,2.12491E0],"split_indices":[13,15,4,9,9,6,6,8,12,4,8,1,2,15,6,13,10,10,0,9,6,3,7,13,0,1,12,7,9,14,7,0,0,0,0,0,0,0,0,0,0,0,0,0,0,0,0,0,0,0,0,0,0,0,0,0,0,0,0,0,0],"split_type":[0,0,0,0,0,0,0,0,0,0,0,0,0,0,0,0,0,0,0,0,0,0,0,0,0,0,0,0,0,0,0,0,0,0,0,0,0,0,0,0,0,0,0,0,0,0,0,0,0,0,0,0,0,0,0,0,0,0,0,0,0],"sum_hessian":[1.764E3,1.281E3,4.83E2,3.31E2,9.5E2,1.93E2,2.9E2,1.25E2,2.06E2,4.53E2,4.97E2,3.5E1,1.58E2,4.8E1,2.42E2,8E1,4.5E1,2.04E2,2E0,1.15E2,3.38E2,4.45E2,5.2E1,2.3E1,1.2E1,7.1E1,8.7E1,2.7E1,2.1E1,2.29E2,1.3E1,6.5E1,1.5E1,2.5E1,2E1,1.98E2,6E0,5.3E1,6.2E1,1.45E2,1.93E2,3.18E2,1.27E2,7E0,4.5E1,8E0,1.5E1,1E0,1.1E1,3.4E1,3.7E1,1.7E1,7E1,2.1E1,6E0,6E0,1.5E1,2.26E2,3E0,6E0,7E0],"tree_param":{"num_deleted":"0","num_feature":"16","num_nodes":"61","size_leaf_vector":"1"}},{"base_weights":[6.4382225E-1,-3.9636889E0,7.873539E0,-7.0803533E0,3.5709643E0,1.9297707E1,2.4175255E0,-1.2140221E1,3.1000873E-1,4.1287907E1,-1.2389248E1,7.370615E0,4.6246174E1,-1.8977443E0,3.3583004E1,4.5818436E1,-1.34357605E1,6.491898E0,-8.270365E0,2.0439241E1,6.1258106E1,-2.0011278E1,-5.631127E0,3.5998432E1,1.4980068E0,6.676865E1,-5.320072E0,1.7210888E1,-5.1412935E0,2.4110462E1,8.740444E0,-9.115074E-1,7.0663524E0,-6.229715E-1,-1.924632E0,1.1762166E-1,3.0874054E0,-1.4180458E0,1.5688094E0,3.9665337E0,1.3462787E0,6.265117E0,-1.4114113E-1,-1.4550015E0,-2.8249016E0,-7.138842E-1,5.4544225E0,1.4056057E0,5.380218E0,-2.477267E0,6.022051E-1,1.3167554E1,5.436111E0,-3.266545E0,5.0130696E0,5.085737E-3,3.7546818E0,1.8236437E0,-7.330572E-1,4.4428883E0,2.8276238E-1],"categories":[],"categories_nodes":[],"categories_segments":[],"categories_sizes":[],"default_left":[0,0,0,0,0,0,0,0,0,0,0,0,0,0,0,0,0,0,0,0,0,0,0,0,0,0,0,0,0,0,0,0,0,0,0,0,0,0,0,0,0,0,0,0,0,0,0,0,0,0,0,0,0,0,0,0,0,0,0,0,0],"id":21,"left_children":[1,3,5,7,9,11,13,15,17,19,21,23,25,27,29,31,33,35,37,39,41,43,45,47,49,51,53,55,57,59,-1,-1,-1,-1,-1,-1,-1,-1,-1,-1,-1,-1,-1,-1,-1,-1,-1,-1,-1,-1,-1,-1,-1,-1,-1,-1,-1,-1,-1,-1,-1],"loss_changes":[5.8025664E4,2.501118E4,4.221337E4,2.8161633E4,1.883263E5,7.004943E4,6.1927957E4,3.417983E4,1.6337867E4,3.7468656E4,1.1219645E4,2.5668428E4,7.125909E4,2.5190303E4,2.6442883E4,1.4292381E4,1.8219664E4,2.3163477E4,1.8488438E4,5.7701016E3,4.1916562E3,4.222785E3,1.1095201E4,9.40082E3,1.5361944E4,3.1498047E4,3.1963986E4,2.0587037E4,1.789327E4,2.1063625E4,0E0,0E0,0E0,0E0,0E0,0E0,0E0,0E0,0E0,0E0,0E0,0E0,0E0,0E0,0E0,0E0,0E0,0E0,0E0,0E0,0E0,0E0,0E0,0E0,0E0,0E0,0E0,0E0,0E0,0E0,0E0],"parents":[2147483647,0,0,1,1,2,2,3,3,4,4,5,5,6,6,7,7,8,8,9,9,10,10,11,11,12,12,13,13,14,14,15,15,16,16,17,17,18,18,19,19,20,20,21,21,22,22,23,23,24,24,25,25,26,26,27,27,28,28,29,29],"right_children":[2,4,6,8,10,12,14,16,18,20,22,24,26,28,30,32,34,36,38,40,42,44,46,48,50,52,54,56,58,60,-1,-1,-1,-1,-1,-1,-1,-1,-1,-1,-1,-1,-1,-1,-1,-1,-1,-1,-1,-1,-1,-1,-1,-1,-1,-1,-1,-1,-1,-1,-1],"split_conditions":[9.82684E-3,1.258751E0,3.332628E-2,7.408256E-1,3.332628E-2,1.258751E0,1.8322299E0,-1.2717019E0,3.332628E-2,-3.4664866E-2,1.4483249E0,-1.4287261E0,8.644207E-1,-7.5606626E-1,8.9384466E-1,1.3483059E-2,3.2807872E-1,1.3174419E0,1.0720456E0,-3.767633E-2,1.3176578E0,4.25025E-1,1.2285595E0,-1.7837713E0,-4.003187E-1,-2.8339326E-1,7.4066985E-1,-4.747524E-1,-1.2314957E0,1.0662831E0,8.740444E0,-9.115074E-1,7.0663524E0,-6.229715E-1,-1.924632E0,1.1762166E-1,3.0874054E0,-1.4180458E0,1.5688094E0,3.9665337E0,1.3462787E0,6.265117E0,-1.4114113E-1,-1.4550015E0,-2.8249016E0,-7.138842E-1,5.4544225E0,1.4056057E0,5.380218E0,-2.477267E0,6.022051E-1,1.3167554E1,5.436111E0,-3.266545E0,5.0130696E0,5.085737E-3,3.7546818E0,1.8236437E0,-7.330572E-1,4.4428883E0,2.8276238E-1],"split_indices":[4,0,0,1,1,1,10,14,0,15,0,5,7,7,14,10,3,8,7,3,12,2,13,8,7,9,4,10,2,6,0,0,0,0,0,0,0,0,0,0,0,0,0,0,0,0,0,0,0,0,0,0,0,0,0,0,0,0,0,0,0],"split_type":[0,0,0,0,0,0,0,0,0,0,0,0,0,0,0,0,0,0,0,0,0,0,0,0,0,0,0,0,0,0,0,0,0,0,0,0,0,0,0,0,0,0,0,0,0,0,0,0,0,0,0,0,0,0,0,0,0,0,0,0,0],"sum_hessian":[1.74E3,1.063E3,6.77E2,7.52E2,3.11E2,2.18E2,4.59E2,4.46E2,3.06E2,9.2E1,2.19E2,1.52E2,6.6E1,4.04E2,5.5E1,9E0,4.37E2,1.78E2,1.28E2,4.6E1,4.6E1,1.02E2,1.17E2,2.5E1,1.27E2,4.7E1,1.9E1,5.8E1,3.46E2,4.8E1,7E0,3E0,6E0,1.96E2,2.41E2,1.47E2,3.1E1,1.03E2,2.5E1,1.1E1,3.5E1,4.5E1,1E0,6.3E1,3.9E1,1.15E2,2E0,1.2E1,1.3E1,1.8E1,1.09E2,6E0,4.1E1,1.3E1,6E0,3.2E1,2.6E1,2.9E1,3.17E2,2.4E1,2.4E1],"tree_param":{"num_deleted":"0","num_feature":"16","num_nodes":"61","size_leaf_vector":"1"}},{"base_weights":[1.2628495E0,-2.3182433E0,1.1143002E1,-8.011767E0,-3.1340408E-1,-1.3879197E0,1.7850199E1,-8.515761E0,7.9405146E0,1.2464981E1,-2.9175165E0,-1.7642448E1,1.0558361E1,3.2064278E1,1.072516E1,3.5996613E1,-9.308886E0,-9.006935E0,2.4434944E1,-1.1952065E1,-2.67735E-1,-3.0999811E1,-2.1313913E0,2.2360132E0,4.8122173E1,2.7239447E1,7.276381E1,1.490501E1,-2.2453026E1,1.2489091E0,7.6767116E0,-1.3060273E0,-1.7207094E-1,-6.0520345E-1,-2.2585256E0,1.3271693E0,5.5365887E0,-9.6764404E-1,-3.2934368E0,1.1984087E0,-3.8905764E-1,-3.525201E0,2.894242E0,5.3650004E-1,-1.9909592E0,-3.110402E0,9.3825436E-1,1.4915131E0,6.487919E0,3.815436E0,1.0278373E0,1.1284974E0,7.8340907E0,1.080922E0,3.8748956E0,7.8139156E-1,-3.1294618E0],"categories":[],"categories_nodes":[],"categories_segments":[],"categories_sizes":[],"default_left":[0,0,0,0,0,0,0,0,0,0,0,0,0,0,0,0,0,0,0,0,0,0,0,0,0,0,0,0,0,0,0,0,0,0,0,0,0,0,0,0,0,0,0,0,0,0,0,0,0,0,0,0,0,0,0,0,0],"id":22,"left_children":[1,3,5,7,9,11,13,15,-1,17,19,21,23,25,27,29,31,33,35,37,39,41,43,45,47,49,51,53,55,-1,-1,-1,-1,-1,-1,-1,-1,-1,-1,-1,-1,-1,-1,-1,-1,-1,-1,-1,-1,-1,-1,-1,-1,-1,-1,-1,-1],"loss_changes":[6.1448535E4,1.4551103E4,3.8854652E4,1.5303322E4,3.1449242E4,3.1643623E4,3.014014E4,1.2020658E4,0E0,4.1342973E4,1.8789371E4,1.4229818E4,2.9278596E4,1.7654797E4,2.8347996E4,4.7917285E3,9.2575E3,2.1904238E3,3.4830066E4,8.1804297E3,2.703356E4,1.045107E4,4.5048022E3,1.8876547E4,8.49198E3,1.6454547E4,2.5446602E3,1.7159914E4,6.3995137E3,0E0,0E0,0E0,0E0,0E0,0E0,0E0,0E0,0E0,0E0,0E0,0E0,0E0,0E0,0E0,0E0,0E0,0E0,0E0,0E0,0E0,0E0,0E0,0E0,0E0,0E0,0E0,0E0],"parents":[2147483647,0,0,1,1,2,2,3,3,4,4,5,5,6,6,7,7,9,9,10,10,11,11,12,12,13,13,14,14,15,15,16,16,17,17,18,18,19,19,20,20,21,21,22,22,23,23,24,24,25,25,26,26,27,27,28,28],"right_children":[2,4,6,8,10,12,14,16,-1,18,20,22,24,26,28,30,32,34,36,38,40,42,44,46,48,50,52,54,56,-1,-1,-1,-1,-1,-1,-1,-1,-1,-1,-1,-1,-1,-1,-1,-1,-1,-1,-1,-1,-1,-1,-1,-1,-1,-1,-1,-1],"split_conditions":[5.774549E-1,-6.7417306E-1,6.1224032E-2,2.0871491E0,-9.143169E-1,-4.2788737E-2,2.769942E-1,-1.8129228E0,7.9405146E0,-1.1453787E0,-8.1372726E-1,3.332628E-2,5.8995698E-2,1.1357793E0,1.4483249E0,-1.8996935E0,7.408256E-1,-3.411784E-1,1.258751E0,-4.1146833E-1,-5.079292E-1,7.408256E-1,1.0082754E0,-5.7502747E-1,-6.5833664E-1,8.3862966E-1,-6.7417306E-1,2.4903135E0,-1.1820564E0,1.2489091E0,7.6767116E0,-1.3060273E0,-1.7207094E-1,-6.0520345E-1,-2.2585256E0,1.3271693E0,5.5365887E0,-9.6764404E-1,-3.2934368E0,1.1984087E0,-3.8905764E-1,-3.525201E0,2.894242E0,5.3650004E-1,-1.9909592E0,-3.110402E0,9.3825436E-1,1.4915131E0,6.487919E0,3.815436E0,1.0278373E0,1.1284974E0,7.8340907E0,1.080922E0,3.8748956E0,7.8139156E-1,-3.1294618E0],"split_indices":[13,0,4,5,7,2,7,5,0,10,10,1,5,5,1,5,1,4,1,13,7,0,8,7,4,6,1,13,3,0,0,0,0,0,0,0,0,0,0,0,0,0,0,0,0,0,0,0,0,0,0,0,0,0,0,0,0],"split_type":[0,0,0,0,0,0,0,0,0,0,0,0,0,0,0,0,0,0,0,0,0,0,0,0,0,0,0,0,0,0,0,0,0,0,0,0,0,0,0,0,0,0,0,0,0,0,0,0,0,0,0,0,0,0,0,0,0],"sum_hessian":[1.735E3,1.274E3,4.61E2,3.31E2,9.43E2,1.61E2,3E2,3.3E2,1E0,1.59E2,7.84E2,6.8E1,9.3E1,9.9E1,2.01E2,5E0,3.25E2,5.7E1,1.02E2,1.77E2,6.07E2,3.6E1,3.2E1,7.7E1,1.6E1,9E1,9E0,1.79E2,2.2E1,4E0,1E0,2.17E2,1.08E2,4.8E1,9E0,7.6E1,2.6E1,1.61E2,1.6E1,1.38E2,4.69E2,3.4E1,2E0,2.3E1,9E0,1.3E1,6.4E1,6E0,1E1,5.4E1,3.6E1,1E0,8E0,1.54E2,2.5E1,5E0,1.7E1],"tree_param":{"num_deleted":"0","num_feature":"16","num_nodes":"57","size_leaf_vector":"1"}},{"base_weights":[-7.8423417E-1,-1.823564E0,2.0986538E1,3.3133035E0,-4.8921933E0,8.394718E0,4.2841297E1,5.24437E0,-1.4690435E1,-7.1540537E0,2.178674E0,3.741331E1,-3.0327716E-1,5.2055004E1,6.447512E0,1.2800531E0,1.7920702E1,-1.1733515E-1,-3.1861685E1,-1.083632E1,1.2056383E0,1.97293E1,-7.6800833E0,1.3833713E1,4.7473892E1,-1.8502699E1,1.2084461E1,5.5486076E1,-1.1714321E0,5.2481294E0,-9.971667E0,3.9016655E-1,-8.6154747E-1,1.2425023E0,4.716272E0,4.523883E-1,-2.7941177E0,-4.3480544E0,-6.5996784E-1,2.8963983E0,-1.1474861E0,2.9146361E0,-1.2348685E0,1.2157775E0,5.7785935E0,-5.9406966E-1,-4.5843368E0,3.2536724E-1,1.9802516E0,5.6835685E0,1.292569E0,-4.623714E0,-6.412324E-1,1.7976481E0,-3.7115848E0,6.127094E0,2.984797E0,1.2775727E-1,-1.247703E0],"categories":[],"categories_nodes":[],"categories_segments":[],"categories_sizes":[],"default_left":[0,0,0,0,0,0,0,0,0,0,0,0,0,0,0,0,0,0,0,0,0,0,0,0,0,0,0,0,0,0,0,0,0,0,0,0,0,0,0,0,0,0,0,0,0,0,0,0,0,0,0,0,0,0,0,0,0,0,0],"id":23,"left_children":[1,3,5,7,9,11,13,15,17,19,21,23,25,27,29,31,33,35,37,39,41,43,45,47,49,51,53,55,-1,-1,57,-1,-1,-1,-1,-1,-1,-1,-1,-1,-1,-1,-1,-1,-1,-1,-1,-1,-1,-1,-1,-1,-1,-1,-1,-1,-1,-1,-1],"loss_changes":[3.972605E4,2.6419473E4,2.1655652E4,2.1875586E4,1.679257E4,1.3136332E4,9.388703E3,2.8470508E4,1.5260801E4,2.4485242E4,4.4273496E4,2.1899531E3,9.467031E3,5.682324E3,5.8141846E3,1.1266604E4,2.1109148E4,4.5170444E3,7.9314863E3,1.4360957E4,9.2767016E4,2.5806953E4,1.0614091E4,2.5131995E2,1.8528242E3,5.4039478E3,7.9144443E3,1.4340703E3,0E0,0E0,1.8504083E2,0E0,0E0,0E0,0E0,0E0,0E0,0E0,0E0,0E0,0E0,0E0,0E0,0E0,0E0,0E0,0E0,0E0,0E0,0E0,0E0,0E0,0E0,0E0,0E0,0E0,0E0,0E0,0E0],"parents":[2147483647,0,0,1,1,2,2,3,3,4,4,5,5,6,6,7,7,8,8,9,9,10,10,11,11,12,12,13,13,14,14,15,15,16,16,17,17,18,18,19,19,20,20,21,21,22,22,23,23,24,24,25,25,26,26,27,27,30,30],"right_children":[2,4,6,8,10,12,14,16,18,20,22,24,26,28,30,32,34,36,38,40,42,44,46,48,50,52,54,56,-1,-1,58,-1,-1,-1,-1,-1,-1,-1,-1,-1,-1,-1,-1,-1,-1,-1,-1,-1,-1,-1,-1,-1,-1,-1,-1,-1,-1,-1,-1],"split_conditions":[1.8322299E0,-4.5076966E-1,1.258751E0,1.4483249E0,1.258751E0,9.760821E-1,2.5458395E0,8.0084217E-1,5.937447E-1,1.258751E0,3.332628E-2,-3.7566498E-1,3.3902038E-2,1.7710025E0,-4.4924983E-1,9.501463E-1,1.258751E0,9.802977E-1,9.2597336E-1,-2.0203984E0,3.332628E-2,-1.7030272E-1,6.77832E-1,6.577855E-1,-1.0983213E0,1.1110034E0,7.408256E-1,1.169528E0,-1.1714321E0,5.2481294E0,-4.3391168E-1,3.9016655E-1,-8.6154747E-1,1.2425023E0,4.716272E0,4.523883E-1,-2.7941177E0,-4.3480544E0,-6.5996784E-1,2.8963983E0,-1.1474861E0,2.9146361E0,-1.2348685E0,1.2157775E0,5.7785935E0,-5.9406966E-1,-4.5843368E0,3.2536724E-1,1.9802516E0,5.6835685E0,1.292569E0,-4.623714E0,-6.412324E-1,1.7976481E0,-3.7115848E0,6.127094E0,2.984797E0,1.2775727E-1,-1.247703E0],"split_indices":[10,3,0,1,1,9,4,4,2,0,0,11,2,3,2,9,1,15,6,14,1,10,10,9,3,9,1,7,0,0,2,0,0,0,0,0,0,0,0,0,0,0,0,0,0,0,0,0,0,0,0,0,0,0,0,0,0,0,0],"split_type":[0,0,0,0,0,0,0,0,0,0,0,0,0,0,0,0,0,0,0,0,0,0,0,0,0,0,0,0,0,0,0,0,0,0,0,0,0,0,0,0,0,0,0,0,0,0,0,0,0,0,0,0,0,0,0,0,0,0,0],"sum_hessian":[1.753E3,1.674E3,7.9E1,6.26E2,1.048E3,5.1E1,2.8E1,5.66E2,6E1,7.94E2,2.54E2,1.1E1,4E1,2.2E1,6E0,4.32E2,1.34E2,3.3E1,2.7E1,5.51E2,2.43E2,9.1E1,1.63E2,4E0,7E0,1.6E1,2.4E1,2.1E1,1E0,1E0,5E0,3.42E2,9E1,1.14E2,2E1,2.9E1,4E0,1.8E1,9E0,8E0,5.43E2,7.9E1,1.64E2,7.7E1,1.4E1,1.57E2,6E0,2E0,2E0,5E0,2E0,4E0,1.2E1,2.2E1,2E0,1.6E1,5E0,1E0,4E0],"tree_param":{"num_deleted":"0","num_feature":"16","num_nodes":"59","size_leaf_vector":"1"}},{"base_weights":[-4.8431307E-2,-4.8318005E-1,4.7260693E1,4.559907E0,-3.7040389E0,5.9540706E0,-4.464529E0,-5.7463555E0,5.1052794E0,-6.1226263E0,4.3108993E0,-2.19704E0,2.4026544E0,6.678598E0,-1.1719599E1,-9.916553E0,2.4721096E0,2.1485134E1,-5.3294644E0,1.1539011E0,6.317149E-2,1.2872075E-1,-2.7777483E0,-1.1807226E0,-1.07633844E-1,2.69338E0,-1.0215707E0,1.626697E0,1.6565023E1,-8.1716377E-1,2.2500172E0],"categories":[],"categories_nodes":[],"categories_segments":[],"categories_sizes":[],"default_left":[0,0,0,0,0,0,0,0,0,0,0,0,0,0,0,0,0,0,0,0,0,0,0,0,0,0,0,0,0,0,0],"id":24,"left_children":[1,3,5,7,9,-1,11,-1,13,15,17,-1,-1,19,21,23,25,27,29,-1,-1,-1,-1,-1,-1,-1,-1,-1,-1,-1,-1],"loss_changes":[3.613951E4,2.829608E4,1.0428805E4,2.3261133E4,2.0632465E4,0E0,2.522917E3,0E0,1.7919654E4,2.6665078E4,4.1009273E4,0E0,0E0,1.8126553E4,1.2149739E4,9.464109E3,7.817687E4,6.425805E4,1.2760229E4,0E0,0E0,0E0,0E0,0E0,0E0,0E0,0E0,0E0,0E0,0E0,0E0],"parents":[2147483647,0,0,1,1,2,2,3,3,4,4,6,6,8,8,9,9,10,10,13,13,14,14,15,15,16,16,17,17,18,18],"right_children":[2,4,6,8,10,-1,12,-1,14,16,18,-1,-1,20,22,24,26,28,30,-1,-1,-1,-1,-1,-1,-1,-1,-1,-1,-1,-1],"split_conditions":[2.88082E0,-4.5076966E-1,3.033088E0,-1.7175404E0,1.258751E0,5.9540706E0,7.408256E-1,-5.7463555E0,1.4483249E0,1.258751E0,3.332628E-2,-2.19704E0,2.4026544E0,6.2414485E-1,5.937447E-1,7.408256E-1,3.332628E-2,5.941345E-1,1.0377206E0,1.1539011E0,6.317149E-2,1.2872075E-1,-2.7777483E0,-1.1807226E0,-1.07633844E-1,2.69338E0,-1.0215707E0,1.626697E0,1.6565023E1,-8.1716377E-1,2.2500172E0],"split_indices":[10,3,7,11,1,0,0,0,1,0,0,0,0,9,2,1,1,10,12,0,0,0,0,0,0,0,0,0,0,0,0],"split_type":[0,0,0,0,0,0,0,0,0,0,0,0,0,0,0,0,0,0,0,0,0,0,0,0,0,0,0,0,0,0,0],"sum_hessian":[1.755E3,1.74E3,1.5E1,6.78E2,1.062E3,1.2E1,3E0,5E0,6.73E2,8.16E2,2.46E2,2E0,1E0,6.16E2,5.7E1,5.66E2,2.5E2,8.8E1,1.58E2,3.41E2,2.75E2,3.2E1,2.5E1,4.66E2,1E2,8.5E1,1.65E2,8.6E1,2E0,1.44E2,1.4E1],"tree_param":{"num_deleted":"0","num_feature":"16","num_nodes":"31","size_leaf_vector":"1"}},{"base_weights":[6.4281017E-1,-1.2860906E0,1.14697E1,-5.5281115E0,1.30789E0,3.2512444E1,7.3972206E0,-2.0980453E0,-1.084069E1,-1.2268662E1,2.6336215E0,-3.601705E1,3.855258E1,5.0903254E0,3.5323334E1,-5.5315514E0,6.6823072E0,-9.393762E0,-2.5881716E1,1.5855532E1,-1.5067675E1,-4.750572E0,5.352376E0,-1.1007828E0,-4.068418E0,2.7054419E1,8.116344E1,1.1461402E1,-8.0026045E0,4.4134254E1,-2.050571E0,2.7612472E0,-6.045902E-1,2.7537253E-1,3.2157369E0,-1.3747805E0,-6.0670704E-1,-1.2366767E0,-3.6808496E0,3.739018E0,-4.5432916E-1,-2.8517396E0,-9.413827E-1,-1.76917E0,2.5886402E-1,1.6999311E0,9.6005E-2,4.4309254E0,-2.8998843E-1,4.1931424E0,1.099126E1,7.1787673E-1,4.9798245E0,-1.0843068E0,5.810195E0,5.7687187E0,2.5064542E0],"categories":[],"categories_nodes":[],"categories_segments":[],"categories_sizes":[],"default_left":[0,0,0,0,0,0,0,0,0,0,0,0,0,0,0,0,0,0,0,0,0,0,0,0,0,0,0,0,0,0,0,0,0,0,0,0,0,0,0,0,0,0,0,0,0,0,0,0,0,0,0,0,0,0,0,0,0],"id":25,"left_children":[1,3,5,7,9,11,13,15,17,19,21,23,25,27,29,31,33,35,37,39,41,43,45,-1,-1,47,49,51,53,55,-1,-1,-1,-1,-1,-1,-1,-1,-1,-1,-1,-1,-1,-1,-1,-1,-1,-1,-1,-1,-1,-1,-1,-1,-1,-1,-1],"loss_changes":[3.6875008E4,1.6501809E4,2.2640363E4,1.0345852E4,1.678925E4,1.9187441E4,1.4315284E4,1.049811E4,4.610084E3,6.772662E3,1.7069791E4,1.9041016E1,1.7402031E4,1.752568E4,9.267395E3,4.428852E3,9.719373E3,2.8859258E3,2.35062E3,3.6841265E3,5.510785E3,2.1795686E4,3.1752264E4,0E0,0E0,1.7184756E4,4.4143125E3,2.2792268E4,1.3585966E4,2.4308555E3,0E0,0E0,0E0,0E0,0E0,0E0,0E0,0E0,0E0,0E0,0E0,0E0,0E0,0E0,0E0,0E0,0E0,0E0,0E0,0E0,0E0,0E0,0E0,0E0,0E0,0E0,0E0],"parents":[2147483647,0,0,1,1,2,2,3,3,4,4,5,5,6,6,7,7,8,8,9,9,10,10,11,11,12,12,13,13,14,14,15,15,16,16,17,17,18,18,19,19,20,20,21,21,22,22,25,25,26,26,27,27,28,28,29,29],"right_children":[2,4,6,8,10,12,14,16,18,20,22,24,26,28,30,32,34,36,38,40,42,44,46,-1,-1,48,50,52,54,56,-1,-1,-1,-1,-1,-1,-1,-1,-1,-1,-1,-1,-1,-1,-1,-1,-1,-1,-1,-1,-1,-1,-1,-1,-1,-1,-1],"split_conditions":[1.032849E0,-5.710045E-1,-1.1293548E-1,-7.1682006E-1,-1.1920985E0,-6.157146E-1,2.88082E0,-8.848702E-1,8.4509194E-1,-1.2314957E0,-6.7417306E-1,3.332628E-2,1.4358096E0,-6.908104E-1,1.5090233E0,-1.0695268E0,1.5844694E0,-4.3450087E-1,-7.759354E-1,8.0365247E-1,-5.0457813E-2,-5.079292E-1,3.332628E-2,-1.1007828E0,-4.068418E0,1.1436409E0,4.937126E-1,8.167191E-2,1.9687798E0,1.2834685E0,-2.050571E0,2.7612472E0,-6.045902E-1,2.7537253E-1,3.2157369E0,-1.3747805E0,-6.0670704E-1,-1.2366767E0,-3.6808496E0,3.739018E0,-4.5432916E-1,-2.8517396E0,-9.413827E-1,-1.76917E0,2.5886402E-1,1.6999311E0,9.6005E-2,4.4309254E0,-2.8998843E-1,4.1931424E0,1.099126E1,7.1787673E-1,4.9798245E0,-1.0843068E0,5.810195E0,5.7687187E0,2.5064542E0],"split_indices":[10,10,7,7,1,4,10,10,6,2,0,1,8,3,9,14,5,7,13,7,2,7,0,0,0,13,4,5,8,7,0,0,0,0,0,0,0,0,0,0,0,0,0,0,0,0,0,0,0,0,0,0,0,0,0,0,0],"split_type":[0,0,0,0,0,0,0,0,0,0,0,0,0,0,0,0,0,0,0,0,0,0,0,0,0,0,0,0,0,0,0,0,0,0,0,0,0,0,0,0,0,0,0,0,0,0,0,0,0,0,0,0,0,0,0,0,0],"sum_hessian":[1.764E3,1.498E3,2.66E2,5.68E2,9.3E2,4.2E1,2.24E2,3.46E2,2.22E2,8.2E1,8.48E2,3E0,3.9E1,2.08E2,1.6E1,2.49E2,9.7E1,2.04E2,1.8E1,7E0,7.5E1,2.28E2,6.2E2,1E0,2E0,3.2E1,7E0,1.4E2,6.8E1,1.4E1,2E0,3E0,2.46E2,8.5E1,1.2E1,8.7E1,1.17E2,9E0,9E0,3E0,4E0,2.1E1,5.4E1,8.2E1,1.46E2,1.69E2,4.51E2,2E1,1.2E1,4E0,3E0,1.27E2,1.3E1,6.6E1,2E0,7E0,7E0],"tree_param":{"num_deleted":"0","num_feature":"16","num_nodes":"57","size_leaf_vector":"1"}},{"base_weights":[2.9286113E-1,-1.3182534E0,8.935915E0,5.410227E-1,-4.8776717E0,2.5694233E1,2.392201E0,-3.1959042E-1,3.5465878E1,1.8285295E0,-9.878544E0,1.228223E1,6.2633728E1,5.096682E-1,4.656801E1,-2.3471355E0,8.872239E0,4.5583412E1,-7.977125E-1,-6.4504375E0,1.0324556E1,-8.453552E0,-3.9153088E1,3.0104052E1,4.5931287E0,-3.287674E0,8.4826706E1,-1.3301207E0,3.0401718E1,2.0403724E0,5.1888824E0,-5.694552E-1,1.6688165E-1,3.0612571E0,2.1146579E-1,6.913578E0,1.982794E0,-1.095488E0,2.499406E0,-3.3622172E-1,-3.3658016E0,-1.6302726E-1,2.7207048E0,-1.0539036E0,2.9949528E-1,-5.5951385E0,-1.0855347E-1,-1.046765E0,3.9545677E0,1.6201512E0,-1.2748207E0,1.6278382E-1,-8.745799E-1,1.1927207E1,1.3279971E0,2.8457897E0,-3.449919E-1,5.7303786E-1,5.0006104E0],"categories":[],"categories_nodes":[],"categories_segments":[],"categories_sizes":[],"default_left":[0,0,0,0,0,0,0,0,0,0,0,0,0,0,0,0,0,0,0,0,0,0,0,0,0,0,0,0,0,0,0,0,0,0,0,0,0,0,0,0,0,0,0,0,0,0,0,0,0,0,0,0,0,0,0,0,0,0,0],"id":26,"left_children":[1,3,5,7,9,11,13,15,17,19,21,23,25,27,29,31,33,35,37,39,41,43,45,47,49,51,53,55,57,-1,-1,-1,-1,-1,-1,-1,-1,-1,-1,-1,-1,-1,-1,-1,-1,-1,-1,-1,-1,-1,-1,-1,-1,-1,-1,-1,-1,-1,-1],"loss_changes":[2.4018395E4,9.625125E3,2.965684E4,2.8745621E4,1.6752955E4,3.688359E4,1.6276098E4,1.742764E4,8.475023E3,1.5119E4,1.1599783E4,7.6726553E3,2.9538727E4,1.0434504E4,5.4998047E1,1.030689E4,2.4763402E4,9.54802E3,1.8456349E3,9.045342E3,2.143805E4,6.5735E3,8.252377E3,6.9260186E3,8.460039E3,1.7521361E2,3.5382875E4,1.140106E4,5.0337783E3,0E0,0E0,0E0,0E0,0E0,0E0,0E0,0E0,0E0,0E0,0E0,0E0,0E0,0E0,0E0,0E0,0E0,0E0,0E0,0E0,0E0,0E0,0E0,0E0,0E0,0E0,0E0,0E0,0E0,0E0],"parents":[2147483647,0,0,1,1,2,2,3,3,4,4,5,5,6,6,7,7,8,8,9,9,10,10,11,11,12,12,13,13,14,14,15,15,16,16,17,17,18,18,19,19,20,20,21,21,22,22,23,23,24,24,25,25,26,26,27,27,28,28],"right_children":[2,4,6,8,10,12,14,16,18,20,22,24,26,28,30,32,34,36,38,40,42,44,46,48,50,52,54,56,58,-1,-1,-1,-1,-1,-1,-1,-1,-1,-1,-1,-1,-1,-1,-1,-1,-1,-1,-1,-1,-1,-1,-1,-1,-1,-1,-1,-1,-1,-1],"split_conditions":[9.169819E-1,1.887619E-1,1.0043125E0,3.155862E-1,-8.396226E-1,1.258751E0,1.6146847E0,8.0084217E-1,8.655368E-1,-9.554375E-1,1.8739153E0,6.342346E-1,1.0213499E0,1.5386553E0,7.408256E-1,-4.6522453E-1,7.46106E-1,4.379333E-1,-1.1004554E0,-3.3000138E-1,7.5501627E-1,6.4977723E-1,-6.7417306E-1,1.4117073E-1,9.6871775E-1,6.014138E-1,1.1214198E0,5.416662E-1,1.8338004E0,2.0403724E0,5.1888824E0,-5.694552E-1,1.6688165E-1,3.0612571E0,2.1146579E-1,6.913578E0,1.982794E0,-1.095488E0,2.499406E0,-3.3622172E-1,-3.3658016E0,-1.6302726E-1,2.7207048E0,-1.0539036E0,2.9949528E-1,-5.5951385E0,-1.0855347E-1,-1.046765E0,3.9545677E0,1.6201512E0,-1.2748207E0,1.6278382E-1,-8.745799E-1,1.1927207E1,1.3279971E0,2.8457897E0,-3.449919E-1,5.7303786E-1,5.0006104E0],"split_indices":[12,11,15,5,7,1,14,4,2,4,4,15,12,6,0,5,6,5,6,13,3,9,1,13,6,2,7,9,4,0,0,0,0,0,0,0,0,0,0,0,0,0,0,0,0,0,0,0,0,0,0,0,0,0,0,0,0,0,0],"split_type":[0,0,0,0,0,0,0,0,0,0,0,0,0,0,0,0,0,0,0,0,0,0,0,0,0,0,0,0,0,0,0,0,0,0,0,0,0,0,0,0,0,0,0,0,0,0,0,0,0,0,0,0,0,0,0,0,0,0,0],"sum_hessian":[1.723E3,1.453E3,2.7E2,9.55E2,4.98E2,7.5E1,1.95E2,9.33E2,2.2E1,2.13E2,2.85E2,5.6E1,1.9E1,1.88E2,7E0,7.65E2,1.68E2,1.7E1,5E0,1.08E2,1.05E2,2.73E2,1.2E1,1.6E1,4E1,5E0,1.4E1,1.78E2,1E1,2E0,5E0,4.17E2,3.48E2,3.9E1,1.29E2,8E0,9E0,4E0,1E0,9.8E1,1E1,6.2E1,4.3E1,2.31E2,4.2E1,8E0,4E0,3E0,1.3E1,2.4E1,1.6E1,3E0,2E0,9E0,5E0,1.1E1,1.67E2,5E0,5E0],"tree_param":{"num_deleted":"0","num_feature":"16","num_nodes":"59","size_leaf_vector":"1"}},{"base_weights":[8.7976193E-1,-2.1626153E0,5.3848176E0,-1.0046433E1,-1.1476421E0,7.2254524E0,-1.6470278E1,-2.7106328E0,-9.231511E0,4.2494073E0,-3.495296E0,3.6919947E0,2.752319E1,-8.308097E0,-4.5705933E1,-2.167108E1,-8.242893E0,-6.39153E0,1.0093333E1,5.49956E0,-3.6682937E0,-8.2609E0,9.964561E0,5.355236E1,2.4854772E0,-8.921579E-1,-3.7872723E1,-1.6962233E0,-4.975845E0,-2.4887216E0,4.2093087E-2,-7.227488E-1,-2.215135E0,-1.1918352E0,2.406003E0,3.0619397E0,5.268793E-1,2.7905827E-2,-5.800148E-1,-1.9990553E0,9.215436E-1,2.2587476E0,2.898402E-1,6.4742E0,-3.55654E0,-5.751316E0,8.8154286E-1,-9.738374E-1,1.6188424E0,-4.354425E0,-1.2014928E0],"categories":[],"categories_nodes":[],"categories_segments":[],"categories_sizes":[],"default_left":[0,0,0,0,0,0,0,0,0,0,0,0,0,0,0,0,0,0,0,0,0,0,0,0,0,0,0,0,0,0,0,0,0,0,0,0,0,0,0,0,0,0,0,0,0,0,0,0,0,0,0],"id":27,"left_children":[1,3,5,7,9,11,13,-1,15,17,19,21,23,25,27,29,31,33,35,-1,37,39,41,43,45,47,49,-1,-1,-1,-1,-1,-1,-1,-1,-1,-1,-1,-1,-1,-1,-1,-1,-1,-1,-1,-1,-1,-1,-1,-1],"loss_changes":[2.4381053E4,8.486449E3,2.8961947E4,1.4319697E3,1.1950374E4,4.7377824E4,1.2983367E4,0E0,1.2602324E3,1.7849377E4,6.8497856E3,4.2443375E4,6.373457E4,9.8324375E3,5.537969E2,5.788833E2,1.3933994E3,1.7453389E4,1.8159002E4,0E0,5.5219775E3,4.015754E4,3.3026066E4,5.0167938E4,1.9876213E4,5.7482935E3,7.966963E2,0E0,0E0,0E0,0E0,0E0,0E0,0E0,0E0,0E0,0E0,0E0,0E0,0E0,0E0,0E0,0E0,0E0,0E0,0E0,0E0,0E0,0E0,0E0,0E0],"parents":[2147483647,0,0,1,1,2,2,3,3,4,4,5,5,6,6,8,8,9,9,10,10,11,11,12,12,13,13,14,14,15,15,16,16,17,17,18,18,20,20,21,21,22,22,23,23,24,24,25,25,26,26],"right_children":[2,4,6,8,10,12,14,-1,16,18,20,22,24,26,28,30,32,34,36,-1,38,40,42,44,46,48,50,-1,-1,-1,-1,-1,-1,-1,-1,-1,-1,-1,-1,-1,-1,-1,-1,-1,-1,-1,-1,-1,-1,-1,-1],"split_conditions":[1.5437385E-1,-1.3602022E0,1.4483249E0,-8.365922E-1,-8.181005E-1,1.258751E0,7.394572E-1,-2.7106328E0,-2.3863714E0,-6.7417306E-1,-2.692729E0,-4.2788737E-2,8.504946E-1,1.0043125E0,4.127899E-1,-9.092529E-1,1.6695155E0,7.408256E-1,-1.0014235E0,5.49956E0,-5.600012E-1,1.258751E0,5.479222E-1,3.332628E-2,-1.2467514E0,-4.8216107E-1,9.672859E-1,-1.6962233E0,-4.975845E0,-2.4887216E0,4.2093087E-2,-7.227488E-1,-2.215135E0,-1.1918352E0,2.406003E0,3.0619397E0,5.268793E-1,2.7905827E-2,-5.800148E-1,-1.9990553E0,9.215436E-1,2.2587476E0,2.898402E-1,6.4742E0,-3.55654E0,-5.751316E0,8.8154286E-1,-9.738374E-1,1.6188424E0,-4.354425E0,-1.2014928E0],"split_indices":[10,10,1,14,7,1,2,0,9,0,6,2,7,15,10,7,3,1,2,0,11,0,6,0,5,5,10,0,0,0,0,0,0,0,0,0,0,0,0,0,0,0,0,0,0,0,0,0,0,0,0],"split_type":[0,0,0,0,0,0,0,0,0,0,0,0,0,0,0,0,0,0,0,0,0,0,0,0,0,0,0,0,0,0,0,0,0,0,0,0,0,0,0,0,0,0,0,0,0,0,0,0,0,0,0],"sum_hessian":[1.777E3,1.061E3,7.16E2,1.2E2,9.41E2,6.61E2,5.5E1,4E0,1.16E2,2.85E2,6.56E2,5.64E2,9.7E1,4.4E1,1.1E1,7E0,1.09E2,1.01E2,1.84E2,1E0,6.55E2,1.94E2,3.7E2,4.7E1,5E1,3.6E1,8E0,2E0,9E0,6E0,1E0,1.03E2,6E0,8.6E1,1.5E1,3.4E1,1.5E2,2.3E2,4.25E2,1.16E2,7.8E1,1.32E2,2.38E2,4.2E1,5E0,4E0,4.6E1,2.4E1,1.2E1,6E0,2E0],"tree_param":{"num_deleted":"0","num_feature":"16","num_nodes":"51","size_leaf_vector":"1"}},{"base_weights":[2.4060172E-1,-1.373977E0,1.1972061E1,1.0935943E0,-3.3534036E0,1.0334314E1,6.5933044E1,-3.273679E0,1.858676E1,4.8082576E0,-9.1669655E0,3.137123E1,7.2382364E0,9.09822E0,-2.9656348E0,3.6951553E1,-4.6387935E0,7.8631845E0,4.324228E1,-4.367937E0,2.5119015E1,-2.755115E-1,-1.3571567E1,4.126368E1,-1.3745259E0,-1.5866487E1,1.1780643E1,9.449188E0,1.376204E0,-1.0157869E0,2.285661E-1,1.6162188E0,-1.0059311E0,5.9063315E0,-1.9572886E0,2.9122874E-1,-1.1097847E0,1.7714741E0,5.5655475E0,1.502586E0,-3.512477E-1,-1.9342422E0,-5.6580555E-1,-1.1160685E0,5.117155E0,1.1617135E0,-1.4022554E0,1.4432828E0,-2.1083028E0,2.0524254E0,2.1570013E-1],"categories":[],"categories_nodes":[],"categories_segments":[],"categories_sizes":[],"default_left":[0,0,0,0,0,0,0,0,0,0,0,0,0,0,0,0,0,0,0,0,0,0,0,0,0,0,0,0,0,0,0,0,0,0,0,0,0,0,0,0,0,0,0,0,0,0,0,0,0,0,0],"id":28,"left_children":[1,3,5,7,9,11,13,15,17,19,21,23,25,-1,-1,27,29,31,33,35,37,39,41,43,45,47,49,-1,-1,-1,-1,-1,-1,-1,-1,-1,-1,-1,-1,-1,-1,-1,-1,-1,-1,-1,-1,-1,-1,-1,-1],"loss_changes":[3.2879715E4,7.4572266E3,1.7877252E4,5.2011098E4,4.0232805E4,1.3124977E4,1.7064797E4,3.0098477E4,3.5617734E4,6.5900266E4,1.9382098E4,8.479051E3,1.9078107E4,0E0,0E0,2.2717576E4,2.0201574E4,1.4441508E4,4.1901883E4,1.1987162E4,2.388511E4,8.2252295E3,1.5006574E4,1.0959383E4,1.3131342E3,5.046016E3,1.2661682E4,0E0,0E0,0E0,0E0,0E0,0E0,0E0,0E0,0E0,0E0,0E0,0E0,0E0,0E0,0E0,0E0,0E0,0E0,0E0,0E0,0E0,0E0,0E0,0E0],"parents":[2147483647,0,0,1,1,2,2,3,3,4,4,5,5,6,6,7,7,8,8,9,9,10,10,11,11,12,12,15,15,16,16,17,17,18,18,19,19,20,20,21,21,22,22,23,23,24,24,25,25,26,26],"right_children":[2,4,6,8,10,12,14,16,18,20,22,24,26,-1,-1,28,30,32,34,36,38,40,42,44,46,48,50,-1,-1,-1,-1,-1,-1,-1,-1,-1,-1,-1,-1,-1,-1,-1,-1,-1,-1,-1,-1,-1,-1,-1,-1],"split_conditions":[1.2134961E0,3.332628E-2,1.7636381E0,1.258751E0,3.332628E-2,7.2077984E-1,1.4483249E0,-1.2475457E0,1.3483059E-2,1.258751E0,-5.8126893E-2,