{"learner":{"attributes":{"scikit_learn":"{\"_estimator_type\": \"regressor\"}"},"feature_names":[],"feature_types":[],"gradient_booster":{"model":{"gbtree_model_param":{"num_parallel_tree":"1","num_trees":"300"},"iteration_indptr":[0,1,2,3,4,5,6,7,8,9,10,11,12,13,14,15,16,17,18,19,20,21,22,23,24,25,26,27,28,29,30,31,32,33,34,35,36,37,38,39,40,41,42,43,44,45,46,47,48,49,50,51,52,53,54,55,56,57,58,59,60,61,62,63,64,65,66,67,68,69,70,71,72,73,74,75,76,77,78,79,80,81,82,83,84,85,86,87,88,89,90,91,92,93,94,95,96,97,98,99,100,101,102,103,104,105,106,107,108,109,110,111,112,113,114,115,116,117,118,119,120,121,122,123,124,125,126,127,128,129,130,131,132,133,134,135,136,137,138,139,140,141,142,143,144,145,146,147,148,149,150,151,152,153,154,155,156,157,158,159,160,161,162,163,164,165,166,167,168,169,170,171,172,173,174,175,176,177,178,179,180,181,182,183,184,185,186,187,188,189,190,191,192,193,194,195,196,197,198,199,200,201,202,203,204,205,206,207,208,209,210,211,212,213,214,215,216,217,218,219,220,221,222,223,224,225,226,227,228,229,230,231,232,233,234,235,236,237,238,239,240,241,242,243,244,245,246,247,248,249,250,251,252,253,254,255,256,257,258,259,260,261,262,263,264,265,266,267,268,269,270,271,272,273,274,275,276,277,278,279,280,281,282,283,284,285,286,287,288,289,290,291,292,293,294,295,296,297,298,299,300],"tree_info":[0,0,0,0,0,0,0,0,0,0,0,0,0,0,0,0,0,0,0,0,0,0,0,0,0,0,0,0,0,0,0,0,0,0,0,0,0,0,0,0,0,0,0,0,0,0,0,0,0,0,0,0,0,0,0,0,0,0,0,0,0,0,0,0,0,0,0,0,0,0,0,0,0,0,0,0,0,0,0,0,0,0,0,0,0,0,0,0,0,0,0,0,0,0,0,0,0,0,0,0,0,0,0,0,0,0,0,0,0,0,0,0,0,0,0,0,0,0,0,0,0,0,0,0,0,0,0,0,0,0,0,0,0,0,0,0,0,0,0,0,0,0,0,0,0,0,0,0,0,0,0,0,0,0,0,0,0,0,0,0,0,0,0,0,0,0,0,0,0,0,0,0,0,0,0,0,0,0,0,0,0,0,0,0,0,0,0,0,0,0,0,0,0,0,0,0,0,0,0,0,0,0,0,0,0,0,0,0,0,0,0,0,0,0,0,0,0,0,0,0,0,0,0,0,0,0,0,0,0,0,0,0,0,0,0,0,0,0,0,0,0,0,0,0,0,0,0,0,0,0,0,0,0,0,0,0,0,0,0,0,0,0,0,0,0,0,0,0,0,0,0,0,0,0,0,0,0,0,0,0,0,0,0,0,0,0,0,0,0,0,0,0,0,0,0,0,0,0,0,0],"trees":[{"base_weights":[1.6987355E-2,-2.0809445E0,4.4835215E0,-3.7639961E0,-7.0563084E-1,2.8045676E0,5.9389696E0,-5.2208767E0,-3.0809991E0,-1.598869E0,1.7301476E-2,2.2405248E0,3.9262764E0,5.382413E0,7.388306E-1,-6.7598206E-1,-4.62509E-1,-3.475226E0,-2.515731E0,-1.9062405E0,-9.581365E-1,-5.334973E-1,3.6548677E-1,1.3839744E0,2.6498125E0,3.2295191E0,4.4105945E0,4.0296135E0,5.5516624E0,-3.9756793E-1,-3.0141816E-1,-2.8948495E-1,-2.1092203E-1,-2.648026E-1,-1.6943096E-1,-1.3931787E-1,-5.0354045E-2,-1.24194525E-1,-2.6951147E-2,8.082671E-3,1.401626E-1,7.746972E-2,1.9471191E-1,2.0120172E-1,3.0891907E-1,8.3259396E-2,3.3365804E-1,1.2203331E-1,4.452508E-1,1.6523266E-1,4.2487952E-1,5.001458E-1,5.9081054E-1],"categories":[],"categories_nodes":[],"categories_segments":[],"categories_sizes":[],"default_left":[0,0,0,0,0,0,0,0,0,0,0,0,0,0,0,0,0,0,0,0,0,0,0,0,0,0,0,0,0,0,0,0,0,0,0,0,0,0,0,0,0,0,0,0,0,0,0,0,0,0,0,0,0],"id":0,"left_children":[1,3,5,7,9,11,13,15,17,19,21,23,25,27,-1,-1,-1,29,31,33,35,37,39,41,43,45,47,49,51,-1,-1,-1,-1,-1,-1,-1,-1,-1,-1,-1,-1,-1,-1,-1,-1,-1,-1,-1,-1,-1,-1,-1,-1],"loss_changes":[1.6360824E4,2.7472358E3,1.3468906E3,5.1526904E2,4.2299442E2,1.5633545E2,2.0061035E2,1.2368799E2,7.281787E1,5.5877747E1,6.9811134E1,5.8034058E1,1.4776855E1,2.7771484E1,0E0,0E0,0E0,3.7162354E1,1.762793E1,2.6483276E1,1.8482025E1,2.6035133E1,6.565999E1,1.8735138E1,2.685205E1,7.230072E0,9.8480225E-1,7.569214E0,8.105469E0,0E0,0E0,0E0,0E0,0E0,0E0,0E0,0E0,0E0,0E0,0E0,0E0,0E0,0E0,0E0,0E0,0E0,0E0,0E0,0E0,0E0,0E0,0E0,0E0],"parents":[2147483647,0,0,1,1,2,2,3,3,4,4,5,5,6,6,7,7,8,8,9,9,10,10,11,11,12,12,13,13,17,17,18,18,19,19,20,20,21,21,22,22,23,23,24,24,25,25,26,26,27,27,28,28],"right_children":[2,4,6,8,10,12,14,16,18,20,22,24,26,28,-1,-1,-1,30,32,34,36,38,40,42,44,46,48,50,52,-1,-1,-1,-1,-1,-1,-1,-1,-1,-1,-1,-1,-1,-1,-1,-1,-1,-1,-1,-1,-1,-1,-1,-1],"split_conditions":[3.3564144E-1,-5.9603137E-1,1.2028556E0,-1.1340548E0,-2.3877114E-1,9.6601564E-1,1.9893861E0,-1.5379401E0,-8.0146843E-1,-3.6015904E-1,3.332628E-2,4.539438E-1,3.332628E-2,1.1731777E0,7.388306E-1,-6.7598206E-1,-4.62509E-1,3.332628E-2,3.332628E-2,-7.0360076E-1,3.332628E-2,-2.3008475E-2,8.330008E-2,3.332628E-2,3.332628E-2,9.578008E-1,2.1760686E-1,7.408256E-1,3.332628E-2,-3.9756793E-1,-3.0141816E-1,-2.8948495E-1,-2.1092203E-1,-2.648026E-1,-1.6943096E-1,-1.3931787E-1,-5.0354045E-2,-1.24194525E-1,-2.6951147E-2,8.082671E-3,1.401626E-1,7.746972E-2,1.9471191E-1,2.0120172E-1,3.0891907E-1,8.3259396E-2,3.3365804E-1,1.2203331E-1,4.452508E-1,1.6523266E-1,4.2487952E-1,5.001458E-1,5.9081054E-1],"split_indices":[11,5,5,5,5,14,14,11,5,14,1,5,1,14,0,0,0,1,1,11,1,11,11,1,1,11,5,0,1,0,0,0,0,0,0,0,0,0,0,0,0,0,0,0,0,0,0,0,0,0,0,0,0],"split_type":[0,0,0,0,0,0,0,0,0,0,0,0,0,0,0,0,0,0,0,0,0,0,0,0,0,0,0,0,0,0,0,0,0,0,0,0,0,0,0,0,0,0,0,0,0,0,0,0,0,0,0,0,0],"sum_hessian":[1.744E3,1.187E3,5.57E2,5.33E2,6.54E2,2.6E2,2.97E2,1.68E2,3.65E2,2.92E2,3.62E2,1.75E2,8.5E1,2.18E2,7.9E1,4.4E1,1.24E2,2.12E2,1.53E2,1.96E2,9.6E1,1.4E2,2.22E2,5.8E1,1.17E2,3.8E1,4.7E1,2.7E1,1.91E2,9.8E1,1.14E2,7.6E1,7.7E1,4.1E1,1.55E2,4.8E1,4.8E1,3.7E1,1.03E2,1.75E2,4.7E1,2.9E1,2.9E1,5E1,6.7E1,2E0,3.6E1,1E0,4.6E1,3E0,2.4E1,8.1E1,1.1E2],"tree_param":{"num_deleted":"0","num_feature":"16","num_nodes":"53","size_leaf_vector":"1"}},{"base_weights":[1.9402508E-2,-1.881191E0,3.9865603E0,-3.364903E0,-6.7849606E-1,2.3517337E0,5.2558165E0,-4.618862E0,-2.666964E0,-1.5112334E0,-1.4819802E-1,1.7534385E0,3.1181626E0,4.744195E0,6.6287313E0,-5.901339E-1,-4.0064391E-1,-3.050631E0,-2.2289414E0,-2.4043138E0,-1.3750805E0,-6.0503757E-1,3.048141E-1,1.0829895E0,2.2511187E0,2.4776764E0,3.5430691E0,3.8590546E0,5.0356746E0,6.6667485E-1,1.7556648E-1,-3.5069352E-1,-2.6999915E-1,-2.5856075E-1,-1.8583122E-1,-5.4835226E-2,-2.4464948E-1,-1.8905981E-1,-1.02626994E-1,-1.0243125E-1,-2.0038357E-2,-9.882568E-3,5.376057E-2,6.669661E-2,1.5333967E-1,1.8861888E-1,3.4033108E-1,1.9001965E-1,2.9278582E-1,1.0854288E-1,3.6069E-1,4.3515998E-1,3.1886193E-1,4.56385E-1,5.361663E-1],"categories":[],"categories_nodes":[],"categories_segments":[],"categories_sizes":[],"default_left":[0,0,0,0,0,0,0,0,0,0,0,0,0,0,0,0,0,0,0,0,0,0,0,0,0,0,0,0,0,0,0,0,0,0,0,0,0,0,0,0,0,0,0,0,0,0,0,0,0,0,0,0,0,0,0],"id":1,"left_children":[1,3,5,7,9,11,13,15,17,19,21,23,25,27,29,-1,-1,31,33,35,37,39,41,43,45,47,49,51,53,-1,-1,-1,-1,-1,-1,-1,-1,-1,-1,-1,-1,-1,-1,-1,-1,-1,-1,-1,-1,-1,-1,-1,-1,-1,-1],"loss_changes":[1.3059161E4,2.087311E3,1.1517227E3,4.462793E2,2.859322E2,1.07794556E2,1.898125E2,1.2244458E2,5.01709E1,2.7335938E1,8.23451E1,4.4609406E1,2.0341187E1,4.0680664E1,3.671875E0,0E0,0E0,1.9010986E1,1.6610046E1,1.16362E0,3.779953E1,3.338768E1,1.8845919E1,1.0594833E1,2.7218262E1,6.3951416E0,5.811157E0,6.5980835E0,1.9853516E0,0E0,0E0,0E0,0E0,0E0,0E0,0E0,0E0,0E0,0E0,0E0,0E0,0E0,0E0,0E0,0E0,0E0,0E0,0E0,0E0,0E0,0E0,0E0,0E0,0E0,0E0],"parents":[2147483647,0,0,1,1,2,2,3,3,4,4,5,5,6,6,7,7,8,8,9,9,10,10,11,11,12,12,13,13,14,14,17,17,18,18,19,19,20,20,21,21,22,22,23,23,24,24,25,25,26,26,27,27,28,28],"right_children":[2,4,6,8,10,12,14,16,18,20,22,24,26,28,30,-1,-1,32,34,36,38,40,42,44,46,48,50,52,54,-1,-1,-1,-1,-1,-1,-1,-1,-1,-1,-1,-1,-1,-1,-1,-1,-1,-1,-1,-1,-1,-1,-1,-1,-1,-1],"split_conditions":[3.0462232E-1,-5.9603137E-1,1.1038704E0,-1.1064484E0,-2.62996E-1,7.83556E-1,1.9893861E0,-1.4756393E0,-8.119518E-1,-7.281747E-1,-6.7192584E-2,3.332628E-2,7.933211E-1,1.3141764E0,1.3128868E0,-5.901339E-1,-4.0064391E-1,3.332628E-2,3.332628E-2,-1.5289922E0,3.332628E-2,3.332628E-2,3.332628E-2,5.025298E-1,6.617674E-1,3.332628E-2,7.6872873E-1,-8.175426E-1,3.332628E-2,6.6667485E-1,1.7556648E-1,-3.5069352E-1,-2.6999915E-1,-2.5856075E-1,-1.8583122E-1,-5.4835226E-2,-2.4464948E-1,-1.8905981E-1,-1.02626994E-1,-1.0243125E-1,-2.0038357E-2,-9.882568E-3,5.376057E-2,6.669661E-2,1.5333967E-1,1.8861888E-1,3.4033108E-1,1.9001965E-1,2.9278582E-1,1.0854288E-1,3.6069E-1,4.3515998E-1,3.1886193E-1,4.56385E-1,5.361663E-1],"split_indices":[11,5,5,5,14,14,14,5,5,11,5,1,5,14,10,0,0,1,1,10,1,1,1,5,11,1,11,4,1,0,0,0,0,0,0,0,0,0,0,0,0,0,0,0,0,0,0,0,0,0,0,0,0,0,0],"split_type":[0,0,0,0,0,0,0,0,0,0,0,0,0,0,0,0,0,0,0,0,0,0,0,0,0,0,0,0,0,0,0,0,0,0,0,0,0,0,0,0,0,0,0,0,0,0,0,0,0,0,0,0,0,0,0],"sum_hessian":[1.73E3,1.17E3,5.6E2,5.23E2,6.47E2,2.46E2,3.14E2,1.85E2,3.38E2,2.51E2,3.96E2,1.4E2,1.06E2,2.32E2,8.2E1,5.7E1,1.28E2,1.77E2,1.61E2,3.1E1,2.2E2,1.97E2,1.99E2,6.1E1,7.9E1,4.5E1,6.1E1,6.1E1,1.71E2,8.1E1,1E0,7.3E1,1.04E2,7.9E1,8.2E1,1E0,3E1,8.7E1,1.33E2,9.6E1,1.01E2,7.3E1,1.26E2,3.3E1,2.8E1,6.2E1,1.7E1,2.2E1,2.3E1,2E0,5.9E1,3.2E1,2.9E1,7.6E1,9.5E1],"tree_param":{"num_deleted":"0","num_feature":"16","num_nodes":"55","size_leaf_vector":"1"}},{"base_weights":[-4.9104918E-2,-1.6673402E0,3.79071E0,-2.9555387E0,-3.763719E-1,2.4856582E0,4.806699E0,-4.3709874E0,-2.4200284E0,-1.0428138E0,2.0251383E-1,1.8272389E0,3.1885347E0,4.3569493E0,6.046976E0,-5.715284E-1,-3.8460283E0,-2.821222E0,-1.9691017E0,-1.7831126E0,-8.8196266E-1,-5.681907E-1,3.9888585E-1,1.2721468E0,2.3989666E0,2.6117508E0,3.5072677E0,3.6970246E0,4.663032E0,5.196812E-1,6.821531E-1,-3.9821026E-1,-2.9597485E-1,-3.2133174E-1,-2.5265878E-1,-2.3249498E-1,-1.6307782E-1,-9.599939E-2,-1.875641E-1,-1.2906449E-1,-5.028997E-2,-1.1244309E-1,-3.0190302E-2,-9.602788E-3,7.615813E-2,8.64619E-2,1.6780226E-1,1.93581E-1,2.7794E-1,2.0092122E-1,3.0221432E-1,1.7316799E-1,3.72232E-1,3.733769E-1,5.4409124E-2,3.9702564E-1,5.0351554E-1],"categories":[],"categories_nodes":[],"categories_segments":[],"categories_sizes":[],"default_left":[0,0,0,0,0,0,0,0,0,0,0,0,0,0,0,0,0,0,0,0,0,0,0,0,0,0,0,0,0,0,0,0,0,0,0,0,0,0,0,0,0,0,0,0,0,0,0,0,0,0,0,0,0,0,0,0,0],"id":2,"left_children":[1,3,5,7,9,11,13,15,17,19,21,23,25,27,29,-1,31,33,35,37,39,41,43,45,47,49,51,53,55,-1,-1,-1,-1,-1,-1,-1,-1,-1,-1,-1,-1,-1,-1,-1,-1,-1,-1,-1,-1,-1,-1,-1,-1,-1,-1,-1,-1],"loss_changes":[1.0625574E4,1.9995046E3,6.602925E2,4.4573145E2,2.3245898E2,9.7838135E1,1.3207324E2,9.375366E1,7.3863525E1,3.1769165E1,4.9111023E1,3.439682E1,1.0510742E1,2.5583008E1,1.2620117E1,0E0,2.8066406E0,1.8451904E1,2.1490784E1,1.9313049E0,3.5291504E1,9.436445E0,4.6384903E1,8.804306E0,4.663025E0,4.313507E0,1.8755798E1,6.3098145E0,1.6358398E1,0E0,0E0,0E0,0E0,0E0,0E0,0E0,0E0,0E0,0E0,0E0,0E0,0E0,0E0,0E0,0E0,0E0,0E0,0E0,0E0,0E0,0E0,0E0,0E0,0E0,0E0,0E0,0E0],"parents":[2147483647,0,0,1,1,2,2,3,3,4,4,5,5,6,6,7,7,8,8,9,9,10,10,11,11,12,12,13,13,14,14,16,16,17,17,18,18,19,19,20,20,21,21,22,22,23,23,24,24,25,25,26,26,27,27,28,28],"right_children":[2,4,6,8,10,12,14,16,18,20,22,24,26,28,30,-1,32,34,36,38,40,42,44,46,48,50,52,54,56,-1,-1,-1,-1,-1,-1,-1,-1,-1,-1,-1,-1,-1,-1,-1,-1,-1,-1,-1,-1,-1,-1,-1,-1,-1,-1,-1,-1],"split_conditions":[4.0918452E-1,-5.192025E-1,1.2028556E0,-1.1609651E0,-1.6036975E-1,8.11667E-1,1.8440492E0,-1.6972762E0,-8.0146843E-1,-5.746533E-1,-1.258231E-1,3.332628E-2,3.332628E-2,1.4415817E0,3.332628E-2,-5.715284E-1,-9.792201E-1,3.332628E-2,3.332628E-2,-6.7417306E-1,3.332628E-2,-3.455009E-1,3.332628E-2,5.4187053E-1,6.331961E-1,1.2360022E0,6.617674E-1,1.768355E0,3.332628E-2,5.196812E-1,6.821531E-1,-3.9821026E-1,-2.9597485E-1,-3.2133174E-1,-2.5265878E-1,-2.3249498E-1,-1.6307782E-1,-9.599939E-2,-1.875641E-1,-1.2906449E-1,-5.028997E-2,-1.1244309E-1,-3.0190302E-2,-9.602788E-3,7.615813E-2,8.64619E-2,1.6780226E-1,1.93581E-1,2.7794E-1,2.0092122E-1,3.0221432E-1,1.7316799E-1,3.72232E-1,3.733769E-1,5.4409124E-2,3.9702564E-1,5.0351554E-1],"split_indices":[11,5,5,5,5,5,11,5,5,11,11,1,1,14,1,0,14,1,1,0,1,11,1,5,11,11,11,8,1,0,0,0,0,0,0,0,0,0,0,0,0,0,0,0,0,0,0,0,0,0,0,0,0,0,0,0,0],"split_type":[0,0,0,0,0,0,0,0,0,0,0,0,0,0,0,0,0,0,0,0,0,0,0,0,0,0,0,0,0,0,0,0,0,0,0,0,0,0,0,0,0,0,0,0,0,0,0,0,0,0,0,0,0,0,0,0,0],"sum_hessian":[1.708E3,1.202E3,5.06E2,6.01E2,6.01E2,2.23E2,2.83E2,1.63E2,4.38E2,2.79E2,3.22E2,1.17E2,1.06E2,2.11E2,7.2E1,4.3E1,1.2E2,2.29E2,2.09E2,4.8E1,2.31E2,6.5E1,2.57E2,6.1E1,5.6E1,4.1E1,6.5E1,7.1E1,1.4E2,3.8E1,3.4E1,1.01E2,1.9E1,9.4E1,1.35E2,9.9E1,1.1E2,6E0,4.2E1,1.1E2,1.21E2,2E1,4.5E1,1.09E2,1.48E2,3.2E1,2.9E1,2.8E1,2.8E1,1.9E1,2.2E1,8E0,5.7E1,7E1,1E0,5.3E1,8.7E1],"tree_param":{"num_deleted":"0","num_feature":"16","num_nodes":"57","size_leaf_vector":"1"}},{"base_weights":[7.140664E-4,-1.4785664E0,3.3704915E0,-2.774755E0,-4.7036394E-1,2.3806472E0,4.6092377E0,-3.8893507E0,-2.2480261E0,-1.1204782E0,5.9519336E-2,1.7187328E0,3.022412E0,4.179631E0,5.5946608E0,-4.9938884E-1,-3.4007864E0,-2.774704E0,-1.9915228E0,-1.6709245E0,-9.492487E-1,-3.654563E-1,3.4133935E-1,1.2715973E0,2.0940814E0,7.9450923E-1,3.0932684E0,1.2864546E0,4.206577E0,5.635285E-1,1.4161244E-1,-3.695958E-1,-3.0390963E-1,-2.183773E-1,-2.9904616E-1,-2.2920838E-1,-1.7411426E-1,-2.1501414E-1,-1.4021055E-1,-1.4889792E-1,-6.818684E-2,-1.3113123E-1,-2.2047454E-2,-2.4085457E-2,6.6159986E-2,1.0203828E-1,2.0713733E-1,1.6956134E-1,2.5833142E-1,1.12450555E-1,8.967781E-3,2.5136834E-1,3.479633E-1,1.7469597E-1,1.827221E-2,3.6977288E-1,4.5105276E-1],"categories":[],"categories_nodes":[],"categories_segments":[],"categories_sizes":[],"default_left":[0,0,0,0,0,0,0,0,0,0,0,0,0,0,0,0,0,0,0,0,0,0,0,0,0,0,0,0,0,0,0,0,0,0,0,0,0,0,0,0,0,0,0,0,0,0,0,0,0,0,0,0,0,0,0,0,0],"id":3,"left_children":[1,3,5,7,9,11,13,15,17,19,21,23,25,27,29,-1,31,33,35,37,39,41,43,45,47,49,51,53,55,-1,-1,-1,-1,-1,-1,-1,-1,-1,-1,-1,-1,-1,-1,-1,-1,-1,-1,-1,-1,-1,-1,-1,-1,-1,-1,-1,-1],"loss_changes":[8.758373E3,1.5943225E3,6.4625146E2,3.047627E2,2.3707214E2,1.22243286E2,7.694873E1,7.475488E1,4.378357E1,2.7537933E1,4.563607E1,2.2511932E1,2.1379395E1,7.7634277E0,3.7321777E0,0E0,1.685669E0,8.386719E0,1.4747559E1,6.260498E0,3.333127E1,2.0554935E1,4.2857254E1,1.2151398E1,1.121521E1,1.2947073E0,2.3947266E1,1.2056155E0,9.1501465E0,0E0,0E0,0E0,0E0,0E0,0E0,0E0,0E0,0E0,0E0,0E0,0E0,0E0,0E0,0E0,0E0,0E0,0E0,0E0,0E0,0E0,0E0,0E0,0E0,0E0,0E0,0E0,0E0],"parents":[2147483647,0,0,1,1,2,2,3,3,4,4,5,5,6,6,7,7,8,8,9,9,10,10,11,11,12,12,13,13,14,14,16,16,17,17,18,18,19,19,20,20,21,21,22,22,23,23,24,24,25,25,26,26,27,27,28,28],"right_children":[2,4,6,8,10,12,14,16,18,20,22,24,26,28,30,-1,32,34,36,38,40,42,44,46,48,50,52,54,56,-1,-1,-1,-1,-1,-1,-1,-1,-1,-1,-1,-1,-1,-1,-1,-1,-1,-1,-1,-1,-1,-1,-1,-1,-1,-1,-1,-1],"split_conditions":[3.718362E-1,-5.9603137E-1,1.334702E0,-1.1340548E0,-2.1182585E-1,8.623556E-1,1.8838816E0,-1.5689126E0,-9.4376624E-1,-5.7971287E-1,3.332628E-2,3.332628E-2,6.617674E-1,-2.8096042E0,1.947877E0,-4.9938884E-1,3.332628E-2,-6.7417306E-1,3.332628E-2,-7.925786E-1,-6.7417306E-1,-1.519224E-1,-1.258231E-1,9.681728E-1,6.617674E-1,-7.511023E-1,3.332628E-2,-6.7417306E-1,3.332628E-2,5.635285E-1,1.4161244E-1,-3.695958E-1,-3.0390963E-1,-2.183773E-1,-2.9904616E-1,-2.2920838E-1,-1.7411426E-1,-2.1501414E-1,-1.4021055E-1,-1.4889792E-1,-6.818684E-2,-1.3113123E-1,-2.2047454E-2,-2.4085457E-2,6.6159986E-2,1.0203828E-1,2.0713733E-1,1.6956134E-1,2.5833142E-1,1.12450555E-1,8.967781E-3,2.5136834E-1,3.479633E-1,1.7469597E-1,1.827221E-2,3.6977288E-1,4.5105276E-1],"split_indices":[14,5,5,5,5,5,5,5,5,11,1,1,11,15,4,0,1,0,1,14,1,11,11,11,11,4,1,1,1,0,0,0,0,0,0,0,0,0,0,0,0,0,0,0,0,0,0,0,0,0,0,0,0,0,0,0,0],"split_type":[0,0,0,0,0,0,0,0,0,0,0,0,0,0,0,0,0,0,0,0,0,0,0,0,0,0,0,0,0,0,0,0,0,0,0,0,0,0,0,0,0,0,0,0,0,0,0,0,0,0,0,0,0,0,0,0,0],"sum_hessian":[1.755E3,1.22E3,5.35E2,5.33E2,6.87E2,2.99E2,2.36E2,1.69E2,3.64E2,3.08E2,3.79E2,1.49E2,1.5E2,1.68E2,6.8E1,4.9E1,1.2E2,1.16E2,2.48E2,7.1E1,2.37E2,1.51E2,2.28E2,7E1,7.9E1,5E0,1.45E2,2E0,1.66E2,6.7E1,1E0,6.1E1,5.9E1,3.4E1,8.2E1,1.09E2,1.39E2,2.3E1,4.8E1,7.7E1,1.6E2,1.9E1,1.32E2,8.1E1,1.47E2,5.5E1,1.5E1,4.6E1,3.3E1,3E0,2E0,6.1E1,8.4E1,1E0,1E0,6.7E1,9.9E1],"tree_param":{"num_deleted":"0","num_feature":"16","num_nodes":"57","size_leaf_vector":"1"}},{"base_weights":[6.9498464E-2,-1.3829241E0,2.9419487E0,-2.3439825E0,-3.822069E-1,1.8318182E0,3.9550788E0,-3.2491114E0,-1.793081E0,-1.1488217E0,-9.680717E-2,1.3714701E0,2.4941573E0,3.2196243E0,4.5515156E0,-4.2473392E0,-2.8087792E0,-2.2838275E0,-1.5474046E0,-1.4728116E0,-5.716317E-1,-4.8743436E-1,1.5271415E-1,9.715504E-1,1.7239931E0,9.787133E-1,2.5841517E0,2.7376118E0,3.5571578E0,4.04411E0,5.1276946E0,-4.8858356E-1,-3.7388453E-1,-3.3264408E-1,-2.5642848E-1,-2.4615005E-1,-1.9290578E-1,-2.1572271E-1,-1.3380621E-1,-9.653138E-2,-1.5905634E-1,2.0792389E-3,-7.649975E-2,-1.12932265E-1,-3.389826E-2,-2.5235886E-2,5.4103266E-2,7.341673E-2,1.6148274E-1,1.3549721E-1,2.0314693E-1,9.579849E-3,1.4893024E-1,2.1370573E-1,2.8987584E-1,6.066799E-3,2.7805015E-1,7.35714E-2,3.5838982E-1,2.1976975E-1,4.1024017E-1,4.3061993E-1,5.6510675E-1],"categories":[],"categories_nodes":[],"categories_segments":[],"categories_sizes":[],"default_left":[0,0,0,0,0,0,0,0,0,0,0,0,0,0,0,0,0,0,0,0,0,0,0,0,0,0,0,0,0,0,0,0,0,0,0,0,0,0,0,0,0,0,0,0,0,0,0,0,0,0,0,0,0,0,0,0,0,0,0,0,0,0,0],"id":4,"left_children":[1,3,5,7,9,11,13,15,17,19,21,23,25,27,29,31,33,35,37,39,41,43,45,47,49,51,53,55,57,59,61,-1,-1,-1,-1,-1,-1,-1,-1,-1,-1,-1,-1,-1,-1,-1,-1,-1,-1,-1,-1,-1,-1,-1,-1,-1,-1,-1,-1,-1,-1,-1,-1],"loss_changes":[7.26754E3,1.1118462E3,6.507085E2,2.8836963E2,1.24162445E2,8.225812E1,1.19134766E2,8.5650635E1,4.0954468E1,2.795665E1,4.052441E1,2.2009827E1,1.3018311E1,1.3039307E1,2.779419E1,3.1610107E0,1.134082E1,2.87854E0,2.8901245E1,4.3209686E0,6.545517E0,1.5054073E1,4.0090057E1,1.1183395E1,7.232361E0,3.4637814E0,8.855713E0,6.949707E0,3.3234253E0,9.938965E-1,7.4815674E0,0E0,0E0,0E0,0E0,0E0,0E0,0E0,0E0,0E0,0E0,0E0,0E0,0E0,0E0,0E0,0E0,0E0,0E0,0E0,0E0,0E0,0E0,0E0,0E0,0E0,0E0,0E0,0E0,0E0,0E0,0E0,0E0],"parents":[2147483647,0,0,1,1,2,2,3,3,4,4,5,5,6,6,7,7,8,8,9,9,10,10,11,11,12,12,13,13,14,14,15,15,16,16,17,17,18,18,19,19,20,20,21,21,22,22,23,23,24,24,25,25,26,26,27,27,28,28,29,29,30,30],"right_children":[2,4,6,8,10,12,14,16,18,20,22,24,26,28,30,32,34,36,38,40,42,44,46,48,50,52,54,56,58,60,62,-1,-1,-1,-1,-1,-1,-1,-1,-1,-1,-1,-1,-1,-1,-1,-1,-1,-1,-1,-1,-1,-1,-1,-1,-1,-1,-1,-1,-1,-1,-1,-1],"split_conditions":[2.8625932E-1,-5.262359E-1,1.2028556E0,-1.053944E0,-3.2981378E-1,8.11667E-1,1.5640267E0,-1.4287261E0,3.332628E-2,3.332628E-2,3.332628E-2,3.332628E-2,6.331961E-1,3.332628E-2,1.9893861E0,-1.8129228E0,-6.7417306E-1,-6.538502E-1,-9.621116E-1,-6.7417306E-1,1.9987728E-1,-9.807795E-2,-1.258231E-1,7.9656255E-1,4.887556E-1,6.872246E-1,3.332628E-2,8.3072835E-1,8.3903635E-1,1.3116459E0,3.332628E-2,-4.8858356E-1,-3.7388453E-1,-3.3264408E-1,-2.5642848E-1,-2.4615005E-1,-1.9290578E-1,-2.1572271E-1,-1.3380621E-1,-9.653138E-2,-1.5905634E-1,2.0792389E-3,-7.649975E-2,-1.12932265E-1,-3.389826E-2,-2.5235886E-2,5.4103266E-2,7.341673E-2,1.6148274E-1,1.3549721E-1,2.0314693E-1,9.579849E-3,1.4893024E-1,2.1370573E-1,2.8987584E-1,6.066799E-3,2.7805015E-1,7.35714E-2,3.5838982E-1,2.1976975E-1,4.1024017E-1,4.3061993E-1,5.6510675E-1],"split_indices":[11,11,5,5,5,5,5,5,1,1,1,1,11,1,14,5,1,11,11,0,12,11,11,14,11,14,1,8,11,11,1,0,0,0,0,0,0,0,0,0,0,0,0,0,0,0,0,0,0,0,0,0,0,0,0,0,0,0,0,0,0,0,0],"split_type":[0,0,0,0,0,0,0,0,0,0,0,0,0,0,0,0,0,0,0,0,0,0,0,0,0,0,0,0,0,0,0,0,0,0,0,0,0,0,0,0,0,0,0,0,0,0,0,0,0,0,0,0,0,0,0,0,0,0,0,0,0,0,0],"sum_hessian":[1.74E3,1.156E3,5.84E2,5.89E2,5.67E2,2.8E2,3.04E2,2.21E2,3.68E2,1.53E2,4.14E2,1.67E2,1.13E2,1.39E2,1.65E2,6.5E1,1.56E2,1.2E2,2.48E2,9.7E1,5.6E1,1.61E2,2.53E2,8E1,8.7E1,7E0,1.06E2,6.1E1,7.8E1,9.2E1,7.3E1,2.5E1,4E1,4.6E1,1.1E2,7.6E1,4.4E1,6.1E1,1.87E2,2E1,7.7E1,1.4E1,4.2E1,2.9E1,1.32E2,1.24E2,1.29E2,6E1,2E1,4.2E1,4.5E1,3E0,4E0,4.7E1,5.9E1,1E0,6E1,1E0,7.7E1,4E0,8.8E1,3.2E1,4.1E1],"tree_param":{"num_deleted":"0","num_feature":"16","num_nodes":"63","size_leaf_vector":"1"}},{"base_weights":[-2.3835905E-2,-1.2573993E0,2.6873603E0,-2.2765021E0,-5.0259966E-1,1.5438011E0,3.5392213E0,-3.718276E0,-2.006735E0,-9.8677325E-1,-5.7420535E-3,9.6026367E-1,1.9342927E0,3.0471783E0,4.164431E0,-4.359829E-1,-3.1750617E0,-2.5256488E0,-1.6524733E0,-1.3077632E0,-5.95855E-1,-2.4082957E-1,3.2802373E-1,3.6799794E-1,1.2199649E0,1.0489322E0,2.0553298E0,3.3532484E0,2.6039422E0,3.5256352E0,4.7513795E0,-7.3990636E-2,-3.211915E-1,-2.8738067E-1,-2.2357924E-1,-1.9403817E-1,-1.2556703E-1,-1.5286702E-1,-8.977598E-2,2.335163E-2,-6.702831E-2,-8.5755385E-2,-1.4939328E-2,-5.402201E-2,4.6541773E-2,-4.1855335E-2,6.1484843E-2,7.300212E-2,1.3472559E-1,1.4550783E-1,4.3598346E-2,1.6006194E-1,2.4912547E-1,2.5596926E-1,3.5136268E-1,1.508864E-1,2.761211E-1,2.6614863E-1,3.778443E-1,4.283323E-1,5.594968E-1],"categories":[],"categories_nodes":[],"categories_segments":[],"categories_sizes":[],"default_left":[0,0,0,0,0,0,0,0,0,0,0,0,0,0,0,0,0,0,0,0,0,0,0,0,0,0,0,0,0,0,0,0,0,0,0,0,0,0,0,0,0,0,0,0,0,0,0,0,0,0,0,0,0,0,0,0,0,0,0,0,0],"id":5,"left_children":[1,3,5,7,9,11,13,15,17,19,21,23,25,27,29,-1,31,33,35,37,39,41,43,45,47,49,51,53,55,57,59,-1,-1,-1,-1,-1,-1,-1,-1,-1,-1,-1,-1,-1,-1,-1,-1,-1,-1,-1,-1,-1,-1,-1,-1,-1,-1,-1,-1,-1,-1],"loss_changes":[5.892925E3,9.303794E2,5.312949E2,1.92844E2,1.6766838E2,5.214691E1,8.421411E1,1.4037231E1,7.597705E1,4.3515472E1,2.7149136E1,1.4470825E1,1.2953857E1,1.5687378E1,3.4240234E1,0E0,1.8414001E0,1.1234985E1,2.7495178E1,1.6108154E1,1.0094803E1,1.1319256E1,1.7310108E1,6.2763247E0,3.194954E0,4.095598E0,2.0393433E1,4.114868E0,9.267029E0,5.0177E0,2.8845215E0,0E0,0E0,0E0,0E0,0E0,0E0,0E0,0E0,0E0,0E0,0E0,0E0,0E0,0E0,0E0,0E0,0E0,0E0,0E0,0E0,0E0,0E0,0E0,0E0,0E0,0E0,0E0,0E0,0E0,0E0],"parents":[2147483647,0,0,1,1,2,2,3,3,4,4,5,5,6,6,7,7,8,8,9,9,10,10,11,11,12,12,13,13,14,14,16,16,17,17,18,18,19,19,20,20,21,21,22,22,23,23,24,24,25,25,26,26,27,27,28,28,29,29,30,30],"right_children":[2,4,6,8,10,12,14,16,18,20,22,24,26,28,30,-1,32,34,36,38,40,42,44,46,48,50,52,54,56,58,60,-1,-1,-1,-1,-1,-1,-1,-1,-1,-1,-1,-1,-1,-1,-1,-1,-1,-1,-1,-1,-1,-1,-1,-1,-1,-1,-1,-1,-1,-1],"split_conditions":[3.0462232E-1,-6.466641E-1,1.1731777E0,-1.3379284E0,-2.1182585E-1,5.8941865E-1,1.6014588E0,-1.7441895E0,3.332628E-2,3.332628E-2,5.8995698E-2,-6.7417306E-1,6.331961E-1,-5.2545613E-1,3.332628E-2,-4.359829E-1,-3.936775E-1,-1.0815504E0,-9.1142136E-1,-3.2342735E-1,-8.676862E-1,-3.5348505E-1,-1.3143682E-1,2.892345E-1,2.5167796E-1,7.5058365E-1,3.332628E-2,1.3116459E0,-9.37105E-1,1.6495539E0,2.0029104E0,-7.3990636E-2,-3.211915E-1,-2.8738067E-1,-2.2357924E-1,-1.9403817E-1,-1.2556703E-1,-1.5286702E-1,-8.977598E-2,2.335163E-2,-6.702831E-2,-8.5755385E-2,-1.4939328E-2,-5.402201E-2,4.6541773E-2,-4.1855335E-2,6.1484843E-2,7.300212E-2,1.3472559E-1,1.4550783E-1,4.3598346E-2,1.6006194E-1,2.4912547E-1,2.5596926E-1,3.5136268E-1,1.508864E-1,2.761211E-1,2.6614863E-1,3.778443E-1,4.283323E-1,5.594968E-1],"split_indices":[11,11,14,11,5,5,11,5,1,1,5,1,11,4,1,0,15,5,11,11,4,11,11,5,5,5,1,11,7,5,11,0,0,0,0,0,0,0,0,0,0,0,0,0,0,0,0,0,0,0,0,0,0,0,0,0,0,0,0,0,0],"split_type":[0,0,0,0,0,0,0,0,0,0,0,0,0,0,0,0,0,0,0,0,0,0,0,0,0,0,0,0,0,0,0,0,0,0,0,0,0,0,0,0,0,0,0,0,0,0,0,0,0,0,0,0,0,0,0,0,0,0,0,0,0],"sum_hessian":[1.76E3,1.21E3,5.5E2,5.14E2,6.96E2,2.36E2,3.14E2,7.9E1,4.35E2,3.52E2,3.44E2,9.6E1,1.4E2,1.79E2,1.35E2,3.3E1,4.6E1,1.74E2,2.61E2,1.92E2,1.6E2,2.02E2,1.42E2,3E1,6.6E1,1.8E1,1.22E2,1.02E2,7.7E1,6.8E1,6.7E1,1E0,4.5E1,7.5E1,9.9E1,1.49E2,1.12E2,1.23E2,6.9E1,1.3E1,1.47E2,2.5E1,1.77E2,1.9E1,1.23E2,7E0,2.3E1,1.5E1,5.1E1,1E1,8E0,6.2E1,6E1,2E1,8.2E1,1.1E1,6.6E1,1.8E1,5E1,4.7E1,2E1],"tree_param":{"num_deleted":"0","num_feature":"16","num_nodes":"61","size_leaf_vector":"1"}},{"base_weights":[6.275042E-3,-1.1375395E0,2.4420125E0,-1.9094844E0,-2.884361E-1,1.5378159E0,3.225343E0,-2.8945785E0,-1.5399363E0,-6.61271E-1,5.504413E-2,1.1348602E0,2.0769842E0,2.9323492E0,4.1002216E0,-3.9516032E-1,-2.5968885E0,-1.8191767E0,-1.2684681E0,-1.0625086E0,-3.9300913E-1,-1.3708597E-1,4.199284E-1,7.1590614E-1,1.5388819E0,1.216329E0,2.1898263E0,2.5174265E0,3.1424615E0,3.4268102E-1,4.6784434E-1,-2.8411135E-1,-2.2939253E-1,-2.2708498E-1,-1.6247068E-1,-1.6448353E-1,-1.13433026E-1,-1.3109216E-1,-7.366457E-2,-5.277837E-2,-1.0869457E-2,5.2656557E-2,-2.6169641E-2,4.5272894E-3,8.573918E-2,3.2196492E-3,8.976921E-2,7.4855104E-2,1.6338734E-1,1.9131502E-2,1.7097044E-1,1.7454778E-1,2.4893323E-1,1.419184E-1,2.634996E-1,3.4482217E-1,2.6467356E-1],"categories":[],"categories_nodes":[],"categories_segments":[],"categories_sizes":[],"default_left":[0,0,0,0,0,0,0,0,0,0,0,0,0,0,0,0,0,0,0,0,0,0,0,0,0,0,0,0,0,0,0,0,0,0,0,0,0,0,0,0,0,0,0,0,0,0,0,0,0,0,0,0,0,0,0,0,0],"id":6,"left_children":[1,3,5,7,9,11,13,15,17,19,21,23,25,27,29,-1,31,33,35,37,39,41,43,45,47,49,51,53,55,-1,-1,-1,-1,-1,-1,-1,-1,-1,-1,-1,-1,-1,-1,-1,-1,-1,-1,-1,-1,-1,-1,-1,-1,-1,-1,-1,-1],"loss_changes":[4.8476875E3,7.7551514E2,3.8884644E2,2.2124707E2,7.23911E1,5.4130737E1,6.4107666E1,4.260205E1,3.2032104E1,2.8751984E1,2.0738615E1,2.4457535E1,8.01944E0,1.179187E1,1.2003418E1,0E0,3.397583E0,1.5722473E1,9.897186E0,7.776764E0,6.226845E0,1.6181192E1,1.6678785E1,9.417046E0,4.4826508E0,7.2586575E0,8.431061E0,6.7191772E0,1.3003174E1,0E0,0E0,0E0,0E0,0E0,0E0,0E0,0E0,0E0,0E0,0E0,0E0,0E0,0E0,0E0,0E0,0E0,0E0,0E0,0E0,0E0,0E0,0E0,0E0,0E0,0E0,0E0,0E0],"parents":[2147483647,0,0,1,1,2,2,3,3,4,4,5,5,6,6,7,7,8,8,9,9,10,10,11,11,12,12,13,13,14,14,16,16,17,17,18,18,19,19,20,20,21,21,22,22,23,23,24,24,25,25,26,26,27,27,28,28],"right_children":[2,4,6,8,10,12,14,16,18,20,22,24,26,28,30,-1,32,34,36,38,40,42,44,46,48,50,52,54,56,-1,-1,-1,-1,-1,-1,-1,-1,-1,-1,-1,-1,-1,-1,-1,-1,-1,-1,-1,-1,-1,-1,-1,-1,-1,-1,-1,-1],"split_conditions":[3.0462232E-1,-5.0260204E-1,1.2028556E0,-1.1340548E0,-1.4747807E-1,8.11667E-1,1.8825701E0,-1.7038584E0,-7.77082E-1,-6.7417306E-1,8.330008E-2,3.332628E-2,7.4017036E-1,3.332628E-2,3.332628E-2,-3.9516032E-1,-1.169458E0,-6.7417306E-1,-7.820314E-1,-3.6090294E-1,-2.2676641E-1,-8.4512156E-1,3.332628E-2,2.785417E-1,2.5167796E-1,-1.0093813E0,3.332628E-2,1.2620739E0,1.258751E0,3.4268102E-1,4.6784434E-1,-2.8411135E-1,-2.2939253E-1,-2.2708498E-1,-1.6247068E-1,-1.6448353E-1,-1.13433026E-1,-1.3109216E-1,-7.366457E-2,-5.277837E-2,-1.0869457E-2,5.2656557E-2,-2.6169641E-2,4.5272894E-3,8.573918E-2,3.2196492E-3,8.976921E-2,7.4855104E-2,1.6338734E-1,1.9131502E-2,1.7097044E-1,1.7454778E-1,2.4893323E-1,1.419184E-1,2.634996E-1,3.4482217E-1,2.6467356E-1],"split_indices":[11,11,5,5,5,5,11,14,5,1,11,1,11,1,1,0,14,1,11,5,11,4,1,5,5,9,1,11,1,0,0,0,0,0,0,0,0,0,0,0,0,0,0,0,0,0,0,0,0,0,0,0,0,0,0,0,0],"split_type":[0,0,0,0,0,0,0,0,0,0,0,0,0,0,0,0,0,0,0,0,0,0,0,0,0,0,0,0,0,0,0,0,0,0,0,0,0,0,0,0,0,0,0,0,0,0,0,0,0,0,0,0,0,0,0,0,0],"sum_hessian":[1.738E3,1.183E3,5.55E2,6.19E2,5.64E2,2.59E2,2.96E2,1.67E2,4.52E2,2.7E2,2.94E2,1.5E2,1.09E2,2.25E2,7.1E1,3.4E1,1.33E2,2.2E2,2.32E2,1.07E2,1.63E2,1.93E2,1.01E2,7.5E1,7.5E1,1.4E1,9.5E1,8E1,1.45E2,3.6E1,3.5E1,6.9E1,6.4E1,6.3E1,1.57E2,5.8E1,1.74E2,5.9E1,4.8E1,1.1E2,5.3E1,3E1,1.63E2,5.5E1,4.6E1,1.6E1,5.9E1,9E0,6.6E1,5E0,9E0,4.1E1,5.4E1,9E0,7.1E1,8.6E1,5.9E1],"tree_param":{"num_deleted":"0","num_feature":"16","num_nodes":"57","size_leaf_vector":"1"}},{"base_weights":[-1.7368915E-2,-1.0939043E0,2.0084553E0,-2.0668106E0,-5.674584E-1,9.8105186E-1,2.6972816E0,-3.0549712E0,-1.7801445E0,-1.028261E0,-2.0253874E-1,6.1853176E-1,1.3819922E0,2.4474761E0,3.676388E0,-3.57915E-1,-2.6131682E0,-2.1491363E0,-1.6127155E0,-1.5138927E0,-9.252549E-1,-4.8756537E-1,1.5480245E-3,-9.34453E-2,7.710217E-1,1.0124849E0,1.6465814E0,2.1427581E0,2.7160451E0,2.8516781E0,4.0543895E0,-2.661646E-1,-9.3415074E-2,-2.3843284E-1,-1.6974515E-1,-1.9312903E-1,-1.3938445E-1,-4.3949126E-3,-1.5398198E-1,-1.3167682E-1,-7.265975E-2,-1.0637253E-1,-3.400428E-2,-3.0536411E-2,2.9139718E-2,1.6183732E-2,-4.098554E-2,4.877946E-2,9.979766E-2,3.373595E-2,1.25882E-1,1.21554434E-1,1.913824E-1,1.755531E-1,2.3536292E-1,2.3806846E-1,2.959186E-1,6.082649E-2,2.9170844E-1,1.8557072E-1,4.1621247E-1],"categories":[],"categories_nodes":[],"categories_segments":[],"categories_sizes":[],"default_left":[0,0,0,0,0,0,0,0,0,0,0,0,0,0,0,0,0,0,0,0,0,0,0,0,0,0,0,0,0,0,0,0,0,0,0,0,0,0,0,0,0,0,0,0,0,0,0,0,0,0,0,0,0,0,0,0,0,0,0,0,0],"id":7,"left_children":[1,3,5,7,9,11,13,15,17,19,21,23,25,27,29,-1,31,33,35,37,39,41,43,45,47,49,51,53,55,57,59,-1,-1,-1,-1,-1,-1,-1,-1,-1,-1,-1,-1,-1,-1,-1,-1,-1,-1,-1,-1,-1,-1,-1,-1,-1,-1,-1,-1,-1,-1],"loss_changes":[3.8274456E3,5.857883E2,4.2834473E2,1.0843701E2,1.25067856E2,3.4901016E1,8.0031494E1,1.1258118E1,1.5932983E1,1.5056824E1,2.4257711E1,1.429464E1,9.673904E0,1.8158691E1,1.0883545E1,0E0,1.7461548E0,6.044861E0,1.264801E1,2.066574E0,2.0354141E1,1.4427692E1,2.1794786E1,2.004906E0,6.4553986E0,8.056988E0,5.276306E0,7.463135E0,5.349121E0,2.0406952E0,3.4094238E0,0E0,0E0,0E0,0E0,0E0,0E0,0E0,0E0,0E0,0E0,0E0,0E0,0E0,0E0,0E0,0E0,0E0,0E0,0E0,0E0,0E0,0E0,0E0,0E0,0E0,0E0,0E0,0E0,0E0,0E0],"parents":[2147483647,0,0,1,1,2,2,3,3,4,4,5,5,6,6,7,7,8,8,9,9,10,10,11,11,12,12,13,13,14,14,16,16,17,17,18,18,19,19,20,20,21,21,22,22,23,23,24,24,25,25,26,26,27,27,28,28,29,29,30,30],"right_children":[2,4,6,8,10,12,14,16,18,20,22,24,26,28,30,-1,32,34,36,38,40,42,44,46,48,50,52,54,56,58,60,-1,-1,-1,-1,-1,-1,-1,-1,-1,-1,-1,-1,-1,-1,-1,-1,-1,-1,-1,-1,-1,-1,-1,-1,-1,-1,-1,-1,-1,-1],"split_conditions":[2.5167796E-1,-7.77082E-1,9.2025775E-1,-1.3840842E0,-3.7657562E-1,6.80736E-1,1.8838816E0,-1.7038584E0,-6.7417306E-1,-7.961368E-1,3.332628E-2,7.433963E-2,3.332628E-2,1.334702E0,7.408256E-1,-3.57915E-1,1.258751E0,-9.6806735E-1,-1.0575858E0,-1.1117167E0,-6.7417306E-1,-3.0053958E-1,-1.7851101E-1,1.7487834E-1,3.332628E-2,5.4187053E-1,6.736319E-1,1.1731777E0,3.332628E-2,1.5240983E0,1.5087881E0,-2.661646E-1,-9.3415074E-2,-2.3843284E-1,-1.6974515E-1,-1.9312903E-1,-1.3938445E-1,-4.3949126E-3,-1.5398198E-1,-1.3167682E-1,-7.265975E-2,-1.0637253E-1,-3.400428E-2,-3.0536411E-2,2.9139718E-2,1.6183732E-2,-4.098554E-2,4.877946E-2,9.979766E-2,3.373595E-2,1.25882E-1,1.21554434E-1,1.913824E-1,1.755531E-1,2.3536292E-1,2.3806846E-1,2.959186E-1,6.082649E-2,2.9170844E-1,1.8557072E-1,4.1621247E-1],"split_indices":[5,5,5,5,5,14,5,14,1,11,1,11,1,5,0,0,0,5,14,8,1,14,11,15,1,5,11,14,1,11,11,0,0,0,0,0,0,0,0,0,0,0,0,0,0,0,0,0,0,0,0,0,0,0,0,0,0,0,0,0,0],"split_type":[0,0,0,0,0,0,0,0,0,0,0,0,0,0,0,0,0,0,0,0,0,0,0,0,0,0,0,0,0,0,0,0,0,0,0,0,0,0,0,0,0,0,0,0,0,0,0,0,0,0,0,0,0,0,0,0,0,0,0,0,0],"sum_hessian":[1.753E3,1.145E3,6.08E2,4.01E2,7.44E2,2.45E2,3.63E2,8.8E1,3.13E2,3.28E2,4.16E2,1.3E2,1.15E2,2.92E2,7.1E1,3.7E1,5.1E1,9.4E1,2.19E2,5.5E1,2.73E2,1.73E2,2.43E2,2.3E1,1.07E2,5E1,6.5E1,1.41E2,1.51E2,2.5E1,4.6E1,4.9E1,2E0,5.9E1,3.5E1,8.6E1,1.33E2,1E0,5.4E1,9E1,1.83E2,3.4E1,1.39E2,1.18E2,1.25E2,1.3E1,1E1,4.9E1,5.8E1,1.4E1,3.6E1,2.7E1,3.8E1,5.3E1,8.8E1,6.8E1,8.3E1,1E0,2.4E1,3E0,4.3E1],"tree_param":{"num_deleted":"0","num_feature":"16","num_nodes":"61","size_leaf_vector":"1"}},{"base_weights":[2.1429291E-2,-8.6782175E-1,2.0342546E0,-1.5511308E0,-1.8758078E-1,1.3437116E0,2.6307633E0,-2.2523513E0,-1.2385666E0,-5.3516984E-1,1.1274855E-1,8.727721E-1,1.6171167E0,2.4349198E0,3.6525638E0,-2.919739E0,-1.9475355E0,-1.5606276E0,-1.0363892E0,-7.720002E-1,-2.1824473E-1,-1.7634572E-1,2.9251653E-1,7.1602726E-1,1.5406146E0,1.2463375E0,1.9861556E0,2.1942942E0,2.8127306E0,8.406287E-2,3.6984081E0,-3.0537364E-1,-1.9979772E-1,-2.2717881E-1,-1.7991857E-1,-1.0259217E-1,-1.6711661E-1,-1.4208515E-1,-8.2223095E-2,-9.300849E-2,-4.9759768E-2,4.904556E-4,-5.0885238E-2,-4.2399894E-2,1.5106111E-2,5.5145603E-2,-1.0925944E-2,5.3285416E-2,1.1308824E-1,2.9249955E-2,1.6003406E-1,7.778383E-2,1.4791705E-1,2.0864348E-1,8.604427E-2,2.4347202E-1,1.8404797E-1,1.0601845E-1,2.860429E-1,1.3917834E-1,3.7769803E-1],"categories":[],"categories_nodes":[],"categories_segments":[],"categories_sizes":[],"default_left":[0,0,0,0,0,0,0,0,0,0,0,0,0,0,0,0,0,0,0,0,0,0,0,0,0,0,0,0,0,0,0,0,0,0,0,0,0,0,0,0,0,0,0,0,0,0,0,0,0,0,0,0,0,0,0,0,0,0,0,0,0],"id":8,"left_children":[1,3,5,7,9,11,13,15,17,19,21,23,25,27,29,31,33,35,37,39,41,43,45,47,49,51,53,55,57,-1,59,-1,-1,-1,-1,-1,-1,-1,-1,-1,-1,-1,-1,-1,-1,-1,-1,-1,-1,-1,-1,-1,-1,-1,-1,-1,-1,-1,-1,-1,-1],"loss_changes":[3.125153E3,5.625997E2,2.168396E2,1.2959302E2,6.353018E1,3.0777954E1,4.83385E1,3.1948303E1,2.5730225E1,2.0997719E1,1.7045738E1,8.736877E0,1.9007172E1,1.5919434E1,2.5631714E0,8.154602E-1,2.165985E0,7.742401E0,2.032138E1,6.521187E0,7.91406E0,1.0280551E1,2.1075457E1,5.32465E0,7.9916E-1,7.6850815E0,6.8969727E0,8.534119E0,4.574463E0,0E0,2.536377E0,0E0,0E0,0E0,0E0,0E0,0E0,0E0,0E0,0E0,0E0,0E0,0E0,0E0,0E0,0E0,0E0,0E0,0E0,0E0,0E0,0E0,0E0,0E0,0E0,0E0,0E0,0E0,0E0,0E0,0E0],"parents":[2147483647,0,0,1,1,2,2,3,3,4,4,5,5,6,6,7,7,8,8,9,9,10,10,11,11,12,12,13,13,14,14,15,15,16,16,17,17,18,18,19,19,20,20,21,21,22,22,23,23,24,24,25,25,26,26,27,27,28,28,30,30],"right_children":[2,4,6,8,10,12,14,16,18,20,22,24,26,28,30,32,34,36,38,40,42,44,46,48,50,52,54,56,58,-1,60,-1,-1,-1,-1,-1,-1,-1,-1,-1,-1,-1,-1,-1,-1,-1,-1,-1,-1,-1,-1,-1,-1,-1,-1,-1,-1,-1,-1,-1,-1],"split_conditions":[4.0918452E-1,-5.0260204E-1,1.3116459E0,-1.1064484E0,-1.4747807E-1,3.332628E-2,2.0434856E0,-1.5079632E0,-8.633376E-1,3.332628E-2,3.332628E-2,7.624644E-1,8.708086E-1,7.408256E-1,-1.5844418E0,-1.4589777E0,-6.7417306E-1,-9.1406906E-1,3.332628E-2,-1.7913225E-1,5.343678E-1,1.3610864E-1,1.258751E0,1.1578127E0,-1.5572401E0,-9.6306103E-1,1.3896695E0,-5.066523E-1,-2.8938005E0,8.406287E-2,1.6593539E0,-3.0537364E-1,-1.9979772E-1,-2.2717881E-1,-1.7991857E-1,-1.0259217E-1,-1.6711661E-1,-1.4208515E-1,-8.2223095E-2,-9.300849E-2,-4.9759768E-2,4.904556E-4,-5.0885238E-2,-4.2399894E-2,1.5106111E-2,5.5145603E-2,-1.0925944E-2,5.3285416E-2,1.1308824E-1,2.9249955E-2,1.6003406E-1,7.778383E-2,1.4791705E-1,2.0864348E-1,8.604427E-2,2.4347202E-1,1.8404797E-1,1.0601845E-1,2.860429E-1,1.3917834E-1,3.7769803E-1],"split_indices":[11,11,11,5,5,1,5,5,14,1,1,2,11,0,10,14,1,4,1,14,12,11,1,8,10,9,8,4,9,0,11,0,0,0,0,0,0,0,0,0,0,0,0,0,0,0,0,0,0,0,0,0,0,0,0,0,0,0,0,0,0],"split_type":[0,0,0,0,0,0,0,0,0,0,0,0,0,0,0,0,0,0,0,0,0,0,0,0,0,0,0,0,0,0,0,0,0,0,0,0,0,0,0,0,0,0,0,0,0,0,0,0,0,0,0,0,0,0,0,0,0,0,0,0,0],"sum_hessian":[1.744E3,1.21E3,5.34E2,6.03E2,6.07E2,2.49E2,2.85E2,1.84E2,4.19E2,2.81E2,3.26E2,9.3E1,1.56E2,2.42E2,4.3E1,5.5E1,1.29E2,1.59E2,2.6E2,1.6E2,1.21E2,1.25E2,2.01E2,7.7E1,1.6E1,8E1,7.6E1,1.52E2,9E1,1E0,4.2E1,4.6E1,9E0,3.6E1,9.3E1,2.9E1,1.3E2,9.1E1,1.69E2,1E2,6E1,6.9E1,5.2E1,7.1E1,5.4E1,1.22E2,7.9E1,5.5E1,2.2E1,1E0,1.5E1,2.8E1,5.2E1,6.9E1,7E0,8.7E1,6.5E1,3E0,8.7E1,2E0,4E1],"tree_param":{"num_deleted":"0","num_feature":"16","num_nodes":"61","size_leaf_vector":"1"}},{"base_weights":[-2.0560632E-2,-8.777058E-1,1.6848522E0,-1.6585312E0,-4.531002E-1,1.0663937E0,2.4089754E0,-2.486812E0,-1.4621546E0,-7.368636E-1,-1.16569445E-1,8.2485414E-1,1.5878851E0,2.1838572E0,2.9933286E0,-1.7011484E0,-2.6367822E-1,-1.6933211E0,-1.2277697E0,-9.4100213E-1,-5.7354414E-1,-3.7447113E-1,4.1382607E-2,4.5225528E-1,1.130468E0,1.3298762E0,1.7818573E0,1.8481939E0,2.4110801E0,3.5339227E0,2.6227028E0,-8.076423E-2,-1.8572216E-1,-1.800871E-1,-1.156487E-1,-9.8595634E-2,-1.6113037E-1,-6.6980004E-2,-1.1146989E-1,-7.111892E-2,-1.4053525E-2,4.3013445E-3,-5.3481646E-2,4.8327174E-2,-6.9977725E-3,5.9145303E-3,6.0645152E-2,9.243114E-2,1.4815058E-1,1.5349911E-1,8.896805E-2,4.5039367E-2,1.798801E-1,-2.0777512E-2,1.8758006E-1,1.6442768E-1,2.5583038E-1,9.714556E-2,3.5975632E-1,3.399105E-2,2.6658782E-1],"categories":[],"categories_nodes":[],"categories_segments":[],"categories_sizes":[],"default_left":[0,0,0,0,0,0,0,0,0,0,0,0,0,0,0,0,0,0,0,0,0,0,0,0,0,0,0,0,0,0,0,0,0,0,0,0,0,0,0,0,0,0,0,0,0,0,0,0,0,0,0,0,0,0,0,0,0,0,0,0,0],"id":9,"left_children":[1,3,5,7,9,11,13,15,17,19,21,23,25,27,29,31,-1,33,35,37,39,41,43,45,47,49,51,53,55,57,59,-1,-1,-1,-1,-1,-1,-1,-1,-1,-1,-1,-1,-1,-1,-1,-1,-1,-1,-1,-1,-1,-1,-1,-1,-1,-1,-1,-1,-1,-1],"loss_changes":[2.5215984E3,3.798598E2,2.5583496E2,6.2076416E1,7.105797E1,3.8115936E1,2.8323242E1,4.4692383E0,1.5746887E1,1.2929565E1,1.3947243E1,2.408496E1,2.5348969E0,1.0416565E1,4.95697E0,5.9181213E-1,0E0,7.328369E0,1.3899506E1,7.6384125E0,1.3429611E1,8.725424E0,1.0515318E1,5.965122E0,7.1701355E0,2.787712E0,3.855133E-1,5.100708E0,8.550171E0,7.451477E-1,3.627594E0,0E0,0E0,0E0,0E0,0E0,0E0,0E0,0E0,0E0,0E0,0E0,0E0,0E0,0E0,0E0,0E0,0E0,0E0,0E0,0E0,0E0,0E0,0E0,0E0,0E0,0E0,0E0,0E0,0E0,0E0],"parents":[2147483647,0,0,1,1,2,2,3,3,4,4,5,5,6,6,7,7,8,8,9,9,10,10,11,11,12,12,13,13,14,14,15,15,17,17,18,18,19,19,20,20,21,21,22,22,23,23,24,24,25,25,26,26,27,27,28,28,29,29,30,30],"right_children":[2,4,6,8,10,12,14,16,18,20,22,24,26,28,30,32,-1,34,36,38,40,42,44,46,48,50,52,54,56,58,60,-1,-1,-1,-1,-1,-1,-1,-1,-1,-1,-1,-1,-1,-1,-1,-1,-1,-1,-1,-1,-1,-1,-1,-1,-1,-1,-1,-1,-1,-1],"split_conditions":[1.887619E-1,-7.77082E-1,1.2478894E0,-1.3089256E0,-2.7158713E-1,9.3547773E-1,1.8838816E0,-2.797801E-1,3.332628E-2,3.332628E-2,3.332628E-2,3.332628E-2,3.332628E-2,3.332628E-2,-9.817629E-1,-3.1422758E-1,-2.6367822E-1,-6.7371494E-1,1.258751E0,-9.866745E-1,1.258751E0,-1.1820564E0,-8.4512156E-1,2.892345E-1,1.258751E0,4.2949343E-1,2.1760686E-1,8.3072835E-1,-2.2159235E0,-1.0902916E0,-2.3834198E0,-8.076423E-2,-1.8572216E-1,-1.800871E-1,-1.156487E-1,-9.8595634E-2,-1.6113037E-1,-6.6980004E-2,-1.1146989E-1,-7.111892E-2,-1.4053525E-2,4.3013445E-3,-5.3481646E-2,4.8327174E-2,-6.9977725E-3,5.9145303E-3,6.0645152E-2,9.243114E-2,1.4815058E-1,1.5349911E-1,8.896805E-2,4.5039367E-2,1.798801E-1,-2.0777512E-2,1.8758006E-1,1.6442768E-1,2.5583038E-1,9.714556E-2,3.5975632E-1,3.399105E-2,2.6658782E-1],"split_indices":[11,5,5,14,5,14,5,6,1,1,1,1,1,1,4,13,0,14,1,3,0,3,4,5,0,9,5,8,9,7,6,0,0,0,0,0,0,0,0,0,0,0,0,0,0,0,0,0,0,0,0,0,0,0,0,0,0,0,0,0,0],"split_type":[0,0,0,0,0,0,0,0,0,0,0,0,0,0,0,0,0,0,0,0,0,0,0,0,0,0,0,0,0,0,0,0,0,0,0,0,0,0,0,0,0,0,0,0,0,0,0,0,0,0,0,0,0,0,0,0,0,0,0,0,0],"sum_hessian":[1.723E3,1.147E3,5.76E2,4.03E2,7.44E2,3.12E2,2.64E2,7.5E1,3.28E2,4.03E2,3.41E2,2.15E2,9.7E1,1.94E2,7E1,1.4E1,6.1E1,1.62E2,1.66E2,1.77E2,2.26E2,1.29E2,2.12E2,9.8E1,1.17E2,4.5E1,5.2E1,8.2E1,1.12E2,2.5E1,4.5E1,3E0,1.1E1,1.33E2,2.9E1,1.04E2,6.2E1,7.1E1,1.06E2,1.71E2,5.5E1,3.6E1,9.3E1,4.2E1,1.7E2,2.8E1,7E1,7.6E1,4.1E1,2.9E1,1.6E1,1E0,5.1E1,1E0,8.1E1,2E1,9.2E1,1E0,2.4E1,1E0,4.4E1],"tree_param":{"num_deleted":"0","num_feature":"16","num_nodes":"61","size_leaf_vector":"1"}},{"base_weights":[2.7084472E-2,-7.128642E-1,1.7497922E0,-1.2677133E0,-1.4947183E-1,1.3279946E0,2.383205E0,-1.7810609E0,-9.8450416E-1,-3.6213923E-1,2.3049013E-1,7.157609E-1,1.499997E0,1.5976229E0,2.5676103E0,-2.2767875E0,-1.5525907E0,-1.2839316E0,-8.5123414E-1,-5.7470155E-1,-1.3172656E-1,-6.9959724E-1,2.931898E-1,2.6745605E-1,8.744212E-1,1.2197645E0,1.6848485E0,1.7627E0,2.3512268E-2,2.1763566E0,2.858658E0,-1.6876288E-1,-2.446748E-1,-1.7319566E-1,-1.3018641E-1,-2.6736984E-2,-1.3166806E-1,-1.2728788E-1,-7.3375344E-2,-2.0813825E-2,-7.079416E-2,1.3640217E-2,-3.0852238E-2,-3.0632073E-2,-9.562645E-2,9.5547035E-2,2.3557246E-2,5.816426E-3,1.09008215E-1,1.551826E-2,9.828542E-2,8.304738E-2,1.5177575E-1,1.3158973E-1,1.8225192E-1,1.9269845E-1,1.0192297E-1,-4.4373702E-2,2.5125885E-2,1.9410372E-1,2.6890334E-1,2.5830123E-1,3.5320285E-1],"categories":[],"categories_nodes":[],"categories_segments":[],"categories_sizes":[],"default_left":[0,0,0,0,0,0,0,0,0,0,0,0,0,0,0,0,0,0,0,0,0,0,0,0,0,0,0,0,0,0,0,0,0,0,0,0,0,0,0,0,0,0,0,0,0,0,0,0,0,0,0,0,0,0,0,0,0,0,0,0,0,0,0],"id":10,"left_children":[1,3,5,7,9,11,13,15,17,19,21,23,25,27,29,31,33,35,37,39,41,43,45,47,49,51,53,55,57,59,61,-1,-1,-1,-1,-1,-1,-1,-1,-1,-1,-1,-1,-1,-1,-1,-1,-1,-1,-1,-1,-1,-1,-1,-1,-1,-1,-1,-1,-1,-1,-1,-1],"loss_changes":[2.210329E3,3.7899158E2,1.3603174E2,8.707654E1,4.88092E1,3.2097595E1,2.5885132E1,2.0929016E1,1.4709351E1,1.887841E1,1.2859725E1,4.816231E0,1.063623E1,1.0872231E1,1.2681641E1,2.4795837E0,4.5359497E0,3.642929E0,1.2787247E1,9.66967E0,8.906637E0,1.1202531E0,7.5593204E0,3.3799741E0,3.9029198E0,1.0456131E1,4.9668884E0,2.6773071E0,6.4356506E-1,3.8286743E0,7.952942E0,0E0,0E0,0E0,0E0,0E0,0E0,0E0,0E0,0E0,0E0,0E0,0E0,0E0,0E0,0E0,0E0,0E0,0E0,0E0,0E0,0E0,0E0,0E0,0E0,0E0,0E0,0E0,0E0,0E0,0E0,0E0,0E0],"parents":[2147483647,0,0,1,1,2,2,3,3,4,4,5,5,6,6,7,7,8,8,9,9,10,10,11,11,12,12,13,13,14,14,15,15,16,16,17,17,18,18,19,19,20,20,21,21,22,22,23,23,24,24,25,25,26,26,27,27,28,28,29,29,30,30],"right_children":[2,4,6,8,10,12,14,16,18,20,22,24,26,28,30,32,34,36,38,40,42,44,46,48,50,52,54,56,58,60,62,-1,-1,-1,-1,-1,-1,-1,-1,-1,-1,-1,-1,-1,-1,-1,-1,-1,-1,-1,-1,-1,-1,-1,-1,-1,-1,-1,-1,-1,-1,-1,-1],"split_conditions":[6.1794066E-1,-5.0260204E-1,1.4676288E0,-1.053944E0,2.1130187E-2,6.2591547E-1,1.4814427E0,-1.3703846E0,-8.8208526E-1,3.332628E-2,-2.1572694E-1,-6.7417306E-1,3.332628E-2,1.7304341E0,3.332628E-2,1.6365774E-1,3.332628E-2,-1.2876644E0,-6.7417306E-1,-1.0983213E0,3.1738433E-1,2.0176421E-1,-1.5644021E-1,7.408256E-1,1.7436276E-1,1.2620739E0,8.8588595E-1,1.5604974E0,3.332628E-2,2.0904212E0,2.0029104E0,-1.6876288E-1,-2.446748E-1,-1.7319566E-1,-1.3018641E-1,-2.6736984E-2,-1.3166806E-1,-1.2728788E-1,-7.3375344E-2,-2.0813825E-2,-7.079416E-2,1.3640217E-2,-3.0852238E-2,-3.0632073E-2,-9.562645E-2,9.5547035E-2,2.3557246E-2,5.816426E-3,1.09008215E-1,1.551826E-2,9.828542E-2,8.304738E-2,1.5177575E-1,1.3158973E-1,1.8225192E-1,1.9269845E-1,1.0192297E-1,-4.4373702E-2,2.5125885E-2,1.9410372E-1,2.6890334E-1,2.5830123E-1,3.5320285E-1],"split_indices":[14,11,5,5,5,5,11,14,14,1,11,1,1,8,1,15,1,10,1,3,12,15,8,0,5,11,11,8,0,8,11,0,0,0,0,0,0,0,0,0,0,0,0,0,0,0,0,0,0,0,0,0,0,0,0,0,0,0,0,0,0,0,0],"split_type":[0,0,0,0,0,0,0,0,0,0,0,0,0,0,0,0,0,0,0,0,0,0,0,0,0,0,0,0,0,0,0,0,0,0,0,0,0,0,0,0,0,0,0,0,0,0,0,0,0,0,0,0,0,0,0,0,0,0,0,0,0,0,0],"sum_hessian":[1.732E3,1.212E3,5.2E2,6.1E2,6.02E2,3.14E2,2.06E2,2.15E2,3.95E2,3.86E2,2.16E2,7E1,2.44E2,4.1E1,1.65E2,6.5E1,1.5E2,1.19E2,2.76E2,2E2,1.86E2,1.3E1,2.03E2,1.9E1,5.1E1,1E2,1.44E2,3.7E1,4E0,7.4E1,9.1E1,1.7E1,4.8E1,8.4E1,6.6E1,4E0,1.15E2,5.8E1,2.18E2,5.4E1,1.46E2,7.4E1,1.12E2,6E0,7E0,1.5E1,1.88E2,1.6E1,3E0,7E0,4.4E1,4.5E1,5.5E1,4.2E1,1.02E2,2.9E1,8E0,1E0,3E0,5.4E1,2E1,6.8E1,2.3E1],"tree_param":{"num_deleted":"0","num_feature":"16","num_nodes":"63","size_leaf_vector":"1"}},{"base_weights":[1.07262265E-2,-6.7546046E-1,1.4304457E0,-1.3453177E0,-3.3187005E-1,9.180697E-1,1.9561069E0,-2.0052419E0,-1.1692572E0,-6.460221E-1,-3.0366305E-2,7.7038E-1,1.3756591E0,1.5632064E0,2.2446187E0,-2.44763E0,-1.7561396E0,-1.4519302E0,-9.878587E-1,-9.1153914E-1,-4.4787472E-1,-1.882557E-1,3.97842E-1,6.0675335E-1,1.1052198E0,1.559068E0,6.1144954E-1,1.166827E0,1.710956E0,1.64526E0,2.4142964E0,-2.6457065E-1,-1.0469525E-1,-2.022012E-1,-1.4935474E-1,-1.6937779E-1,-1.2968887E-1,-8.050989E-2,-1.2009293E-1,-6.1369926E-2,-1.04017235E-1,-2.2829596E-2,-6.714391E-2,-3.92716E-2,-5.1651984E-3,-4.44479E-3,6.7327134E-2,3.0769357E-2,6.9849424E-2,7.12426E-2,1.2251794E-1,9.821073E-2,1.7142676E-1,-1.8685723E-2,7.486396E-2,8.138163E-2,1.4746258E-1,1.1297362E-1,1.8377821E-1,2.1636668E-1,9.490488E-2,2.0745714E-1,2.675066E-1],"categories":[],"categories_nodes":[],"categories_segments":[],"categories_sizes":[],"default_left":[0,0,0,0,0,0,0,0,0,0,0,0,0,0,0,0,0,0,0,0,0,0,0,0,0,0,0,0,0,0,0,0,0,0,0,0,0,0,0,0,0,0,0,0,0,0,0,0,0,0,0,0,0,0,0,0,0,0,0,0,0,0,0],"id":11,"left_children":[1,3,5,7,9,11,13,15,17,19,21,23,25,27,29,31,33,35,37,39,41,43,45,47,49,51,53,55,57,59,61,-1,-1,-1,-1,-1,-1,-1,-1,-1,-1,-1,-1,-1,-1,-1,-1,-1,-1,-1,-1,-1,-1,-1,-1,-1,-1,-1,-1,-1,-1,-1,-1],"loss_changes":[1.6892418E3,2.6860657E2,1.5037927E2,4.3665222E1,7.329212E1,1.8403625E1,2.800415E1,4.738037E0,1.4717804E1,1.953151E1,2.6848276E1,1.1382919E1,8.717957E0,5.089966E0,1.209613E1,4.720978E0,8.8972473E-1,2.3404083E0,6.6265717E0,5.529892E0,1.0597416E1,8.079425E0,1.3064623E1,3.9004784E0,2.4726257E0,3.2413177E0,1.7826848E0,2.7115479E0,4.2631683E0,1.166156E1,5.169739E0,0E0,0E0,0E0,0E0,0E0,0E0,0E0,0E0,0E0,0E0,0E0,0E0,0E0,0E0,0E0,0E0,0E0,0E0,0E0,0E0,0E0,0E0,0E0,0E0,0E0,0E0,0E0,0E0,0E0,0E0,0E0,0E0],"parents":[2147483647,0,0,1,1,2,2,3,3,4,4,5,5,6,6,7,7,8,8,9,9,10,10,11,11,12,12,13,13,14,14,15,15,16,16,17,17,18,18,19,19,20,20,21,21,22,22,23,23,24,24,25,25,26,26,27,27,28,28,29,29,30,30],"right_children":[2,4,6,8,10,12,14,16,18,20,22,24,26,28,30,32,34,36,38,40,42,44,46,48,50,52,54,56,58,60,62,-1,-1,-1,-1,-1,-1,-1,-1,-1,-1,-1,-1,-1,-1,-1,-1,-1,-1,-1,-1,-1,-1,-1,-1,-1,-1,-1,-1,-1,-1,-1,-1],"split_conditions":[2.5932473E-1,-7.680113E-1,1.3788522E0,-1.2877961E0,-3.2342735E-1,1.258751E0,1.5483016E0,-1.8384326E0,3.332628E-2,3.332628E-2,1.258751E0,9.3547773E-1,-2.9034453E-2,-6.7417306E-1,1.5757192E0,1.258751E0,3.332628E-2,-1.0178208E0,1.258751E0,-1.0536625E0,3.8558823E-1,-6.7417306E-1,3.332628E-2,2.9352424E-1,-9.522971E-1,3.332628E-2,-2.3168088E-1,5.690927E-2,1.0831875E0,1.5604974E0,3.332628E-2,-2.6457065E-1,-1.0469525E-1,-2.022012E-1,-1.4935474E-1,-1.6937779E-1,-1.2968887E-1,-8.050989E-2,-1.2009293E-1,-6.1369926E-2,-1.04017235E-1,-2.2829596E-2,-6.714391E-2,-3.92716E-2,-5.1651984E-3,-4.44479E-3,6.7327134E-2,3.0769357E-2,6.9849424E-2,7.12426E-2,1.2251794E-1,9.821073E-2,1.7142676E-1,-1.8685723E-2,7.486396E-2,8.138163E-2,1.4746258E-1,1.1297362E-1,1.8377821E-1,2.1636668E-1,9.490488E-2,2.0745714E-1,2.675066E-1],"split_indices":[14,11,14,14,11,0,5,11,1,1,0,14,4,1,11,0,1,11,1,3,10,1,1,5,7,1,10,2,5,8,1,0,0,0,0,0,0,0,0,0,0,0,0,0,0,0,0,0,0,0,0,0,0,0,0,0,0,0,0,0,0,0,0],"split_type":[0,0,0,0,0,0,0,0,0,0,0,0,0,0,0,0,0,0,0,0,0,0,0,0,0,0,0,0,0,0,0,0,0,0,0,0,0,0,0,0,0,0,0,0,0,0,0,0,0,0,0,0,0,0,0,0,0,0,0,0,0,0,0],"sum_hessian":[1.732E3,1.168E3,5.64E2,3.95E2,7.73E2,2.87E2,2.77E2,8.1E1,3.14E2,3.78E2,3.95E2,2.19E2,6.8E1,1.2E2,1.57E2,2.6E1,5.5E1,1.2E2,1.94E2,1.6E2,2.18E2,2.89E2,1.06E2,1.49E2,7E1,5.4E1,1.4E1,3.5E1,8.5E1,3.7E1,1.2E2,2.2E1,4E0,2.4E1,3.1E1,4.3E1,7.7E1,1.07E2,8.7E1,5E1,1.1E2,1.11E2,1.07E2,1.15E2,1.74E2,4.1E1,6.5E1,3.6E1,1.13E2,1.8E1,5.2E1,1.3E1,4.1E1,2E0,1.2E1,1.8E1,1.7E1,1.7E1,6.8E1,2E1,1.7E1,5.6E1,6.4E1],"tree_param":{"num_deleted":"0","num_feature":"16","num_nodes":"63","size_leaf_vector":"1"}},{"base_weights":[1.3561409E-2,-6.203392E-1,1.254388E0,-1.0461167E0,-1.5802266E-1,8.160338E-1,1.7783418E0,-1.7599998E0,-8.8013095E-1,-5.04708E-1,-3.4728285E-2,4.4671172E-1,1.0190547E0,1.5591549E0,2.3503182E0,-2.1573248E0,-1.5434074E0,-1.149485E0,-6.8424195E-1,-7.157008E-1,-3.1937596E-1,-2.2999059E-1,8.910213E-2,1.251742E-1,6.275145E-1,8.230655E-1,1.1657094E0,1.725379E0,1.2353033E0,1.8896103E0,2.8986862E0,-2.3980884E-1,-1.6914418E-1,-1.6376685E-1,-1.00898944E-1,-1.3198017E-1,-9.8893575E-2,-2.6683254E-2,-7.613944E-2,-7.497305E-2,-1.43786995E-2,-1.008494E-2,-4.511096E-2,9.829321E-3,-3.375019E-2,3.0639697E-2,-1.5066474E-2,3.3143142E-3,1.0141911E-1,1.5645346E-3,6.71626E-2,5.893734E-2,1.18681066E-1,7.75431E-2,1.3533124E-1,1.8356717E-1,1.2263316E-1,2.9711941E-2,1.4645435E-1,4.995842E-2,1.9113283E-1,3.116423E-1,1.8831404E-1],"categories":[],"categories_nodes":[],"categories_segments":[],"categories_sizes":[],"default_left":[0,0,0,0,0,0,0,0,0,0,0,0,0,0,0,0,0,0,0,0,0,0,0,0,0,0,0,0,0,0,0,0,0,0,0,0,0,0,0,0,0,0,0,0,0,0,0,0,0,0,0,0,0,0,0,0,0,0,0,0,0,0,0],"id":12,"left_children":[1,3,5,7,9,11,13,15,17,19,21,23,25,27,29,31,33,35,37,39,41,43,45,47,49,51,53,55,57,59,61,-1,-1,-1,-1,-1,-1,-1,-1,-1,-1,-1,-1,-1,-1,-1,-1,-1,-1,-1,-1,-1,-1,-1,-1,-1,-1,-1,-1,-1,-1,-1,-1],"loss_changes":[1.3678207E3,2.2640213E2,1.3359906E2,6.942908E1,2.3620094E1,2.368837E1,2.9809204E1,6.3088074E0,2.4962067E1,5.4414635E0,9.909872E0,6.6650963E0,4.99028E0,8.419708E0,1.2712524E1,9.397888E-2,2.1760864E0,4.273041E0,8.975006E0,1.1961555E0,2.2287025E0,5.6449566E0,1.3123289E1,3.4845243E0,1.9867916E0,7.1209297E0,7.443817E0,4.7390747E0,1.461972E1,3.1304932E-1,9.86084E-1,0E0,0E0,0E0,0E0,0E0,0E0,0E0,0E0,0E0,0E0,0E0,0E0,0E0,0E0,0E0,0E0,0E0,0E0,0E0,0E0,0E0,0E0,0E0,0E0,0E0,0E0,0E0,0E0,0E0,0E0,0E0,0E0],"parents":[2147483647,0,0,1,1,2,2,3,3,4,4,5,5,6,6,7,7,8,8,9,9,10,10,11,11,12,12,13,13,14,14,15,15,16,16,17,17,18,18,19,19,20,20,21,21,22,22,23,23,24,24,25,25,26,26,27,27,28,28,29,29,30,30],"right_children":[2,4,6,8,10,12,14,16,18,20,22,24,26,28,30,32,34,36,38,40,42,44,46,48,50,52,54,56,58,60,62,-1,-1,-1,-1,-1,-1,-1,-1,-1,-1,-1,-1,-1,-1,-1,-1,-1,-1,-1,-1,-1,-1,-1,-1,-1,-1,-1,-1,-1,-1,-1,-1],"split_conditions":[2.173496E-1,-5.262359E-1,1.2586973E0,-1.2313334E0,-3.7657562E-1,5.8941865E-1,1.9893861E0,3.332628E-2,3.332628E-2,-6.7417306E-1,3.332628E-2,-6.7417306E-1,3.332628E-2,-4.928628E-1,7.408256E-1,-1.4722413E0,1.258751E0,-9.6806735E-1,-9.601979E-1,8.305607E-2,2.7515507E-1,-1.1820564E0,-1.9826911E-1,8.3072835E-1,1.356615E-1,1.2360022E0,-8.4848464E-1,1.258751E0,-1.6006448E0,-1.6995367E0,-7.511023E-1,-2.3980884E-1,-1.6914418E-1,-1.6376685E-1,-1.00898944E-1,-1.3198017E-1,-9.8893575E-2,-2.6683254E-2,-7.613944E-2,-7.497305E-2,-1.43786995E-2,-1.008494E-2,-4.511096E-2,9.829321E-3,-3.375019E-2,3.0639697E-2,-1.5066474E-2,3.3143142E-3,1.0141911E-1,1.5645346E-3,6.71626E-2,5.893734E-2,1.18681066E-1,7.75431E-2,1.3533124E-1,1.8356717E-1,1.2263316E-1,2.9711941E-2,1.4645435E-1,4.995842E-2,1.9113283E-1,3.116423E-1,1.8831404E-1],"split_indices":[11,11,5,11,5,5,14,1,1,1,1,1,1,4,0,11,0,5,10,8,13,3,4,8,5,11,7,1,12,13,4,0,0,0,0,0,0,0,0,0,0,0,0,0,0,0,0,0,0,0,0,0,0,0,0,0,0,0,0,0,0,0,0],"split_type":[0,0,0,0,0,0,0,0,0,0,0,0,0,0,0,0,0,0,0,0,0,0,0,0,0,0,0,0,0,0,0,0,0,0,0,0,0,0,0,0,0,0,0,0,0,0,0,0,0,0,0,0,0,0,0,0,0,0,0,0,0,0,0],"sum_hessian":[1.737E3,1.15E3,5.87E2,5.98E2,5.52E2,3.21E2,2.66E2,1.11E2,4.87E2,1.44E2,4.08E2,1.15E2,2.06E2,1.95E2,7.1E1,3.6E1,7.5E1,2.03E2,2.84E2,6.6E1,7.8E1,1.58E2,2.5E2,4.2E1,7.3E1,9.1E1,1.15E2,1.26E2,6.9E1,4.1E1,3E1,2.1E1,1.5E1,6.2E1,1.3E1,9.5E1,1.08E2,4.5E1,2.39E2,6.2E1,4E0,3E1,4.8E1,3.9E1,1.19E2,1.31E2,1.19E2,3.9E1,3E0,5E0,6.8E1,5.7E1,3.4E1,3.9E1,7.6E1,1.01E2,2.5E1,1.4E1,5.5E1,1E0,4E1,2.3E1,7E0],"tree_param":{"num_deleted":"0","num_feature":"16","num_nodes":"63","size_leaf_vector":"1"}},{"base_weights":[-5.1415223E-3,-5.6001186E-1,1.1586223E0,-1.2506638E0,-3.2968274E-1,7.5876004E-1,1.6777943E0,-1.6987379E0,-1.0529269E0,-5.691316E-1,-3.7592694E-2,5.4836726E-1,1.0758295E0,1.3809063E0,2.0180192E0,-2.0264833E0,-1.4378828E0,-3.6888802E-1,-1.1041791E0,-6.754281E-1,-3.4217244E-1,-2.2614048E-1,2.643263E-1,4.1799808E-1,7.7016705E-1,7.6732177E-1,1.2597982E0,1.6567682E0,1.1551805E0,1.8228636E0,2.6576373E-1,-9.7223364E-2,-2.1248095E-1,-6.725984E-2,-1.470348E-1,-7.0691146E-2,1.6670091E-2,-1.3056491E-1,-9.815415E-2,-3.8721588E-2,-7.7461116E-2,-7.095548E-2,-1.1000412E-2,-7.1227024E-3,-3.4710698E-2,2.6108618E-3,4.5021933E-2,3.4477197E-2,9.320048E-2,1.17053226E-1,4.822425E-2,1.2638721E-1,3.9415922E-2,8.535262E-2,1.3429816E-1,1.1434499E-1,1.8092409E-1,2.6309123E-2,1.3322754E-1,3.7240665E-2,1.8519269E-1],"categories":[],"categories_nodes":[],"categories_segments":[],"categories_sizes":[],"default_left":[0,0,0,0,0,0,0,0,0,0,0,0,0,0,0,0,0,0,0,0,0,0,0,0,0,0,0,0,0,0,0,0,0,0,0,0,0,0,0,0,0,0,0,0,0,0,0,0,0,0,0,0,0,0,0,0,0,0,0,0,0],"id":13,"left_children":[1,3,5,7,9,11,13,15,17,19,21,23,25,27,29,31,33,35,37,39,41,43,45,47,49,51,53,55,57,59,-1,-1,-1,-1,-1,-1,-1,-1,-1,-1,-1,-1,-1,-1,-1,-1,-1,-1,-1,-1,-1,-1,-1,-1,-1,-1,-1,-1,-1,-1,-1],"loss_changes":[1.1300446E3,1.8809424E2,1.1601941E2,2.4437164E1,6.222577E1,2.082367E1,2.1960388E1,4.695099E0,6.8848724E0,1.1565994E1,2.294409E1,5.3166656E0,6.2413177E0,6.4302216E0,9.135925E0,1.7696381E0,3.2783508E-1,3.0145085E0,3.4870605E0,9.1905365E0,1.3398483E1,4.622631E0,6.852112E0,4.3835106E0,7.620037E0,8.766529E0,1.4897461E0,2.4707031E0,1.1814285E1,3.0621338E0,0E0,0E0,0E0,0E0,0E0,0E0,0E0,0E0,0E0,0E0,0E0,0E0,0E0,0E0,0E0,0E0,0E0,0E0,0E0,0E0,0E0,0E0,0E0,0E0,0E0,0E0,0E0,0E0,0E0,0E0,0E0],"parents":[2147483647,0,0,1,1,2,2,3,3,4,4,5,5,6,6,7,7,8,8,9,9,10,10,11,11,12,12,13,13,14,14,15,15,16,16,17,17,18,18,19,19,20,20,21,21,22,22,23,23,24,24,25,25,26,26,27,27,28,28,29,29],"right_children":[2,4,6,8,10,12,14,16,18,20,22,24,26,28,30,32,34,36,38,40,42,44,46,48,50,52,54,56,58,60,-1,-1,-1,-1,-1,-1,-1,-1,-1,-1,-1,-1,-1,-1,-1,-1,-1,-1,-1,-1,-1,-1,-1,-1,-1,-1,-1,-1,-1,-1,-1],"split_conditions":[2.5932473E-1,-9.283177E-1,1.3905274E0,-1.3379284E0,-2.62996E-1,9.2025775E-1,7.408256E-1,-3.511966E-2,-4.3401513E-1,1.258751E0,7.408256E-1,7.408256E-1,-7.5606626E-1,-6.7417306E-1,2.036337E0,-2.797801E-1,-2.7813134E-1,7.408256E-1,-6.7417306E-1,-6.7417306E-1,3.332628E-2,-6.7417306E-1,3.332628E-2,7.624644E-1,1.258751E0,-2.0256977E0,3.332628E-2,1.2849932E0,-1.0333214E0,-1.0940897E0,2.6576373E-1,-9.7223364E-2,-2.1248095E-1,-6.725984E-2,-1.470348E-1,-7.0691146E-2,1.6670091E-2,-1.3056491E-1,-9.815415E-2,-3.8721588E-2,-7.7461116E-2,-7.095548E-2,-1.1000412E-2,-7.1227024E-3,-3.4710698E-2,2.6108618E-3,4.5021933E-2,3.4477197E-2,9.320048E-2,1.17053226E-1,4.822425E-2,1.2638721E-1,3.9415922E-2,8.535262E-2,1.3429816E-1,1.1434499E-1,1.8092409E-1,2.6309123E-2,1.3322754E-1,3.7240665E-2,1.8519269E-1],"split_indices":[14,5,11,11,14,5,0,2,6,0,0,1,7,0,14,6,15,1,1,0,1,0,1,2,1,6,1,5,7,7,0,0,0,0,0,0,0,0,0,0,0,0,0,0,0,0,0,0,0,0,0,0,0,0,0,0,0,0,0,0,0],"split_type":[0,0,0,0,0,0,0,0,0,0,0,0,0,0,0,0,0,0,0,0,0,0,0,0,0,0,0,0,0,0,0,0,0,0,0,0,0,0,0,0,0,0,0,0,0,0,0,0,0,0,0,0,0,0,0,0,0,0,0,0,0],"sum_hessian":[1.748E3,1.184E3,5.64E2,2.95E2,8.89E2,3.2E2,2.44E2,8.8E1,2.07E2,4.88E2,4.01E2,1.94E2,1.26E2,1.33E2,1.11E2,3.6E1,5.2E1,1.5E1,1.92E2,3.31E2,1.57E2,2.47E2,1.54E2,1.24E2,7E1,4.9E1,7.7E1,5.7E1,7.6E1,8.8E1,2.3E1,4E0,3.2E1,3E0,4.9E1,9E0,6E0,6.9E1,1.23E2,8.6E1,2.45E2,6E1,9.7E1,1.09E2,1.38E2,6.8E1,8.6E1,1.1E2,1.4E1,2.8E1,4.2E1,2E1,2.9E1,1.5E1,6.2E1,1.5E1,4.2E1,1.3E1,6.3E1,2E0,8.6E1],"tree_param":{"num_deleted":"0","num_feature":"16","num_nodes":"61","size_leaf_vector":"1"}},{"base_weights":[2.660853E-2,-4.848469E-1,1.0503539E0,-8.9518166E-1,-1.7836826E-1,7.6748633E-1,1.6469408E0,-1.3951489E0,-7.577028E-1,-4.200119E-1,-3.1559195E-2,3.7193614E-1,9.401759E-1,1.0943786E0,1.7546526E0,-1.7401135E0,-1.229362E0,-9.875359E-1,-6.0322326E-1,-6.0875493E-1,-2.7188778E-1,-2.128746E-1,1.2784651E-1,-2.7075666E-1,4.577552E-1,7.459177E-1,1.0924643E0,3.7484297E-1,1.3096362E0,1.4273462E0,1.99031E0,-6.568E-2,-1.7904411E-1,-5.7805117E-2,-1.2985028E-1,-6.281681E-2,-1.0269681E-1,-3.653855E-2,-8.440365E-2,-3.9952528E-2,-7.528962E-2,4.594557E-2,-3.1863004E-2,-4.3822583E-2,-1.09472405E-2,4.8479237E-2,1.0228236E-3,-7.9349026E-2,-8.5362524E-4,8.508011E-2,3.6428697E-2,5.0940543E-2,9.152944E-2,5.700593E-2,1.1764864E-1,6.2814265E-2,-9.881735E-3,1.5737318E-1,8.923884E-2,3.9819337E-2,1.4854465E-1,1.8085895E-1,2.5454885E-1],"categories":[],"categories_nodes":[],"categories_segments":[],"categories_sizes":[],"default_left":[0,0,0,0,0,0,0,0,0,0,0,0,0,0,0,0,0,0,0,0,0,0,0,0,0,0,0,0,0,0,0,0,0,0,0,0,0,0,0,0,0,0,0,0,0,0,0,0,0,0,0,0,0,0,0,0,0,0,0,0,0,0,0],"id":14,"left_children":[1,3,5,7,9,11,13,15,17,19,21,23,25,27,29,31,33,35,37,39,41,43,45,47,49,51,53,55,57,59,61,-1,-1,-1,-1,-1,-1,-1,-1,-1,-1,-1,-1,-1,-1,-1,-1,-1,-1,-1,-1,-1,-1,-1,-1,-1,-1,-1,-1,-1,-1,-1,-1],"loss_changes":[9.131442E2,1.4609784E2,9.678265E1,3.3104156E1,2.3648888E1,2.6700043E1,9.150024E0,3.9229736E0,1.3322052E1,6.8797493E0,1.2050743E1,6.852886E0,7.320511E0,4.6203156E0,9.037476E0,5.6869507E-1,2.6268082E0,1.5655212E0,1.32656555E1,3.0166512E0,5.0348005E0,4.49588E0,9.315345E0,2.0492978E0,3.6576939E0,4.5011444E0,6.0011444E0,1.1418736E0,1.3504524E0,3.4745026E0,4.1734314E0,0E0,0E0,0E0,0E0,0E0,0E0,0E0,0E0,0E0,0E0,0E0,0E0,0E0,0E0,0E0,0E0,0E0,0E0,0E0,0E0,0E0,0E0,0E0,0E0,0E0,0E0,0E0,0E0,0E0,0E0,0E0,0E0],"parents":[2147483647,0,0,1,1,2,2,3,3,4,4,5,5,6,6,7,7,8,8,9,9,10,10,11,11,12,12,13,13,14,14,15,15,16,16,17,17,18,18,19,19,20,20,21,21,22,22,23,23,24,24,25,25,26,26,27,27,28,28,29,29,30,30],"right_children":[2,4,6,8,10,12,14,16,18,20,22,24,26,28,30,32,34,36,38,40,42,44,46,48,50,52,54,56,58,60,62,-1,-1,-1,-1,-1,-1,-1,-1,-1,-1,-1,-1,-1,-1,-1,-1,-1,-1,-1,-1,-1,-1,-1,-1,-1,-1,-1,-1,-1,-1,-1,-1],"split_conditions":[2.9352424E-1,-6.394623E-1,1.5100372E0,-1.2112572E0,-3.455009E-1,6.2591547E-1,1.4814427E0,3.332628E-2,3.332628E-2,3.332628E-2,3.332628E-2,5.986798E-2,3.332628E-2,-1.0832458E0,3.332628E-2,-1.22028515E-1,-4.747524E-1,-9.699275E-1,1.258751E0,-1.0536625E0,-9.554375E-1,-1.3238087E-1,-6.9594437E-1,-9.991393E-1,1.3871427E-1,1.2620739E0,6.331961E-1,1.6495539E0,1.6858964E0,-1.543988E0,2.0029104E0,-6.568E-2,-1.7904411E-1,-5.7805117E-2,-1.2985028E-1,-6.281681E-2,-1.0269681E-1,-3.653855E-2,-8.440365E-2,-3.9952528E-2,-7.528962E-2,4.594557E-2,-3.1863004E-2,-4.3822583E-2,-1.09472405E-2,4.8479237E-2,1.0228236E-3,-7.9349026E-2,-8.5362524E-4,8.508011E-2,3.6428697E-2,5.0940543E-2,9.152944E-2,5.700593E-2,1.1764864E-1,6.2814265E-2,-9.881735E-3,1.5737318E-1,8.923884E-2,3.9819337E-2,1.4854465E-1,1.8085895E-1,2.5454885E-1],"split_indices":[5,11,5,11,11,5,11,1,1,1,1,11,1,13,1,15,10,3,1,3,4,14,4,7,8,11,11,5,5,10,11,0,0,0,0,0,0,0,0,0,0,0,0,0,0,0,0,0,0,0,0,0,0,0,0,0,0,0,0,0,0,0,0],"split_type":[0,0,0,0,0,0,0,0,0,0,0,0,0,0,0,0,0,0,0,0,0,0,0,0,0,0,0,0,0,0,0,0,0,0,0,0,0,0,0,0,0,0,0,0,0,0,0,0,0,0,0,0,0,0,0,0,0,0,0,0,0,0,0],"sum_hessian":[1.742E3,1.162E3,5.8E2,4.96E2,6.66E2,3.95E2,1.85E2,1.05E2,3.91E2,2.51E2,4.15E2,1.21E2,2.74E2,3.2E1,1.53E2,3.1E1,7.4E1,1.55E2,2.36E2,1.09E2,1.42E2,1.94E2,2.21E2,1.4E1,1.07E2,1.23E2,1.51E2,8E0,2.4E1,6.7E1,8.6E1,2E0,2.9E1,8E0,6.6E1,1.7E1,1.38E2,1.2E2,1.16E2,4.6E1,6.3E1,8E0,1.34E2,6E1,1.34E2,5.4E1,1.67E2,4E0,1E1,1.9E1,8.8E1,5.3E1,7E1,2.2E1,1.29E2,5E0,3E0,1.3E1,1.1E1,4E0,6.3E1,6.8E1,1.8E1],"tree_param":{"num_deleted":"0","num_feature":"16","num_nodes":"63","size_leaf_vector":"1"}},{"base_weights":[2.2793805E-2,-4.083891E-1,1.0535854E0,-7.526364E-1,-9.179561E-2,8.16543E-1,1.4854133E0,-1.1082286E0,-5.683847E-1,-2.0765059E-1,1.345143E-1,5.7993513E-1,9.765195E-1,1.3806138E0,1.9907137E0,-1.4189197E0,-9.276286E-1,-8.923159E-1,-4.7029167E-1,-3.5766086E-1,1.0407998E-2,-9.5604375E-2,2.7565736E-1,5.278713E-1,1.1935654E0,7.452524E-1,1.128955E0,1.1646792E0,1.6230971E0,3.5856724E-2,2.0361986E0,-1.981714E-1,-1.284945E-1,-1.4576894E-1,-8.663819E-2,-3.9052542E-2,-1.0123396E-1,-2.1819055E-2,-5.450938E-2,-4.537892E-2,-2.3259053E-2,6.7876756E-2,-7.5345845E-3,-2.51561E-2,1.7914599E-2,4.4330634E-2,2.8242623E-3,5.9924126E-2,1.906593E-2,1.2933639E-1,1.4768982E-2,9.192299E-2,5.1961448E-2,7.192291E-2,1.181641E-1,7.695904E-2,1.259336E-1,1.2636521E-1,1.8925337E-1,2.1994098E-1,1.3532451E-1],"categories":[],"categories_nodes":[],"categories_segments":[],"categories_sizes":[],"default_left":[0,0,0,0,0,0,0,0,0,0,0,0,0,0,0,0,0,0,0,0,0,0,0,0,0,0,0,0,0,0,0,0,0,0,0,0,0,0,0,0,0,0,0,0,0,0,0,0,0,0,0,0,0,0,0,0,0,0,0,0,0],"id":15,"left_children":[1,3,5,7,9,11,13,15,17,19,21,23,25,27,29,31,33,35,37,39,41,43,45,47,49,51,53,55,57,-1,59,-1,-1,-1,-1,-1,-1,-1,-1,-1,-1,-1,-1,-1,-1,-1,-1,-1,-1,-1,-1,-1,-1,-1,-1,-1,-1,-1,-1,-1,-1],"loss_changes":[7.7912366E2,1.3463815E2,5.1708008E1,3.8157043E1,1.693927E1,1.2151871E1,6.889435E0,9.962036E0,1.2036316E1,1.3971329E1,7.1393976E0,3.7787666E0,6.1740723E0,6.173126E0,1.4227905E0,2.882431E0,2.9574661E0,5.0250626E0,5.594948E0,2.936222E0,1.0081163E1,3.6443934E0,5.6286E0,2.990368E0,8.527527E-1,2.7413368E0,1.6973572E0,2.2096481E0,4.3878326E0,0E0,1.446991E-1,0E0,0E0,0E0,0E0,0E0,0E0,0E0,0E0,0E0,0E0,0E0,0E0,0E0,0E0,0E0,0E0,0E0,0E0,0E0,0E0,0E0,0E0,0E0,0E0,0E0,0E0,0E0,0E0,0E0,0E0],"parents":[2147483647,0,0,1,1,2,2,3,3,4,4,5,5,6,6,7,7,8,8,9,9,10,10,11,11,12,12,13,13,14,14,15,15,16,16,17,17,18,18,19,19,20,20,21,21,22,22,23,23,24,24,25,25,26,26,27,27,28,28,30,30],"right_children":[2,4,6,8,10,12,14,16,18,20,22,24,26,28,30,32,34,36,38,40,42,44,46,48,50,52,54,56,58,-1,60,-1,-1,-1,-1,-1,-1,-1,-1,-1,-1,-1,-1,-1,-1,-1,-1,-1,-1,-1,-1,-1,-1,-1,-1,-1,-1,-1,-1,-1,-1],"split_conditions":[6.1794066E-1,-5.262359E-1,1.5100372E0,-1.0375075E0,2.3305097E-3,9.2025775E-1,1.4483249E0,3.332628E-2,-6.7417306E-1,7.408256E-1,-6.7417306E-1,1.3174419E0,3.332628E-2,1.9893861E0,-2.8964925E0,-1.8129228E0,-2.0044324E0,-7.85766E-1,-7.059731E-1,-2.637614E-1,-8.4512156E-1,1.2153122E-1,-2.9034453E-2,9.940891E-1,1.6166565E0,-3.210061E-1,8.4975606E-1,1.4606758E0,3.332628E-2,3.5856724E-2,3.2715705E-1,-1.981714E-1,-1.284945E-1,-1.4576894E-1,-8.663819E-2,-3.9052542E-2,-1.0123396E-1,-2.1819055E-2,-5.450938E-2,-4.537892E-2,-2.3259053E-2,6.7876756E-2,-7.5345845E-3,-2.51561E-2,1.7914599E-2,4.4330634E-2,2.8242623E-3,5.9924126E-2,1.906593E-2,1.2933639E-1,1.4768982E-2,9.192299E-2,5.1961448E-2,7.192291E-2,1.181641E-1,7.695904E-2,1.259336E-1,1.2636521E-1,1.8925337E-1,2.1994098E-1,1.3532451E-1],"split_indices":[14,11,5,11,11,5,0,1,1,1,1,8,1,14,6,5,11,3,4,11,4,14,4,15,8,12,11,11,0,0,6,0,0,0,0,0,0,0,0,0,0,0,0,0,0,0,0,0,0,0,0,0,0,0,0,0,0,0,0,0,0],"split_type":[0,0,0,0,0,0,0,0,0,0,0,0,0,0,0,0,0,0,0,0,0,0,0,0,0,0,0,0,0,0,0,0,0,0,0,0,0,0,0,0,0,0,0,0,0,0,0,0,0,0,0,0,0,0,0,0,0,0,0,0,0],"sum_hessian":[1.751E3,1.235E3,5.16E2,5.91E2,6.44E2,3.35E2,1.81E2,2E2,3.91E2,4.26E2,2.18E2,1.37E2,1.98E2,1.53E2,2.8E1,7.1E1,1.29E2,8.9E1,3.02E2,2.52E2,1.74E2,8.3E1,1.35E2,1.28E2,9E0,8.1E1,1.17E2,8.4E1,6.9E1,1E0,2.7E1,1.1E1,6E1,1.1E1,1.18E2,1.8E1,7.1E1,7E1,2.32E2,1.41E2,1.11E2,1.9E1,1.55E2,5.3E1,3E1,8E1,5.5E1,1.05E2,2.3E1,8E0,1E0,4.4E1,3.7E1,1.5E1,1.02E2,1.8E1,6.6E1,3.2E1,3.7E1,2E1,7E0],"tree_param":{"num_deleted":"0","num_feature":"16","num_nodes":"61","size_leaf_vector":"1"}},{"base_weights":[4.089667E-3,-4.2585286E-1,8.2826066E-1,-9.177238E-1,-2.5277898E-1,5.4863995E-1,1.2280928E0,-1.087462E0,-6.440665E-1,-4.1733992E-1,-6.358184E-2,1.7858943E-1,6.823747E-1,9.620869E-1,1.4498665E0,-1.5953758E0,-9.582533E-1,-2.0449324E-1,-7.1304303E-1,-5.516729E-1,-2.2689834E-1,2.0445192E-1,-1.4673756E-1,2.496792E-2,4.7545087E-1,5.261074E-1,8.6643785E-1,1.0836843E0,6.9357413E-1,1.0239826E0,1.6414931E0,-2.0923595E-1,-1.312888E-1,-7.042304E-2,-1.0507363E-1,-6.6401325E-2,1.0651884E-2,-8.673362E-2,-4.637773E-2,-5.9694964E-2,-2.0759135E-2,1.02599105E-2,-4.3408457E-2,-6.903425E-3,5.3818595E-2,-2.4487294E-2,-1.0052667E-3,-2.6290957E-2,1.9707022E-2,3.8611438E-2,1.0042777E-1,2.527639E-2,6.318596E-2,8.950903E-2,2.9240718E-2,3.126466E-2,1.1453068E-1,4.3450195E-2,9.2977785E-2,1.520261E-1,4.811598E-2,1.24099076E-1,1.8481909E-1],"categories":[],"categories_nodes":[],"categories_segments":[],"categories_sizes":[],"default_left":[0,0,0,0,0,0,0,0,0,0,0,0,0,0,0,0,0,0,0,0,0,0,0,0,0,0,0,0,0,0,0,0,0,0,0,0,0,0,0,0,0,0,0,0,0,0,0,0,0,0,0,0,0,0,0,0,0,0,0,0,0,0,0],"id":16,"left_children":[1,3,5,7,9,11,13,15,17,19,21,23,25,27,29,31,33,35,37,39,41,43,45,47,49,51,53,55,57,59,61,-1,-1,-1,-1,-1,-1,-1,-1,-1,-1,-1,-1,-1,-1,-1,-1,-1,-1,-1,-1,-1,-1,-1,-1,-1,-1,-1,-1,-1,-1,-1,-1],"loss_changes":[6.098281E2,9.605003E1,6.528903E1,1.2955948E1,2.6064144E1,1.7149666E1,1.2881439E1,1.0284042E1,3.3410187E0,1.1335815E1,8.74482E0,4.274934E0,6.9074936E0,2.9378815E0,8.928528E0,2.166687E0,2.6899872E0,2.5003061E0,3.4052887E0,3.9577484E0,1.2810528E1,8.525415E0,4.008213E0,3.1731074E0,1.1240273E0,3.91613E0,1.6461716E0,3.2529373E0,1.9213734E0,1.0852333E1,4.9913177E0,0E0,0E0,0E0,0E0,0E0,0E0,0E0,0E0,0E0,0E0,0E0,0E0,0E0,0E0,0E0,0E0,0E0,0E0,0E0,0E0,0E0,0E0,0E0,0E0,0E0,0E0,0E0,0E0,0E0,0E0,0E0,0E0],"parents":[2147483647,0,0,1,1,2,2,3,3,4,4,5,5,6,6,7,7,8,8,9,9,10,10,11,11,12,12,13,13,14,14,15,15,16,16,17,17,18,18,19,19,20,20,21,21,22,22,23,23,24,24,25,25,26,26,27,27,28,28,29,29,30,30],"right_children":[2,4,6,8,10,12,14,16,18,20,22,24,26,28,30,32,34,36,38,40,42,44,46,48,50,52,54,56,58,60,62,-1,-1,-1,-1,-1,-1,-1,-1,-1,-1,-1,-1,-1,-1,-1,-1,-1,-1,-1,-1,-1,-1,-1,-1,-1,-1,-1,-1,-1,-1,-1,-1],"split_conditions":[1.887619E-1,-9.066229E-1,1.3905274E0,7.408256E-1,-3.455009E-1,-6.7417306E-1,3.332628E-2,-1.4722413E0,-2.6921332E-1,7.408256E-1,-7.059731E-1,7.408256E-1,8.8588595E-1,2.2970945E-1,-1.7267805E0,-6.7417306E-1,-4.7405893E-1,-1.0093813E0,4.635031E-1,1.4483249E0,1.258751E0,7.408256E-1,7.408256E-1,-6.075312E-1,1.1211909E0,-9.1328263E-1,1.6495539E0,-1.5572401E0,1.5100372E0,1.258751E0,1.6266011E0,-2.0923595E-1,-1.312888E-1,-7.042304E-2,-1.0507363E-1,-6.6401325E-2,1.0651884E-2,-8.673362E-2,-4.637773E-2,-5.9694964E-2,-2.0759135E-2,1.02599105E-2,-4.3408457E-2,-6.903425E-3,5.3818595E-2,-2.4487294E-2,-1.0052667E-3,-2.6290957E-2,1.9707022E-2,3.8611438E-2,1.0042777E-1,2.527639E-2,6.318596E-2,8.950903E-2,2.9240718E-2,3.126466E-2,1.1453068E-1,4.3450195E-2,9.2977785E-2,1.520261E-1,4.811598E-2,1.24099076E-1,1.8481909E-1],"split_indices":[11,14,11,0,11,1,1,11,15,1,4,0,11,9,9,1,4,9,9,0,1,1,0,2,11,9,5,10,5,1,5,0,0,0,0,0,0,0,0,0,0,0,0,0,0,0,0,0,0,0,0,0,0,0,0,0,0,0,0,0,0,0,0],"split_type":[0,0,0,0,0,0,0,0,0,0,0,0,0,0,0,0,0,0,0,0,0,0,0,0,0,0,0,0,0,0,0,0,0,0,0,0,0,0,0,0,0,0,0,0,0,0,0,0,0,0,0,0,0,0,0,0,0,0,0,0,0,0,0],"sum_hessian":[1.719E3,1.13E3,5.89E2,2.93E2,8.37E2,3.48E2,2.41E2,1.79E2,1.14E2,4.47E2,3.9E2,9.3E1,2.55E2,1.12E2,1.29E2,3.4E1,1.45E2,1.6E1,9.8E1,2.61E2,1.86E2,9.2E1,2.98E2,6.2E1,3.1E1,1.4E2,1.15E2,7.5E1,3.7E1,4.2E1,8.7E1,1E1,2.4E1,4.1E1,1.04E2,6E0,1E1,5.9E1,3.9E1,2.3E2,3.1E1,7.2E1,1.14E2,5.1E1,4.1E1,1.73E2,1.25E2,2.3E1,3.9E1,2.8E1,3E0,4E1,1E2,1.09E2,6E0,6E0,6.9E1,1.9E1,1.8E1,2.1E1,2.1E1,3.2E1,5.5E1],"tree_param":{"num_deleted":"0","num_feature":"16","num_nodes":"63","size_leaf_vector":"1"}},{"base_weights":[-1.112399E-3,-3.9316592E-1,7.4023896E-1,-7.573239E-1,-1.8467295E-1,4.0837702E-1,1.0271274E0,-1.1775486E0,-6.45433E-1,-3.8850328E-1,-5.875343E-2,-7.236206E-2,4.5408607E-1,7.349959E-1,1.2043103E0,-1.5290755E-1,-1.0305222E0,-4.5439178E-1,-7.243702E-1,-6.5092075E-1,-2.8075084E-1,-1.8739212E-1,5.2907497E-2,1.2359667E-1,-3.786598E-1,2.1335213E-1,5.4999894E-1,9.068128E-1,2.5856894E-1,1.0727236E0,1.6249425E0,-7.076996E-2,-1.1344415E-1,-5.921455E-2,-2.2130309E-2,-7.531742E-2,-2.2822503E-2,-7.232817E-2,-2.6329597E-2,-1.4401646E-2,-4.1057568E-2,1.0283432E-2,-2.4502527E-2,3.9113436E-2,-3.1924774E-3,3.8309783E-2,-2.6477596E-2,-5.1714E-2,-4.165459E-3,5.8066864E-2,-9.6455505E-3,2.8500462E-2,7.145449E-2,-4.4687558E-2,9.586282E-2,4.5061283E-2,-4.2190026E-2,8.320465E-3,1.0987295E-1,1.3477325E-2,1.655747E-1],"categories":[],"categories_nodes":[],"categories_segments":[],"categories_sizes":[],"default_left":[0,0,0,0,0,0,0,0,0,0,0,0,0,0,0,0,0,0,0,0,0,0,0,0,0,0,0,0,0,0,0,0,0,0,0,0,0,0,0,0,0,0,0,0,0,0,0,0,0,0,0,0,0,0,0,0,0,0,0,0,0],"id":17,"left_children":[1,3,5,7,9,11,13,15,17,19,21,23,25,27,29,-1,31,33,35,37,39,41,43,45,47,49,51,53,55,57,59,-1,-1,-1,-1,-1,-1,-1,-1,-1,-1,-1,-1,-1,-1,-1,-1,-1,-1,-1,-1,-1,-1,-1,-1,-1,-1,-1,-1,-1,-1],"loss_changes":[5.0078934E2,8.542691E1,5.6324097E1,1.8517883E1,1.8405523E1,6.1416664E0,1.5626495E1,2.8173752E0,4.5870056E0,7.564907E0,6.4018574E0,1.547344E0,5.747387E0,9.834084E0,9.160767E0,0E0,1.310646E0,3.0156212E0,3.1007385E0,2.025425E0,3.4201689E0,3.4876146E0,6.870007E0,1.7139655E0,4.4514406E-1,8.47702E0,7.6886215E0,6.741165E0,4.6332316E0,3.8457642E0,1.8425217E0,0E0,0E0,0E0,0E0,0E0,0E0,0E0,0E0,0E0,0E0,0E0,0E0,0E0,0E0,0E0,0E0,0E0,0E0,0E0,0E0,0E0,0E0,0E0,0E0,0E0,0E0,0E0,0E0,0E0,0E0],"parents":[2147483647,0,0,1,1,2,2,3,3,4,4,5,5,6,6,7,7,8,8,9,9,10,10,11,11,12,12,13,13,14,14,16,16,17,17,18,18,19,19,20,20,21,21,22,22,23,23,24,24,25,25,26,26,27,27,28,28,29,29,30,30],"right_children":[2,4,6,8,10,12,14,16,18,20,22,24,26,28,30,-1,32,34,36,38,40,42,44,46,48,50,52,54,56,58,60,-1,-1,-1,-1,-1,-1,-1,-1,-1,-1,-1,-1,-1,-1,-1,-1,-1,-1,-1,-1,-1,-1,-1,-1,-1,-1,-1,-1,-1,-1],"split_conditions":[2.5167796E-1,-7.485071E-1,1.1211909E0,-1.3379284E0,-4.2574424E-1,7.433963E-2,3.332628E-2,-1.8996935E0,-6.307577E-1,-6.7417306E-1,3.332628E-2,3.3902038E-2,-8.8899684E-1,-5.066523E-1,1.9893861E0,-1.5290755E-1,-3.9884353E-1,7.408256E-1,1.4483249E0,-3.3223975E-1,3.7373108E-1,-1.1820564E0,-7.059731E-1,2.7974615E-2,1.258751E0,-6.7417306E-1,3.332628E-2,1.2337321E0,1.4676288E0,-1.0852276E0,-1.5844418E0,-7.076996E-2,-1.1344415E-1,-5.921455E-2,-2.2130309E-2,-7.531742E-2,-2.2822503E-2,-7.232817E-2,-2.6329597E-2,-1.4401646E-2,-4.1057568E-2,1.0283432E-2,-2.4502527E-2,3.9113436E-2,-3.1924774E-3,3.8309783E-2,-2.6477596E-2,-5.1714E-2,-4.165459E-3,5.8066864E-2,-9.6455505E-3,2.8500462E-2,7.145449E-2,-4.4687558E-2,9.586282E-2,4.5061283E-2,-4.2190026E-2,8.320465E-3,1.0987295E-1,1.3477325E-2,1.655747E-1],"split_indices":[5,11,11,11,11,11,0,5,4,1,1,2,7,4,14,0,4,1,0,8,10,3,4,14,1,0,1,14,5,7,10,0,0,0,0,0,0,0,0,0,0,0,0,0,0,0,0,0,0,0,0,0,0,0,0,0,0,0,0,0,0],"split_type":[0,0,0,0,0,0,0,0,0,0,0,0,0,0,0,0,0,0,0,0,0,0,0,0,0,0,0,0,0,0,0,0,0,0,0,0,0,0,0,0,0,0,0,0,0,0,0,0,0,0,0,0,0,0,0,0,0,0,0,0,0],"sum_hessian":[1.721E3,1.126E3,5.95E2,4.09E2,7.17E2,2.77E2,3.18E2,8.4E1,3.25E2,2.73E2,4.44E2,2.4E1,2.53E2,1.22E2,1.96E2,2.2E1,6.2E1,9.7E1,2.28E2,7.8E1,1.95E2,2.06E2,2.38E2,1.5E1,9E0,7.3E1,1.8E2,8.9E1,3.3E1,1.52E2,4.4E1,1.7E1,4.5E1,6E1,3.7E1,2.15E2,1.3E1,6.5E1,1.3E1,9.6E1,9.9E1,3.4E1,1.72E2,4.7E1,1.91E2,9E0,6E0,6E0,3E0,3.3E1,4E1,7E1,1.1E2,3E0,8.6E1,2.6E1,7E0,4E0,1.48E2,1E0,4.3E1],"tree_param":{"num_deleted":"0","num_feature":"16","num_nodes":"61","size_leaf_vector":"1"}},{"base_weights":[-3.9976655E-4,-3.7342468E-1,6.4296734E-1,-7.036314E-1,-1.9895071E-1,3.0286717E-1,8.790718E-1,-1.0418842E0,-6.021781E-1,-4.0954024E-1,-1.1990226E-1,1.5210438E-1,4.536198E-1,6.973564E-1,1.071932E0,-1.4820594E-1,-9.218157E-1,-6.7654526E-1,-4.1489482E-1,-1.8453844E-1,-5.481927E-1,-2.1218108E-1,7.01175E-2,3.9639737E-2,3.4638712E-1,6.808977E-2,5.8144206E-1,6.3928527E-1,1.0414629E0,7.781303E-1,1.1803728E0,-1.0059251E-1,-6.7365415E-2,-4.779781E-2,-8.545207E-2,4.5254327E-2,-4.4062916E-2,-1.1268936E-2,-3.9793618E-2,-8.0617E-2,-4.4751E-2,-6.880083E-2,-1.819005E-2,-2.3713935E-2,1.3066771E-2,2.4272004E-2,-1.3403796E-2,3.7423007E-2,-6.0403347E-3,4.7343373E-2,-5.4478973E-2,5.5405097E-3,7.223571E-2,-4.9357127E-2,6.4879656E-2,1.2294407E-1,3.2874923E-2,1.2137611E-1,4.182091E-2,9.835547E-2,1.3536984E-1],"categories":[],"categories_nodes":[],"categories_segments":[],"categories_sizes":[],"default_left":[0,0,0,0,0,0,0,0,0,0,0,0,0,0,0,0,0,0,0,0,0,0,0,0,0,0,0,0,0,0,0,0,0,0,0,0,0,0,0,0,0,0,0,0,0,0,0,0,0,0,0,0,0,0,0,0,0,0,0,0,0],"id":18,"left_children":[1,3,5,7,9,11,13,15,17,19,21,23,25,27,29,-1,31,33,35,37,39,41,43,45,47,49,51,53,55,57,59,-1,-1,-1,-1,-1,-1,-1,-1,-1,-1,-1,-1,-1,-1,-1,-1,-1,-1,-1,-1,-1,-1,-1,-1,-1,-1,-1,-1,-1,-1],"loss_changes":[4.2046603E2,6.375226E1,5.136615E1,1.2515945E1,1.20531025E1,5.9538937E0,1.253479E1,3.231865E0,3.8558502E0,6.0758514E0,9.30832E0,2.914161E0,6.4652767E0,3.2907715E0,4.8800507E0,0E0,8.0431366E-1,7.0483093E0,2.1415014E0,1.1357541E0,2.8080406E0,5.0186214E0,3.268164E0,3.065798E0,5.7759094E-1,8.70444E0,7.298504E0,2.1735153E0,3.213131E0,7.6456165E0,3.1374512E0,0E0,0E0,0E0,0E0,0E0,0E0,0E0,0E0,0E0,0E0,0E0,0E0,0E0,0E0,0E0,0E0,0E0,0E0,0E0,0E0,0E0,0E0,0E0,0E0,0E0,0E0,0E0,0E0,0E0,0E0],"parents":[2147483647,0,0,1,1,2,2,3,3,4,4,5,5,6,6,7,7,8,8,9,9,10,10,11,11,12,12,13,13,14,14,16,16,17,17,18,18,19,19,20,20,21,21,22,22,23,23,24,24,25,25,26,26,27,27,28,28,29,29,30,30],"right_children":[2,4,6,8,10,12,14,16,18,20,22,24,26,28,30,-1,32,34,36,38,40,42,44,46,48,50,52,54,56,58,60,-1,-1,-1,-1,-1,-1,-1,-1,-1,-1,-1,-1,-1,-1,-1,-1,-1,-1,-1,-1,-1,-1,-1,-1,-1,-1,-1,-1,-1,-1],"split_conditions":[1.17824845E-1,-8.0829096E-1,8.772844E-1,-1.2877961E0,-6.7417306E-1,3.332628E-2,1.5100372E0,-1.9596237E0,7.408256E-1,-1.0536625E0,-2.0099431E-1,5.4187053E-1,-9.23179E-1,1.258751E0,3.332628E-2,-1.4820594E-1,7.6489544E-1,-6.7417306E-1,-1.0532175E0,1.184096E0,-7.536495E-1,-9.991393E-1,-7.240883E-1,5.4618084E-1,1.0611088E0,-8.501359E-1,-1.0648273E0,-2.692729E0,-3.780958E-2,-6.7417306E-1,3.332628E-2,-1.0059251E-1,-6.7365415E-2,-4.779781E-2,-8.545207E-2,4.5254327E-2,-4.4062916E-2,-1.1268936E-2,-3.9793618E-2,-8.0617E-2,-4.4751E-2,-6.880083E-2,-1.819005E-2,-2.3713935E-2,1.3066771E-2,2.4272004E-2,-1.3403796E-2,3.7423007E-2,-6.0403347E-3,4.7343373E-2,-5.4478973E-2,5.5405097E-3,7.223571E-2,-4.9357127E-2,6.4879656E-2,1.2294407E-1,3.2874923E-2,1.2137611E-1,4.182091E-2,9.835547E-2,1.3536984E-1],"split_indices":[11,11,14,14,1,1,5,5,0,3,11,5,7,0,0,0,9,0,4,13,5,7,9,3,9,4,3,6,4,0,1,0,0,0,0,0,0,0,0,0,0,0,0,0,0,0,0,0,0,0,0,0,0,0,0,0,0,0,0,0,0],"split_type":[0,0,0,0,0,0,0,0,0,0,0,0,0,0,0,0,0,0,0,0,0,0,0,0,0,0,0,0,0,0,0,0,0,0,0,0,0,0,0,0,0,0,0,0,0,0,0,0,0,0,0,0,0,0,0,0,0,0,0,0,0],"sum_hessian":[1.75E3,1.108E3,6.42E2,3.82E2,7.26E2,2.64E2,3.78E2,8.6E1,2.96E2,1.97E2,5.29E2,1.33E2,1.31E2,1.97E2,1.81E2,1.6E1,7E1,2.1E2,8.6E1,7.6E1,1.21E2,3.56E2,1.73E2,8.5E1,4.8E1,3.3E1,9.8E1,1.71E2,2.6E1,5.1E1,1.3E2,5E1,2E1,1.01E2,1.09E2,2E0,8.4E1,5.8E1,1.8E1,3.2E1,8.9E1,2E1,3.36E2,2.8E1,1.45E2,3.9E1,4.6E1,4.5E1,3E0,2E1,1.3E1,2.1E1,7.7E1,1E0,1.7E2,2E1,6E0,2.2E1,2.9E1,6.4E1,6.6E1],"tree_param":{"num_deleted":"0","num_feature":"16","num_nodes":"61","size_leaf_vector":"1"}},{"base_weights":[-1.4966467E-2,-3.2695174E-1,5.941982E-1,-6.542604E-1,-1.8234648E-1,3.772466E-1,8.672746E-1,-9.634181E-1,-5.5376536E-1,-3.096627E-1,-4.532249E-2,-6.1135557E-2,4.2946526E-1,6.652486E-1,1.136717E0,-1.2641057E0,-7.580199E-1,-3.807372E-1,-6.5613127E-1,-4.186969E-1,-1.5686439E-1,-1.1382319E-1,2.4994524E-1,-3.0122408E-1,1.6953439E-1,1.732331E-1,5.129415E-1,8.163577E-1,4.0172902E-1,1.3700855E0,8.5988504E-1,-1.4851715E-1,-8.580041E-2,2.2836686E-4,-8.201321E-2,-5.279954E-2,-1.3928709E-2,-7.3869966E-2,-4.924687E-2,-3.0983722E-2,-5.591194E-2,-4.603192E-2,-5.3743203E-3,-1.6084775E-2,8.792827E-3,6.713285E-2,6.6861077E-3,-7.529068E-4,-3.8459916E-2,5.2904207E-2,3.83962E-3,4.0665116E-2,-3.6202647E-2,2.4586903E-2,6.558983E-2,9.275519E-2,5.445184E-2,5.1819347E-4,6.508391E-2,1.12280965E-1,1.7522947E-1,-7.303429E-3,9.173209E-2],"categories":[],"categories_nodes":[],"categories_segments":[],"categories_sizes":[],"default_left":[0,0,0,0,0,0,0,0,0,0,0,0,0,0,0,0,0,0,0,0,0,0,0,0,0,0,0,0,0,0,0,0,0,0,0,0,0,0,0,0,0,0,0,0,0,0,0,0,0,0,0,0,0,0,0,0,0,0,0,0,0,0,0],"id":19,"left_children":[1,3,5,7,9,11,13,15,17,19,21,23,25,27,29,31,33,35,37,39,41,43,45,47,49,51,53,55,57,59,61,-1,-1,-1,-1,-1,-1,-1,-1,-1,-1,-1,-1,-1,-1,-1,-1,-1,-1,-1,-1,-1,-1,-1,-1,-1,-1,-1,-1,-1,-1,-1,-1],"loss_changes":[3.305019E2,5.431082E1,3.4567764E1,1.0402725E1,1.3924818E1,7.5805283E0,1.3396713E1,4.291443E0,4.4970474E0,6.831665E0,7.835704E0,2.0447912E0,6.2209816E0,5.6848984E0,5.928314E0,1.6883011E0,2.504753E0,3.5531187E0,1.8929443E0,3.5107727E0,5.4201765E0,2.9931479E0,5.5869617E0,4.3786764E-1,8.754453E-1,9.392722E0,8.314659E0,2.3664894E0,5.62731E0,3.514145E0,2.9068985E0,0E0,0E0,0E0,0E0,0E0,0E0,0E0,0E0,0E0,0E0,0E0,0E0,0E0,0E0,0E0,0E0,0E0,0E0,0E0,0E0,0E0,0E0,0E0,0E0,0E0,0E0,0E0,0E0,0E0,0E0,0E0,0E0],"parents":[2147483647,0,0,1,1,2,2,3,3,4,4,5,5,6,6,7,7,8,8,9,9,10,10,11,11,12,12,13,13,14,14,15,15,16,16,17,17,18,18,19,19,20,20,21,21,22,22,23,23,24,24,25,25,26,26,27,27,28,28,29,29,30,30],"right_children":[2,4,6,8,10,12,14,16,18,20,22,24,26,28,30,32,34,36,38,40,42,44,46,48,50,52,54,56,58,60,62,-1,-1,-1,-1,-1,-1,-1,-1,-1,-1,-1,-1,-1,-1,-1,-1,-1,-1,-1,-1,-1,-1,-1,-1,-1,-1,-1,-1,-1,-1,-1,-1],"split_conditions":[2.5167796E-1,-8.7337E-1,1.3422147E0,-1.3751249E0,-3.455009E-1,-9.699275E-1,7.408256E-1,3.332628E-2,-4.5274788E-1,7.408256E-1,1.258751E0,-2.9772383E-1,-9.37105E-1,-5.066523E-1,-7.172554E-1,7.408256E-1,-4.747524E-1,7.408256E-1,7.408256E-1,-7.85766E-1,-5.7913643E-1,1.0978973E-1,-4.4397277E-1,-2.6202124E-1,2.785417E-1,-8.075139E-1,3.332628E-2,1.7179081E0,3.332628E-2,1.8014452E0,-1.0940897E0,-1.4851715E-1,-8.580041E-2,2.2836686E-4,-8.201321E-2,-5.279954E-2,-1.3928709E-2,-7.3869966E-2,-4.924687E-2,-3.0983722E-2,-5.591194E-2,-4.603192E-2,-5.3743203E-3,-1.6084775E-2,8.792827E-3,6.713285E-2,6.6861077E-3,-7.529068E-4,-3.8459916E-2,5.2904207E-2,3.83962E-3,4.0665116E-2,-3.6202647E-2,2.4586903E-2,6.558983E-2,9.275519E-2,5.445184E-2,5.1819347E-4,6.508391E-2,1.12280965E-1,1.7522947E-1,-7.303429E-3,9.173209E-2],"split_indices":[5,11,11,11,11,3,0,1,4,0,0,6,7,4,4,0,10,1,0,3,9,14,4,10,5,4,1,8,0,11,7,0,0,0,0,0,0,0,0,0,0,0,0,0,0,0,0,0,0,0,0,0,0,0,0,0,0,0,0,0,0,0,0],"split_type":[0,0,0,0,0,0,0,0,0,0,0,0,0,0,0,0,0,0,0,0,0,0,0,0,0,0,0,0,0,0,0,0,0,0,0,0,0,0,0,0,0,0,0,0,0,0,0,0,0,0,0,0,0,0,0,0,0,0,0,0,0,0,0],"sum_hessian":[1.737E3,1.149E3,5.88E2,3.51E2,7.98E2,3.29E2,2.59E2,8.4E1,2.67E2,4.13E2,3.85E2,3.5E1,2.94E2,1.5E2,1.09E2,3.2E1,5.2E1,1.01E2,1.66E2,2.4E2,1.73E2,3.13E2,7.2E1,1.7E1,1.8E1,7.3E1,2.21E2,9.4E1,5.6E1,5.7E1,5.2E1,1.9E1,1.3E1,4E0,4.8E1,6.2E1,3.9E1,1.08E2,5.8E1,1.37E2,1.03E2,4.3E1,1.3E2,2.54E2,5.9E1,2.1E1,5.1E1,4E0,1.3E1,4E0,1.4E1,5.1E1,2.2E1,7.8E1,1.43E2,6.5E1,2.9E1,2.2E1,3.4E1,3.7E1,2E1,3E0,4.9E1],"tree_param":{"num_deleted":"0","num_feature":"16","num_nodes":"63","size_leaf_vector":"1"}},{"base_weights":[5.0387665E-4,-2.775741E-1,6.104642E-1,-5.6847E-1,-1.3160323E-1,4.5578372E-1,9.107705E-1,-9.198675E-1,-4.9858555E-1,-2.3813944E-1,1.755859E-2,3.2639998E-1,6.3870084E-1,6.671352E-1,1.0715736E0,-1.0921482E0,-7.805815E-1,1.20844945E-1,-5.138756E-1,-7.7061325E-2,-3.4262708E-1,-1.752934E-1,1.6690171E-1,5.374433E-1,1.3454032E-1,8.623823E-1,5.503257E-1,2.0362484E-1,7.759905E-1,1.1253166E0,3.3745065E-1,-3.8742416E-2,-1.1330291E-1,-8.672583E-2,-3.2546666E-2,4.6969477E-2,-4.3264102E-2,-3.6941506E-2,-5.677129E-2,1.3377147E-2,-1.777207E-2,-4.3296468E-2,2.7903942E-3,-3.4059696E-2,3.9242112E-4,-6.5546535E-2,2.2079894E-2,3.9127033E-2,9.1500424E-2,-2.7743777E-2,2.5801076E-2,8.981243E-2,1.102759E-2,-3.142179E-2,5.690716E-2,3.1772874E-2,-3.95031E-3,-2.8798198E-2,7.981537E-2,-7.6847076E-3,1.1498828E-1,5.0345458E-2,1.039566E-2],"categories":[],"categories_nodes":[],"categories_segments":[],"categories_sizes":[],"default_left":[0,0,0,0,0,0,0,0,0,0,0,0,0,0,0,0,0,0,0,0,0,0,0,0,0,0,0,0,0,0,0,0,0,0,0,0,0,0,0,0,0,0,0,0,0,0,0,0,0,0,0,0,0,0,0,0,0,0,0,0,0,0,0],"id":20,"left_children":[1,3,5,7,9,11,13,15,17,19,21,23,25,27,29,31,33,35,37,39,41,43,45,47,49,51,53,55,57,59,61,-1,-1,-1,-1,-1,-1,-1,-1,-1,-1,-1,-1,-1,-1,-1,-1,-1,-1,-1,-1,-1,-1,-1,-1,-1,-1,-1,-1,-1,-1,-1,-1],"loss_changes":[2.995426E2,5.1431976E1,2.5272583E1,9.487045E0,1.2860109E1,8.477135E0,6.611267E0,7.3124313E-1,3.2822723E0,7.917677E0,9.764033E0,8.714174E0,2.510357E0,3.727066E0,3.999672E0,3.3890152E-1,1.2956543E0,1.9409604E0,2.3723679E0,3.9923422E0,9.5853195E0,4.3858824E0,8.610477E0,5.326475E0,5.9213004E0,1.003109E0,1.9777527E0,4.5642078E-1,1.6918793E0,3.1302032E0,2.9651093E-1,0E0,0E0,0E0,0E0,0E0,0E0,0E0,0E0,0E0,0E0,0E0,0E0,0E0,0E0,0E0,0E0,0E0,0E0,0E0,0E0,0E0,0E0,0E0,0E0,0E0,0E0,0E0,0E0,0E0,0E0,0E0,0E0],"parents":[2147483647,0,0,1,1,2,2,3,3,4,4,5,5,6,6,7,7,8,8,9,9,10,10,11,11,12,12,13,13,14,14,15,15,16,16,17,17,18,18,19,19,20,20,21,21,22,22,23,23,24,24,25,25,26,26,27,27,28,28,29,29,30,30],"right_children":[2,4,6,8,10,12,14,16,18,20,22,24,26,28,30,32,34,36,38,40,42,44,46,48,50,52,54,56,58,60,62,-1,-1,-1,-1,-1,-1,-1,-1,-1,-1,-1,-1,-1,-1,-1,-1,-1,-1,-1,-1,-1,-1,-1,-1,-1,-1,-1,-1,-1,-1,-1,-1],"split_conditions":[2.7265477E-1,-7.961368E-1,1.5216961E0,-1.4287261E0,7.408256E-1,7.408256E-1,3.332628E-2,-1.8384326E0,-1.2876644E0,-6.7417306E-1,3.332628E-2,-6.7417306E-1,-8.676862E-1,-6.7417306E-1,1.2460777E0,-2.746951E-1,7.408256E-1,-2.746951E-1,-6.7417306E-1,-1.8041617E-1,1.4483249E0,-3.985879E-1,-9.674891E-1,1.1038704E0,-8.4848464E-1,1.7304341E0,1.7637312E-1,-1.0561466E0,-2.3834198E0,-1.0940897E0,4.5929897E-1,-3.8742416E-2,-1.1330291E-1,-8.672583E-2,-3.2546666E-2,4.6969477E-2,-4.3264102E-2,-3.6941506E-2,-5.677129E-2,1.3377147E-2,-1.777207E-2,-4.3296468E-2,2.7903942E-3,-3.4059696E-2,3.9242112E-4,-6.5546535E-2,2.2079894E-2,3.9127033E-2,9.1500424E-2,-2.7743777E-2,2.5801076E-2,8.981243E-2,1.102759E-2,-3.142179E-2,5.690716E-2,3.1772874E-2,-3.95031E-3,-2.8798198E-2,7.981537E-2,-7.6847076E-3,1.1498828E-1,5.0345458E-2,1.039566E-2],"split_indices":[14,11,14,5,0,0,0,11,10,0,1,0,4,1,13,6,1,6,0,10,1,14,7,5,7,8,8,6,6,7,7,0,0,0,0,0,0,0,0,0,0,0,0,0,0,0,0,0,0,0,0,0,0,0,0,0,0,0,0,0,0,0,0],"split_type":[0,0,0,0,0,0,0,0,0,0,0,0,0,0,0,0,0,0,0,0,0,0,0,0,0,0,0,0,0,0,0,0,0,0,0,0,0,0,0,0,0,0,0,0,0,0,0,0,0,0,0,0,0,0,0,0,0,0,0,0,0,0,0],"sum_hessian":[1.764E3,1.212E3,5.52E2,4.04E2,8.08E2,3.66E2,1.86E2,6.5E1,3.39E2,4.71E2,3.37E2,2.16E2,1.5E2,7.6E1,1.1E2,2.6E1,3.9E1,8E0,3.31E2,1.86E2,2.85E2,1.47E2,1.9E2,1.02E2,1.14E2,4E1,1.1E2,1.5E1,6.1E1,1.02E2,8E0,2E0,2.4E1,3.2E1,7E0,5E0,3E0,9.2E1,2.39E2,6E1,1.26E2,2.29E2,5.6E1,7.6E1,7.1E1,1.1E1,1.79E2,7.5E1,2.7E1,2.6E1,8.8E1,3.8E1,2E0,2E0,1.08E2,1E1,5E0,1E0,6E1,2E0,1E2,4E0,4E0],"tree_param":{"num_deleted":"0","num_feature":"16","num_nodes":"63","size_leaf_vector":"1"}},{"base_weights":[1.080627E-3,-2.8041142E-1,4.6937156E-1,-5.286859E-1,-1.3757128E-1,2.4371508E-1,7.0558226E-1,-8.552176E-1,-4.52476E-1,-2.413113E-1,-5.2257728E-2,9.982671E-2,3.8197094E-1,6.0016584E-1,1.0182376E0,-1.1182749E0,-6.707853E-1,-4.1499725E-1,-7.933234E-1,-5.9291923E-1,-2.0180364E-1,-3.8101193E-1,-8.203733E-3,2.357598E-3,3.1956378E-1,3.0294594E-1,6.803839E-1,3.6896273E-1,6.6028374E-1,7.4264777E-1,1.2960411E0,-1.326467E-1,-7.600027E-2,-8.30973E-2,-4.5826357E-2,-4.7790676E-2,-2.282581E-2,-6.8608285E-3,-8.1519365E-2,-6.757226E-2,-2.7197648E-3,-5.8977272E-2,-1.6993664E-2,-4.9144577E-2,5.0059234E-4,1.6888674E-2,-1.3961005E-2,-1.3722307E-2,9.604236E-3,9.74793E-2,1.9316839E-2,5.89885E-2,2.0622602E-2,7.631114E-2,1.5334892E-2,6.485692E-2,-3.0068731E-2,4.341623E-2,8.138847E-2,-4.866791E-3,8.272249E-2,2.8951708E-2,1.3439171E-1],"categories":[],"categories_nodes":[],"categories_segments":[],"categories_sizes":[],"default_left":[0,0,0,0,0,0,0,0,0,0,0,0,0,0,0,0,0,0,0,0,0,0,0,0,0,0,0,0,0,0,0,0,0,0,0,0,0,0,0,0,0,0,0,0,0,0,0,0,0,0,0,0,0,0,0,0,0,0,0,0,0,0,0],"id":21,"left_children":[1,3,5,7,9,11,13,15,17,19,21,23,25,27,29,31,33,35,37,39,41,43,45,47,49,51,53,55,57,59,61,-1,-1,-1,-1,-1,-1,-1,-1,-1,-1,-1,-1,-1,-1,-1,-1,-1,-1,-1,-1,-1,-1,-1,-1,-1,-1,-1,-1,-1,-1,-1,-1],"loss_changes":[2.2963055E2,3.8511627E1,3.468785E1,9.492363E0,6.111885E0,6.646055E0,9.902817E0,2.8400803E0,3.809723E0,4.214403E0,5.5148726E0,3.5545645E0,3.826416E0,3.1061478E0,5.085724E0,1.1549721E0,1.1851902E0,3.3447266E0,4.3540955E-1,1.4337721E0,3.3862581E0,1.920784E0,7.86584E0,1.5300626E0,4.035416E0,3.6804743E0,1.408989E0,9.931417E0,6.2458115E0,2.851202E0,1.4420624E0,0E0,0E0,0E0,0E0,0E0,0E0,0E0,0E0,0E0,0E0,0E0,0E0,0E0,0E0,0E0,0E0,0E0,0E0,0E0,0E0,0E0,0E0,0E0,0E0,0E0,0E0,0E0,0E0,0E0,0E0,0E0,0E0],"parents":[2147483647,0,0,1,1,2,2,3,3,4,4,5,5,6,6,7,7,8,8,9,9,10,10,11,11,12,12,13,13,14,14,15,15,16,16,17,17,18,18,19,19,20,20,21,21,22,22,23,23,24,24,25,25,26,26,27,27,28,28,29,29,30,30],"right_children":[2,4,6,8,10,12,14,16,18,20,22,24,26,28,30,32,34,36,38,40,42,44,46,48,50,52,54,56,58,60,62,-1,-1,-1,-1,-1,-1,-1,-1,-1,-1,-1,-1,-1,-1,-1,-1,-1,-1,-1,-1,-1,-1,-1,-1,-1,-1,-1,-1,-1,-1,-1,-1],"split_conditions":[9.507733E-2,-7.77082E-1,1.1038704E0,-1.4111643E0,-3.982064E-1,3.332628E-2,1.8440492E0,3.332628E-2,1.6987183E0,-1.1920985E0,-7.899438E-1,3.545641E-1,7.394572E-1,-1.0282574E0,3.332628E-2,7.408256E-1,3.332628E-2,7.408256E-1,-2.6621995E-2,-3.8615936E-1,-9.410325E-1,-7.559158E-2,-2.998099E-1,-6.075312E-1,-1.5558529E0,-8.4512156E-1,-2.2718403E-1,1.258751E0,3.332628E-2,-1.543988E0,-1.36187E0,-1.326467E-1,-7.600027E-2,-8.30973E-2,-4.5826357E-2,-4.7790676E-2,-2.282581E-2,-6.8608285E-3,-8.1519365E-2,-6.757226E-2,-2.7197648E-3,-5.8977272E-2,-1.6993664E-2,-4.9144577E-2,5.0059234E-4,1.6888674E-2,-1.3961005E-2,-1.3722307E-2,9.604236E-3,9.74793E-2,1.9316839E-2,5.89885E-2,2.0622602E-2,7.631114E-2,1.5334892E-2,6.485692E-2,-3.0068731E-2,4.341623E-2,8.138847E-2,-4.866791E-3,8.272249E-2,2.8951708E-2,1.3439171E-1],"split_indices":[11,5,5,11,5,1,11,1,7,1,9,4,2,7,1,0,0,0,10,11,11,6,4,2,15,4,9,1,1,10,2,0,0,0,0,0,0,0,0,0,0,0,0,0,0,0,0,0,0,0,0,0,0,0,0,0,0,0,0,0,0,0,0],"split_type":[0,0,0,0,0,0,0,0,0,0,0,0,0,0,0,0,0,0,0,0,0,0,0,0,0,0,0,0,0,0,0,0,0,0,0,0,0,0,0,0,0,0,0,0,0,0,0,0,0,0,0,0,0,0,0,0,0,0,0,0,0,0,0],"sum_hessian":[1.74E3,1.087E3,6.53E2,3.96E2,6.91E2,3.35E2,3.18E2,7.3E1,3.23E2,3.11E2,3.8E2,1.65E2,1.7E2,2.4E2,7.8E1,2.8E1,4.5E1,2.93E2,3E1,3E1,2.81E2,4.4E1,3.36E2,1.15E2,5E1,1.36E2,3.4E1,5.1E1,1.89E2,4.1E1,3.7E1,1.6E1,1.2E1,2.4E1,2.1E1,2.18E2,7.5E1,1E0,2.9E1,2.6E1,4E0,2E1,2.61E2,3.4E1,1E1,1.43E2,1.93E2,4.6E1,6.9E1,7E0,4.3E1,3.3E1,1.03E2,2.9E1,5E0,3.6E1,1.5E1,7.8E1,1.11E2,4E0,3.7E1,2E0,3.5E1],"tree_param":{"num_deleted":"0","num_feature":"16","num_nodes":"63","size_leaf_vector":"1"}},{"base_weights":[-2.9477342E-3,-2.1268313E-1,4.8390067E-1,-3.5690576E-1,-3.3209868E-2,4.029737E-1,8.022291E-1,-5.612396E-1,-2.6870164E-1,-8.9188494E-2,1.23605944E-1,3.3768913E-1,6.162103E-1,4.8972645E-1,9.150298E-1,-8.680005E-1,-4.8251763E-1,-3.5744944E-1,-1.3741605E-1,2.3523644E-2,-1.4170851E-1,-2.0474639E-2,4.7057292E-1,1.8440852E-1,4.2269465E-1,3.3827198E-1,7.240944E-1,-2.3277617E-1,5.7862586E-1,1.10341E0,5.526847E-1,-1.0692318E-1,-5.6264944E-2,-1.4007824E-2,-5.2143127E-2,-6.1180837E-2,-3.1392958E-2,1.7291527E-2,-3.33496E-2,-2.8648386E-2,8.358507E-3,-6.202498E-2,-1.1733018E-2,7.8552505E-3,-1.9656429E-2,-2.4726557E-2,7.0262454E-2,7.474681E-3,3.0252669E-2,4.7982924E-2,1.37976855E-2,7.213987E-2,2.2839563E-2,8.760676E-2,4.2157885E-2,-4.504204E-4,-3.0736541E-2,7.201923E-2,2.659437E-2,-3.429413E-4,1.1265407E-1,7.7691205E-2,3.6189575E-2],"categories":[],"categories_nodes":[],"categories_segments":[],"categories_sizes":[],"default_left":[0,0,0,0,0,0,0,0,0,0,0,0,0,0,0,0,0,0,0,0,0,0,0,0,0,0,0,0,0,0,0,0,0,0,0,0,0,0,0,0,0,0,0,0,0,0,0,0,0,0,0,0,0,0,0,0,0,0,0,0,0,0,0],"id":22,"left_children":[1,3,5,7,9,11,13,15,17,19,21,23,25,27,29,31,33,35,37,39,41,43,45,47,49,51,53,55,57,59,61,-1,-1,-1,-1,-1,-1,-1,-1,-1,-1,-1,-1,-1,-1,-1,-1,-1,-1,-1,-1,-1,-1,-1,-1,-1,-1,-1,-1,-1,-1,-1,-1],"loss_changes":[1.7736473E2,3.141145E1,1.3149902E1,1.1978729E1,4.7688813E0,5.624832E0,3.253189E0,4.459236E0,5.4502945E0,2.3711913E0,7.1583776E0,4.1306458E0,2.6636162E0,2.0615916E0,4.5778236E0,1.8562431E0,2.0990295E0,2.9185104E0,1.1740818E1,2.4072406E0,3.1120548E0,1.7940814E0,7.1699076E0,1.492893E0,3.3011093E0,1.0560362E0,2.8028946E0,6.6722095E-2,1.0036325E0,1.2583542E0,9.166813E-1,0E0,0E0,0E0,0E0,0E0,0E0,0E0,0E0,0E0,0E0,0E0,0E0,0E0,0E0,0E0,0E0,0E0,0E0,0E0,0E0,0E0,0E0,0E0,0E0,0E0,0E0,0E0,0E0,0E0,0E0,0E0,0E0],"parents":[2147483647,0,0,1,1,2,2,3,3,4,4,5,5,6,6,7,7,8,8,9,9,10,10,11,11,12,12,13,13,14,14,15,15,16,16,17,17,18,18,19,19,20,20,21,21,22,22,23,23,24,24,25,25,26,26,27,27,28,28,29,29,30,30],"right_children":[2,4,6,8,10,12,14,16,18,20,22,24,26,28,30,32,34,36,38,40,42,44,46,48,50,52,54,56,58,60,62,-1,-1,-1,-1,-1,-1,-1,-1,-1,-1,-1,-1,-1,-1,-1,-1,-1,-1,-1,-1,-1,-1,-1,-1,-1,-1,-1,-1,-1,-1,-1,-1],"split_conditions":[4.0918452E-1,-4.4234645E-1,1.7126621E0,-1.0375075E0,1.258751E0,1.258751E0,3.332628E-2,-6.7417306E-1,7.408256E-1,-6.7417306E-1,7.408256E-1,8.9384466E-1,3.332628E-2,-1.8055222E0,-9.638643E-1,-1.2896461E0,-4.3391168E-1,-1.1920985E0,1.258751E0,-4.8968875E-1,-9.636911E-1,6.032497E-1,-3.0022874E-1,3.332628E-2,1.6312628E0,-9.4540876E-1,-2.7813134E-1,-6.7417306E-1,-1.1459736E0,-1.5844418E0,-2.622022E-1,-1.0692318E-1,-5.6264944E-2,-1.4007824E-2,-5.2143127E-2,-6.1180837E-2,-3.1392958E-2,1.7291527E-2,-3.33496E-2,-2.8648386E-2,8.358507E-3,-6.202498E-2,-1.1733018E-2,7.8552505E-3,-1.9656429E-2,-2.4726557E-2,7.0262454E-2,7.474681E-3,3.0252669E-2,4.7982924E-2,1.37976855E-2,7.213987E-2,2.2839563E-2,8.760676E-2,4.2157885E-2,-4.504204E-4,-3.0736541E-2,7.201923E-2,2.659437E-2,-3.429413E-4,1.1265407E-1,7.7691205E-2,3.6189575E-2],"split_indices":[11,11,11,11,0,0,0,1,1,0,1,14,1,9,15,5,2,1,1,5,7,13,9,0,8,4,15,1,6,10,4,0,0,0,0,0,0,0,0,0,0,0,0,0,0,0,0,0,0,0,0,0,0,0,0,0,0,0,0,0,0,0,0],"split_type":[0,0,0,0,0,0,0,0,0,0,0,0,0,0,0,0,0,0,0,0,0,0,0,0,0,0,0,0,0,0,0,0,0,0,0,0,0,0,0,0,0,0,0,0,0,0,0,0,0,0,0,0,0,0,0,0,0,0,0,0,0,0,0],"sum_hessian":[1.735E3,1.213E3,5.22E2,6.72E2,5.41E2,4.18E2,1.04E2,2.01E2,4.71E2,3.99E2,1.42E2,3.22E2,9.6E1,2.9E1,7.5E1,3.9E1,1.62E2,2.8E2,1.91E2,1.27E2,2.72E2,1.01E2,4.1E1,1.16E2,2.06E2,2.8E1,6.8E1,3E0,2.6E1,4.8E1,2.7E1,2.2E1,1.7E1,1.7E1,1.45E2,3.9E1,2.41E2,7.4E1,1.17E2,2E1,1.07E2,1.2E1,2.6E2,6.5E1,3.6E1,1E1,3.1E1,6.1E1,5.5E1,1.71E2,3.5E1,5E0,2.3E1,4.4E1,2.4E1,1E0,2E0,1.7E1,9E0,1E0,4.7E1,1.1E1,1.6E1],"tree_param":{"num_deleted":"0","num_feature":"16","num_nodes":"63","size_leaf_vector":"1"}},{"base_weights":[4.483289E-3,-2.2628686E-1,3.8364857E-1,-4.92773E-1,-1.3367416E-1,2.4974623E-1,5.781218E-1,-8.6667997E-1,-4.377952E-1,-2.1582486E-1,-2.1522433E-2,1.131615E-1,3.5899624E-1,4.3771788E-1,7.473984E-1,-9.1643566E-1,-2.5196433E-2,-5.280845E-1,-3.085696E-1,-3.4410572E-1,-1.4933299E-1,1.8045194E-1,-1.5770164E-1,5.384972E-2,3.2165316E-1,9.42485E-2,4.0884364E-1,6.253321E-1,3.2251668E-1,9.3287313E-1,6.1699045E-1,-9.820988E-2,-4.682123E-2,-3.2296345E-2,-6.475686E-2,-5.8048327E-2,-2.4490766E-2,-7.3007464E-2,-3.0763155E-2,-1.8930368E-2,1.2520186E-2,5.627948E-2,3.6241363E-3,-3.2862127E-2,-4.657314E-3,8.0104675E-3,-4.526871E-2,7.8085646E-2,2.7572716E-2,3.2699227E-2,-8.756811E-3,5.6002963E-2,2.0968089E-2,4.465814E-2,7.653634E-2,-2.0124188E-2,4.3114174E-2,1.0165317E-1,2.9765401E-2,-1.788133E-2,6.415796E-2],"categories":[],"categories_nodes":[],"categories_segments":[],"categories_sizes":[],"default_left":[0,0,0,0,0,0,0,0,0,0,0,0,0,0,0,0,0,0,0,0,0,0,0,0,0,0,0,0,0,0,0,0,0,0,0,0,0,0,0,0,0,0,0,0,0,0,0,0,0,0,0,0,0,0,0,0,0,0,0,0,0],"id":23,"left_children":[1,3,5,7,9,11,13,15,17,19,21,23,25,27,29,31,-1,33,35,37,39,41,43,45,47,49,51,53,55,57,59,-1,-1,-1,-1,-1,-1,-1,-1,-1,-1,-1,-1,-1,-1,-1,-1,-1,-1,-1,-1,-1,-1,-1,-1,-1,-1,-1,-1,-1,-1],"loss_changes":[1.5356186E2,2.6860008E1,1.7146454E1,5.3969727E0,7.467375E0,5.8535194E0,6.0899734E0,8.3958626E-1,2.7189713E0,3.9404812E0,9.490078E0,2.171463E0,2.8516083E0,3.040327E0,2.351097E0,4.81987E-1,0E0,3.3201141E0,1.6581316E0,2.013792E0,3.4254398E0,7.6437697E0,3.8974676E0,1.8848372E0,6.071825E-1,1.5520346E0,5.422924E0,1.0599213E0,5.4916267E0,2.2482185E0,1.5627651E0,0E0,0E0,0E0,0E0,0E0,0E0,0E0,0E0,0E0,0E0,0E0,0E0,0E0,0E0,0E0,0E0,0E0,0E0,0E0,0E0,0E0,0E0,0E0,0E0,0E0,0E0,0E0,0E0,0E0,0E0],"parents":[2147483647,0,0,1,1,2,2,3,3,4,4,5,5,6,6,7,7,8,8,9,9,10,10,11,11,12,12,13,13,14,14,15,15,17,17,18,18,19,19,20,20,21,21,22,22,23,23,24,24,25,25,26,26,27,27,28,28,29,29,30,30],"right_children":[2,4,6,8,10,12,14,16,18,20,22,24,26,28,30,32,-1,34,36,38,40,42,44,46,48,50,52,54,56,58,60,-1,-1,-1,-1,-1,-1,-1,-1,-1,-1,-1,-1,-1,-1,-1,-1,-1,-1,-1,-1,-1,-1,-1,-1,-1,-1,-1,-1,-1,-1],"split_conditions":[9.507733E-2,-9.643486E-1,1.3422147E0,-1.7441895E0,7.408256E-1,3.332628E-2,7.408256E-1,1.258751E0,7.408256E-1,-5.519005E-1,1.258751E0,1.0430566E0,-1.1920985E0,-6.7417306E-1,-8.338393E-1,2.2412171E0,-2.5196433E-2,-6.7417306E-1,-9.32041E-1,-9.8181975E-1,1.4483249E0,-7.059731E-1,3.332628E-2,1.0575249E0,5.72121E-1,-6.29008E-1,1.258751E0,1.4509805E0,-1.0282574E0,3.2715705E-1,-1.0940897E0,-9.820988E-2,-4.682123E-2,-3.2296345E-2,-6.475686E-2,-5.8048327E-2,-2.4490766E-2,-7.3007464E-2,-3.0763155E-2,-1.8930368E-2,1.2520186E-2,5.627948E-2,3.6241363E-3,-3.2862127E-2,-4.657314E-3,8.0104675E-3,-4.526871E-2,7.8085646E-2,2.7572716E-2,3.2699227E-2,-8.756811E-3,5.6002963E-2,2.0968089E-2,4.465814E-2,7.653634E-2,-2.0124188E-2,4.3114174E-2,1.0165317E-1,2.9765401E-2,-1.788133E-2,6.415796E-2],"split_indices":[11,14,11,5,1,1,0,0,0,11,1,8,0,0,4,4,0,0,7,10,0,4,0,14,5,15,1,5,7,6,7,0,0,0,0,0,0,0,0,0,0,0,0,0,0,0,0,0,0,0,0,0,0,0,0,0,0,0,0,0,0],"split_type":[0,0,0,0,0,0,0,0,0,0,0,0,0,0,0,0,0,0,0,0,0,0,0,0,0,0,0,0,0,0,0,0,0,0,0,0,0,0,0,0,0,0,0,0,0,0,0,0,0,0,0,0,0,0,0,0,0,0,0,0,0],"sum_hessian":[1.753E3,1.09E3,6.63E2,2.8E2,8.1E2,3.94E2,2.69E2,3.4E1,2.46E2,4.67E2,3.43E2,1.76E2,2.18E2,1.49E2,1.2E2,3.1E1,3E0,1.43E2,1.03E2,1.58E2,3.09E2,1.38E2,2.05E2,1.38E2,3.8E1,3.5E1,1.83E2,5.5E1,9.4E1,4.7E1,7.3E1,2.6E1,5E0,5.4E1,8.9E1,1.8E1,8.5E1,1.2E1,1.46E2,2.7E2,3.9E1,3.7E1,1.01E2,8E1,1.25E2,1.32E2,6E0,2E0,3.6E1,1.5E1,2E1,1.03E2,8E1,2.6E1,2.9E1,1.6E1,7.8E1,4.1E1,6E0,2E0,7.1E1],"tree_param":{"num_deleted":"0","num_feature":"16","num_nodes":"61","size_leaf_vector":"1"}},{"base_weights":[1.3094589E-2,-1.6413194E-1,4.3697602E-1,-3.3670783E-1,-6.108591E-2,3.730551E-1,7.2507644E-1,-4.7899714E-1,-2.2474831E-1,-1.3824214E-1,4.384463E-2,2.6599598E-1,4.6143213E-1,4.1754484E-1,7.9839474E-1,-6.957006E-1,-4.0924865E-1,-6.556938E-2,-3.896329E-1,-2.0689238E-3,-1.8636963E-1,-5.2942615E-2,1.3863063E-1,5.329387E-1,1.9146615E-1,5.6119186E-1,3.5140914E-1,7.4829555E-1,1.1964607E-2,1.1943333E0,6.944352E-1,-8.4361136E-2,-5.5992108E-2,-7.694005E-2,-3.683224E-2,8.357957E-3,-3.178112E-2,-6.180008E-2,-2.4016421E-2,-4.269113E-2,6.8758423E-3,-3.8221058E-2,-1.2947584E-2,3.7418709E-3,-1.3334768E-2,2.9415581E-2,1.766255E-3,2.6857618E-2,7.2002E-2,3.010088E-2,8.365974E-3,3.4115404E-2,6.340011E-2,-3.261847E-2,3.924535E-2,-1.0695457E-2,8.44516E-2,-2.4736786E-2,1.5844537E-2,3.886781E-2,1.3787232E-1,9.789109E-2,5.525869E-2],"categories":[],"categories_nodes":[],"categories_segments":[],"categories_sizes":[],"default_left":[0,0,0,0,0,0,0,0,0,0,0,0,0,0,0,0,0,0,0,0,0,0,0,0,0,0,0,0,0,0,0,0,0,0,0,0,0,0,0,0,0,0,0,0,0,0,0,0,0,0,0,0,0,0,0,0,0,0,0,0,0,0,0],"id":24,"left_children":[1,3,5,7,9,11,13,15,17,19,21,23,25,27,29,31,33,35,37,39,41,43,45,47,49,51,53,55,57,59,61,-1,-1,-1,-1,-1,-1,-1,-1,-1,-1,-1,-1,-1,-1,-1,-1,-1,-1,-1,-1,-1,-1,-1,-1,-1,-1,-1,-1,-1,-1,-1,-1],"loss_changes":[1.3198778E2,2.201289E1,9.268814E0,7.2682343E0,6.296688E0,3.9078865E0,1.7635689E0,2.783577E0,6.8246994E0,2.9356613E0,3.0347843E0,3.777524E0,2.3491936E0,2.6739655E0,2.2165718E0,4.916401E-1,2.0160007E0,5.0678577E0,4.2207127E0,3.5800278E0,3.6385584E0,1.196533E0,3.1366727E0,1.8838253E0,1.7934647E0,1.7061996E0,3.2707033E0,9.95543E-1,4.1906643E-1,1.5438862E0,1.9205647E0,0E0,0E0,0E0,0E0,0E0,0E0,0E0,0E0,0E0,0E0,0E0,0E0,0E0,0E0,0E0,0E0,0E0,0E0,0E0,0E0,0E0,0E0,0E0,0E0,0E0,0E0,0E0,0E0,0E0,0E0,0E0,0E0],"parents":[2147483647,0,0,1,1,2,2,3,3,4,4,5,5,6,6,7,7,8,8,9,9,10,10,11,11,12,12,13,13,14,14,15,15,16,16,17,17,18,18,19,19,20,20,21,21,22,22,23,23,24,24,25,25,26,26,27,27,28,28,29,29,30,30],"right_children":[2,4,6,8,10,12,14,16,18,20,22,24,26,28,30,32,34,36,38,40,42,44,46,48,50,52,54,56,58,60,62,-1,-1,-1,-1,-1,-1,-1,-1,-1,-1,-1,-1,-1,-1,-1,-1,-1,-1,-1,-1,-1,-1,-1,-1,-1,-1,-1,-1,-1,-1,-1,-1],"split_conditions":[6.1794066E-1,-6.7371494E-1,1.8213072E0,3.332628E-2,-1.258231E-1,1.1038704E0,-2.0367253E0,-1.169458E0,-2.2714727E-1,-4.092032E-2,7.408256E-1,-1.5799567E0,1.4268041E0,-1.3697718E0,-1.0293993E0,3.332628E-2,-9.724038E-1,1.258751E0,5.801704E-1,-8.507335E-1,2.4402718E-1,-8.950347E-3,9.476439E-2,-2.0827413E0,7.4980116E-1,1.1731777E0,1.4358096E0,-1.0908252E0,7.4385154E-1,-2.3587115E0,1.7179081E0,-8.4361136E-2,-5.5992108E-2,-7.694005E-2,-3.683224E-2,8.357957E-3,-3.178112E-2,-6.180008E-2,-2.4016421E-2,-4.269113E-2,6.8758423E-3,-3.8221058E-2,-1.2947584E-2,3.7418709E-3,-1.3334768E-2,2.9415581E-2,1.766255E-3,2.6857618E-2,7.2002E-2,3.010088E-2,8.365974E-3,3.4115404E-2,6.340011E-2,-3.261847E-2,3.924535E-2,-1.0695457E-2,8.44516E-2,-2.4736786E-2,1.5844537E-2,3.886781E-2,1.3787232E-1,9.789109E-2,5.525869E-2],"split_indices":[14,14,5,1,11,5,9,14,10,10,0,12,8,13,4,0,10,1,9,9,9,8,8,12,8,14,8,4,3,12,8,0,0,0,0,0,0,0,0,0,0,0,0,0,0,0,0,0,0,0,0,0,0,0,0,0,0,0,0,0,0,0,0],"split_type":[0,0,0,0,0,0,0,0,0,0,0,0,0,0,0,0,0,0,0,0,0,0,0,0,0,0,0,0,0,0,0,0,0,0,0,0,0,0,0,0,0,0,0,0,0,0,0,0,0,0,0,0,0,0,0,0,0,0,0,0,0,0,0],"sum_hessian":[1.755E3,1.238E3,5.17E2,4.62E2,7.76E2,4.25E2,9.2E1,2.02E2,2.6E2,4.47E2,3.29E2,1.94E2,2.31E2,1.9E1,7.3E1,4.7E1,1.55E2,1.33E2,1.27E2,1.17E2,3.3E2,1.63E2,1.66E2,4.1E1,1.53E2,1.19E2,1.12E2,1E1,9E0,1.3E1,6E1,2E1,2.7E1,1.4E1,1.41E2,8.4E1,4.9E1,4.9E1,7.8E1,1.6E1,1.01E2,7.3E1,2.57E2,7.7E1,8.6E1,7.2E1,9.4E1,1.8E1,2.3E1,7.5E1,7.8E1,3.1E1,8.8E1,6E0,1.06E2,1E0,9E0,3E0,6E0,3E0,1E1,1.8E1,4.2E1],"tree_param":{"num_deleted":"0","num_feature":"16","num_nodes":"63","size_leaf_vector":"1"}},{"base_weights":[3.9025454E-3,-1.8350776E-1,3.032021E-1,-4.0288585E-1,-1.1078365E-1,2.372671E-1,5.7009184E-1,-6.2024134E-1,-3.4694076E-1,-2.0806542E-1,-3.9236452E-2,1.6126697E-1,3.6627096E-1,2.3442157E-1,6.5654796E-1,-8.036694E-1,-4.6901992E-1,-7.321135E-2,-3.7901586E-1,-2.1130817E-2,-3.0596888E-1,1.5329249E-1,-1.0678452E-1,3.7557557E-2,2.8333858E-1,5.494525E-1,2.1713287E-1,5.774518E-1,-4.1685216E-2,4.3779564E-1,7.9890597E-1,-9.655524E-2,-4.445678E-2,-4.9349844E-2,1.44907E-2,-5.640621E-2,1.2174236E-2,-6.6702673E-3,-4.067142E-2,1.5481735E-2,-8.415565E-3,-3.829843E-2,-1.8879429E-2,-4.168362E-2,2.4866065E-2,-2.1343788E-2,-1.2677922E-3,-7.4534216E-3,1.9212896E-2,1.413272E-2,4.1431226E-2,7.335314E-2,2.782515E-2,8.251357E-2,1.6653659E-3,7.734604E-2,-3.337301E-2,1.0389959E-2,-4.1186865E-2,3.400926E-2,8.349478E-2,1.1544346E-1,7.0149735E-2],"categories":[],"categories_nodes":[],"categories_segments":[],"categories_sizes":[],"default_left":[0,0,0,0,0,0,0,0,0,0,0,0,0,0,0,0,0,0,0,0,0,0,0,0,0,0,0,0,0,0,0,0,0,0,0,0,0,0,0,0,0,0,0,0,0,0,0,0,0,0,0,0,0,0,0,0,0,0,0,0,0,0,0],"id":25,"left_children":[1,3,5,7,9,11,13,15,17,19,21,23,25,27,29,31,33,35,37,39,41,43,45,47,49,51,53,55,57,59,61,-1,-1,-1,-1,-1,-1,-1,-1,-1,-1,-1,-1,-1,-1,-1,-1,-1,-1,-1,-1,-1,-1,-1,-1,-1,-1,-1,-1,-1,-1,-1,-1],"loss_changes":[9.90577E1,1.728149E1,1.1830948E1,3.0680084E0,5.6783514E0,5.30389E0,3.734871E0,1.1209278E0,1.8774891E0,6.3258696E0,6.15471E0,5.214446E0,5.3992004E0,2.7707477E0,2.9512062E0,9.0779305E-1,5.5240774E-1,2.3653066E0,1.6510811E0,1.3437213E0,1.9762001E0,6.791421E0,3.510168E0,3.0117495E0,3.177803E0,4.28891E0,1.3760046E1,2.5799198E0,9.5897543E-1,1.4233713E0,1.3719559E0,0E0,0E0,0E0,0E0,0E0,0E0,0E0,0E0,0E0,0E0,0E0,0E0,0E0,0E0,0E0,0E0,0E0,0E0,0E0,0E0,0E0,0E0,0E0,0E0,0E0,0E0,0E0,0E0,0E0,0E0,0E0,0E0],"parents":[2147483647,0,0,1,1,2,2,3,3,4,4,5,5,6,6,7,7,8,8,9,9,10,10,11,11,12,12,13,13,14,14,15,15,16,16,17,17,18,18,19,19,20,20,21,21,22,22,23,23,24,24,25,25,26,26,27,27,28,28,29,29,30,30],"right_children":[2,4,6,8,10,12,14,16,18,20,22,24,26,28,30,32,34,36,38,40,42,44,46,48,50,52,54,56,58,60,62,-1,-1,-1,-1,-1,-1,-1,-1,-1,-1,-1,-1,-1,-1,-1,-1,-1,-1,-1,-1,-1,-1,-1,-1,-1,-1,-1,-1,-1,-1,-1,-1],"split_conditions":[7.433963E-2,-9.621116E-1,1.6495539E0,-1.5545685E0,3.332628E-2,7.408256E-1,-2.0367253E0,3.332628E-2,-9.1406906E-1,-1.0536625E0,-6.508151E-1,5.690927E-2,1.258751E0,-1.3823909E0,3.332628E-2,9.2620116E-1,1.0718168E0,-5.5573356E-1,-8.848702E-1,-2.9354197E-1,7.408256E-1,-1.0092673E0,3.332628E-2,7.408256E-1,8.225673E-1,-7.274535E-2,-1.2314957E0,1.4483249E0,1.258751E0,2.2884529E0,-1.0293993E0,-9.655524E-2,-4.445678E-2,-4.9349844E-2,1.44907E-2,-5.640621E-2,1.2174236E-2,-6.6702673E-3,-4.067142E-2,1.5481735E-2,-8.415565E-3,-3.829843E-2,-1.8879429E-2,-4.168362E-2,2.4866065E-2,-2.1343788E-2,-1.2677922E-3,-7.4534216E-3,1.9212896E-2,1.413272E-2,4.1431226E-2,7.335314E-2,2.782515E-2,8.251357E-2,1.6653659E-3,7.734604E-2,-3.337301E-2,1.0389959E-2,-4.1186865E-2,3.400926E-2,8.349478E-2,1.1544346E-1,7.0149735E-2],"split_indices":[11,11,5,14,1,1,9,0,4,3,4,2,1,13,1,4,9,9,10,4,0,7,0,0,11,15,2,1,1,11,4,0,0,0,0,0,0,0,0,0,0,0,0,0,0,0,0,0,0,0,0,0,0,0,0,0,0,0,0,0,0,0,0],"split_type":[0,0,0,0,0,0,0,0,0,0,0,0,0,0,0,0,0,0,0,0,0,0,0,0,0,0,0,0,0,0,0,0,0,0,0,0,0,0,0,0,0,0,0,0,0,0,0,0,0,0,0,0,0,0,0,0,0,0,0,0,0,0,0],"sum_hessian":[1.764E3,1.085E3,6.79E2,2.69E2,8.16E2,5.46E2,1.33E2,5.3E1,2.16E2,3.45E2,4.71E2,3.45E2,2.01E2,2.8E1,1.05E2,2.2E1,3.1E1,2.3E1,1.93E2,1.19E2,2.26E2,1.22E2,3.49E2,1.72E2,1.73E2,8.9E1,1.12E2,1.2E1,1.6E1,4.3E1,6.2E1,1.4E1,8E0,3E1,1E0,6E0,1.7E1,1.6E1,1.77E2,3.1E1,8.8E1,1.35E2,9.1E1,1.7E1,1.05E2,1.63E2,1.86E2,1E2,7.2E1,8.4E1,8.9E1,5.2E1,3.7E1,2.7E1,8.5E1,1E1,2E0,1.2E1,4E0,3.6E1,7E0,1.1E1,5.1E1],"tree_param":{"num_deleted":"0","num_feature":"16","num_nodes":"63","size_leaf_vector":"1"}},{"base_weights":[-3.6925639E-3,-1.6558167E-1,2.5247583E-1,-3.4934503E-1,-9.531473E-2,1.4775015E-1,4.131836E-1,-8.3579963E-1,-3.23683E-1,-5.7184314E-3,-1.6062826E-1,4.75858E-2,2.3477079E-1,3.8769925E-1,1.0893313E0,-9.041093E-1,-2.8396098E-2,-3.617532E-1,-1.00245E-1,-1.3388999E-1,9.6283905E-2,-4.444739E-1,-1.3212714E-1,-2.466432E-1,7.2391756E-2,3.355702E-1,6.4728245E-2,4.7335815E-1,2.66725E-1,4.5461655E-1,1.2057332E-1,-1.0391575E-1,-3.7422348E-2,-2.4160173E-2,-4.426971E-2,-2.9480455E-2,2.0321341E-2,1.3490858E-2,-2.2473868E-2,7.479783E-2,4.558384E-3,-5.079792E-2,-2.031599E-2,-1.6472118E-2,6.918613E-3,-4.9995042E-2,3.749442E-3,2.969913E-3,2.6358051E-2,5.1360425E-2,1.6534742E-2,-4.089043E-2,2.7963558E-2,3.502105E-2,5.917732E-2,-2.194356E-2,3.599576E-2,2.4894716E-3,6.570301E-2],"categories":[],"categories_nodes":[],"categories_segments":[],"categories_sizes":[],"default_left":[0,0,0,0,0,0,0,0,0,0,0,0,0,0,0,0,0,0,0,0,0,0,0,0,0,0,0,0,0,0,0,0,0,0,0,0,0,0,0,0,0,0,0,0,0,0,0,0,0,0,0,0,0,0,0,0,0,0,0],"id":26,"left_children":[1,3,5,7,9,11,13,15,17,19,21,23,25,27,29,31,-1,33,35,37,39,41,43,45,47,49,51,53,55,57,-1,-1,-1,-1,-1,-1,-1,-1,-1,-1,-1,-1,-1,-1,-1,-1,-1,-1,-1,-1,-1,-1,-1,-1,-1,-1,-1,-1,-1],"loss_changes":[7.15376E1,1.3615196E1,1.1181545E1,3.3746262E0,4.481599E0,3.5276737E0,4.1094704E0,2.7101135E-1,2.3370037E0,4.248802E0,3.5251074E0,1.4045951E0,3.6976986E0,2.5161858E0,1.16791725E-1,4.6984482E-1,0E0,2.207718E0,2.539619E0,3.5467985E0,5.946317E0,5.0978804E-1,2.6622891E0,1.098357E0,1.4287456E0,4.036619E0,8.460886E0,1.9509697E0,4.974197E0,2.4458796E-1,0E0,0E0,0E0,0E0,0E0,0E0,0E0,0E0,0E0,0E0,0E0,0E0,0E0,0E0,0E0,0E0,0E0,0E0,0E0,0E0,0E0,0E0,0E0,0E0,0E0,0E0,0E0,0E0,0E0],"parents":[2147483647,0,0,1,1,2,2,3,3,4,4,5,5,6,6,7,7,8,8,9,9,10,10,11,11,12,12,13,13,14,14,15,15,17,17,18,18,19,19,20,20,21,21,22,22,23,23,24,24,25,25,26,26,27,27,28,28,29,29],"right_children":[2,4,6,8,10,12,14,16,18,20,22,24,26,28,30,32,-1,34,36,38,40,42,44,46,48,50,52,54,56,58,-1,-1,-1,-1,-1,-1,-1,-1,-1,-1,-1,-1,-1,-1,-1,-1,-1,-1,-1,-1,-1,-1,-1,-1,-1,-1,-1,-1,-1],"split_conditions":[5.986798E-2,-9.283177E-1,1.3116459E0,-1.9596237E0,-2.998099E-1,3.332628E-2,2.558859E0,-1.9204955E0,1.258751E0,-1.10555165E-1,-1.6124634E-1,-1.3236448E-1,1.258751E0,-6.395328E-1,-2.1869617E0,7.408256E-1,-2.8396098E-2,-6.7417306E-1,7.408256E-1,-1.1453787E0,-8.888423E-1,2.1130187E-2,1.258751E0,-4.6463895E-1,8.23817E-1,-3.33117E-1,-8.244305E-1,3.332628E-2,-1.1958249E0,